tree
version=v4
num_class=1
num_tree_per_iteration=1
label_index=0
max_feature_idx=58
objective=binary sigmoid:1
feature_names=feature_0 feature_1 feature_2 feature_3 feature_4 feature_5 feature_6 feature_7 feature_8 feature_9 feature_10 feature_11 feature_12 feature_13 feature_14 feature_15 feature_16 feature_17 feature_18 feature_19 feature_20 feature_21 feature_22 feature_23 feature_24 feature_25 feature_26 feature_27 feature_28 feature_29 feature_30 feature_31 feature_32 feature_33 feature_34 feature_35 feature_36 feature_37 feature_38 feature_39 feature_40 feature_41 feature_42 feature_43 feature_44 feature_45 feature_46 feature_47 feature_48 feature_49 feature_50 feature_51 feature_52 feature_53 feature_54 feature_55 feature_56 feature_57 feature_58
feature_infos=[10.208384780541053:94.806108574665402] [19.47530943824853:88.464397695524141] [24.284026071148659:82.794291899239624] [-10.074586381804822:7.3590130450638327] [-0.41878825048183727:0.1877223384216225] [2.2407323086587589:98.530751635167391] [4.0267704106120918:97.409055396636475] [-0.42371623087463561:0.49664632724555524] [-0.39306516965644567:0.45796442902804058] [-0.1588353786739122:0.15798345624181648] [8.7271933773919734:66.982608661237407] [6.4094980154363403:50.420619047929698] [4.1227254975372016:50.253413440956855] [-28.522720237993944:125.91897808312847] [-2.3048559734197043:3.4471115909499459] [11.891832768896982:18.821374915157769] [12.000932088049948:18.592499039641652] [12.260989942030383:18.388774214712029] [-1:1] none [-0.045384924408710198:0.053315172549545473] [-0.0658524750328537:0.069078343446754772] [-0.090279386801413952:0.10178750942432163] [0.059044171249473205:0.42924441689903647] [0.47941028945658654:3.0023390704276172] [12:99] [12.145975835803982:19.240533240809953] [11.953500000000053:18.687000000000012] [11.381175737502613:18.220294638195757] [0.010292675566599014:0.19967122407484234] [-0.44790597470306542:1.4438208505200814] [0.025516064726324669:11.788189332423697] [-4.4381834601204098:5.3006229820020963] [-0.10414904117315284:0.15933328722594917] [-1.7413793103448356:3.3650793650793593] none none none none none none none none none none [0.023315154737013111:0.14601271925002959] none none none none none none none none none [0.57182733719322032:2.2397610103782633] [1.7665328096832271:5] [0:2] [0.12:0.98999999999999999]
tree_sizes=1375 1282 1404 1300 1509 1190 1385 1282 1504 1172 1189 1069 1584 1192 1090 1397 1381 1509 1303 1594 978 1086 985 1193 861 852 758 754 1178 965 1396 1473 1308 1380 1203 1262 1299 1507 1302 1145 1290 780 1290 888 1473 988 1597 1361 1063 1477 881 991 1452 888 868 1075 789 1071 1072 1071 1284 1177 1186 1597 979 1086 989 1309 1096 884 889 1387 890 994 1615 1073 1177 1196 1182 1194 1185 1282 1250 1378 1304 1191 1066 1407 1064 1500 879 854 1252 1256 1183 1306 1192 1381 1200 1386 866 1084 778 876 777 864 870 870 848 783 852 1168 1284 1170 1153 1163 1163 1267 1187 1098 1062 1060 765 855 992 788 1482 1501 974 1380 1155 1198 1204 768 1161 1568 1474 1462 1394 1022 1300 1304 858 1306 677 966 666 1094 884 887

Tree=0
num_leaves=12
num_cat=0
split_feature=30 17 20 12 11 11 8 9 14 14 1
split_gain=10.6114 10.1679 9.81697 7.84957 7.50036 5.97299 9.21284 4.34298 3.37996 2.98824 2.24908
threshold=0.24471105031233695 12.415099648585285 -0.016076270589766548 31.281592299821547 17.960779774538729 31.310273007765595 -0.013045218194668917 -0.063065044424522584 1.3067323284674248 0.66868694596847289 57.359433257949988
decision_type=2 2 2 2 2 2 2 2 2 2 2
left_child=2 10 3 -1 9 6 -3 -5 -7 -4 -2
right_child=1 5 4 7 -6 8 -8 -9 -10 -11 -12
leaf_value=-0.0011756769068573883 0.09744152095086675 0.047405122292601277 0.1178196882033842 0.036915800471946834 0.044831034412907561 0.090201809726641963 0.014546455415143947 0.093940072555894108 0.040776887397047351 0.065884652076408881 0.049347732455947084
leaf_weight=6.2356205880641964 6.8088813126087171 40.957999646663666 12.305558472871786 5.397930622100831 6.4099183380603781 5.8094854652881605 48.008114874362946 5.2971956729888889 5.1354897916316986 6.3595508635044089 5.110306054353714
leaf_count=24 27 160 49 21 25 23 186 21 20 25 20
internal_value=0.0472557 0.0390669 0.068203 0.0402046 0.0876852 0.0336318 0.0292082 0.0644349 0.0661571 0.103146 0.0803665
internal_weight=153.836 111.83 42.0058 16.9307 25.075 99.9111 88.9661 10.6951 10.945 18.6651 11.9192
internal_count=601 436 165 66 99 389 346 42 43 74 47
is_linear=0
shrinkage=1


Tree=1
num_leaves=11
num_cat=0
split_feature=30 17 55 16 32 11 8 30 26 31
split_gain=9.59313 9.31077 8.88703 8.58053 6.46804 5.4238 8.30597 3.38075 2.11345 0.962715
threshold=0.24471105031233695 12.415099648585285 1.1420784071864507 12.69867374980643 -2.5307536677308113 31.310273007765595 -0.013045218194668917 0.87426191399038011 12.46855364359075 1.2987489156212242
decision_type=2 2 2 2 2 2 2 2 2 2
left_child=2 8 9 -4 -5 6 -3 -7 -2 -1
right_child=1 5 3 4 -6 7 -8 -9 -10 -11
leaf_value=0.057345098103695862 0.051534905949781662 -0.0016777351789947577 0.051908088742654693 0.027774984019889083 -0.030530411843421347 0.040316609148426913 -0.032908426440301584 -0.0091677716621160667 0.0049896774075709497 0.016231421206781289
leaf_weight=10.302899360656737 5.2774905264377576 40.959743797779083 5.2776133120059994 5.3181930333375957 15.985790371894835 5.8056936264038068 48.034594893455505 5.1319542229175568 6.6296437978744507 5.080398514866828
leaf_count=41 21 160 21 21 62 23 186 20 26 20
internal_value=-0.00177438 -0.00956497 0.0181456 0 -0.0142618 -0.0147712 -0.0189906 0.0161813 0.0299508 0.0471126
internal_weight=153.804 111.839 41.9649 26.5816 21.304 99.932 88.9943 10.9376 11.9071 15.3833
internal_count=601 436 165 104 83 389 346 43 47 61
is_linear=0
shrinkage=0.05


Tree=2
num_leaves=12
num_cat=0
split_feature=17 2 32 31 4 8 58 12 29 1 29
split_gain=7.73216 7.40318 8.01699 8.73787 6.88211 9.05679 5.38164 7.8514 3.35617 1.45369 0.844193
threshold=15.601518986388575 54.466258784845238 0.16526952370765965 0.94674029901465606 0.033674358797549798 -0.047556297189703195 0.59500000000000008 30.869259377867188 0.046924384571937032 58.90243143655794 0.041764484831312364
decision_type=2 2 2 2 2 2 2 2 2 2 2
left_child=1 4 9 -4 5 -1 10 8 -8 -3 -2
right_child=6 2 3 -5 -6 -7 7 -9 -10 -11 -12
leaf_value=0.036774633452521452 -0.0069212098730734506 -0.015428125981954453 -0.022751856693076711 0.032128786310085845 -0.028341249684600556 0.001530123641803157 -0.015583413392979762 0.0024447717330175808 -0.077325518989580663 -0.063872536486235976 0.018016353280646238
leaf_weight=32.643642663955688 5.1346801668405551 5.1462553739547712 15.459793180227281 11.916101872920988 7.9876624792814246 43.419573903083801 5.1474230885505703 6.895316243171691 8.6366595625877363 6.2598644495010376 5.0849455296993256
leaf_count=129 20 20 60 47 31 170 20 27 33 24 20
internal_value=-0.00159664 0.00389586 -0.0136505 0.000545809 0.0123512 0.0172612 -0.0236523 -0.0379003 -0.0585736 -0.0470358 0.00375851
internal_weight=153.732 122.833 38.782 27.3759 84.0509 76.0632 30.899 20.6794 13.7841 11.4061 10.2196
internal_count=601 481 151 107 330 299 120 80 53 44 40
is_linear=0
shrinkage=0.05


Tree=3
num_leaves=11
num_cat=0
split_feature=7 55 23 11 55 16 25 6 8 12
split_gain=7.66719 8.22061 7.01853 9.48364 6.09157 5.50946 5.06016 4.60513 4.16862 2.12246
threshold=-0.0019815415211850147 1.2705016211548685 0.19557982727868778 31.448179007428873 1.3246727308838759 15.458808167646277 66.500000000000014 44.270913832107077 -0.12767868731583529 30.306366480543065
decision_type=2 2 2 2 2 2 2 2 2 2
left_child=1 5 3 7 -3 8 -4 -2 -1 -6
right_child=2 4 6 -5 9 -7 -8 -9 -10 -11
leaf_value=-0.0028866521178042815 0.014236252838599726 -0.051008465755569422 -0.007278181138709987 0.044898136707536201 -0.013351123223626386 -0.014622617264067016 -0.059702280999268553 -0.02165928495837683 0.035505155331335414 0.014352019257366976
leaf_weight=7.1571203470230094 10.435602933168409 6.2272384017705944 10.007120460271837 7.5580010861158362 12.326053544878961 7.4547852277755728 10.927399531006811 33.212058991193771 35.131460085511208 13.228626906871794
leaf_count=28 41 24 39 30 48 29 42 129 139 52
internal_value=-0.00157022 0.0087042 -0.0134834 -0.00275775 -0.0104435 0.0213954 -0.0372566 -0.0123905 0.0285134 4.86447e-05
internal_weight=153.665 81.5253 72.1402 51.2057 31.7819 49.7434 20.9345 43.6477 42.2886 25.5547
internal_count=601 320 281 200 124 196 81 170 167 100
is_linear=0
shrinkage=0.05


Tree=4
num_leaves=13
num_cat=0
split_feature=30 20 30 7 31 7 31 11 27 15 14 9
split_gain=8.20663 8.45831 7.87412 7.67656 7.99979 6.7046 6.44704 6.43559 5.20328 4.07636 3.83703 3.19078
threshold=0.24471105031233695 -0.016076270589766548 0.46695160833374943 -0.0013394604203833536 0.89759714879995056 -0.10449345889989557 0.36344165024541636 17.960779774538729 14.329975000000003 13.765755160563003 -0.35270684911254641 -0.021017148204091399
decision_type=2 2 2 2 2 2 2 2 2 2 2 2
left_child=1 5 6 10 -5 -1 9 11 -8 -2 -4 -3
right_child=2 7 3 4 -6 -7 8 -9 -10 -11 -12 -13
leaf_value=0.016067319103431801 -0.024562369741777997 0.066339132936941048 0.039293776295192956 -0.026719680616341425 0.010863060344031436 -0.043284725183421177 -0.018536599718686816 -0.0043356549758264513 -0.068832020725467416 0.031602519335731431 -0.0017139756705550268 0.015836231632124966
leaf_weight=9.6534238308668154 5.1570228338241559 11.22270438075066 14.369408562779428 29.893566966056824 24.212391078472137 7.2506791651248923 15.419314488768579 6.4023920297622672 9.9136993736028654 5.568533644080162 7.1659478992223731 7.3268278390169153
leaf_count=38 20 45 57 116 95 28 60 25 38 22 28 29
internal_value=-0.00152836 0.0169091 -0.0087478 0.000174101 -0.00955582 -0.00898992 -0.0276378 0.0350885 -0.0410348 0.00267374 0.0250684 0.0495004
internal_weight=153.556 41.856 111.7 75.6413 54.106 16.9041 36.0586 24.9519 25.333 10.7256 21.5354 18.5495
internal_count=601 165 436 296 211 66 140 99 98 42 85 74
is_linear=0
shrinkage=0.05


Tree=5
num_leaves=10
num_cat=0
split_feature=28 31 33 31 3 25 0 6 25
split_gain=5.71272 7.20193 9.20439 5.8551 5.56761 4.72881 3.78506 1.94632 0.276301
threshold=11.848564153611688 0.89759714879995056 0.0091764948096746696 1.0828516449835319 -0.45741852689320123 94.500000000000014 51.088222422756459 52.122759260246546 59.500000000000007
decision_type=2 2 2 2 2 2 2 2 2
left_child=7 2 5 8 -5 -2 -4 -1 -3
right_child=1 3 6 4 -6 -7 -8 -9 -10
leaf_value=0.0048393978236157542 0.0071231719939375427 0.056643226270481711 -0.0025382577596066869 -0.014530920631801576 0.01857004136330373 -0.039295414505134553 -0.040920964849676174 0.05213225118478261 0.018725497680402194
leaf_weight=5.587585121393202 45.566546946763992 4.9911339432001096 10.487971439957617 23.319819331169128 25.144737064838409 5.1771541982889167 26.103623315691948 5.5060187727212906 5.0672278255224228
leaf_count=22 179 20 41 91 99 20 101 22 20
internal_value=-0.000114948 -0.00299071 -0.0121616 0.0102496 0.00216558 0.00123624 -0.0309448 0.032749 0.0432224
internal_weight=156.952 145.858 87.3353 58.5229 48.4646 50.7437 36.5916 11.0936 10.0584
internal_count=615 571 341 230 190 199 142 44 40
is_linear=0
shrinkage=0.05


Tree=6
num_leaves=12
num_cat=0
split_feature=7 55 20 20 24 28 20 13 17 55 29
split_gain=6.38621 9.31911 7.81131 7.94127 5.84684 4.44593 4.37674 6.58236 4.34712 2.03514 1.65134
threshold=-0.0049581552536466225 1.283478836038151 0.015203872187160098 0.0096986463022310735 1.4338476569006855 13.030954291892021 -0.004423285391425529 19.736758304961672 13.7558677718464 1.1468584187956463 0.064276993225112142
decision_type=2 2 2 2 2 2 2 2 2 2 2
left_child=1 5 3 4 -2 9 7 -3 -7 -1 -8
right_child=2 6 -4 -5 -6 8 10 -9 -10 -11 -12
leaf_value=0.058235148320363674 0 0.021741895200245012 0.034912336783404788 -0.057432478350291041 -0.037922432600253388 -0.023847095794935474 -0.0075132708317338925 -0.033464297626120534 0.019435225696903129 0.013080411062754583 -0.052618927788768567
leaf_weight=9.9817099273204821 44.692157477140427 14.461122691631319 7.0517397671937934 9.3521169424056989 12.140186831355093 5.874060630798339 5.6434240937232953 7.2195293754339209 28.406353339552879 6.3205340802669516 5.7183359265327454
leaf_count=40 175 57 28 36 47 23 22 28 112 25 22
internal_value=-6.5997e-05 0.0091644 -0.010924 -0.0166268 -0.00860268 0.0226407 -0.0107904 0.00159137 0.0108443 0.043941 -0.0346573
internal_weight=156.861 83.6251 73.2362 66.1845 56.8323 50.5827 33.0424 21.6807 34.2804 16.3022 11.3618
internal_count=615 329 286 258 222 200 129 85 135 65 44
is_linear=0
shrinkage=0.05


Tree=7
num_leaves=11
num_cat=0
split_feature=30 20 8 11 22 28 25 12 20 34
split_gain=6.72483 7.02067 7.17612 10.1241 9.12668 6.45666 5.69451 3.06327 2.22142 2.20847
threshold=0.24471105031233695 0.014346458386193285 -0.0031616812674126736 20.864850257419558 -0.042413917052858609 14.616558713379295 95.500000000000014 14.985072907283078 -0.0077761725069324392 0.06878005979461653
decision_type=2 2 2 2 2 2 2 2 2 2
left_child=5 2 4 -4 -2 6 8 -3 -1 -7
right_child=1 7 3 -5 -6 9 -8 -9 -10 -11
leaf_value=0.055738259699044806 -0.051169889202573461 0.0554973752752582 -0.051855828243750915 -0.0062374464832284371 0.010960045305119445 -0.027081653987510619 -0.0089676480074659792 0 0.01469909455053731 0.010459949545379306
leaf_weight=13.231239542365076 5.7198131978511801 4.9810819178819639 18.647782921791077 36.853599429130554 45.73102343082428 7.4721070975065214 5.6350544542074195 5.0862165838479996 8.0460659414529818 5.3284589499235153
leaf_count=53 22 20 72 144 180 29 22 20 32 21
internal_value=-8.27465e-05 -0.00628287 -0.0102975 -0.0226536 0.0027325 0.0172783 0.0310505 0.0311854 0.0426979 -0.0100172
internal_weight=156.732 117.02 106.952 55.5014 51.4508 39.7129 26.9124 10.0673 21.2773 12.8006
internal_count=615 458 418 216 202 157 107 40 85 50
is_linear=0
shrinkage=0.05


Tree=8
num_leaves=13
num_cat=0
split_feature=30 5 31 1 9 6 34 32 10 25 25 33
split_gain=6.11696 9.11441 8.05932 10.5457 6.19069 5.89959 5.22514 6.78112 3.77722 3.59797 3.28827 2.68521
threshold=0.24471105031233695 48.925273029568878 0.54483745297633379 49.049856946376643 -0.078891298694830983 28.242084636624597 0.34646636432350741 -1.2122121071732834 15.582037738331517 93.500000000000014 65.500000000000014 0.011218857024358509
decision_type=2 2 2 2 2 2 2 2 2 2 2 2
left_child=4 6 3 -3 -1 10 7 -2 -4 -7 -6 -8
right_child=1 2 8 -5 5 9 11 -9 -10 -11 -12 -13
leaf_value=-0.027672610760060626 -0.036102913092423354 0.033165940530908725 0.051104555786814103 -0.033180019730191981 0.01688047046884086 0.018647646329087372 -0.059712711714330784 0.020528488999064023 0.0095363506475567242 -0.028078409852525323 0.065395557594840725 -0.014801089656558129
leaf_weight=5.4102046787738791 8.7898842692375201 6.7997372448444393 6.0216546505689612 22.621214747428894 9.7729158401489276 10.326322540640829 11.139223605394365 10.135666266083716 43.187862917780876 5.4162684977054587 8.7115582227706891 8.2147082984447461
leaf_count=21 34 27 24 88 39 41 43 40 170 21 35 32
internal_value=-6.55529e-05 -0.00598708 0.00351829 -0.0164382 0.0165023 0.0247819 -0.0257411 -0.0050109 0.0160374 0.000361392 0.0432111 -0.0435421
internal_weight=156.547 116.91 78.6305 29.421 39.6373 34.2271 38.2795 18.9256 49.2095 15.7426 18.4845 19.3539
internal_count=615 458 309 115 157 136 149 74 194 62 74 75
is_linear=0
shrinkage=0.05


Tree=9
num_leaves=10
num_cat=0
split_feature=4 7 1 55 10 1 28 20 22
split_gain=5.50025 9.22743 6.96961 6.25169 6.59512 4.94371 4.2388 3.47139 1.13993
threshold=0.033674358797549798 -0.0049581552536466225 63.426764991723012 1.2664442578894362 33.363512129445688 58.90243143655794 13.030954291892021 0.014730995247117981 -0.043058141197299858
decision_type=2 2 2 2 2 2 2 2 2
left_child=1 3 5 6 -5 -3 -1 -4 -2
right_child=8 2 7 4 -6 -7 -8 -9 -10
leaf_value=0.049784548799652939 -0.048889668482883265 -0.0093572308736641855 0 -0.021876907448325503 0.025421184614330624 -0.04563271030116603 0.014319106504669858 0.044520037320002842 -0.0075663109538502337
leaf_weight=13.642683312296866 5.4398895651102066 43.929330497980118 10.708281502127649 17.451403751969341 11.110861435532568 12.408444866538046 30.587266013026237 5.9731040596961966 5.1288497745990735
leaf_count=55 21 172 42 68 44 48 121 24 20
internal_value=-4.10589e-05 0.0024164 -0.00987229 0.0150489 -0.00239451 -0.0184395 0.02667 0.017054 -0.0333845
internal_weight=156.38 145.811 73.0192 72.7922 28.5623 56.3378 44.2299 16.6814 10.5687
internal_count=615 574 286 288 112 220 176 66 41
is_linear=0
shrinkage=0.05


Tree=10
num_leaves=10
num_cat=0
split_feature=28 7 26 55 31 0 3 31 6
split_gain=8.23239 6.79965 6.90776 6.08542 5.35299 4.08655 3.53143 3.26083 1.14244
threshold=11.848564153611688 -0.0019815415211850147 13.410811450490854 1.2705016211548685 2.1769875472890425 37.910526873166745 -2.2469019758239974 0.80643841960427476 44.026047956373006
decision_type=2 2 2 2 2 2 2 2 2
left_child=8 3 7 5 -4 -2 -5 -3 -1
right_child=1 2 4 6 -6 -7 -8 -9 -10
leaf_value=0.0095432727925105279 0.035997045025041842 0.029836801866404861 -0.034248431111819543 -0.044542999066508882 0.013801299898934123 0.0032430182437603603 -0.0027453469626082822 -0.010812766633709931 0.050260525990863059
leaf_weight=5.5118469297885877 13.668555080890654 7.8377642929554012 43.657605901360512 6.7377910315990475 5.312145769596099 33.72048345208168 19.39557871222496 9.2182230651378614 5.9182392209768295
leaf_count=22 55 31 170 26 21 133 76 36 24
internal_value=-0.00371309 -0.00728695 -0.0188604 0.00288459 -0.0283639 0.0137557 -0.0156876 0.00710032 0.0349844
internal_weight=150.978 139.548 66.0257 73.5224 48.9698 47.389 26.1334 17.056 11.4301
internal_count=594 548 258 290 191 188 102 67 46
is_linear=0
shrinkage=0.05


Tree=11
num_leaves=9
num_cat=0
split_feature=28 22 31 10 55 56 14 7
split_gain=7.57978 6.45368 7.85649 5.04587 5.67258 4.95321 3.62192 0.831002
threshold=11.848564153611688 0.013444251351625516 1.7815401667926822 17.253754219926851 1.283478836038151 4.3289137616787174 -0.50383630087324294 -0.07114971645762401
decision_type=2 2 2 2 2 2 2 2
left_child=7 3 5 6 -5 -3 -2 -1
right_child=1 2 -4 4 -6 -7 -8 -9
leaf_value=0.012828549654342046 0.0051533371757957677 0 0.022707273583377308 0.015383663860568095 -0.011391633617872063 -0.047690298002889868 -0.03254774005459158 0.050344522495896021
leaf_weight=6.5031773895025253 7.8453071713447597 5.8630504161119488 5.552893415093421 51.446738317608833 29.911647573113441 21.631055608391762 17.155279830098152 4.8824732005596143
leaf_count=26 31 23 22 204 117 84 67 20
internal_value=-0.0034903 -0.00692423 -0.0258925 -0.000611422 0.00521731 -0.0370378 -0.0200123 0.0337007
internal_weight=150.792 139.406 33.047 106.359 81.3584 27.4941 25.0006 11.3857
internal_count=594 548 129 419 321 107 98 46
is_linear=0
shrinkage=0.05


Tree=12
num_leaves=14
num_cat=0
split_feature=33 55 8 31 30 0 17 33 33 0 11 55 24
split_gain=8.51799 8.45676 6.24926 6.16819 6.13672 9.86401 5.85383 3.85298 3.76499 2.68722 2.65026 2.739 2.55892
threshold=-0.0053576843122003365 1.1468584187956463 -0.10644843049111738 1.4882826080284637 0.85570340525533151 64.798845803259539 13.93959239501006 0.006321510818029008 0.024861781153611314 40.264571653457416 15.320078225180305 0.99179341064562765 1.1885716252246452
decision_type=2 2 2 2 2 2 2 2 2 2 2 2 2
left_child=1 10 9 4 5 -2 -4 -5 -6 -3 -1 -12 -9
right_child=3 2 6 7 8 -7 -8 12 -10 -11 11 -13 -14
leaf_value=0.062809708610924539 -0.018371442697186571 0.03453149344283804 0.0095840013218376086 -0.017011976646630143 -0.011184844681132414 0.04033336877134204 -0.045692794203443257 0 -0.070889571473175206 -0.004427295342608285 -0.0050811787672984353 0.039736037431297694 0.039352956721715314
leaf_weight=7.3744290471076992 57.615483209490776 10.001129224896429 6.8345095515251186 6.9075655341148403 6.1297807991504651 6.9871179908514014 10.064265951514242 5.8417377918958655 7.5028224736452103 5.3600984811782828 5.060300484299658 5.4489448368549347 9.4979456812143308
leaf_count=30 226 40 27 27 24 28 39 23 29 21 20 22 38
internal_value=-0.00328194 0.0131534 -0.00161587 -0.0117788 -0.0184541 -0.0111231 -0.0226536 0.0104042 -0.0483514 0.0199696 0.039794 0.0174175 0.0245655
internal_weight=150.626 50.1437 32.26 100.482 78.2352 64.6026 16.8988 22.2472 13.6326 15.3612 17.8837 10.5092 15.3397
internal_count=594 199 127 395 307 254 66 88 53 61 72 42 61
is_linear=0
shrinkage=0.05


Tree=13
num_leaves=10
num_cat=0
split_feature=28 7 26 55 31 14 32 31 6
split_gain=6.75857 5.44352 6.11414 4.97758 4.4355 3.66964 3.3075 3.01751 1.03109
threshold=11.848564153611688 -0.0019815415211850147 13.410811450490854 1.2705016211548685 2.1769875472890425 0.31752379627732014 -2.3725551733781889 0.80643841960427476 44.026047956373006
decision_type=2 2 2 2 2 2 2 2 2
left_child=8 3 7 5 -4 -2 -5 -3 -1
right_child=1 2 4 6 -6 -7 -8 -9 -10
leaf_value=0.0079858671706987319 0.0024752521348950303 0.029439927972785825 -0.031137766182193546 0.012887124347911467 0.012399857980680813 0.033395937132688007 -0.024529594816665654 -0.0095712830131570725 0.046643335908825016
leaf_weight=5.4809541851282102 33.314718380570412 7.8311631530523327 43.435187041759491 6.5944586396217373 5.3036767691373816 13.903311491012571 19.515655606985092 9.2058927416801435 5.8296196758747101
leaf_count=22 132 31 170 26 21 56 76 36 24
internal_value=-0.00310771 -0.00635859 -0.0167447 0.00272141 -0.0257434 0.0126021 -0.0140306 0.0076124 0.0321116
internal_weight=150.415 139.104 65.7759 73.3281 48.7389 47.218 26.1101 17.0371 11.3106
internal_count=594 548 258 290 191 188 102 67 46
is_linear=0
shrinkage=0.05


Tree=14
num_leaves=9
num_cat=0
split_feature=28 22 31 6 9 5 56 6
split_gain=6.22103 5.42348 6.63201 5.13142 7.22358 6.77094 4.44627 0.937623
threshold=11.848564153611688 0.013444251351625516 1.7815401667926822 28.242084636624597 0.013162193561085854 9.2951517548459233 4.3289137616787174 44.026047956373006
decision_type=2 2 2 2 2 2 2 2
left_child=7 3 6 5 -5 -2 -3 -1
right_child=1 2 -4 4 -6 -7 -8 -9
leaf_value=0.0076541852751851039 -0.031964986488641725 0.00091349994263647421 0.021028680711119178 -0.022932108024417891 0.0082654838126973752 0.024657680541526936 -0.043953174802606298 0.044981010411783665
leaf_weight=5.4760015904903394 5.1335880756378165 5.8477226197719601 5.5405721217393866 37.958994820713997 33.159680098295212 29.807409435510635 21.470763429999352 5.7809993028640747
leaf_count=22 20 23 22 149 131 119 84 24
internal_value=-0.00288914 -0.00601315 -0.0234462 -0.000210036 -0.00812641 0.0149851 -0.0337732 0.0309688
internal_weight=150.176 138.919 32.8591 106.06 71.1187 34.941 27.3185 11.257
internal_count=594 548 129 419 280 139 107 46
is_linear=0
shrinkage=0.05


Tree=15
num_leaves=12
num_cat=0
split_feature=30 14 31 55 56 9 21 6 13 31 25
split_gain=7.29982 7.24272 7.3962 5.55855 4.97426 4.72912 6.63226 4.3031 3.19263 4.14783 0.770431
threshold=0.25642317946683413 -0.25043644228512446 1.5145402292807264 1.1047382206375544 3.8127430221617931 -0.021478388479067301 0.0091745300328234646 73.264787005736494 19.549644249561499 2.056837116878889 31.500000000000004
decision_type=2 2 2 2 2 2 2 2 2 2 2
left_child=3 5 4 10 -3 -2 -7 -4 9 -5 -1
right_child=1 2 7 8 -6 6 -8 -9 -10 -11 -12
leaf_value=0.019295101609535594 -0.024396712920694865 0.0086616789391500172 -0.014679504065320217 0.027936369893800519 -0.034083951639619046 0.024929464976017827 -0.018781114047619587 0.040998213525818991 -0.018988112423098991 -0.016948045854495008 0.060695704361464181
leaf_weight=5.9482110738754255 9.1301642805337888 6.5779352486133567 5.1040575206279737 15.959211111068731 43.17296239733696 31.134289845824242 10.413697779178618 6.1864588856697083 8.9430859982967359 5.8688639551401129 5.5468026548624039
leaf_count=24 36 26 20 64 169 124 41 25 35 23 23
internal_value=-0.0010991 -0.00794306 -0.0195019 0.0161788 -0.0278803 0.00560364 0.0132022 0.0146477 0.00373183 0.0145595 0.0445321
internal_weight=153.986 111.72 61.0414 42.2662 49.7509 50.6782 41.548 11.2905 30.7712 21.8281 11.495
internal_count=610 441 240 169 195 201 165 45 122 87 47
is_linear=0
shrinkage=0.05


Tree=16
num_leaves=12
num_cat=0
split_feature=20 25 31 45 33 11 11 10 0 25 32
split_gain=8.56957 6.66772 6.5202 6.43941 6.14267 4.34907 8.94998 4.71366 2.56434 1.08789 1.97301
threshold=-0.0025484923803474023 41.500000000000007 1.661648516765063 0.084285213754737645 -0.0015505377020039132 18.53794196382422 16.00263534036738 23.250928364891887 60.334318901978456 31.500000000000004 -0.30851201956978946
decision_type=2 2 2 2 2 2 2 2 2 2 2
left_child=1 9 3 4 -2 6 -3 -7 -4 10 -1
right_child=2 5 8 -5 -6 7 -8 -9 -10 -11 -12
leaf_value=0 0.0048701769164669496 -0.0018960398411508395 -0.0049154588946540984 0.018539758515702855 -0.031088094439157034 -0.045743212122208485 0.052787113579041811 0.0081321936377078581 0.033391765756805823 0.059572625018847594 0.041082874833897692
leaf_weight=5.0199188590049735 13.587952867150305 26.983877569437027 5.6243537962436667 9.3181954324245435 51.080784395337105 7.1847934424877149 8.9276373535394651 6.2781035453081131 8.95445369184017 5.8131127953529349 4.9650353342294684
leaf_count=20 54 107 22 37 201 28 36 25 36 24 20
internal_value=-0.00101946 0.0124548 -0.0112422 -0.0174264 -0.0231929 0.00259618 0.0120828 -0.020066 0.0176416 0.0397894 0.0216213
internal_weight=153.738 65.1725 88.5657 73.9869 64.6687 49.3744 35.9115 13.4629 14.5788 15.7981 9.98495
internal_count=610 260 350 292 255 196 143 53 58 64 40
is_linear=0
shrinkage=0.05


Tree=17
num_leaves=13
num_cat=0
split_feature=20 55 14 31 14 11 11 11 16 8 31 21
split_gain=7.78707 7.29151 6.18228 6.71371 4.31218 3.66341 7.36472 3.9203 3.45456 6.50015 5.17096 2.46266
threshold=-0.0025484923803474023 1.0925082054708368 -0.25043644228512446 1.529022451291284 0.31752379627732014 18.288583213528707 16.00263534036738 21.373461529340773 14.200144475842295 -0.017653651973127311 0.41373350063304809 -0.0078653335887011386
decision_type=2 2 2 2 2 2 2 2 2 2 2 2
left_child=1 11 8 4 -4 6 -3 -7 10 -10 -2 -1
right_child=2 5 3 -5 -6 7 -8 -9 9 -11 -12 -13
leaf_value=0.055611298253886624 -0.015742356095221476 -0.0023324998800531059 -0.048526811556179432 0.01496628419088869 -0.013359669373514427 -0.042481448671341987 0.050130289257910521 0.0065239602869378681 0.016557008843451567 -0.045308752404461368 0.030558252258819276 0.012750021477531667
leaf_weight=9.4105529338121432 7.5069247931242016 25.721225515007973 18.687549486756325 8.4731985926628095 22.285095930099487 7.4152758717536909 7.661004737019538 6.0331074446439743 7.0759664177894592 7.3722770959138852 17.036115825176239 8.8374230265617353
leaf_count=39 30 102 73 34 88 29 31 24 28 29 68 35
internal_value=-0.000896047 0.0119496 -0.0106563 -0.0222947 -0.030769 0.000736809 0.0100881 -0.0198368 0.00366604 -0.0142815 0.0153558 0.0378934
internal_weight=153.516 65.0786 88.4371 49.4458 40.9726 46.8306 33.3822 13.4484 38.9913 14.4482 24.543 18.248
internal_count=610 260 350 195 161 186 133 53 155 57 98 74
is_linear=0
shrinkage=0.05


Tree=18
num_leaves=11
num_cat=0
split_feature=30 11 9 14 31 56 9 21 0 33
split_gain=5.72774 6.73788 7.91267 5.98226 5.74766 4.37134 4.14819 5.90921 4.1306 3.0768
threshold=0.25642317946683413 18.856578659456748 -0.078891298694830983 -0.25043644228512446 1.4942887735209049 3.8127430221617931 -0.021478388479067301 0.0091745300328234646 39.223802885801355 0.017739670354861067
decision_type=2 2 2 2 2 2 2 2 2 2
left_child=1 2 -1 6 5 -5 -2 -8 -4 -6
right_child=3 -3 8 4 9 -7 7 -9 -10 -11
leaf_value=-0.025900448843015358 -0.022753359271759147 -0.025663885937545275 0.042925991902513679 0.0089795682314621952 -0.012863562431847005 -0.030994352216204002 0.023616120031249622 -0.017650071177488409 -0.0012153714682099212 0.033277665404234866
leaf_weight=5.3682116717100135 9.0673276335000974 7.1412778794765464 24.161575600504879 6.5713043659925452 5.1163404285907728 42.460676029324532 31.055823862552643 10.378331959247587 5.2759968340396872 6.6323444396257401
leaf_count=21 36 28 99 26 20 167 124 41 21 27
internal_value=-0.00083005 0.0145198 0.0239492 -0.0069165 -0.0174608 -0.0250649 0.00538121 0.0125184 0.0344133 0.0117901
internal_weight=153.229 41.9471 34.8058 111.282 60.7807 49.032 50.5015 41.4342 29.4376 11.7487
internal_count=610 169 141 441 240 193 201 165 120 47
is_linear=0
shrinkage=0.05


Tree=19
num_leaves=14
num_cat=0
split_feature=20 55 14 31 14 31 30 8 16 8 31 23 31
split_gain=6.70638 6.62789 5.12787 5.64208 3.90122 3.37499 4.8901 4.33833 3.09993 5.84066 4.75976 2.21539 0.809986
threshold=-0.0025484923803474023 1.0925082054708368 -0.25043644228512446 1.529022451291284 0.31752379627732014 0.72421496628633564 0.20228466755952226 0.020024854918906727 14.200144475842295 -0.017653651973127311 0.41373350063304809 0.12911221652909968 0.69201609057967861
decision_type=2 2 2 2 2 2 2 2 2 2 2 2 2
left_child=1 11 8 4 -4 7 -7 -3 10 -10 -2 -1 -13
right_child=2 5 3 -5 -6 6 -8 -9 9 -11 -12 12 -14
leaf_value=0.004483006489517838 -0.015523445784635699 0 -0.045243655124810128 0.013553832734061307 -0.011769516624200824 0.0040688304421272982 -0.039310070168186363 0.048770404312823194 0.015204497902246256 -0.043469124769756687 0.028885941396275535 0.018806994755990306 0.061275093893789059
leaf_weight=5.8641110807657268 7.4999709129333523 16.07474006712437 18.574349001049995 8.4366366118192655 22.236068293452263 16.007571712136272 8.9048074781894666 5.6972495615482321 7.0646837055683136 7.3131882101297361 16.996816858649254 5.2493376731872541 6.9675105959177017
leaf_count=24 30 64 73 34 88 64 35 23 28 29 68 21 29
internal_value=-0.000815041 0.0111245 -0.00989693 -0.0205224 -0.0283205 0.000421393 -0.0113906 0.0149417 0.00311372 -0.0138997 0.0142334 0.035979 0.0477225
internal_weight=152.887 64.7653 88.1217 49.2471 40.8104 46.6844 24.9124 21.772 38.8747 14.3779 24.4968 18.081 12.2168
internal_count=610 260 350 195 161 186 99 87 155 57 98 74 50
is_linear=0
shrinkage=0.05


Tree=20
num_leaves=8
num_cat=0
split_feature=10 22 11 10 10 32 11
split_gain=4.55291 5.25407 6.94841 6.2689 5.67095 3.6093 1.03083
threshold=48.239063344084649 0.013727437526934335 24.04737132615951 17.253754219926851 33.679126453993653 0.80377333748422364 27.245114588258918
decision_type=2 2 2 2 2 2 2
left_child=1 2 5 -3 -5 -1 -4
right_child=-2 3 6 4 -6 -7 -8
leaf_value=-0.0066751998682817995 0.03551217442755402 0.020327975657309053 0.049218286723996391 -0.046239626868288607 0.00655764313559165 0.022721004606840196 0.010086190093919535
leaf_weight=95.574961796402931 6.6164548099040976 5.5343661010265377 6.484035909175871 18.779181823134426 5.4903567135334006 10.474460333585737 5.5095977634191513
leaf_count=381 27 22 26 75 22 42 22
internal_value=-0.00188887 -0.00395794 0.00063055 -0.0223735 -0.0335194 -0.00335309 0.0353256
internal_weight=154.463 147.847 118.043 29.8039 24.2695 106.049 11.9936
internal_count=617 590 471 119 97 423 48
is_linear=0
shrinkage=0.05


Tree=21
num_leaves=9
num_cat=0
split_feature=10 55 28 21 17 55 55 12
split_gain=4.15399 5.75272 4.7907 6.23324 4.47616 3.75033 6.70491 1.37859
threshold=48.239063344084649 1.2705016211548685 13.030954291892021 0.011174749274217206 13.7558677718464 1.3368659118625505 1.4049923609249697 24.809514357665812
decision_type=2 2 2 2 2 2 2 2
left_child=1 2 3 -1 -4 7 -7 -3
right_child=-2 5 4 -5 -6 6 -8 -9
leaf_value=0.032350349290570068 0.034009775535363988 -0.06069107778350237 -0.030506506538574393 -0.014063261109477497 0.0019565116155866673 0.028772647088703019 -0.018978934511153359 -0.013694165613554882
leaf_weight=23.470225140452385 6.6076909303665152 5.3799042850732786 12.076034381985663 8.7264547348022443 50.438880056142807 8.0291203409433347 34.262405082583427 5.3469779640436172
leaf_count=95 27 21 48 35 202 32 136 21
internal_value=-0.00172697 -0.00371142 0.00346428 0.0189728 -0.00430235 -0.0168197 -0.00888052 -0.042562
internal_weight=154.338 147.73 94.7116 32.1967 62.5149 53.0184 42.2915 10.7269
internal_count=617 590 380 130 250 210 168 42
is_linear=0
shrinkage=0.05


Tree=22
num_leaves=8
num_cat=0
split_feature=10 55 24 15 55 55 12
split_gain=3.81038 5.23752 4.45888 5.38743 3.52503 7.03213 1.7423
threshold=48.239063344084649 1.2705016211548685 1.7892591387479524 13.310787910025409 1.3434495492236713 1.3991542959302958 24.809514357665812
decision_type=2 2 2 2 2 2 2
left_child=1 2 3 -1 6 -6 -3
right_child=-2 4 -4 -5 5 -7 -8
leaf_value=0.017195720759265228 0.032585106657250749 -0.059480963830159862 0.045476465415309121 -0.0082813202640487655 0.034267727279972779 -0.017745650968022986 -0.011807181403042478
leaf_weight=30.618259564042091 6.5957770049571982 5.6107911616563779 4.8840101510286322 59.134178102016449 6.7524760812520972 34.738539695739746 5.8529023975133896
leaf_count=124 27 22 20 236 27 138 23
internal_value=-0.00165524 -0.00356267 0.00327587 0.000228185 -0.0160815 -0.0080851 -0.0400467
internal_weight=154.187 147.591 94.6364 89.7524 52.9547 41.491 11.4637
internal_count=617 590 380 360 210 165 45
is_linear=0
shrinkage=0.05


Tree=23
num_leaves=10
num_cat=0
split_feature=12 12 12 5 28 34 3 15 29
split_gain=3.68136 7.95494 5.07377 7.92957 3.62335 6.91559 3.54652 3.03357 2.89677
threshold=29.760808803354021 26.291127126062328 33.303547235167578 41.928785181620704 13.030954291892021 0.84195861100826697 2.6215624208420829 14.798375641951763 0.063626622481431444
decision_type=2 2 2 2 2 2 2 2 2
left_child=1 4 3 -2 6 -6 -1 -4 -3
right_child=2 8 7 -5 5 -7 -8 -9 -10
leaf_value=0.0042071549811741526 0.060619038072468573 -0.012277612673686851 0.011344632929019952 -0.0098560377688287036 0.0032828772602339685 -0.028957658968546109 0.046948833764977355 -0.032373185592251691 -0.061691440516026243
leaf_weight=34.319223389029503 9.1477185189723986 8.4595059007406217 7.9711321145296079 5.2860499620437613 47.811907380819321 23.539960190653801 5.1239390671253195 5.6438802778720856 6.7099492251873007
leaf_count=138 38 34 32 21 191 94 21 22 26
internal_value=-0.0015558 -0.00536409 0.0142822 0.034223 -0.000351277 -0.00726141 0.0114013 -0.00604237 -0.0381446
internal_weight=154.013 125.964 28.0488 14.4338 110.795 71.3519 39.4432 13.615 15.1695
internal_count=617 504 113 59 444 285 159 54 60
is_linear=0
shrinkage=0.05


Tree=24
num_leaves=7
num_cat=0
split_feature=28 4 7 32 31 33
split_gain=3.49142 3.92696 4.63899 5.245 3.0422 2.99358
threshold=11.848564153611688 0.041624773885812594 0.052081067612862249 0.80377333748422364 1.4942887735209049 -0.0036330834706794451
decision_type=2 2 2 2 2 2
left_child=5 2 3 -2 -4 -1
right_child=1 -3 4 -5 -6 -7
leaf_value=0.0491533582338049 -0.00030270210037535968 -0.036670504442761244 -0.023581307744262963 0.033554567527939741 0.012622117571719667 0
leaf_weight=4.977949395775795 87.502531424164772 7.6308823227882376 29.62523989379406 11.929864823818205 5.516477406024932 6.581737354397772
leaf_count=21 350 30 119 48 22 27
internal_value=-0.00147787 -0.00383621 -0.00153322 0.00380421 -0.0170145 0.0235389
internal_weight=153.765 142.205 134.574 99.4324 35.1417 11.5597
internal_count=617 569 539 398 141 48
is_linear=0
shrinkage=0.05


Tree=25
num_leaves=7
num_cat=0
split_feature=17 56 56 11 0 13
split_gain=4.98291 3.84336 6.60034 3.91134 2.04776 1.33852
threshold=12.415099648585285 2.9142771069273619 3.9181702050194027 31.448179007428873 63.406747420641544 2.6202913844475271
decision_type=2 2 2 2 2 2
left_child=4 -2 5 -4 -1 -3
right_child=1 2 3 -5 -6 -7
leaf_value=0.04212305942412236 -0.038000899863077579 0.054768673981008632 -0.0051571154990449168 0.028090086768027617 0 0.0092098442064870792
leaf_weight=8.99400347471237 5.7750654965639105 5.171686574816702 119.46576103568077 8.4146515578031522 4.9905683994293204 4.9814125597476959
leaf_count=38 23 21 478 34 20 20
internal_value=0.00150256 -0.00118193 0.00044094 -0.00257446 0.0290132 0.0374876
internal_weight=157.793 143.809 138.034 127.88 13.9846 10.1531
internal_count=634 576 553 512 58 41
is_linear=0
shrinkage=0.05


Tree=26
num_leaves=6
num_cat=0
split_feature=17 56 56 45 0
split_gain=4.57302 3.52395 6.13558 3.18433 1.88173
threshold=12.415099648585285 2.9142771069273619 3.8503975461999547 0.066718252791018132 63.406747420641544
decision_type=2 2 2 2 2
left_child=4 -2 -3 -4 -1
right_child=1 2 3 -5 -6
leaf_value=0.040555770297535126 -0.036320668564238483 0.040165653413137735 0.0009348329923365399 -0.020691642626471329 0
leaf_weight=8.9151646643877012 5.7860709577798835 8.1574577838182432 111.08954764902592 18.754167556762695 4.9905683994293204
leaf_count=38 23 33 445 75 20
internal_value=0.00146994 -0.00108864 0.000459378 -0.00213202 0.0279013
internal_weight=157.693 143.787 138.001 129.844 13.9057
internal_count=634 576 553 520 58
is_linear=0
shrinkage=0.05


Tree=27
num_leaves=6
num_cat=0
split_feature=17 56 56 55 21
split_gain=4.20746 3.22789 5.66819 3.15604 1.689
threshold=12.415099648585285 2.9142771069273619 3.60136785268157 0.87979218793783653 0.0099139757967831119
decision_type=2 2 2 2 2
left_child=4 -2 -3 -4 -1
right_child=1 2 3 -5 -6
leaf_value=0.038877790560246248 -0.034735774380522048 0.046477223374435696 -0.024785614487581431 0.00076210346620244685 0
leaf_weight=8.8595498800277692 5.7929997891187659 5.4175132960081092 12.274439930915831 120.28689362108707 4.9642894417047492
leaf_count=38 23 22 49 482 20
internal_value=0.00141 -0.0010311 0.000443853 -0.00158416 0.0268414
internal_weight=157.596 143.772 137.979 132.561 13.8238
internal_count=634 576 553 531 58
is_linear=0
shrinkage=0.05


Tree=28
num_leaves=10
num_cat=0
split_feature=17 33 55 31 33 31 25 3 0
split_gain=3.87311 3.17727 8.88386 7.53074 6.75314 4.63653 4.55211 3.51454 1.62025
threshold=12.415099648585285 -0.0029494026074384557 1.1047382206375544 2.3312245248801537 0.0025445725214252178 2.1769875472890425 78.500000000000014 0.3308545698492335 63.406747420641544
decision_type=2 2 2 2 2 2 2 2 2
left_child=8 2 7 -4 6 -6 -3 -2 -1
right_child=1 4 3 -5 5 -7 -8 -9 -10
leaf_value=0.037737778912283727 0.055215312300470748 -0.063976273667812542 0.0043969924235099361 -0.051592866481607706 -0.005739259828770004 0.030478263390793892 -0.0038457543361882836 0.0056150020399987005 0
leaf_weight=8.7506394535303098 9.9646345824003237 6.9589400440454465 33.298478320240974 6.1743486523628226 63.63112461566925 9.2042226493358594 7.019628718495369 7.4958951622247687 4.9888389259576789
leaf_count=38 42 27 133 24 255 37 28 30 20
internal_value=0.00135396 -0.000975269 0.00791919 -0.00480162 -0.00711678 -0.00047305 -0.0377222 0.0367335 0.0258321
internal_weight=157.487 143.747 56.9334 39.4728 86.8139 72.8353 13.9786 17.4605 13.7395
internal_count=634 576 229 157 347 292 55 72 58
is_linear=0
shrinkage=0.05


Tree=29
num_leaves=8
num_cat=0
split_feature=17 11 12 22 7 55 34
split_gain=3.56659 2.98551 7.03422 7.75229 3.87245 1.66189 0.998324
threshold=12.415099648585285 31.448179007428873 17.604694186735852 0.016475280314953926 0.027895591153848546 0.94734674240602101 1.1352392366986284
decision_type=2 2 2 2 2 2 2
left_child=5 2 3 -2 -4 -1 -3
right_child=1 6 4 -5 -6 -7 -8
leaf_value=0.043159116438708248 -0.055736729198874062 0.0012569535218197249 0.0069953259599565762 0 -0.016412711707424654 0.0042592415082818753 0.037750292689127024
leaf_weight=6.0089781582355482 11.159523576498033 5.0188335627317411 87.887569352984428 13.595833659172056 20.74155293405056 7.6446848958730698 5.1337840557098389
leaf_count=25 44 20 353 55 83 33 21
internal_value=0.0012966 -0.000928555 -0.00315013 -0.0267241 0.00218883 0.0248621 0.0236821
internal_weight=157.191 143.537 133.384 24.7554 108.629 13.6537 10.1526
internal_count=634 576 535 99 436 58 41
is_linear=0
shrinkage=0.05


Tree=30
num_leaves=12
num_cat=0
split_feature=33 5 11 30 24 56 16 2 0 56 8
split_gain=5.649 6.57132 6.1023 4.28104 3.73103 4.97599 4.84549 7.11703 3.5505 2.83984 2.51681
threshold=-0.0017210126822522706 56.40486722198694 19.024046047913277 0.33387601301846132 1.2460222892422561 4.3443429430282565 14.885560391353399 55.857839483380609 54.897084574860095 4.8768919190477611 0.020024854918906727
decision_type=2 2 2 2 2 2 2 2 2 2 2
left_child=1 2 3 -1 5 8 7 -6 -2 -7 -8
right_child=4 -3 -4 -5 6 9 10 -9 -10 -11 -12
leaf_value=0.018628647878887152 -0.024056713044394509 0.046955458404301174 -0.032696385661272469 -0.020901182356894622 0.029855529301427465 -0.062337702832209178 -0.036196593747888438 -0.017844831622957573 0.013506158930595709 -0.018614637366523398 0.00026990724587230012
leaf_weight=35.205993875861168 9.8300860077142733 9.4968774169683439 8.6148342341184598 7.0254916399717322 20.336923897266391 6.8360507637262353 9.251744940876959 10.834039628505705 13.624309316277502 14.754474848508835 6.3308763653039923
leaf_count=144 39 39 34 28 82 27 37 44 55 59 26
internal_value=-0.000834341 0.0107631 0.00274573 0.011143 -0.00876107 -0.0188895 0.000664853 0.01246 -0.00155465 -0.0357117 -0.0207506
internal_weight=152.142 60.3432 50.8463 42.2315 91.7985 45.0449 46.7536 31.171 23.4544 21.5905 15.5826
internal_count=614 245 206 172 369 180 189 126 94 86 63
is_linear=0
shrinkage=0.05


Tree=31
num_leaves=13
num_cat=0
split_feature=33 31 32 12 45 24 8 1 56 13 56 32
split_gain=5.14634 4.46229 4.1549 4.22233 3.47633 3.40687 4.76871 6.82965 4.5666 3.547 2.60337 1.65731
threshold=-0.0017210126822522706 1.7026205791723845 -1.3000508374749515 29.760808803354021 0.060164634109595383 1.2460222892422561 -0.1263099644317183 58.257199903016399 4.3443429430282565 4.2760713018697407 4.8768919190477611 -1.146758174497805
decision_type=2 2 2 2 2 2 2 2 2 2 2 2
left_child=1 2 3 -1 -4 8 -7 -8 9 -2 -10 -3
right_child=5 11 4 -5 -6 6 7 -9 10 -11 -12 -13
leaf_value=-0.024963166196267296 0.013260299596851537 0 0.043010552080511993 0.018657771635363116 0.0044758019396787035 -0.036701233055098363 0.022523927697626595 -0.019056448227130821 -0.059857038304700974 -0.024433491949442599 -0.017765641754623081 -0.034915446623188399
leaf_weight=8.7763449549675006 13.891138538718225 6.262341633439064 16.967961832880977 11.82229547202587 11.395176559686659 6.1066178381443015 26.64439782500267 13.91057465970516 6.8055747002363214 9.5534600019454938 14.73488350212574 4.9918568730354291
leaf_count=35 56 25 70 48 47 24 108 57 27 38 59 20
internal_value=-0.000836085 0.0102368 0.0169825 0 0.0290599 -0.00841325 0.000581101 0.00754465 -0.0180962 -0.00144805 -0.0342388 -0.0160617
internal_weight=151.863 60.216 48.9618 20.5986 28.3631 91.6466 46.6616 40.555 44.9851 23.4446 21.5405 11.2542
internal_count=614 245 200 83 117 369 189 165 180 94 86 45
is_linear=0
shrinkage=0.05


Tree=32
num_leaves=11
num_cat=0
split_feature=33 34 28 6 14 28 20 31 33 31
split_gain=4.71232 4.19798 4.03341 5.1766 3.88576 4.84908 4.48128 3.44198 3.7482 2.50205
threshold=-0.0017210126822522706 -0.30141719399909156 12.581266852600246 27.444040778500952 -0.24204996453060265 12.16080259908292 0.0029647004620523506 0.31666372754322009 0.0045281779710702975 0.55728401002729233
decision_type=2 2 2 2 2 2 2 2 2 2
left_child=1 -1 9 -4 7 -6 -7 -2 -9 -3
right_child=4 2 3 -5 5 6 -8 8 -10 -11
leaf_value=-0.020013836480824887 -0.024504439127838309 0.015724718902819353 0.049317663865519654 0.0088148127214714815 0.015530645508884139 -0.0071894863231716805 -0.043067950904405065 -0.017869377986158941 0.017831028098718699 -0.023534521892453805
leaf_weight=8.4924723058938962 8.4955141693353635 5.6678792983293524 12.564375624060629 25.121726781129837 7.301464617252349 20.364235773682594 18.329039126634598 8.2516670972108823 28.776798665523529 8.251044958829878
leaf_count=34 34 24 52 101 30 82 74 33 116 34
internal_value=-0.000837483 0.00976099 0.0154235 0.0238903 -0.00809767 -0.0182389 -0.0254718 0.00178289 0.00895722 -0.00588973
internal_weight=151.616 60.0975 51.605 37.6861 91.5187 45.9947 38.6933 45.524 37.0285 13.9189
internal_count=614 245 211 153 369 186 156 183 149 58
is_linear=0
shrinkage=0.05


Tree=33
num_leaves=12
num_cat=0
split_feature=24 6 1 22 27 12 2 0 11 25 10
split_gain=4.04605 4.81724 4.54953 6.13603 5.01901 4.69573 4.54949 4.42065 3.5344 3.51635 3.22821
threshold=1.2273974190092172 27.698053526159963 58.90243143655794 -0.018514434120899734 15.486575 29.760808803354021 58.210301162297633 72.412119637258655 16.89269491308292 21.500000000000004 30.347863828512654
decision_type=2 2 2 2 2 2 2 2 2 2 2
left_child=1 8 3 5 -5 -2 9 -8 -1 -3 -4
right_child=2 6 10 4 -6 -7 7 -9 -10 -11 -12
leaf_value=0.035540964368161579 -0.020819356013287296 -0.004376544891801947 -0.035563474711005356 0.03798890963130433 -0.0018225765165327504 0.012191440690602478 0.0373710192551421 -0.01986139292105879 -0.01152249224978536 -0.038385106916204281 0.0092159812150529718
leaf_weight=7.5662029534578306 17.850189387798309 14.144968479871748 9.2193645238876325 24.489081621170044 9.6737675070762617 23.705114856362343 5.6009637117385846 5.4697645008563995 5.6897967904806137 23.1100964397192 4.8761937022209159
leaf_count=32 72 57 38 100 39 96 23 22 23 92 20
internal_value=-0.000806372 -0.0107251 0.00576245 0.0108526 0.0262734 -0.00155698 -0.0182169 0.00772002 0.0141953 -0.0265782 -0.0188321
internal_weight=151.396 61.5818 89.8137 75.7182 34.1628 41.5553 48.3258 11.0707 13.256 37.2551 14.0956
internal_count=614 249 365 307 139 168 194 45 55 149 58
is_linear=0
shrinkage=0.05


Tree=34
num_leaves=10
num_cat=0
split_feature=33 5 11 30 14 28 20 31 33
split_gain=4.26298 5.97948 5.39191 3.61762 3.41781 4.38799 3.89247 3.08816 3.30891
threshold=-0.0017210126822522706 56.40486722198694 19.024046047913277 0.33387601301846132 -0.24204996453060265 12.16080259908292 0.0029647004620523506 0.31666372754322009 0.0045281779710702975
decision_type=2 2 2 2 2 2 2 2 2
left_child=1 2 3 -1 7 -6 -7 -2 -9
right_child=4 -3 -4 -5 5 6 -8 8 -10
leaf_value=0.01660074523522399 -0.023372500144751271 0.043937533388377942 -0.031726952063116869 -0.019722657973494984 0.014846551339194922 -0.0070088863379375744 -0.040706736885270121 -0.016781526862000403 0.016727251350564427
leaf_weight=34.95820164680481 8.473092243075369 9.4053227305412275 8.5727332681417447 7.0178879946470252 7.2702676206827155 20.346523627638817 18.151517927646637 8.2411669939756376 28.750638574361801
leaf_count=144 34 39 34 28 30 82 74 33 116
internal_value=-0.000775367 0.00930649 0.00165058 0.00962858 -0.00770081 -0.017243 -0.0241584 0.00153139 0.00835879
internal_weight=151.187 59.9541 50.5488 41.9761 91.2332 45.7683 38.498 45.4649 36.9918
internal_count=614 245 206 172 369 186 156 183 149
is_linear=0
shrinkage=0.05


Tree=35
num_leaves=11
num_cat=0
split_feature=20 32 20 24 9 28 10 14 16 24
split_gain=3.14072 8.20556 5.10658 3.76389 2.90146 2.81458 4.82594 2.75176 2.48565 2.05357
threshold=0.0077618289966520683 0.21014345108505095 0.005149546318928006 1.250877684209817 0.024190714512290771 13.639268120395293 17.003273723850359 -0.44954002402791621 13.733348796240433 1.3670084534345028
decision_type=2 2 2 2 2 2 2 2 2 2
left_child=2 7 5 -3 -4 8 -7 -2 -1 -5
right_child=1 3 4 9 -6 6 -8 -9 -10 -11
leaf_value=0.0027589170365537974 -0.0071405280612230233 -0.016903367958127084 0.0062282994178819214 0.049233742099352246 0.059205451046339008 -0.039405961444601005 0 -0.062825007805868832 0.027165663624044642 0
leaf_weight=46.479719772934914 5.1212990880012512 6.2053593695163718 6.6786516457796079 4.7794955521821958 5.6090153008699417 8.236449182033537 41.523691728711128 6.6508134454488772 13.838509321212767 4.8335252106189728
leaf_count=190 21 25 27 20 23 33 168 27 56 20
internal_value=0.00194705 -0.0127405 0.00553779 0.00952029 0.0349282 0.00174706 -0.00669876 -0.0430134 0.00911785 0.0289183
internal_weight=149.957 27.5905 122.366 15.8184 12.2877 110.078 49.7601 11.7721 60.3182 9.61302
internal_count=610 113 497 65 50 447 201 48 246 40
is_linear=0
shrinkage=0.05


Tree=36
num_leaves=11
num_cat=0
split_feature=29 9 21 9 10 12 23 13 10 29
split_gain=2.97416 5.05905 6.94386 4.40465 7.36515 4.18449 5.23083 4.56255 3.78237 2.49953
threshold=0.036792228624391694 -0.057191020698170884 -0.038955928928892415 -0.027454510737242262 20.328896836421031 19.450977013215283 0.11829231943598498 6.6785258122250974 15.359650943040657 0.025541545232769688
decision_type=2 2 2 2 2 2 2 2 2 2
left_child=5 2 -2 4 -3 6 -1 9 -5 -7
right_child=1 3 -4 8 -6 7 -8 -9 -10 -11
leaf_value=0.025049813551898555 -0.013348154086099448 0.0091091870597627324 0.055694766528347074 -0.036942449953463338 -0.047420077970951269 0.0022868700018699242 -0.028363494323903771 -0.0073459630823635479 0.0027939877945439371 0.050529887415062515
leaf_weight=6.8565564006567028 5.1179599016904831 8.0430854409933108 7.2392287850379926 5.520766168832778 13.479880049824713 4.8680198937654557 9.5574092268943769 5.7660591900348654 70.718275472521782 12.633207470178602
leaf_count=28 20 33 30 22 54 20 38 24 289 52
internal_value=0.0018727 -0.00218285 0.0263692 -0.00627544 -0.0257187 0.0135188 -0.00445848 0.0268922 -0.000200845 0.0393111
internal_weight=149.8 110.119 12.3572 97.762 21.523 39.6813 16.414 23.2673 76.239 17.5012
internal_count=610 448 50 398 87 162 66 96 311 72
is_linear=0
shrinkage=0.05


Tree=37
num_leaves=13
num_cat=0
split_feature=29 9 0 9 10 8 12 14 24 33 12 24
split_gain=2.71156 4.60488 6.72528 3.98367 6.73716 3.88324 3.80941 7.16792 4.49701 2.07787 0.541564 0.208416
threshold=0.036792228624391694 -0.057191020698170884 26.82251750188885 -0.027454510737242262 20.328896836421031 -0.013045218194668917 19.450977013215283 -0.38891762468478769 0.85495251874102562 -0.0022812687344743597 17.779690059935898 1.0557887776519446
decision_type=2 2 2 2 2 2 2 2 2 2 2 2
left_child=6 2 -2 4 -3 -5 8 11 -1 -9 -10 -8
right_child=1 3 -4 5 -6 -7 7 9 10 -11 -12 -13
leaf_value=0.024578340723833629 -0.0026118413198134498 0.0087082220132836067 0.065855377998600834 0.010158798376192563 -0.045294368121693449 -0.012121665422549676 0.025877641171862465 0.020960723339380229 -0.03717351276252566 -0.016285288791937146 -0.0052703897033664739 0.069712214202082803
leaf_weight=6.3862784355878857 7.5093429833650571 8.0389059931039828 4.8119078129529953 39.750827714800835 13.454417780041693 36.469502717256546 4.8205664604902285 5.8327018320560455 4.9853258579969388 7.267836466431616 5.0202683359384537 5.2847806364297867
leaf_count=26 30 33 20 162 54 149 20 25 20 29 20 22
internal_value=0.00178551 -0.00207758 0.0251868 -0.00598908 -0.0244958 -0.000197012 0.0129229 0.0257096 -0.00417909 0 -0.0253712 0.055266
internal_weight=149.633 110.035 12.3213 97.7137 21.4933 76.2203 39.5978 23.2059 16.3919 13.1005 10.0056 10.1053
internal_count=610 448 50 398 87 311 162 96 66 54 40 42
is_linear=0
shrinkage=0.05


Tree=38
num_leaves=11
num_cat=0
split_feature=20 32 20 24 17 16 33 14 14 24
split_gain=2.83516 7.77376 4.67374 3.58615 2.83893 6.13713 5.33776 2.3871 2.38251 1.82919
threshold=0.0077618289966520683 0.21014345108505095 0.005149546318928006 1.250877684209817 13.878291463166203 13.742016556578166 0.0070708013278382538 -0.095338049195826349 -0.44954002402791621 1.3670084534345028
decision_type=2 2 2 2 2 2 2 2 2 2
left_child=2 8 4 -3 5 -1 -6 -4 -2 -5
right_child=1 3 7 9 6 -7 -8 -9 -10 -11
leaf_value=0.0019627639001058936 -0.0076570970833232865 -0.01639639742078183 0.05227151455692497 0.047639288967333181 0.0028820426144996348 0.048528094752728089 -0.030941353898874598 0.0032472559356550076 -0.060589872692070584 0.00011332842185155556
leaf_weight=47.041843891143799 5.1059945821762085 6.1867276430129996 6.5395115315914154 4.7649461925029737 40.157671600580215 7.6533135920763007 14.810329630970953 5.6743703633546811 6.5782058686018008 4.8310989886522293
leaf_count=193 21 25 27 20 163 31 60 23 27 20
internal_value=0.00173582 -0.0122407 0.00516308 0.00938238 0.00152398 0.0096817 -0.00617451 0.033357 -0.0418565 0.0283406
internal_weight=149.344 27.467 121.877 15.7828 109.663 54.6952 54.968 12.2139 11.6842 9.59605
internal_count=610 113 497 65 447 224 223 50 48 40
is_linear=0
shrinkage=0.05


Tree=39
num_leaves=10
num_cat=0
split_feature=56 55 6 56 11 23 24 29 16
split_gain=2.65682 3.68882 4.10685 3.19149 3.75832 3.55517 4.03893 3.43557 2.87105
threshold=3.8503975461999547 0.83705356331935765 61.654812496467997 4.620694074250407 16.89269491308292 0.18493930429758756 1.2561793454112202 0.033654499845775204 13.742016556578166
decision_type=2 2 2 2 2 2 2 2 2
left_child=1 -1 -3 4 -2 6 -5 -6 -7
right_child=3 2 -4 5 7 8 -8 -9 -10
leaf_value=-0.01029002570635814 0.01294046090713178 0.061305131684727822 0.0034566441736301524 0 0 -0.022544681689533691 0.032967782787732249 -0.048778946770909874 0.0010296851249043015
leaf_weight=5.89570523798466 5.0816727429628399 5.8237756043672544 7.6389893293380737 19.993644446134567 5.1994677484035483 14.940820708870886 16.141481339931488 9.2495493888854963 59.159965261816978
leaf_count=24 21 25 31 82 21 61 67 37 241
internal_value=0.00168119 0.0185298 0.0327181 -0.000763562 -0.0190125 0.00238674 0.0151589 -0.0319787 -0.00362759
internal_weight=149.125 19.3585 13.4628 129.767 19.5307 110.236 36.1351 14.449 74.1008
internal_count=610 80 56 530 79 451 149 58 302
is_linear=0
shrinkage=0.05


Tree=40
num_leaves=11
num_cat=0
split_feature=8 55 14 11 4 9 28 31 1 11
split_gain=4.43123 5.67211 4.79655 5.88162 3.79836 5.27907 3.78582 3.73267 2.25253 1.60989
threshold=-0.019473975046351528 1.5742259075204459 0.70246192196437873 10.282713076068324 0.018585429309475574 0.048085470338918572 12.398253220838807 0.44544233293504576 58.90243143655794 12.555873956528137
decision_type=2 2 2 2 2 2 2 2 2 2
left_child=2 6 4 -4 5 -1 8 -8 -2 -5
right_child=1 -3 3 9 -6 -7 7 -9 -10 -11
leaf_value=0.025592836704590533 0.023323712147575417 0.024496723933571316 0.016524115064885363 -0.060825150908160201 -0.01769735705829836 -0.014775254428082316 -0.045644493449626081 -0.01495606490393895 -0.01352308171602171 -0.013058227308538176
leaf_weight=35.365583181381226 6.737700477242468 7.1718339622020713 5.9330214112997082 4.9775555431842786 8.1630039364099485 8.8579511642456037 15.440398707985876 40.791394636034966 7.40667724609375 5.9337767958641052
leaf_count=146 28 30 24 20 33 36 63 165 30 24
internal_value=-0.00592209 -0.0141121 0.00296618 -0.0190294 0.0107309 0.0168064 -0.018685 -0.0244698 0.00275929 -0.0402246
internal_weight=146.779 77.548 69.2309 16.8444 52.3865 44.2235 70.3762 56.2318 14.1444 10.9113
internal_count=599 316 283 68 215 182 286 228 58 44
is_linear=0
shrinkage=0.05


Tree=41
num_leaves=6
num_cat=0
split_feature=25 25 26 33 29
split_gain=3.86389 3.04361 2.70913 2.7203 1.18988
threshold=13.500000000000002 98.500000000000014 18.56108600448772 -0.047448609665215205 0.023147388462459881
decision_type=2 2 2 2 2
left_child=4 2 3 -2 -1
right_child=1 -3 -4 -5 -6
leaf_value=-0.0046394026779079363 0.026478158966576584 0.028977424043609826 -0.03598610318438171 -0.0048301766833956303 -0.04388283082431621
leaf_weight=4.901593551039694 6.2153023183345786 5.9021663814783087 5.7457037419080725 116.36741600930691 7.3753228932619095
leaf_count=20 25 24 23 477 30
internal_value=-0.00568456 -0.0029106 -0.00478324 -0.00283905 -0.0316273
internal_weight=146.508 134.231 128.328 122.583 12.2769
internal_count=599 549 525 502 50
is_linear=0
shrinkage=0.05


Tree=42
num_leaves=11
num_cat=0
split_feature=8 31 11 9 14 31 55 13 14 56
split_gain=3.9964 5.17069 5.13974 3.77516 7.53311 4.27652 3.22149 3.49898 2.99028 2.58629
threshold=-0.06022593074522304 0.5699326690071721 18.793937434535035 0.048085470338918572 -0.42467871991136169 0.54995613138779198 1.5529166092248867 28.71205174750472 0.10592420703916511 4.3369779398650801
decision_type=2 2 2 2 2 2 2 2 2 2
left_child=3 2 9 4 -1 -6 7 -3 -4 -2
right_child=1 6 8 -5 5 -7 -8 -9 -10 -11
leaf_value=0.048969731182649634 -0.01002492447270043 -0.0011850217569154174 0.00085772767439880749 -0.027593568814647907 0.022994432676045468 -0.013917403873992701 0.02918023784450199 -0.042508463306601442 -0.036042241424227038 -0.063190918156400253
leaf_weight=9.4206606745719892 5.0636902600526801 50.311656653881073 17.461286336183552 5.7400205731391898 11.556523621082308 19.92021119594574 6.268388718366622 4.9224511831998816 6.2650631219148627 9.5112533867359144
leaf_count=40 21 206 72 23 47 80 26 20 26 38
internal_value=-0.00542314 -0.0111254 -0.0253431 0.0062323 0.0121218 0 -0.0016074 -0.00600276 -0.00893842 -0.0481545
internal_weight=146.441 99.8038 38.3013 46.6374 40.8974 31.4767 61.5025 55.2341 23.7263 14.5749
internal_count=599 409 157 190 167 127 252 226 98 59
is_linear=0
shrinkage=0.05


Tree=43
num_leaves=7
num_cat=0
split_feature=25 25 23 22 3 29
split_gain=3.56491 2.69409 2.53013 5.58573 4.94309 1.06039
threshold=13.500000000000002 98.500000000000014 0.21383777365425169 -0.015755023811583384 -1.5673863720889269 0.023147388462459881
decision_type=2 2 2 2 2 2
left_child=5 2 3 -2 -4 -1
right_child=1 -3 4 -5 -6 -7
leaf_value=-0.00435010169938377 0.026192394562037227 0.027432809556664984 -0.040492414865097477 -0.0055835963291633326 -0.00274327064267103 -0.04187243482152686
leaf_weight=4.8971080034971219 16.320234194397926 5.9082078188657752 11.687282100319861 66.747503787279129 33.345593526959419 7.3120220750570297
leaf_count=20 69 24 47 273 136 30
internal_value=-0.00520833 -0.00254104 -0.00431891 0.000599323 -0.0137501 -0.0301835
internal_weight=146.218 134.009 128.101 83.0677 45.0329 12.2091
internal_count=599 549 525 342 183 50
is_linear=0
shrinkage=0.05


Tree=44
num_leaves=13
num_cat=0
split_feature=8 25 10 29 12 11 8 9 17 33 25 31
split_gain=3.55697 5.01304 4.16598 4.13136 6.39656 4.94214 3.57614 4.40234 3.37386 2.81087 0.933765 0.868524
threshold=-0.019473975046351528 30.500000000000004 20.21228559147583 0.035757976286879753 19.089626895601555 24.04737132615951 -0.062781303093481414 0.046776783720030281 12.520422002675813 -0.0013234135635224939 71.500000000000014 0.53768779144763068
decision_type=2 2 2 2 2 2 2 2 2 2 2 2
left_child=2 8 9 4 -3 -5 7 -4 -2 -1 -8 -10
right_child=1 3 6 5 -6 -7 10 -9 11 -11 -12 -13
leaf_value=0.046010924896475403 0 -0.010946419768194411 0.011173932139149944 -0.027384101969606542 0.056265022920518493 0.0043304438790886532 -0.0085744713172436985 -0.032311606219539574 -0.061278515644276825 0 -0.041687021671299368 -0.023364727947767575
leaf_weight=7.2731594443321228 4.8727694302797344 6.1761965900659543 35.17857101559639 22.773531436920166 5.4813091307878494 22.608698576688766 8.3562847226858121 5.7965902090072623 6.7122760266065589 7.363625839352606 5.053362011909484 8.4144029915332776
leaf_count=31 20 25 144 93 23 93 35 23 28 30 20 34
internal_value=-0.0049845 -0.0123663 0.00295662 -0.00409484 0.0206294 -0.0112927 -0.00312222 0.0038034 -0.033448 0.0258973 -0.0248148 -0.0444953
internal_weight=146.061 77.0392 69.0216 57.0397 11.6575 45.3822 54.3848 40.9752 19.9994 14.6368 13.4096 15.1267
internal_count=599 316 283 234 48 186 222 167 82 61 55 62
is_linear=0
shrinkage=0.05


Tree=45
num_leaves=8
num_cat=0
split_feature=55 55 55 0 29 31 32
split_gain=6.39512 5.41311 6.19418 4.08944 3.62125 2.79353 3.02119
threshold=1.4049923609249697 1.3468786893119407 1.2882126061008721 74.299187393304166 0.12256362973599057 0.43666053309142489 -2.1691363544695292
decision_type=2 2 2 2 2 2 2
left_child=1 2 3 -1 5 -2 -7
right_child=4 -3 -4 -5 -6 6 -8
leaf_value=0.0092828697789164479 -0.0010488497223369103 0.044843536906054034 -0.033715155540072039 -0.029437112049365128 0.0082026734393713854 -0.0035881438300193916 -0.051881476554135747
leaf_weight=90.030741572380066 8.8750220984220523 7.1427483260631552 9.6761846244335157 6.1553784012794486 7.7496474981307975 6.05168189108372 12.219368144869803
leaf_count=373 37 29 39 25 32 24 50
internal_value=-0.000235972 0.00539093 0.00210031 0.00627037 -0.0187969 -0.0274106 -0.0381994
internal_weight=147.901 113.005 105.862 96.1861 34.8957 27.1461 18.2711
internal_count=609 466 437 398 143 111 74
is_linear=0
shrinkage=0.05


Tree=46
num_leaves=14
num_cat=0
split_feature=5 5 30 23 5 14 30 3 28 28 13 25 3
split_gain=4.546 6.63865 4.4149 5.85989 4.06892 5.73528 4.37229 6.04846 4.08516 4.06337 3.43838 3.23236 1.30399
threshold=31.567904669906664 24.594731687798689 0.24580443403224944 0.2328158659248584 63.082854506401127 -0.52649648217300471 0.85570340525533151 3.5560428495474325 13.436181735210768 13.199228998024388 -13.816691593333593 56.500000000000007 0.33929091242063236
decision_type=2 2 2 2 2 2 2 2 2 2 2 2 2
left_child=1 2 3 -1 5 10 8 -8 -6 -3 -2 -7 -4
right_child=4 9 12 -5 6 11 7 -9 -10 -11 -12 -13 -14
leaf_value=0.031086623682753639 -0.011085687320135337 0.0040162861456791562 -0.0015768812829755532 -0.018521742674662993 0.029366734863054963 -0.0083059503327816784 -0.031311471775404824 0.026520617870330145 -0.0038688215043212941 0.065696823968274601 0.033684674673024516 -0.041963153593062241 -0.041830443010793389
leaf_weight=14.878338426351549 8.2190621942281705 5.6569697111844999 5.2677452713251096 8.0360532402992231 18.534330159425735 15.739136710762976 14.683500975370409 5.0469264239072791 14.962038382887838 6.867711529135704 6.4307202398776999 18.355344757437706 4.9933300763368607
leaf_count=64 34 24 21 32 77 64 61 21 62 28 27 74 20
internal_value=-0.000253383 0.0125112 0 0.0125966 -0.00628278 -0.016648 0.00288049 -0.0147467 0.0141147 0.0420431 0.00786604 -0.0278176 -0.0253606
internal_weight=147.671 45.7001 33.1755 22.9144 101.971 48.7443 53.2268 19.7304 33.4964 12.5247 14.6498 34.0945 10.2611
internal_count=609 189 137 96 420 199 221 82 139 52 61 138 41
is_linear=0
shrinkage=0.05


Tree=47
num_leaves=12
num_cat=0
split_feature=55 10 6 56 33 20 6 12 2 10 55
split_gain=5.64019 5.39191 3.92726 3.61214 5.75322 4.48003 3.20371 4.37029 2.41575 2.31583 1.74024
threshold=1.4049923609249697 24.246066384611769 28.242084636624597 3.9795011902692949 0.0076380599770709658 -0.0020289058048876415 87.73383235938023 28.135718468158206 66.814710292154004 20.975632107319843 1.4830679043566461
decision_type=2 2 2 2 2 2 2 2 2 2 2
left_child=1 3 10 4 -1 -5 7 -3 9 -4 -2
right_child=2 6 8 5 -6 -7 -8 -9 -10 -11 -12
leaf_value=-0.001963065122351683 -0.009987565064735783 0.035827350050115052 -0.0022725230458917885 0.006610712508680703 0.057565495434109298 -0.021458280590070565 -0.013459415114602019 0 0 -0.045645468884352169 0.026992369696201054
leaf_weight=11.211308658123015 5.007841542363165 25.096092954277992 5.5446849316358628 22.418423116207123 4.7328808903694144 32.12694638967514 5.0189526975154868 12.079298987984656 4.765012875199317 14.535593435168265 4.7980511784553528
leaf_count=47 20 104 23 93 20 131 21 50 20 60 20
internal_value=-0.000238911 0.00503375 -0.0177468 -0.00314718 0.0165865 -0.00956038 0.019036 0.0243156 -0.0282138 -0.035531 0.00661671
internal_weight=147.335 112.684 34.6512 70.4896 15.9442 54.5454 42.1943 37.1754 24.8453 20.0803 9.80589
internal_count=609 466 143 291 67 224 175 154 103 83 40
is_linear=0
shrinkage=0.05


Tree=48
num_leaves=9
num_cat=0
split_feature=55 55 55 10 6 29 10 55
split_gain=5.13971 4.96036 5.54013 4.49596 3.59523 2.32818 2.12691 1.60856
threshold=1.4049923609249697 1.3468786893119407 1.2882126061008721 24.300796227382278 28.242084636624597 0.12256362973599057 20.975632107319843 1.4830679043566461
decision_type=2 2 2 2 2 2 2 2
left_child=1 2 3 -1 7 6 -6 -2
right_child=4 -3 -4 -5 5 -7 -8 -9
leaf_value=-0.0015452003338946834 -0.0095760917794672825 0.042621027302505388 -0.032335982213149768 0.021087166177538825 -0.0021769438152571372 0 -0.0440163676951058 0.025950438090308166
leaf_weight=65.06557996571064 5.0049151182174665 7.110321804881095 9.6109425872564298 30.762718915939331 5.5426780283451142 4.746017947793006 14.437981605529783 4.7817308306694031
leaf_count=269 20 29 39 129 23 20 60 20
internal_value=-0.00022106 0.00480192 0.00164024 0.00560478 -0.0169792 -0.027035 -0.0342585 0.00626097
internal_weight=147.063 112.55 105.439 95.8283 34.5133 24.7267 19.9807 9.78665
internal_count=609 466 437 398 143 103 83 40
is_linear=0
shrinkage=0.05


Tree=49
num_leaves=13
num_cat=0
split_feature=5 5 20 25 28 5 14 1 32 29 25 23
split_gain=3.91374 6.24099 7.25063 6.29947 3.67098 3.48498 5.09244 3.99121 3.88106 2.90523 2.69466 2.64377
threshold=31.567904669906664 24.594731687798689 -0.0041399095538558984 90.500000000000014 13.199228998024388 63.082854506401127 -0.52649648217300471 59.254731373581507 0.16526952370765965 0.058009884523092546 56.500000000000007 0.17965370871412276
decision_type=2 2 2 2 2 2 2 2 2 2 2 2
left_child=1 2 3 -1 -3 6 11 9 -9 -7 -8 -2
right_child=5 4 -4 -5 -6 7 10 8 -10 -11 -12 -13
leaf_value=0.026397647933113579 0.032173814442206988 0.003872286550993169 -0.041312411726446507 -0.027881387603996041 0.063006665878962281 0.0023520396869554437 -0.0080171545433027503 -0.04307423830983334 0 0.036405484728371934 -0.039137945013598491 -0.0074408672638082056
leaf_weight=19.941367164254189 5.7349383980035773 5.6257204562425596 7.159806594252589 5.8900004625320426 6.8054888844490051 20.315787523984913 15.729132562875746 6.1317282468080547 16.989625588059425 9.5385252833366376 18.135062873363495 8.8138411194086057
leaf_count=84 24 24 29 24 28 85 64 26 71 39 74 37
internal_value=-0.000211715 0.011655 0 0.0125115 0.0403876 -0.00583412 -0.0154689 0.00263109 -0.0120964 0.0148697 -0.0260447 0.0076318
internal_weight=146.811 45.4224 32.9912 25.8314 12.4312 101.389 48.413 52.9757 23.1214 29.8543 33.8642 14.5488
internal_count=609 189 137 108 52 420 199 221 97 124 138 61
is_linear=0
shrinkage=0.05


Tree=50
num_leaves=7
num_cat=0
split_feature=34 33 7 10 3 0
split_gain=2.79129 4.64 3.84183 4.50616 3.81957 3.35885
threshold=-0.30141719399909156 -0.023316029440469791 -0.24577955393605941 29.771083684048527 -2.2469019758239974 36.46684527307572
decision_type=2 2 2 2 2 2
left_child=-1 4 -3 -4 -2 -6
right_child=1 2 3 -5 5 -7
leaf_value=-0.027336533273639524 -0.007340728068966143 -0.036064654492453406 -0.0054227642925785162 0.018477551451664121 0.064614048217419243 0.0054459768023789844
leaf_weight=8.7390311509370786 4.8807289898395565 7.2051842212676993 97.496469333767891 23.584487318992615 5.693181708455084 5.6517408788204193
leaf_count=36 20 29 405 98 25 23
internal_value=-0.00140343 0.000170095 -0.00290657 -0.00044939 0.0247033 0.0399921
internal_weight=153.251 144.512 128.286 121.081 16.2257 11.3449
internal_count=636 600 532 503 68 48
is_linear=0
shrinkage=0.05


Tree=51
num_leaves=8
num_cat=0
split_feature=13 10 8 30 21 32 29
split_gain=2.54697 3.30244 4.00101 5.36085 5.28203 3.85997 4.06168
threshold=-22.671476660542286 28.380385259271204 -0.13558365257882302 0.83302762263642616 -0.02649929004471361 -2.1308493790895504 0.038628716436605488
decision_type=2 2 2 2 2 2 2
left_child=-1 5 4 -4 -3 -2 -7
right_child=1 2 3 -5 -6 6 -8
leaf_value=0.024018889457798381 0.024998986966646396 0.025308046655417627 0.042581845020644576 -0.0077177592348511865 -0.022504650334935344 0.0012649997584811988 -0.019170899412533575
leaf_weight=8.1169104278087598 6.7985814660787574 7.6797932833433178 12.911824449896814 6.9286148995161048 15.341983884572981 37.591620072722435 57.721314057707787
leaf_count=34 28 32 55 29 62 157 239
internal_value=-0.00132967 -0.00307499 0.00816416 0.0242893 -0.0051246 -0.0080686 -0.0109219
internal_weight=153.091 144.974 42.8622 19.8404 23.0218 102.112 95.3129
internal_count=636 602 178 84 94 424 396
is_linear=0
shrinkage=0.05


Tree=52
num_leaves=13
num_cat=0
split_feature=20 32 14 5 9 33 33 24 32 15 31 24
split_gain=2.42362 6.07347 5.55951 5.20633 3.15307 7.27336 5.16994 3.10029 3.03127 4.81357 3.30503 2.50828
threshold=0.0069297114510490287 0.21014345108505095 -0.44954002402791621 63.082854506401127 -0.057191020698170884 -0.034105033109355719 -0.023316029440469791 1.2104502978986889 -0.47156602032393169 13.399791957120099 0.3237208343433266 1.3646841499342686
decision_type=2 2 2 2 2 2 2 2 2 2 2 2
left_child=3 2 -2 4 5 -1 -6 -3 10 -10 -5 -9
right_child=1 7 -4 8 6 -7 -8 11 9 -11 -12 -13
leaf_value=-0.019663474885811806 0 -0.017083084460224281 -0.061614113818788799 0 0.01756229222111098 0.048223153680917577 -0.014670550554418602 0.046971717286061934 0.029835612347556686 -0.019675734709244164 0.049847452900812848 0
leaf_weight=6.0226699113845825 6.3867826312780371 6.2917950600385657 8.0367625355720538 4.9070522338151923 13.922070011496542 7.3940691351890546 63.024142026901245 4.7008131742477399 8.2048095911741274 9.2431675344705564 10.060818225145338 4.7365654408931732
leaf_count=24 27 26 34 21 59 31 260 20 34 38 42 20
internal_value=-0.00121766 -0.0137716 -0.036375 0.00174978 -0.00421949 0.0167651 -0.00836736 0.00639657 0.0187663 0.00260675 0.0346948 0.0245824
internal_weight=152.932 30.1527 14.4235 122.779 90.363 13.4167 76.9462 15.7292 32.4158 17.448 14.9679 9.43738
internal_count=636 127 61 509 374 55 319 66 135 72 63 40
is_linear=0
shrinkage=0.05


Tree=53
num_leaves=7
num_cat=0
split_feature=34 9 22 12 22 30
split_gain=2.50545 5.97481 2.79908 2.5006 4.54901 3.606
threshold=-0.30141719399909156 -0.057191020698170884 -0.039461341241057678 25.53396770934496 -0.055053586305624062 0.85684586548799924
decision_type=2 2 2 2 2 2
left_child=-1 2 -2 5 -5 -3
right_child=1 3 -4 4 -6 -7
leaf_value=-0.02572870363017421 0.0010551759943248341 0.0065421401479611833 0.057897402393094391 0.021854361613176377 -0.023188236741639792 -0.015789955733141778
leaf_weight=8.7345977127552015 4.7851890027523041 79.034860894083977 5.3188930004835111 5.6177716851234427 26.996012061834335 22.119185075163841
leaf_count=36 20 330 22 24 111 93
internal_value=-0.00113608 0.000351685 0.0357483 -0.00238189 -0.0142665 0.00130732
internal_weight=152.607 143.872 10.1041 133.768 32.6138 101.154
internal_count=636 600 42 558 135 423
is_linear=0
shrinkage=0.05


Tree=54
num_leaves=7
num_cat=0
split_feature=34 9 33 21 22 13
split_gain=2.28843 5.52236 3.96592 7.58495 2.56608 2.55425
threshold=-0.30141719399909156 -0.057191020698170884 -0.023316029440469791 -0.020032807107837208 -0.039461341241057678 1.3498682567707416
decision_type=2 2 2 2 2 2
left_child=-1 4 5 -4 -2 -3
right_child=1 2 3 -5 -6 -7
leaf_value=-0.024552905475714502 0.001011623933079679 0 -0.053992781953761108 -0.0017972956832709931 0.055769212061206823 0.045025512261374287
leaf_weight=8.7428991198539716 4.78470279276371 6.5244464427232725 6.5215699523687354 114.95807921886444 5.284784182906149 5.7321958690881729
leaf_count=36 20 27 26 480 22 25
internal_value=-0.00105571 0.000359882 -0.00225801 -0.00522145 0.0344505 0.023406
internal_weight=152.549 143.806 133.736 121.48 10.0695 12.2566
internal_count=636 600 558 506 42 52
is_linear=0
shrinkage=0.05


Tree=55
num_leaves=9
num_cat=0
split_feature=8 7 22 20 0 10 31 32
split_gain=2.61404 3.94871 4.83932 3.56583 4.11835 3.03796 2.16018 2.05479
threshold=-0.10772175947658787 -0.15413447648901799 -0.055053586305624062 -0.016076270589766548 34.744000619435027 18.441467936075423 0.5699326690071721 -1.541500312563268
decision_type=2 2 2 2 2 2 2 2
left_child=1 2 -1 7 -5 -6 -4 -2
right_child=3 -3 6 4 5 -7 -8 -9
leaf_value=0.029241649156024754 -0.00014416869756097477 0.038719088733047469 0.0013203861827678336 0.030717971821695625 -0.01553370007380362 0.0027111287192331055 -0.034717907186406716 -0.048171943731802384
leaf_weight=8.0531518459320086 5.0550093054771423 9.2705647349357587 5.8748012036085147 8.8687603771686536 32.504870310425758 66.218710795044899 7.0854291915893555 5.4953845590352994
leaf_count=34 21 39 24 39 134 277 29 22
internal_value=0.000280594 0.01329 0 -0.00292788 0 -0.00314084 -0.0176667 -0.0293296
internal_weight=148.427 30.2839 21.0134 118.143 107.592 98.7236 12.9602 10.5504
internal_count=619 126 87 493 450 411 53 43
is_linear=0
shrinkage=0.05


Tree=56
num_leaves=6
num_cat=0
split_feature=7 34 33 31 33
split_gain=2.02713 2.51614 2.24036 7.00538 5.00826
threshold=-0.32357621165778377 -0.33019736752740364 -0.0017210126822522706 1.7026205791723845 0.003156093567646802
decision_type=2 2 2 2 2
left_child=-1 -2 3 -3 -4
right_child=1 2 4 -5 -6
leaf_value=0.028960149213974475 -0.027707191399646915 0.018325028778688666 -0.031379774502093755 -0.031993625450606036 0.00095601826002418794
leaf_weight=4.9599382132291785 7.212279111146926 39.527853339910507 12.926680549979208 7.11568759381771 76.462997928261757
leaf_count=21 30 167 53 29 319
internal_value=0.000268926 -0.000745087 0.000693728 0.00961356 -0.00373892
internal_weight=148.205 143.245 136.033 46.6435 89.3897
internal_count=619 598 568 196 372
is_linear=0
shrinkage=0.05


Tree=57
num_leaves=9
num_cat=0
split_feature=4 8 55 30 9 4 9 30
split_gain=2.48167 3.11328 4.09573 4.7956 3.8307 3.2662 2.89557 1.45796
threshold=-0.0056009372452095352 -0.10772175947658787 0.96649557992562207 0.33675191958944756 0.063279849476548342 0.061846486792940074 0.037065500743800869 0.72774922263224173
decision_type=2 2 2 2 2 2 2 2
left_child=7 5 3 -3 -4 6 -2 -1
right_child=1 2 4 -5 -6 -7 -8 -9
leaf_value=0 0.029753950316504348 0.033383179123753125 -0.016274401370244464 -0.0041735903818358264 0.019092825689197755 -0.01930197403248176 -0.0058334439891156095 0.040723259190858396
leaf_weight=4.7838155776262266 18.934548363089569 11.452533587813376 66.278741016983986 23.493087530136108 7.1687169075012198 5.0749479532241812 6.108036831021308 4.7860445827245712
leaf_count=20 80 49 275 98 31 21 25 20
internal_value=0.000232927 -0.00136956 -0.00548916 0.00802549 -0.0122765 0.0123534 0.0202233 0.0237271
internal_weight=148.08 138.511 108.393 34.9456 73.4475 30.1175 25.0426 9.56986
internal_count=619 579 453 147 306 126 105 40
is_linear=0
shrinkage=0.05


Tree=58
num_leaves=9
num_cat=0
split_feature=4 7 31 30 11 11 7 30
split_gain=2.28719 3.26989 4.44996 3.46272 3.45123 4.55694 3.01033 1.32712
threshold=-0.0056009372452095352 0.072419273120290853 0.45878608690650963 0.87426191399038011 22.559974038916337 18.288583213528707 0.052081067612862249 0.72774922263224173
decision_type=2 2 2 2 2 2 2 2
left_child=7 4 -3 -4 5 -2 -6 -1
right_child=1 2 3 -5 6 -7 -8 -9
leaf_value=0 0.0047317917476689658 -0.048498303774644494 0.016668517296496842 -0.029478894948422769 0.030580771566695631 -0.018930203993250919 -0.007167601767714759 0.039017173574282263
leaf_weight=4.7838155776262266 66.997411444783211 7.1221534907817867 8.9779646098613721 5.7767819613218299 15.921996980905535 27.660900831222534 5.8245281726121894 4.7891856282949448
leaf_count=20 281 31 38 24 66 114 25 20
internal_value=0.000244828 -0.00128947 -0.0186811 -0.000536611 0.00189741 -0.00204694 0.0195007 0.022798
internal_weight=147.855 138.282 21.8769 14.7547 116.405 94.6583 21.7465 9.573
internal_count=619 579 93 62 486 395 91 40
is_linear=0
shrinkage=0.05


Tree=59
num_leaves=9
num_cat=0
split_feature=4 7 9 11 11 30 7 30
split_gain=2.1145 3.00794 3.53094 3.14238 5.36732 3.01459 2.4662 1.20867
threshold=-0.0056009372452095352 0.072419273120290853 0.063279849476548342 21.865519752383502 18.288583213528707 0.79777487664152036 0.052081067612862249 0.72774922263224173
decision_type=2 2 2 2 2 2 2 2
left_child=7 3 5 4 -2 -3 -5 -1
right_child=1 2 -4 6 -6 -7 -8 -9
leaf_value=0 0.0045001597312619643 -0.0053621332418111803 0.011366838384123525 0.025505416471173881 -0.022780373813749019 -0.052046178048484097 -0.0066525854824770582 0.037404228042611828
leaf_weight=4.7838155776262266 66.975644081830978 8.696989402174955 5.7297950834035865 19.812660127878193 23.238417580723763 7.3330769687890998 6.3278834223747245 4.7890322059392929
leaf_count=20 281 37 25 82 96 31 27 20
internal_value=0.000224112 -0.00124629 -0.0179792 0.0017965 -0.00242571 -0.0299882 0.0168415 0.0219146
internal_weight=147.687 138.114 21.7599 116.355 90.2141 16.0301 26.1405 9.57285
internal_count=619 579 93 486 377 68 109 40
is_linear=0
shrinkage=0.05


Tree=60
num_leaves=11
num_cat=0
split_feature=3 3 32 11 30 31 26 26 12 13
split_gain=3.02079 4.34105 4.12666 3.35976 6.23277 3.90167 3.11377 1.1997 0.774924 0.312474
threshold=2.6215624208420829 1.3617067290873026 -0.61722132121381046 18.856578659456748 0.47563168610182599 0.82702905349867339 14.203716332547872 15.424745744269844 17.082922225597247 2.8729554483988307
decision_type=2 2 2 2 2 2 2 2 2 2
left_child=1 3 -2 5 -5 -1 9 -8 -4 -3
right_child=2 6 8 4 -6 -7 7 -9 -10 -11
leaf_value=-0.0012208182811910056 -0.013373772085051258 -0.05013254922186438 0.013023809271788754 -0.037154213938872131 0.0015040603978525181 0.023583857043938936 0.01427710731521821 -0.017926249354724769 0.053365024854000645 -0.015044315047739662
leaf_weight=38.561011016368866 4.7627315521240225 6.8497203588485736 5.3223354965448362 13.300426974892614 34.196842834353447 23.93357840180397 4.776720851659773 4.6690322160720825 4.6866478472948074 4.740962490439415
leaf_count=161 20 28 22 55 144 102 20 20 20 20
internal_value=-0.000878442 -0.00350451 0.0195755 0.000327503 -0.00934863 0.00810672 -0.0237808 0 0.0373158 -0.0401007
internal_weight=145.8 131.028 14.7717 109.992 47.4973 62.4946 21.0364 9.44575 10.009 11.5907
internal_count=612 550 62 462 199 263 88 40 42 48
is_linear=0
shrinkage=0.05


Tree=61
num_leaves=10
num_cat=0
split_feature=3 3 8 26 55 55 16 26 10
split_gain=2.78626 3.99063 3.2232 2.86622 2.84266 3.16838 1.73464 1.10333 0.295282
threshold=2.6215624208420829 1.3617067290873026 -0.043996735571228553 14.203716332547872 1.5742259075204459 1.4049923609249697 15.684423027061104 15.424745744269844 22.448441268427903
decision_type=2 2 2 2 2 2 2 2 2
left_child=1 4 -2 8 5 -1 -6 -5 -3
right_child=2 3 -4 7 6 -7 -8 -9 -10
leaf_value=0.0013772896488317261 -0.0015724881306736574 -0.014592856261786125 0.040691150678853982 0.013682177022982911 0.0019636884230344368 -0.022186421957725071 0.042933142372514388 -0.017205607370357198 -0.048550093026045127
leaf_weight=81.740965500473976 7.5134525299072266 4.8947499394416827 7.217577323317526 4.7786320298910123 7.3229929804801923 15.924987986683844 4.8883056193590164 4.6633895933628082 6.6858533024787903
leaf_count=344 32 20 30 20 31 66 21 20 28
internal_value=-0.000845333 -0.00337337 0.018816 -0.0228196 0.000294024 -0.00239745 0.0222648 0 -0.0384854
internal_weight=145.631 130.9 14.731 21.0226 109.877 97.666 12.2113 9.44202 11.5806
internal_count=612 550 62 88 462 410 52 40 48
is_linear=0
shrinkage=0.05


Tree=62
num_leaves=10
num_cat=0
split_feature=3 3 11 33 29 8 26 26 13
split_gain=2.52749 3.68392 2.96655 6.3989 2.96939 2.96061 2.64184 1.01478 0.341138
threshold=2.6215624208420829 1.3617067290873026 18.856578659456748 0.004585708181867717 0.063626622481431444 -0.043996735571228553 14.203716332547872 15.424745744269844 2.8729554483988307
decision_type=2 2 2 2 2 2 2 2 2
left_child=1 2 4 -4 -1 -2 8 -8 -3
right_child=5 6 3 -5 -6 -7 7 -9 -10
leaf_value=0.01548701883407857 -0.0015030630761392863 -0.046688199443156934 -0.036142925068258835 0.0025886875407471876 -0.0066077879882055317 0.03888982427233121 0.013113059027419247 -0.016514986020868812 -0.012874676483891061
leaf_weight=41.298817172646523 7.5136541426181793 6.8301260471344012 13.930532053112982 33.479690104722977 21.144265368580818 7.220511466264723 4.7800884991884214 4.6574527323246002 4.733224168419838
leaf_count=176 32 28 58 141 87 30 20 20 20
internal_value=-0.000796423 -0.00321297 0.000301137 -0.0087869 0.00762507 0.0179163 -0.0219094 0 -0.0369637
internal_weight=145.588 130.854 109.853 47.4102 62.4431 14.7342 21.0009 9.43754 11.5634
internal_count=612 550 462 199 263 62 88 40 48
is_linear=0
shrinkage=0.05


Tree=63
num_leaves=14
num_cat=0
split_feature=31 20 11 12 21 9 31 10 26 29 13 6 25
split_gain=2.38582 3.84908 3.77539 3.52755 4.16522 3.43271 3.0906 2.88518 2.4192 3.96727 2.72423 2.38493 1.49977
threshold=0.89759714879995056 -0.00045125366608195905 12.555873956528137 15.527874445443537 0.020692653511532235 0.0056223127378840524 1.0828516449835319 37.853391476024406 14.052404085473361 0.035757976286879753 12.203475976452184 84.638617108805803 60.500000000000007
decision_type=2 2 2 2 2 2 2 2 2 2 2 2 2
left_child=1 2 7 4 -3 -4 12 -1 9 -8 -10 -5 -2
right_child=6 3 5 11 -6 -7 8 -9 10 -11 -12 -13 -14
leaf_value=-0.043042834931954981 0.043644777518545765 0.027498782830050639 0.0030747469225244199 -0.029886254747755532 -0.025907601597652038 0.043266654970724287 0.012568709092686002 0.0040752124465590848 0 -0.029942555656877826 0.031269390673111221 0.0035338349968881337 0.0024287447079256626
leaf_weight=5.1722248792648298 6.4136255085468274 7.8094945847988111 23.411156132817272 28.723611563444138 5.0009132921695709 6.6638924926519385 7.7593759447336224 4.7552379965782166 18.777801945805553 11.971014469861982 8.9894639253616315 4.6944551616907111 5.3062112331390381
leaf_count=21 28 33 98 121 22 28 33 20 78 50 38 20 22
internal_value=-0.000783528 -0.00621328 0.00462003 -0.0160162 0.00447352 0.0138905 0.00667985 -0.019878 0.000275507 -0.0122184 0.0101384 -0.0244989 0.0286075
internal_weight=145.448 86.231 40.0025 46.2285 12.8104 30.075 59.2175 9.92746 47.4977 19.7304 27.7673 33.4181 11.7198
internal_count=612 363 167 196 55 126 249 41 199 83 116 141 50
is_linear=0
shrinkage=0.05


Tree=64
num_leaves=8
num_cat=0
split_feature=3 32 20 9 55 12 12
split_gain=2.32362 3.64805 3.34883 6.2458 3.39982 2.41533 0.978231
threshold=2.6215624208420829 -0.61722132121381046 0.0096986463022310735 0.057582783634716257 1.6730781451968804 13.076724845050927 17.082922225597247
decision_type=2 2 2 2 2 2 2
left_child=2 -2 4 -4 5 -1 -3
right_child=1 6 3 -5 -6 -7 -8
leaf_value=0.022675896570845362 -0.013484180030908309 0.0098034141269158839 -0.05397413325577588 0.011792816594851548 0.03031632433005578 -0.004888173835430696 0.050850954065803894
leaf_weight=7.4029451310634604 4.7578425407409659 5.318311393260954 7.361114025115965 4.920902892947197 7.4034148901700965 103.4465798586607 4.6435083150863647
leaf_count=31 20 22 32 22 31 434 20
internal_value=-0.000686671 0.0172573 -0.00301599 -0.0268378 -0.000127863 -0.00263755 0.034111
internal_weight=145.255 14.7197 130.535 12.282 118.253 110.85 9.96182
internal_count=612 62 550 54 496 465 42
is_linear=0
shrinkage=0.05


Tree=65
num_leaves=9
num_cat=0
split_feature=29 29 28 23 24 8 4 20
split_gain=3.07889 5.89754 3.8785 3.13027 6.56565 5.1817 2.69571 2.84744
threshold=0.062910327555891335 0.059569356830680757 15.257076176638501 0.18493930429758756 1.2561793454112202 -0.01868133316099865 0.047365472738742163 -0.0020721231316278023
decision_type=2 2 2 2 2 2 2 2
left_child=1 3 6 4 -1 -5 7 -2
right_child=2 -3 -4 5 -6 -7 -8 -9
leaf_value=6.4742539073390511e-05 0.014460281034202408 0.044257391202800589 -0.046138470184331593 0.0095218187011272652 0.048180135694422803 -0.028041724444773042 -0.036426896165901113 -0.012180785362512872
leaf_weight=48.63019859790802 17.704517021775246 7.4216669201850882 5.9412258416414252 14.725937232375143 7.522384747862815 19.33286626636982 4.7876692712306967 20.618037089705467
leaf_count=204 74 31 24 62 32 82 20 87
internal_value=-0.000730082 0.00421882 -0.0109674 0.00020166 0.00767809 -0.011279 -0.0046175 0
internal_weight=146.685 97.6331 49.0514 90.2114 56.1526 34.0588 43.1102 38.3226
internal_count=616 411 205 380 236 144 181 161
is_linear=0
shrinkage=0.05


Tree=66
num_leaves=8
num_cat=0
split_feature=29 29 11 28 14 4 20
split_gain=2.85022 5.38522 3.62681 3.56888 3.27667 2.49121 2.58616
threshold=0.062910327555891335 0.059569356830680757 28.94000027810603 15.257076176638501 -0.38891762468478769 0.047365472738742163 -0.0020721231316278023
decision_type=2 2 2 2 2 2 2
left_child=1 2 4 5 -1 6 -2
right_child=3 -3 -4 -5 -6 -7 -8
leaf_value=0.0078118509667847698 0.013792801326385044 0.042367263110634143 0.031089644244381487 -0.044402073059297276 -0.01183638136191317 -0.035092787120665873 -0.011609220754805215
leaf_weight=36.977864474058151 17.682204484939575 7.4100211262702933 7.7469301819801322 5.9049128890037528 45.332061067223549 4.7599223703145972 20.601152867078781
leaf_count=156 74 31 33 24 191 20 87
internal_value=-0.000680356 0.00407774 0.000221976 -0.0105473 -0.00272148 -0.00443256 0
internal_weight=146.415 97.4669 90.0569 48.9482 82.3099 43.0433 38.2834
internal_count=616 411 380 205 347 181 161
is_linear=0
shrinkage=0.05


Tree=67
num_leaves=11
num_cat=0
split_feature=29 29 3 17 23 24 34 3 23 23
split_gain=2.63997 5.96487 3.4874 3.77186 2.83131 5.9767 3.43394 2.72821 2.69673 2.75523
threshold=0.061988019034575952 0.059569356830680757 -0.53496768667340489 13.202422156829806 0.18493930429758756 1.2561793454112202 0.75465620394452115 -3.0990406335732463 0.16940693272466881 0.26867724732721304
decision_type=2 2 2 2 2 2 2 2 2 2
left_child=1 4 3 -2 5 -1 -6 -5 -4 -10
right_child=2 -3 8 7 6 -7 -8 -9 9 -11
leaf_value=7.8125003472300465e-05 0.0071820593470587925 0.047782663381328389 -0.026362742420147835 -0.0014443408562217158 -0.00029524710065278954 0.046141143971917424 -0.036890891449230877 -0.051789889588983284 0.018840252924875636 -0.017067993147269835
leaf_weight=48.619748771190643 4.990049451589587 6.2153140157461158 6.0224153399467495 5.0294548869133004 25.71638897061348 7.4660829454660407 8.2454890608787519 10.088112279772755 17.996083274483684 5.8910222798585883
leaf_count=204 21 26 25 21 108 32 36 41 77 25
internal_value=-0.000641491 0.00401299 -0.00999262 -0.0255803 0.000225695 0.00734878 -0.0106963 -0.0377204 0.000166452 0.00865007
internal_weight=146.28 96.263 50.0171 20.1076 90.0477 56.0858 33.9619 15.1176 29.9095 23.8871
internal_count=616 406 210 83 380 236 144 62 127 102
is_linear=0
shrinkage=0.05


Tree=68
num_leaves=9
num_cat=0
split_feature=29 29 11 17 7 14 23 29
split_gain=2.43231 5.49159 3.28674 3.2271 4.39214 2.96539 2.4519 2.17065
threshold=0.061988019034575952 0.059569356830680757 28.94000027810603 15.601518986388575 -0.30208555831198408 -0.38891762468478769 0.16847017120166999 0.093697282397533374
decision_type=2 2 2 2 2 2 2 2
left_child=1 2 5 6 -5 -1 -2 -8
right_child=3 -3 -4 4 -6 -7 7 -9
leaf_value=0.0074293927455722931 -0.023734573436638519 0.045955208563848444 0.029620674961198391 0.0043544399596784364 -0.04957140019998283 -0.011269979185877164 0.018362179963813185 -0.0078409925304491462
leaf_weight=36.892129078507423 8.3921628892421705 6.1800062507390967 7.7358083426952353 4.6784379035234442 8.6042652726173383 45.27907232940197 15.117954894900324 13.132875651121138
leaf_count=156 35 26 33 20 35 191 64 56
internal_value=-0.000615415 0.00384882 0.000205835 -0.00960506 -0.0298522 -0.00258561 -0.00100348 0.00547489
internal_weight=146.013 96.087 89.907 49.9257 13.2827 82.1712 36.643 28.2508
internal_count=616 406 380 210 55 347 155 120
is_linear=0
shrinkage=0.05


Tree=69
num_leaves=7
num_cat=0
split_feature=9 1 11 11 29 31
split_gain=2.4951 2.60924 2.81361 3.6888 3.32636 1.13362
threshold=-0.078891298694830983 34.332636176258148 21.373461529340773 19.457968119157837 0.071171646020950635 1.1086982574229667
decision_type=2 2 2 2 2 2
left_child=-1 5 3 -3 -4 -2
right_child=1 2 4 -5 -6 -7
leaf_value=-0.033070519566180734 0.039666791695197802 -0.0016373174480080158 0.015323365860969392 -0.029607585226207503 -0.012634089792207684 0.0006162262427568566
leaf_weight=4.7042395323514929 4.8591900020837766 66.505461111664772 38.15081724524498 14.027914121747015 12.821644380688666 4.8052277565002441
leaf_count=19 22 280 161 59 55 20
internal_value=-0.000563878 0.000568494 -0.00117104 -0.00711939 0.00770213 0.0244732
internal_weight=145.874 141.17 131.506 80.5334 50.9725 9.66442
internal_count=616 597 555 339 216 42
is_linear=0
shrinkage=0.05


Tree=70
num_leaves=7
num_cat=0
split_feature=25 25 14 13 1 22
split_gain=2.32208 3.21242 2.74369 3.07047 2.78526 0.782364
threshold=98.500000000000014 94.500000000000014 -0.54082347980564627 13.854164491394377 56.479953382643316 -0.0038106184131723839
decision_type=2 2 2 2 2 2
left_child=1 2 4 -4 -1 -3
right_child=-2 5 3 -5 -6 -7
leaf_value=0.019645821242372144 0.029113303143361788 -0.035220400722357451 -0.010020895538453223 0.0090670184745599413 -0.011663250838575411 -0.0018800330778106092
leaf_weight=28.233937934041023 5.3630798757076255 7.3514954149723053 64.913835793733597 28.898270502686501 7.57179071009159 4.5423735380172712
leaf_count=121 23 30 272 123 32 20
internal_value=-0.000232564 -0.00171664 0.00045876 -0.00384368 0.0122087 -0.0255597
internal_weight=146.875 141.512 129.618 93.8121 35.8057 11.8939
internal_count=621 598 548 395 153 50
is_linear=0
shrinkage=0.05


Tree=71
num_leaves=12
num_cat=0
split_feature=10 14 21 32 3 17 32 0 31 0 31
split_gain=2.2167 3.48004 4.46445 3.80303 3.1879 4.41011 2.97575 5.06093 4.35937 2.82381 2.77027
threshold=28.938341949300916 -0.64326333526964874 0.0086843173979938206 -0.43272173968295108 -0.47536725598382351 17.291489248811793 -1.9062784021089494 41.552541380875709 0.43037174330750916 32.198873355691333 2.1769875472890425
decision_type=2 2 2 2 2 2 2 2 2 2 2
left_child=1 2 3 -1 5 -3 9 -8 -9 -2 -6
right_child=6 4 -4 -5 10 -7 7 8 -10 -11 -12
leaf_value=0.045732907757205891 0.012932197770840077 -0.028775944081136186 -0.025294102340666459 0 -0.0054915255143797841 0.016540933138772071 0.053955012688907171 -0.022255484275183021 0.020306879584328322 -0.028160724514223995 0.030838234194222786
leaf_weight=8.5944491326808965 6.1560269445180875 28.983378469944 4.9957709163427344 10.653414785861969 38.701828360557556 5.1045858412981024 6.4862999618053463 7.9072995483875301 16.314222499728203 7.8498811274766922 5.0247886180877677
leaf_count=37 26 121 21 45 164 22 29 33 70 32 21
internal_value=-0.000221395 -0.00444724 0.0113189 0.0228363 -0.00975777 -0.0209994 0.00876343 0.0175756 0.00508937 -0.00877494 -0.000161643
internal_weight=146.772 102.058 24.2436 19.2479 77.8146 34.088 44.7137 30.7078 24.2215 14.0059 43.7266
internal_count=621 431 103 82 328 143 190 132 103 58 185
is_linear=0
shrinkage=0.05


Tree=72
num_leaves=7
num_cat=0
split_feature=58 58 14 10 56 22
split_gain=2.06999 2.95739 2.32694 4.28536 2.4126 0.65285
threshold=0.9850000000000001 0.94500000000000006 -0.54082347980564627 30.564033082855332 4.1912705626733153 -0.0038106184131723839
decision_type=2 2 2 2 2 2
left_child=1 2 4 -4 -1 -3
right_child=-2 5 3 -5 -6 -7
leaf_value=0.033910041922944799 0.027600977153485931 -0.033468795763424396 -0.010334626669258043 0.012857123229848361 0.0028376180610875531 -0.0020633224981679277
leaf_weight=8.1622801572084409 5.3362960815429679 7.3202744275331497 67.152159929275513 26.536404296755791 27.493363156914711 4.5384852141141874
leaf_count=35 23 30 282 113 118 20
internal_value=-0.00016098 -0.00157267 0.000508334 -0.00343535 0.0113638 -0.0244889
internal_weight=146.539 141.203 129.344 93.6886 35.6556 11.8588
internal_count=621 598 548 395 153 50
is_linear=0
shrinkage=0.05


Tree=73
num_leaves=8
num_cat=0
split_feature=3 2 21 20 25 13 8
split_gain=1.99493 3.01895 3.30614 2.96957 2.95488 1.64275 0.9357
threshold=-3.0325669289598243 36.434224239140306 -0.020032807107837208 -0.0057371275099005513 64.500000000000014 -1.0000000180025095e-35 -0.24836043299029173
decision_type=2 2 2 2 2 2 2
left_child=4 6 -3 -4 -1 -6 -2
right_child=1 2 3 -5 5 -7 -8
leaf_value=0.0098772846390763579 0.038850946221918335 -0.028899552126108442 0.023290055837159263 -0.0011829056076897934 -0.0037900463234805844 -0.051436210431460717 0.0046533815358363005
leaf_weight=4.7396095097064963 5.6674191057682037 8.5914873927831632 12.972641587257383 98.807105198502541 4.6940708309411994 4.8476662188768378 6.0906059443950635
leaf_count=20 25 36 56 418 20 20 26
internal_value=-0.000125286 0.00166907 -0.00057533 0.00161697 -0.0173853 -0.0329512 0.0248495
internal_weight=146.411 132.129 120.371 111.78 14.2813 9.54174 11.758
internal_count=621 561 510 474 60 40 51
is_linear=0
shrinkage=0.05


Tree=74
num_leaves=14
num_cat=0
split_feature=11 12 8 10 11 55 3 25 13 30 3 25 33
split_gain=1.98297 4.75916 4.40599 4.8567 3.65917 3.45505 4.62248 3.09155 2.89221 2.67153 1.34823 1.18169 0.326161
threshold=23.878541699637669 20.112591673178496 0.026005912261298725 30.564033082855332 27.613999268114046 1.0875225697309936 -3.0325669289598243 32.500000000000007 -16.460014183790793 0.84424896971148589 0.24626233237957643 46.500000000000007 0.011218857024358509
decision_type=2 2 2 2 2 2 2 2 2 2 2 2 2
left_child=1 8 12 4 -4 7 -7 -3 10 -5 -1 -10 -2
right_child=2 5 3 9 -6 6 -8 -9 11 -11 -12 -13 -14
leaf_value=0.012192491695484352 0.015043844381670647 0.00028262354195569616 0.001099507382791231 0.036644379506278593 -0.044781408614162223 -0.039826057510452782 3.970061597078242e-05 0.033830728945361287 -0.052355180784312762 -0.0047388456887199736 -0.018366852227586682 -0.0097141557750866237 0.046731388153399944
leaf_weight=5.4249776154756564 6.4249409139156324 17.898181140422825 7.1845897734165209 7.7513075768947584 7.0349433273077011 7.3623538911342612 46.529481396079063 12.0063209682703 7.3064841479063016 4.9773179739713669 6.4075358659029007 4.7673835456371307 5.1942556798458099
leaf_count=23 27 75 31 33 31 31 196 53 30 21 28 20 22
internal_value=-0.000113521 -0.00376649 0.00929325 -0.00119709 -0.0214078 0.0016416 -0.00557738 0.0152196 -0.0230314 0.0194747 -0.00254951 -0.0394614 0.0337712
internal_weight=146.27 107.703 38.5674 26.9482 14.2195 83.7963 53.8918 29.9045 23.9064 12.7286 11.8325 12.0739 11.6192
internal_count=621 456 165 116 62 355 227 128 101 54 51 50 49
is_linear=0
shrinkage=0.05


Tree=75
num_leaves=9
num_cat=0
split_feature=55 55 13 13 13 20 31 20
split_gain=2.856 3.41593 3.93906 3.47793 4.02509 3.35336 1.87076 1.47051
threshold=1.6131460285199091 1.0925082054708368 16.799493333703211 23.72310728740629 12.203475976452184 -0.0025484923803474023 0.79674917037265147 -0.0077761725069324392
decision_type=2 2 2 2 2 2 2 2
left_child=1 2 5 4 -3 -1 -5 -2
right_child=7 3 -4 6 -6 -7 -8 -9
leaf_value=0.02110241867817484 0 -0.0083129179134012517 0.035745249878147686 -0.0026962650665456199 0.024654722355254038 -0.0063990160788315147 -0.049206340446806385 0.036497028444001177
leaf_weight=14.832969486713408 5.1878478080034256 55.956008017063141 9.705091327428816 5.0155782848596555 9.8791043758392316 34.695804953575134 6.2190211117267609 7.2807248681783658
leaf_count=64 22 237 42 21 43 147 26 32
internal_value=0.00134457 -0.00064338 0.0081076 -0.00770709 -0.00269693 0.00159703 -0.0324033 0.0233668
internal_weight=148.772 136.304 59.2339 77.0697 65.8351 49.5288 11.2346 12.4686
internal_count=634 580 253 327 280 211 47 54
is_linear=0
shrinkage=0.05


Tree=76
num_leaves=10
num_cat=0
split_feature=55 55 33 33 14 33 15 20 25
split_gain=2.61758 3.12183 3.78113 3.53309 3.29495 3.09159 2.65287 1.33266 0.838299
threshold=1.6131460285199091 1.0925082054708368 0.030175918484424826 -0.0030871592468421478 -0.49281991096932537 0.008583265529960955 14.307096846787298 -0.0077761725069324392 31.500000000000004
decision_type=2 2 2 2 2 2 2 2 2
left_child=1 3 4 8 -3 -5 -4 -2 -1
right_child=7 2 6 5 -6 -7 -8 -9 -10
leaf_value=0.0085322826070681011 0 0.0050073871667423303 0.043140953505605664 -0.018305572822650832 -0.018597356190177737 0.0095581036761525611 -0.0025424992107271902 0.034869536114832782 0.03663791089278081
leaf_weight=8.5218143463134783 5.1878478080034256 18.379685610532761 4.7635586708784086 14.488241106271742 49.040941178798676 26.791429609060287 4.7978803962469101 7.2860358655452711 9.3217141628265363
leaf_count=37 22 79 21 60 206 114 21 32 42
internal_value=0.00129205 -0.000606557 -0.00736943 0.00775942 -0.0118179 0 0.0197799 0.0223711 0.0257069
internal_weight=148.579 136.105 76.9821 59.1232 67.4206 41.2797 9.56144 12.4739 17.8435
internal_count=634 580 327 253 285 174 42 54 79
is_linear=0
shrinkage=0.05


Tree=77
num_leaves=10
num_cat=0
split_feature=55 55 30 12 33 14 15 33 11
split_gain=2.3911 2.82869 3.86204 5.08764 3.44152 2.99824 2.47472 2.08803 0.646374
threshold=1.6131460285199091 1.0925082054708368 0.32789455458192091 22.635264555781422 0.030175918484424826 -0.49281991096932537 14.307096846787298 -0.0053576843122003365 17.210204411687744
decision_type=2 2 2 2 2 2 2 2 2
left_child=1 2 7 -4 5 -3 -6 -1 -2
right_child=8 4 3 -5 6 -7 -8 -9 -10
leaf_value=0.043303121544293249 0.032237041176353863 0.0047695943226556342 0.0063363702295635375 -0.040927128436227908 0.041636675708112358 -0.017710850227103749 -0.002438182205320028 0.0047138210181544241 0.0034479551116487861
leaf_weight=8.58677986264229 6.4267442524433118 18.38104110956192 36.169670954346657 5.7051162868738166 4.7259653806686384 48.972689896821976 4.795836478471756 8.5683438926935178 6.0489164441823959
leaf_count=40 28 79 154 23 21 206 21 36 26
internal_value=0.00128344 -0.000525908 0.0074353 -0.000324208 -0.00697703 -0.0112301 0.0189396 0.0267275 0.0214253
internal_weight=148.381 135.905 59.0299 41.8748 76.8755 67.3537 9.5218 17.1551 12.4757
internal_count=634 580 253 177 327 285 42 76 54
is_linear=0
shrinkage=0.05


Tree=78
num_leaves=10
num_cat=0
split_feature=55 55 30 12 13 13 33 31 20
split_gain=2.19949 2.55758 3.58356 4.6576 3.15933 3.61793 1.93758 1.7106 1.25885
threshold=1.6131460285199091 1.0925082054708368 0.32789455458192091 22.635264555781422 23.72310728740629 12.203475976452184 -0.0053576843122003365 0.79674917037265147 -0.0077761725069324392
decision_type=2 2 2 2 2 2 2 2 2
left_child=1 2 6 -4 5 -3 -1 -6 -2
right_child=8 4 3 -5 7 -7 -8 -9 -10
leaf_value=0.04193482028348422 0 -0.0071952542875137696 0.0060263506696294497 -0.039193945208497963 -0.0017563487985508761 0.024183376262164137 0.0045049584208937867 -0.046299230490641052 0.032687340258119528
leaf_weight=8.4595067650079745 5.1742564588785172 55.806510835886002 36.180032178759575 5.7037678658962241 4.9893384873867017 9.8193892538547498 8.5637980699539167 6.1490196287631989 7.2911803126335126
leaf_count=40 22 237 154 23 21 43 36 26 32
internal_value=0.00127269 -0.000457458 0.00711235 -0.000319169 -0.00660459 -0.00183244 0.025787 -0.0301947 0.0205955
internal_weight=148.137 135.671 58.9071 41.8838 76.7643 65.6259 17.0233 11.1384 12.4654
internal_count=634 580 253 177 327 280 76 47 54
is_linear=0
shrinkage=0.05


Tree=79
num_leaves=10
num_cat=0
split_feature=14 5 30 11 13 33 10 24 25
split_gain=2.14107 2.79519 2.98936 6.41345 5.40786 2.91387 4.27584 2.55583 0.61987
threshold=-1.2644768107417026 78.349955483676254 0.33387601301846132 18.856578659456748 0.085178507846186913 0.019056427350279664 29.229996248910869 1.3329359571186472 41.500000000000007
decision_type=2 2 2 2 2 2 2 2 2
left_child=7 2 3 -2 -4 8 -7 -1 -3
right_child=1 5 4 -5 -6 6 -8 -9 -10
leaf_value=-0.039773460680035656 0.015535430433691997 0.050816141817974794 0.0023375048684224466 -0.027491021473910412 -0.029468226575940379 -0.019230509044356081 0.027589809776138386 0.0039654997600749569 0.012317147291432346
leaf_weight=5.6830277293920499 46.412514299154282 5.2396926134824771 35.330480501055717 9.3347637951374036 19.250689178705215 8.844240680336954 8.4079033434391004 4.5354923754930496 4.8737504631280899
leaf_count=24 201 23 149 39 82 39 37 20 20
internal_value=0.00121852 0.00306653 -0.000308714 0.00753271 -0.00875889 0.0170868 0.0024793 -0.0195085 0.0372904
internal_weight=147.913 137.694 110.328 55.7473 54.5812 27.3656 17.2521 10.2185 10.1134
internal_count=634 590 471 240 231 119 76 44 43
is_linear=0
shrinkage=0.05


Tree=80
num_leaves=10
num_cat=0
split_feature=5 12 33 12 11 14 32 10 32
split_gain=4.96824 3.90068 3.87169 3.91564 3.12582 3.38264 3.0895 2.2753 1.92695
threshold=63.082854506401127 23.001981883224357 -0.0015505377020039132 13.076724845050927 10.905431101694814 -0.29344441303321439 -0.2501909970668641 18.878598443787599 -1.9838566859617077
decision_type=2 2 2 2 2 2 2 2 2
left_child=4 2 -2 -4 8 7 -7 -6 -1
right_child=1 -3 3 -5 5 6 -8 -9 -10
leaf_value=-0.0024827969199053986 0.041941507547024248 0.048805680427775486 0.022361965165463238 -0.010342572881118521 -0.017746467657018827 -0.011042870493394558 -0.040923335614968075 0.010321822995736156 0.03607202674232389
leaf_weight=4.6557148993015289 5.176621049642562 5.0944769233465186 12.082289010286329 29.356504067778587 9.7098773270845431 36.593215420842171 12.95118699967861 20.759043291211128 4.8137071728706342
leaf_count=20 23 21 53 126 41 156 55 88 21
internal_value=-0.00137688 0.0106258 0.00499078 0 -0.00862999 -0.012054 -0.0200035 0.000302854 0.0163018
internal_weight=141.193 51.7099 46.6154 41.4388 89.4827 80.0133 49.5444 30.4689 9.46942
internal_count=604 223 202 179 381 340 211 129 41
is_linear=0
shrinkage=0.05


Tree=81
num_leaves=11
num_cat=0
split_feature=9 20 6 33 32 26 10 6 33 33
split_gain=3.98613 3.98335 3.86624 5.18756 3.36047 3.09375 2.8998 2.7967 5.65561 2.9409
threshold=0.014206248375732056 0.0079389572102220116 51.883291589367836 0.0081826952523601903 0.21014345108505095 13.810733223086675 46.61673362076089 50.13322229911153 0.0076380599770709658 -0.014460218996605609
decision_type=2 2 2 2 2 2 2 2 2 2
left_child=6 2 -2 -4 -3 -6 7 9 -9 -1
right_child=1 4 3 -5 5 -7 -8 8 -10 -11
