tree
version=v4
num_class=1
num_tree_per_iteration=1
label_index=0
max_feature_idx=58
objective=binary sigmoid:1
feature_names=feature_0 feature_1 feature_2 feature_3 feature_4 feature_5 feature_6 feature_7 feature_8 feature_9 feature_10 feature_11 feature_12 feature_13 feature_14 feature_15 feature_16 feature_17 feature_18 feature_19 feature_20 feature_21 feature_22 feature_23 feature_24 feature_25 feature_26 feature_27 feature_28 feature_29 feature_30 feature_31 feature_32 feature_33 feature_34 feature_35 feature_36 feature_37 feature_38 feature_39 feature_40 feature_41 feature_42 feature_43 feature_44 feature_45 feature_46 feature_47 feature_48 feature_49 feature_50 feature_51 feature_52 feature_53 feature_54 feature_55 feature_56 feature_57 feature_58
feature_infos=[9.6701174263028804:93.052117948896992] [19.232471914915266:87.29127265092589] [24.275679418256715:82.284986615389158] [-8.009275958066695:8.5667105511127879] [-0.3736748089833728:0.22546127678789701] [1.9722032526309097:97.021005656116515] [2.2499634775231243:95.575199350182473] [-0.041587227859074538:0.029541251406205227] [-0.037529802691164835:0.027805982395755255] [-0.012823872213483132:0.014607004948071075] [9.6482948235247843:60.163166870008013] [6.7971211697405858:50.852777384134903] [4.7249033417236816:41.304335656062491] [-29.673819371468646:90.16769055554434] [-2.7991862763799098:2.5525183314389706] [0.44519814910921579:1.1463869629995964] [0.45116956868397434:1.126637654293563] [0.46769416509736766:1.0907457134801208] [-1:1] none [-0.10178710380269883:0.095899608833204086] [-0.11342560947647894:0.13247577636472821] [-0.18162369011757093:0.15892543083185087] [0.0044399754404066847:0.03255632481441053] [0.87836817290628399:4.9698617228625475] [12:99] [0.45966080918722979:1.1895385713758895] [0.4482894999999999:1.1353499999999996] [0.42544935108675036:1.1047862099346641] [0.021068066649152745:0.32665338086296314] [-0.39626038621111748:1.3733680520696456] [0.040344218237036641:8.9628619681832031] [-6.8849116904886847:5.2255107375547496] [-0.20558022910896601:0.18804517075088076] [-1.2443627566120157:2.8112222705524137] none none none none none none none none none none [0.014084898917405152:0.079693233611127817] none none none none none none none none none [0.61158494363625282:2.3268012218313978] [3.0205407820517003:5] [0:2] [0.12:0.98999999999999999]
tree_sizes=1296 1509 1558 1175 1289 1575 1492 1724 1094 1485 981 1497 996 888 1493 1402 1410 1279 968 990 1170 1359 884 1065 1304 1444 1080 1083 1090 1057 1301 987 1500 1199 1412 1291 1181 837 1382 1288 1272 1089 1375 1498 1485 1065 778 855 985 1054 1511 1398 1690 1686 1674 1074 995 1186 1195 1273 1086 1601 1462 1090 1688 1291 1503 781 1068 885 991 1176 995 986 1074 1395 1095 1592 1360 970 1501 1084 1620 850 1495 1477 1512 991 1303 991 1260 1307 1296 1313 1318 1506 1344 1399 1283 884 1391 1379 778 1510 1312 1303 1278 957 1284 1054 1402 1608 1305 1304 1307 1300 1298 1505 1267 1181 785 1095 878 878 872 985 955 1407 957 980 1421 1728 1624 1597 1257 1086 988 972 1093 891 1194 1293 1405 1287 1298 1514 1679 963 887 972

Tree=0
num_leaves=11
num_cat=0
split_feature=1 31 16 2 20 29 2 21 21 13
split_gain=7.59526 9.45419 10.0745 7.48659 6.59615 5.82376 5.38387 7.79431 3.54985 3.90844
threshold=39.205128867901188 3.1739101438691377 0.68114501773910952 41.200947255305934 -0.028577306782462009 0.058803717411856256 41.200947255305934 -0.023968399625305618 -0.059858471303546983 11.816793766135898
decision_type=2 2 2 2 2 2 2 2 2 2
left_child=4 2 3 -2 8 -4 7 -6 9 -1
right_child=1 -3 5 -5 6 -7 -8 -9 -10 -11
leaf_value=-0.018846995842291235 -0.10021060336473285 -0.10605288517478978 -0.033148376387582661 -0.044979301688125514 -0.021688479537033671 -0.080712862092172641 0.019766314689436973 -0.079077079994023539 -0.083799751739002226 -0.066822046682987774
leaf_weight=7.0175091326236743 5.3033302724361411 8.32970282435417 6.2106678485870352 133.58247783780098 24.885741233825684 42.285947620868683 5.5330360829830161 6.3599765002727535 7.6233578324317923 7.1524611711502075
leaf_count=27 21 33 24 519 96 166 21 25 30 28
internal_value=-0.0522213 -0.0568534 -0.0545444 -0.0475688 -0.0365674 -0.0737803 -0.02389 -0.0345022 -0.0573301 -0.0438359
internal_weight=254.284 195.712 187.382 138.886 58.5721 48.4966 36.7788 31.2457 21.7933 14.17
internal_count=990 763 730 540 227 190 142 121 85 55
is_linear=0
shrinkage=1


Tree=1
num_leaves=13
num_cat=0
split_feature=29 1 12 22 5 23 16 3 33 17 23 30
split_gain=7.26796 7.37365 7.21111 7.57398 7.34247 6.2789 4.18171 3.92339 4.23383 3.3534 2.85378 0.92972
threshold=0.12929246851581441 39.870549177153002 22.54791004833611 -0.028946348160719244 51.318636602242357 0.024800261497133724 0.67313036180692454 -0.32958172839269007 0.010100232778797269 0.49852242127741803 0.019337738135322153 0.1101305982462978
decision_type=2 2 2 2 2 2 2 2 2 2 2 2
left_child=1 6 3 -3 -4 7 9 10 -9 -1 -2 -8
right_child=5 2 4 -5 -6 -7 11 8 -10 -11 -12 -13
leaf_value=0.036105482393618327 -0.0039938790231119322 0.052146985044984488 -0.040274910282701595 -0.0034734067627676495 0.0053732614153948781 -0.025506863606356785 0.059466115475231562 0.049375808072644876 0.012090316715464872 -0.005322270755963498 0.025702025457237473 0.015801133150636262
leaf_weight=5.461273759603503 18.959617212414745 5.4903531968593589 25.347493782639503 105.60041387379169 11.568638876080511 6.6079241335391989 5.5042308419942838 18.501778095960617 17.518259331583977 16.902584910392761 11.640079915523527 5.1698702275753021
leaf_count=21 74 21 100 412 45 26 21 71 68 66 45 20
internal_value=0.00346597 -0.00180255 -0.00671393 -6.07922e-05 -0.0255461 0.0166772 0.0190163 0.0215465 0.0327338 0.00483674 0.00696714 0.0436241
internal_weight=254.273 181.045 148.007 111.091 36.9161 73.2277 33.038 66.6197 36.02 22.3639 30.5997 10.6741
internal_count=990 706 578 433 145 284 128 258 139 87 119 41
is_linear=0
shrinkage=0.05


Tree=2
num_leaves=14
num_cat=0
split_feature=29 1 2 12 12 16 31 16 14 8 34 3 3
split_gain=6.55142 6.75359 8.92189 7.58871 6.53643 7.47199 6.30879 5.81934 6.09154 4.96399 7.5586 5.72299 2.13771
threshold=0.12929246851581441 39.870549177153002 41.200947255305934 28.256986332431286 22.54791004833611 0.48584699025415984 1.2474238061470968 0.68114501773910952 0.34311819829239115 -0.01129708627387334 0.11494533622246715 -1.279419335979431 -1.3078840010123731
decision_type=2 2 2 2 2 2 2 2 2 2 2 2 2
left_child=1 2 3 -1 5 -3 -6 9 -9 10 -2 -11 -10
right_child=7 4 -4 -5 6 -7 -8 8 12 11 -12 -13 -14
leaf_value=-0.025644851023320162 0.031248221706005965 0.037207612499789273 0.059845796074094321 0.027645179508809282 -0.008795739737904552 -0.0046546645488045914 -0.054670170095481113 0.023684827314935118 0 0 -0.038420893192256389 0.043773833087437555 -0.046149127668356549
leaf_weight=11.704059153795244 7.2694894671440107 10.909812480211256 8.382249251008032 12.954093247652052 25.805690884590149 100.17429126799107 11.071210861206053 8.2809097319841403 5.1233020424842834 9.751724034547804 6.3309837579727173 29.918197795748711 6.5637706220149976
leaf_count=46 28 42 32 50 101 391 44 32 20 38 25 115 26
internal_value=0.00333736 -0.0016596 0.0182565 0.00136291 -0.00636749 -2.49518e-05 -0.024308 0.0158796 -0.00594902 0.0244814 0 0.0332401 -0.0291285
internal_weight=254.24 181.001 33.0404 24.6582 147.961 111.084 36.8769 73.2384 19.968 53.2704 13.6005 39.6699 11.6871
internal_count=990 706 128 96 578 433 145 284 78 206 53 153 46
is_linear=0
shrinkage=0.05


Tree=3
num_leaves=10
num_cat=0
split_feature=1 22 31 32 20 2 24 24 33
split_gain=5.91689 9.32077 8.45024 9.18082 5.76419 4.58368 5.43389 3.47987 2.41334
threshold=39.205128867901188 -0.061599802723189157 3.1739101438691377 -1.1194335096703794 -0.028577306782462009 41.200947255305934 2.0456970414657731 3.5376525562651264 -0.049528402125525388
decision_type=2 2 2 2 2 2 2 2 2
left_child=4 -2 3 -3 7 6 -6 8 -1
right_child=1 2 -4 -5 5 -7 -8 -9 -10
leaf_value=0 -0.059829068352905496 0.021691914837131825 -0.046000718446719796 -0.0032780860884179981 -0.0058103817483157322 0.069217623526251007 0.034834466734593859 0.027833770649859868 -0.038764781705186185
leaf_weight=10.77614709734917 5.5041019618511191 49.29700693488121 8.0522400885820371 132.74654105305672 11.773657664656641 5.5232171714305869 19.471688747406006 5.4443070590496054 5.5653338730335244
leaf_count=42 22 191 32 518 46 21 75 21 22
internal_value=0.00317085 -0.000905078 0.00097436 0.00342872 0.0169928 0.0288712 0.0190384 -0.00234483 -0.014866
internal_weight=254.154 195.6 190.096 182.044 58.5544 36.7686 31.2453 21.7858 16.3415
internal_count=990 763 741 709 227 142 121 85 64
is_linear=0
shrinkage=0.05


Tree=4
num_leaves=11
num_cat=0
split_feature=29 1 2 33 5 32 5 23 31 33
split_gain=5.84687 5.8744 7.68876 6.46886 5.80615 7.08031 5.45136 5.33288 3.56989 4.99932
threshold=0.12929246851581441 39.870549177153002 41.200947255305934 -0.041130076604920122 48.769150077540878 -1.1265850704842302 88.323433050980626 0.024800261497133724 1.6410458172401654 0.13915305114200449
decision_type=2 2 2 2 2 2 2 2 2 2
left_child=1 2 3 -1 5 -3 -6 8 9 -2
right_child=7 4 -4 -5 6 -7 -8 -9 -10 -11
leaf_value=0.022473598827080284 0.028944588358463603 0.0048810304303705618 0.055555807493725518 -0.027518060373999564 0.006683337284671082 -0.029489501082397476 -0.033517102528909756 -0.023952267402560026 -0.0065162094030821738 -0.01765253476248313
leaf_weight=14.739020541310309 52.04170648753643 21.038845777511597 8.3477131426334363 9.901543393731119 77.081984832882881 41.389607310295105 8.3707796633243543 6.5920647084712973 9.4709866344928724 5.097295567393302
leaf_count=57 201 82 32 39 300 163 33 26 37 20
internal_value=0.00300266 -0.00171368 0.01686 0.00112022 -0.0061103 -0.0176179 0.00211407 0.0148589 0.0193671 0.0241256
internal_weight=254.072 180.869 32.9883 24.6406 147.881 62.4285 85.4528 73.2021 66.61 57.139
internal_count=990 706 128 96 578 245 333 284 258 221
is_linear=0
shrinkage=0.05


Tree=5
num_leaves=14
num_cat=0
split_feature=32 8 29 34 17 24 12 34 29 21 28 31 11
split_gain=9.45484 8.06936 8.13903 9.66538 7.14559 8.72119 6.75876 7.11834 6.29594 5.27838 4.76589 2.63805 2.0815
threshold=-1.40397731982068 -0.0057909498701869981 0.15544800130198747 0.066959566736166112 0.69286597007471917 1.9197159725944826 19.366452810275103 0.35197572569082913 0.036363932098892562 -0.017844294886937877 0.58375194278439346 1.7506444763724549 18.241433321585813
decision_type=2 2 2 2 2 2 2 2 2 2 2 2 2
left_child=1 2 10 -4 6 -6 8 -8 -2 -7 -1 12 -3
right_child=4 11 3 -5 5 9 7 -9 -10 -11 -12 -13 -14
leaf_value=0.017224998870154603 -0.031561239359207793 0.027416563432575466 0.039532662896226256 -0.028436970118492413 0.021998976249210395 0 0 -0.03582336128324088 0.013316532246754793 -0.053678109822620029 0.06160906242004982 -0.0307935778061827 -0.0072438195339984681
leaf_weight=13.389171734452249 7.3547296673059455 5.4457634240388932 8.5808096528053301 10.417105585336683 6.2055046111345318 6.3875652551651063 40.704806879162788 19.781812816858292 86.540238961577415 16.883007526397702 17.504970297217369 6.5724766105413428 10.750788122415541
leaf_count=52 29 21 33 41 24 25 159 78 336 67 67 26 42
internal_value=0.00245731 0.0176542 0.028826 0.0014545 -0.00347633 -0.0256272 0.000729747 -0.0120133 0.00924229 -0.0397407 0.0443005 -0.00595664 0.00387287
internal_weight=256.519 72.6611 49.8921 18.9979 183.858 29.4761 154.382 60.4866 93.895 23.2706 30.8941 22.769 16.1966
internal_count=1000 282 193 74 718 116 602 237 365 92 119 89 63
is_linear=0
shrinkage=0.05


Tree=6
num_leaves=13
num_cat=0
split_feature=32 8 29 17 24 17 20 12 29 25 11 8
split_gain=8.60384 7.3598 7.39313 6.4584 7.98445 6.24279 5.54858 5.41504 5.19087 4.43102 2.44897 4.10482
threshold=-1.40397731982068 -0.0057909498701869981 0.15544800130198747 0.69286597007471917 1.9197159725944826 0.68697488371075155 -0.0035146832880687102 19.366452810275103 0.18583031486255888 91.500000000000014 17.843783691511721 -0.0028867720394062978
decision_type=2 2 2 2 2 2 2 2 2 2 2 2
left_child=1 2 9 5 -5 7 -6 -2 -4 -1 -3 -12
right_child=3 10 8 4 6 -7 -8 -9 -10 -11 11 -13
leaf_value=0.050902875094236334 0.0058502776908854019 0.012613928230587216 -0.025064687829072726 0.021046015401181426 -0.010168589474583515 0.041675943979496338 -0.062195241578805488 -0.013651219436823984 0.024766744366001715 0 -0.047883596786927711 0.0018551986633152644
leaf_weight=25.249965339899067 89.457613334059715 8.7509541064500826 8.3891235142946261 6.2073883861303356 11.959846943616872 7.8018074929714194 11.259725451469416 57.108524948358536 10.599224507808684 5.638561785221099 5.7902261465787879 8.2162398993968946
leaf_count=97 348 34 33 24 47 30 45 224 41 22 23 32
internal_value=0.002329 0.0168315 0.027506 -0.00332704 -0.0244058 0.000661485 -0.0379561 -0.00161995 0.00134776 0.0422559 -0.00568431 -0.0188614
internal_weight=256.429 72.6343 49.8769 183.795 29.427 154.368 23.2196 146.566 18.9883 30.8885 22.7574 14.0065
internal_count=1000 282 193 718 116 602 92 572 74 119 89 55
is_linear=0
shrinkage=0.05


Tree=7
num_leaves=15
num_cat=0
split_feature=32 8 29 34 28 55 25 25 28 21 8 31 31 8
split_gain=7.79971 6.67374 6.71569 8.86099 4.8424 6.09639 7.01279 4.4113 4.37433 4.34906 3.51251 3.12803 2.46874 1.89176
threshold=-1.40397731982068 -0.0057909498701869981 0.15544800130198747 0.066959566736166112 0.61444167807682881 1.2525228663825014 61.500000000000007 70.500000000000014 0.58375194278439346 0.070141796632979467 -0.0063963859436343739 1.0103506133073368 1.7506444763724549 -0.0014418611884868138
decision_type=2 2 2 2 2 2 2 2 2 2 2 2 2 2
left_child=1 2 8 -4 5 6 -2 10 -1 -7 -6 -9 13 -3
right_child=4 12 3 -5 7 9 -8 11 -10 -11 -12 -13 -14 -15
leaf_value=0.014543968984571854 0.0023265077833572716 -0.0079216163458488299 0.037753020137846621 -0.027350370135277181 -0.02760954615776718 0.026333165388262081 -0.033919310658485628 -0.012261590191924354 0.056796829871275191 -0.014298819219421206 0.0003543019088645496 -0.067094521496853077 -0.029480911958005097 0.024109180814141869
leaf_weight=13.394840925931932 61.029160737991333 9.715417087078098 8.5739069283008593 10.411760330200194 13.680596172809599 32.851575508713722 15.714048504829405 7.9040205329656583 17.467247247695923 6.63595987856388 40.660642206668854 5.2400919198989868 6.5575372576713553 6.4747101068496713
leaf_count=52 238 38 33 41 54 127 62 31 67 26 159 21 26 25
internal_value=0.00222022 0.0160348 0.026207 0.00121727 -0.00316053 0.00285434 -0.0051145 -0.0137755 0.0402748 0.0187029 -0.00660564 -0.0390872 -0.005368 0.00409105
internal_weight=256.312 72.5954 49.8478 18.9857 183.716 116.231 76.7432 67.4854 30.8621 39.4875 54.3412 13.1441 22.7477 16.1901
internal_count=1000 282 193 74 718 453 300 265 119 153 213 52 89 63
is_linear=0
shrinkage=0.05


Tree=8
num_leaves=9
num_cat=0
split_feature=31 32 17 24 17 8 22 10
split_gain=7.55282 5.91717 6.03067 8.00966 6.06425 5.93583 5.40456 2.91126
threshold=0.11686180963996497 -1.40397731982068 0.69286597007471917 1.9197159725944826 0.68697488371075155 -0.0057909498701869981 -0.038559048693534076 20.747265495022074
decision_type=2 2 2 2 2 2 2 2
left_child=-1 5 4 -4 -3 6 -2 -7
right_child=1 2 3 -5 -6 7 -8 -9
leaf_value=0.045659245778282509 0.011206345819254461 -0.0027538832498756808 0.020490942253623672 -0.038781040458780808 0.039979457064016219 -0.027129388929106886 0.05103205026636131 0.0075131334471740382
leaf_weight=8.5849494785070402 34.922091975808144 142.88192945718765 6.207820117473605 22.606796503067017 7.8039639443159095 9.8872832804918307 11.976570472121237 11.291924670338629
leaf_count=33 136 558 24 90 30 39 46 44
internal_value=0.00208951 0.000300527 -0.00436042 -0.024914 -0.000126949 0.0128371 0.0227517 -0.00802619
internal_weight=256.163 247.578 179.501 28.8146 150.686 68.0779 46.8987 21.1792
internal_count=1000 967 702 114 588 265 182 83
is_linear=0
shrinkage=0.05


Tree=9
num_leaves=13
num_cat=0
split_feature=0 9 20 23 21 22 33 25 28 25 29 9
split_gain=5.09303 9.99456 4.83587 4.83615 4.01936 5.78224 3.18051 3.07676 4.14708 2.37044 0.773219 0.491227
threshold=33.78328015793852 -0.0027685048500800634 -0.02878245342853316 0.010760503600302644 0.076989912543204128 0.09936648620633233 0.014124999618449664 79.500000000000014 0.59931569566917331 52.500000000000007 0.09631887830676529 -0.0044443927764787365
decision_type=2 2 2 2 2 2 2 2 2 2 2 2
left_child=2 6 7 -4 5 -3 11 9 -9 -1 -5 -2
right_child=1 4 3 10 -6 -7 -8 8 -10 -11 -12 -13
leaf_value=0.0029729150310288562 -0.021565812168647308 0.0014376585861734963 0.00013277693292397104 0.06658443554245641 -0.036672656463579624 0.041055896779341662 0 0.047008692858831268 -0.0093673353173339465 -0.036978459946776919 0.027447567163548382 -0.058751519143464971
leaf_weight=5.3818074166774768 6.0797002166509637 176.35500535368919 9.2181254327297228 6.2678847759962073 5.3120457082986823 8.8509761691093427 5.6298379451036444 5.2115229815244657 5.099224641919136 6.070149764418602 8.7774407863616926 7.7548928707838067
leaf_count=21 24 689 36 24 21 34 22 20 20 24 34 31
internal_value=0.00201673 -0.00119785 0.0169277 0.0318108 0.00223445 0.00367559 -0.0344824 0 0.0185542 -0.0174648 0.0484437 -0.0466506
internal_weight=256.009 209.982 46.0262 24.2635 190.518 185.206 19.4644 21.7627 10.3107 11.452 15.0453 13.8346
internal_count=1000 821 179 94 744 723 77 85 40 45 58 55
is_linear=0
shrinkage=0.05


Tree=10
num_leaves=8
num_cat=0
split_feature=31 34 5 12 32 28 14
split_gain=7.2519 6.85265 6.3089 5.8535 8.09114 6.94095 4.06486
threshold=0.11686180963996497 0.093256774170579579 7.6743619388102315 21.730175090040074 -1.1265850704842302 0.61444167807682881 -0.0068565889568915845
decision_type=2 2 2 2 2 2 2
left_child=-1 2 -2 5 -5 -3 -4
right_child=1 3 6 4 -6 -7 -8
leaf_value=0.045517885926396599 -0.017709977560822762 0.010029317885252249 0.046222543371747492 -0.0015218835208802169 -0.040359072857434335 -0.013518434135857967 0.011702122241862924
leaf_weight=8.0598787218332273 9.9149894565343839 83.106324389576912 13.762531355023382 34.489069670438766 22.640550792217255 48.568020418286324 29.731923714280128
leaf_count=31 39 323 53 135 90 191 116
internal_value=0.00159746 0 0.0155981 -0.00452927 -0.0177727 0.00111888 0.0239803
internal_weight=250.273 242.213 53.4094 188.804 57.1296 131.674 43.4945
internal_count=978 947 208 739 225 514 169
is_linear=0
shrinkage=0.05


Tree=11
num_leaves=13
num_cat=0
split_feature=17 34 55 3 3 3 10 22 26 13 14 9
split_gain=6.9479 5.73317 11.522 8.51243 5.95452 7.55346 5.52952 6.07361 4.58342 4.33863 2.40821 1.57183
threshold=0.49186962916497551 0.87083628074987718 1.3925504273137663 2.6279132289071856 2.1784359661092689 0.83909540093629797 18.119739342291499 0.015472444986035621 0.67986997552672046 12.149480561901626 0.60991538055629679 0.0016242418917403543
decision_type=2 2 2 2 2 2 2 2 2 2 2 2
left_child=6 4 3 -3 5 -2 -1 10 -6 -4 -8 -9
right_child=1 2 9 -5 8 -7 7 11 -10 -11 -12 -13
leaf_value=-0.015693195283318917 -0.00021652737859146113 -0.046033072469408895 -0.0048628850868281731 0.013374282424178771 -0.049259476981866057 0.026030316975698981 0.054375808028059719 0.01622063488282963 0.00020703868029509596 0.037287034213007934 0.0071049384725467282 -0.019453427555447992
leaf_weight=6.8775700926780692 104.69497576355934 27.198584780097008 14.091727167367937 6.4206664711236945 8.0468405783176404 35.272790819406509 15.887058138847356 5.1644656509160978 7.6707404106855384 8.5803777873516065 5.136230304837226 5.0978636592626572
leaf_count=27 410 108 55 25 32 137 61 20 30 33 20 20
internal_value=0.0015213 -0.00193696 -0.0155344 -0.0339066 0.00288769 0.00635824 0.0209275 0.029989 -0.0250543 0.0109342 0.0448092 0
internal_weight=250.14 211.977 56.2914 33.6193 155.685 139.968 38.1632 31.2856 15.7176 22.6721 21.0233 10.2623
internal_count=978 830 221 133 609 547 148 121 62 88 81 40
is_linear=0
shrinkage=0.05


Tree=12
num_leaves=8
num_cat=0
split_feature=31 16 31 8 8 20 13
split_gain=6.61699 5.65257 6.02866 5.51819 7.89727 5.7165 3.10323
threshold=0.11686180963996497 0.48584699025415984 0.42187607520608722 -0.0054692881423789559 -0.0038922234168615242 -0.0013471243028940398 0.24751607508690784
decision_type=2 2 2 2 2 2 2
left_child=-1 2 -2 5 -5 -3 -4
right_child=1 3 6 4 -6 -7 -8
leaf_value=0.043451731159188191 -0.014753261317568895 0.018519132435620207 0.01025127166801163 -0.043957902829486195 -0.004598871746911262 -0.0090027557069582414 0.052958271322236544
leaf_weight=8.0409220159053785 7.3747120052576092 46.735372975468636 10.530105978250505 13.604976102709768 124.26788224279881 29.030654966831207 10.43874980509281
leaf_count=31 29 182 41 54 487 114 40
internal_value=0.00144938 -1.65265e-05 0.0204617 -0.00293253 -0.00895132 0.00766822 0.0340926
internal_weight=250.023 241.982 28.3436 213.639 137.873 75.766 20.9689
internal_count=978 947 110 837 541 296 81
is_linear=0
shrinkage=0.05


Tree=13
num_leaves=7
num_cat=0
split_feature=31 34 5 4 27 14
split_gain=6.05771 5.73682 5.68391 3.70024 3.75734 3.69855
threshold=0.11686180963996497 0.093256774170579579 7.6743619388102315 -0.099553377298928811 0.48593325000000015 -0.0068565889568915845
decision_type=2 2 2 2 2 2
left_child=-1 2 -2 -3 -5 -4
right_child=1 3 5 4 -6 -7
leaf_value=0.041620784493424559 -0.017346799283337825 0.027566790624879246 0.043426423547754181 0.013258888098668179 -0.0085255368457121516 0.01047946391554843
leaf_weight=8.0194386690855008 9.9092736393213254 7.5031367838382712 13.724948137998579 20.857648372650146 160.19814740121365 29.681416243314743
leaf_count=31 39 29 53 81 629 116
internal_value=0.00138323 -1.38046e-05 0.0142084 -0.00422079 -0.0058196 0.0222035
internal_weight=249.894 241.875 53.3156 188.559 181.056 43.4064
internal_count=978 947 208 739 710 169
is_linear=0
shrinkage=0.05


Tree=14
num_leaves=13
num_cat=0
split_feature=17 10 22 34 22 45 3 3 20 3 14 25
split_gain=5.57213 4.93323 5.43972 4.86879 10.793 8.99096 5.21322 6.96651 4.47237 2.87578 2.31098 1.5194
threshold=0.49186962916497551 18.119739342291499 0.015472444986035621 0.87083628074987718 0.03215841028040118 0.035333283024749827 2.1784359661092689 0.83909540093629797 0.022525795292629477 0.27233200553881082 0.54945316584057424 52.500000000000007
decision_type=2 2 2 2 2 2 2 2 2 2 2 2
left_child=1 -1 10 6 9 -6 7 -2 -8 -5 -3 -4
right_child=3 2 11 4 5 -7 8 -9 -10 -11 -12 -13
leaf_value=-0.015722256801192502 -0.00035543346448665915 0.051773120605652104 -0.019884220608658718 -0.07118556927028101 -0.010127671846864666 0.052938259582692132 -0.041325245530285347 0.024859945036464434 0.010012815970842196 -0.020762879894330594 0.0077150368884129298 0.015018966356461447
leaf_weight=6.8751979917287818 104.56275795400143 15.076233178377157 5.0956571847200376 7.1881959438324001 34.136405304074287 5.7346136868000022 10.562187343835829 35.235118582844734 5.1298140287399283 9.1107912510633451 5.902045026421546 5.1603704243898392
leaf_count=27 410 58 20 29 134 22 42 137 20 36 23 20
internal_value=0.00134695 0.0187439 0.0273585 -0.00174124 -0.0142932 0 0.0026957 0.0059538 -0.0234504 -0.0472751 0.0414303 -0.00032738
internal_weight=249.769 38.1095 31.2343 211.66 56.17 39.871 155.49 139.798 15.692 16.299 20.9783 10.256
internal_count=978 148 121 830 221 156 609 547 62 65 81 40
is_linear=0
shrinkage=0.05


Tree=15
num_leaves=12
num_cat=0
split_feature=32 26 24 55 23 13 31 12 13 6 6
split_gain=7.5745 8.13118 7.79742 6.37362 6.43353 4.59264 4.67661 4.52056 4.26577 3.1827 7.7526
threshold=-1.40397731982068 0.7321403235852183 2.5448113601043851 1.2326549622630689 0.01353355466744263 38.091918300513434 0.35539750892812438 24.816181245879335 2.3242944321092716 77.837336486007658 57.104886335390653
decision_type=2 2 2 2 2 2 2 2 2 2 2
left_child=2 5 3 4 -1 6 -2 -4 -9 10 -3
right_child=1 9 7 -5 -6 -7 -8 8 -10 -11 -12
leaf_value=0.013986067595107059 -0.01378880136176394 -0.033743972794975929 -0.029321694313302067 -0.0017912417434059668 0.067268534362233942 -0.041778011614509419 0.0078217063392460526 0.030281776907905525 -0.0074641119449217787 -0.053204059895894884 0.012963272358841621
leaf_weight=13.068642482161524 31.073663145303726 21.521101593971252 9.8551740348339063 9.6719925552606565 12.990293070673941 5.0257734954357138 107.40760032832623 11.850684449076654 15.537879183888434 7.4532065391540518 13.010806426405905
leaf_count=51 122 86 39 38 50 20 419 46 61 30 51
internal_value=0.000451017 -0.00482133 0.0140746 0.0304581 0.0429755 0.000719205 0.00272922 -0.00137516 0.0084788 -0.0239169 -0.0155726
internal_weight=258.467 185.492 72.9747 35.7309 26.0589 143.507 138.481 37.2437 27.3886 41.9851 34.5319
internal_count=1013 728 285 139 101 561 541 146 107 167 137
is_linear=0
shrinkage=0.05


Tree=16
num_leaves=12
num_cat=0
split_feature=20 9 3 15 25 26 34 3 32 1 3
split_gain=7.09132 6.5907 6.49451 6.45587 6.40962 5.38639 7.15754 6.98934 5.17616 10.362 8.57527
threshold=0.012672947797331741 -0.00079166048190571338 4.6062312978178115 0.71236458827567095 34.500000000000007 0.7321403235852183 0.82019724255770854 -1.0755547257063547 -1.1265850704842302 49.920066337424913 -1.3078840010123731
decision_type=2 2 2 2 2 2 2 2 2 2 2
left_child=1 5 3 4 -2 6 -1 -7 10 -10 -3
right_child=2 8 -4 -5 -6 7 -8 -9 9 -11 -12
leaf_value=0.010262912424143558 -0.049595696903986027 -0.018140087415699641 0.033229084301456185 -0.059877439269181654 -0.0019491996632878652 0.0035752794897916575 -0.038453863465447012 -0.041843528677997108 -0.020056973382770692 0.020931775689883522 0.038142267070214626
leaf_weight=57.535734698176384 8.0387658178806287 7.1053485870361319 5.178271770477294 7.8911911994218817 38.615373805165291 13.984699159860613 7.5547718256711951 16.98735311627388 24.623040556907654 36.994413822889328 33.752423495054245
leaf_count=225 32 28 20 32 151 55 30 68 97 144 131
internal_value=0.000404966 0.00504956 -0.0144521 -0.0199456 -0.011552 -0.00414472 0.00373402 -0.0210834 0.0138668 0.00409422 0.0275577
internal_weight=258.261 198.538 59.7236 54.5453 46.6541 96.0626 65.0905 30.9721 102.475 61.6175 40.8578
internal_count=1013 778 235 215 183 378 255 123 400 241 159
is_linear=0
shrinkage=0.05


Tree=17
num_leaves=11
num_cat=0
split_feature=20 17 3 32 55 25 26 25 10 10
split_gain=6.45393 6.09169 5.97413 5.84901 8.76237 6.19498 5.79559 5.78197 3.43833 6.31871
threshold=0.012672947797331741 0.49186962916497551 4.6062312978178115 -1.1364288461963143 1.3925504273137663 93.500000000000014 0.7510385130751337 34.500000000000007 35.903417668418335 20.05737380622109
decision_type=2 2 2 2 2 2 2 2 2 2
left_child=1 8 6 4 -3 -5 7 -2 9 -1
right_child=2 3 -4 5 -6 -7 -8 -9 -10 -11
leaf_value=0 -0.047463600864797992 0.019828285262306705 0.031826294852344027 -0.011115412635834094 -0.020523289373045237 0.038234530366846819 -0.057750803349430994 -0.0021374526409810158 -0.004025942986224741 0.052714626736385051
leaf_weight=8.435126751661306 8.0251139551401121 61.411720916628838 5.1801998168230048 86.205943167209625 15.718953743577002 5.7074809074401847 7.608355075120925 38.839741215109825 6.1046807616949073 14.806560650467871
leaf_count=33 32 240 20 340 62 22 31 152 24 57
internal_value=0.000346223 0.00478284 -0.0138321 0.000920448 0.0111274 -0.00740337 -0.0191202 -0.0112508 0.0254441 0.0340628
internal_weight=258.044 198.39 59.6534 169.044 77.1307 91.9134 54.4732 46.8649 29.3464 23.2417
internal_count=1013 778 235 664 302 362 215 184 114 90
is_linear=0
shrinkage=0.05


Tree=18
num_leaves=8
num_cat=0
split_feature=33 27 31 45 26 14 55
split_gain=6.07595 6.0854 5.08198 4.89827 3.98107 4.07928 1.17926
threshold=0.13915305114200449 0.66436600000000001 0.2699939154328907 0.035157721336076621 0.69166175954925968 -1.2750446816181411 1.0005412208602971
decision_type=2 2 2 2 2 2 2
left_child=1 4 6 -4 5 -1 -3
right_child=-2 2 3 -5 -6 -7 -8
leaf_value=0.033046383638810302 -0.042324878643113198 0.035947115100998468 -0.020102832242913773 0.016173545633202974 0.036582465423537401 0.0024955729148283322 0
leaf_weight=11.107775419950483 7.0509038865566245 5.1385620534419996 59.484831407666206 9.4510889500379545 10.044859588146208 150.43056640028954 5.0920867472887039
leaf_count=43 28 20 237 37 39 589 20
internal_value=0.000313069 0.00177468 -0.00948396 -0.0146117 0.00713901 0.00494052 0.0210664
internal_weight=257.801 250.75 79.1666 68.9359 171.583 161.538 10.2306
internal_count=1013 985 314 274 671 632 40
is_linear=0
shrinkage=0.05


Tree=19
num_leaves=8
num_cat=0
split_feature=31 12 11 45 17 12 11
split_gain=5.94907 5.75197 5.38413 4.76383 4.4522 5.23437 4.97227
threshold=0.11686180963996497 13.283931898452789 25.206538464856155 0.035333283024749827 0.49186962916497551 14.355471817504762 27.529239602667399
decision_type=2 2 2 2 2 2 2
left_child=-1 2 -2 -4 6 -6 -3
right_child=1 4 3 -5 5 -7 -8
leaf_value=0.038331893696068153 -0.054990840299949009 0.029140221373190792 -0.019050117099146804 0.026827371457599961 0.031002862570047914 -0.0033808877232079887 -0.014480720578864043
leaf_weight=8.9378008097410184 7.4675042331218711 25.474379628896713 22.258432492613796 6.2036364823579779 10.785965278744696 169.42087040841579 7.1380725950002661
leaf_count=35 30 99 88 24 42 667 28
internal_value=0.000322117 -0.00109153 -0.0193735 -0.00763087 0.00195422 -0.00102521 0.0187021
internal_weight=257.687 248.749 35.9296 28.4621 212.819 180.207 32.6125
internal_count=1013 978 142 112 836 709 127
is_linear=0
shrinkage=0.05


Tree=20
num_leaves=10
num_cat=0
split_feature=16 26 8 6 17 45 26 3 12
split_gain=4.60219 5.1917 3.97584 4.7311 4.40555 3.82047 4.01588 1.64165 0.929424
threshold=0.48584699025415984 0.50641672832315743 0.018835734691995558 77.121260213573976 0.49852242127741803 0.045543104345778809 0.49605993476336341 0.39501966778580033 18.536037427427065
decision_type=2 2 2 2 2 2 2 2 2
left_child=5 -2 4 -4 -3 6 -1 -8 -7
right_child=1 2 3 -5 -6 8 7 -9 -10
leaf_value=-0.02099578031759692 -0.035649236732686725 0.034252240659087538 0.051813010001434935 -0.0018157149087466456 -0.0019407264984293089 0.058317002465859885 0.041494208886497706 0 0.018217265011804474
leaf_weight=7.6042001992464128 8.8487647324800474 7.7775074839591971 7.2672341018915159 6.3687044531106949 192.33135397732258 5.4499226212501508 5.150366544723509 5.3565595597028732 6.9397062808275223
leaf_count=30 35 30 28 25 757 21 20 21 27
internal_value=0.00237165 -4.77836e-05 0.0014688 0.0266447 -0.000246404 0.0202632 0.0035334 0.0237404 0.0407614
internal_weight=253.094 222.594 213.745 13.6359 200.109 30.5008 18.1111 10.5069 12.3896
internal_count=994 875 840 53 787 119 71 41 48
is_linear=0
shrinkage=0.05


Tree=21
num_leaves=12
num_cat=0
split_feature=16 23 16 5 25 23 10 24 24 12 3
split_gain=4.25639 5.71426 8.32064 5.86234 5.6337 4.16135 4.67241 3.83901 6.75985 3.41785 2.74609
threshold=0.48584699025415984 0.019004365506583559 0.6818707300531347 84.319807372738765 73.500000000000014 0.01224829809612518 18.992255956013143 2.9984874510759774 2.8578480422373764 27.405535573097652 0.97489001806189046
decision_type=2 2 2 2 2 2 2 2 2 2 2
left_child=5 7 3 -3 -4 6 -1 8 -2 -9 -8
right_child=1 2 4 -5 -6 -7 10 9 -10 -11 -12
leaf_value=-3.6955852639394013e-05 -0.00465497244410639 0.05470981247391702 0.021496822693374953 0 -0.018272149292325606 -0.004728291611044602 0.066113796662907273 -0.044475063802526776 0.043139254793899531 0 0.013200414591539356
leaf_weight=6.3858539462089601 143.02793616056442 14.296729773283007 14.002267211675642 7.6935459971427909 20.608304664492607 9.9223013967275602 8.0215097665786725 9.8162322789430636 6.7490078955888739 6.3970331698656073 6.1159420758485785
leaf_count=25 563 55 55 30 82 39 31 39 26 25 24
internal_value=0.00228566 -3.49813e-05 0.0134312 0.0367973 -0.00132907 0.0195087 0.0320632 -0.00482946 -0.00206371 -0.0273227 0.0472589
internal_weight=253.037 222.591 56.6008 21.9903 34.6106 30.4456 20.5233 165.99 149.777 16.2133 14.1375
internal_count=994 875 222 85 137 119 80 653 589 64 55
is_linear=0
shrinkage=0.05


Tree=22
num_leaves=7
num_cat=0
split_feature=55 16 26 23 10 2
split_gain=4.02086 4.55869 4.25896 3.83599 4.34343 3.64623
threshold=1.6207455817026635 0.48584699025415984 0.50641672832315743 0.01224829809612518 18.992255956013143 63.193675274807134
decision_type=2 2 2 2 2 2
left_child=1 3 -3 4 -1 -4
right_child=-2 2 5 -5 -6 -7
leaf_value=-3.5358142464630942e-05 0.032822263890319364 -0.033829423031115351 -0.0021953367573894732 -0.0045130044830423433 0.045477613231447715 0.021543857177290019
leaf_weight=6.3858602941036287 9.32579258084297 8.8513369113206846 187.65149146318436 9.9235216081142408 14.061013326048849 16.681572258472443
leaf_count=25 36 35 739 39 55 65
internal_value=0.00219712 0.000792831 -0.00171109 0.0186603 0.0307587 -4.00534e-05
internal_weight=252.881 243.555 213.184 30.3704 20.4469 204.333
internal_count=994 958 839 119 80 804
is_linear=0
shrinkage=0.05


Tree=23
num_leaves=9
num_cat=0
split_feature=55 28 3 25 17 12 32 10
split_gain=3.67134 3.72261 5.44002 3.41939 9.37498 5.21242 2.35762 1.11467
threshold=1.6207455817026635 0.45787897217599627 0.29046992820855383 61.500000000000007 0.53315260639472617 13.147944533839812 -0.91563480006689957 29.90488275797415
decision_type=2 2 2 2 2 2 2 2
left_child=1 2 7 5 -5 -3 -4 -1
right_child=-2 3 6 4 -6 -7 -8 -9
leaf_value=0.061982951483693122 0.031370041678483333 -0.031197882737826779 0.018010187297940003 -0.037285730584642837 0 0.0070804794761021462 -0.023775713835577708 0.016749313691007659
leaf_weight=5.1396256536245364 9.3161618411540967 8.4581561982631666 5.1134281307458878 20.667268604040146 74.193722933530807 118.16236247122288 6.0785995423793775 5.6488856971263885
leaf_count=20 36 34 20 82 292 464 24 22
internal_value=0.00209032 0.000743911 0.0199613 -0.00113206 -0.0083508 0.0041032 -0.00272266 0.0438492
internal_weight=252.778 243.462 21.9805 221.482 94.861 126.621 11.192 10.7885
internal_count=994 958 86 872 374 498 44 42
is_linear=0
shrinkage=0.05


Tree=24
num_leaves=11
num_cat=0
split_feature=31 23 33 17 28 0 31 23 13 34
split_gain=3.76928 7.43287 8.69485 3.72777 5.00663 5.03699 4.30623 3.36362 3.15775 0.234101
threshold=2.2674306031219826 0.018743186450147782 -0.017623630358064846 0.49852242127741803 0.48960008327375176 34.620778484261884 0.34292830761628179 0.012855351584742639 1.4403322579026614 0.71513488952832416
decision_type=2 2 2 2 2 2 2 2 2 2
left_child=3 2 -2 6 7 -6 -1 -5 -8 -4
right_child=1 -3 9 4 5 -7 8 -9 -10 -11
leaf_value=-0.010643583270836298 0.010816322388913443 0.026310261336432758 -0.066424881751018836 -0.049169429178311082 0.021365607655672622 -0.00013373102103262711 0.0091295956249809219 -0.0040293665146246783 0.043521433628198249 -0.028221191513604828
leaf_weight=8.5488189905881864 7.1391905993223252 6.6671289801597586 6.9437861144542676 6.5279494971036938 32.522305592894554 133.56923884153366 17.062501892447475 12.739630490541456 14.43381693959236 6.5127067565917969
leaf_count=34 28 26 28 26 127 526 67 50 56 26
internal_value=0.00200172 -0.0150347 -0.0301748 0.00423001 0.00106097 0.0040291 0.0179064 -0.022228 0.0265139 -0.0528954
internal_weight=252.667 27.2628 20.5957 225.404 185.359 166.092 40.0451 19.2676 31.4963 13.4565
internal_count=994 108 82 886 729 653 157 76 123 54
is_linear=0
shrinkage=0.05


Tree=25
num_leaves=13
num_cat=0
split_feature=32 25 17 55 13 31 32 31 12 8 28 24
split_gain=5.99481 7.90448 7.75392 6.21173 7.39935 5.17763 4.29382 5.53086 4.93692 3.11779 1.54054 1.1183
threshold=-1.1265850704842302 36.500000000000007 0.69286597007471917 1.0407665170090785 -11.759512260398575 1.2064253243743057 -0.68073781725344817 0.5258579758280143 27.280620769448323 -0.0049663353714627509 0.58650156696761957 2.0164870964452346
decision_type=2 2 2 2 2 2 2 2 2 2 2 2
left_child=1 9 6 -3 -5 11 7 -2 -8 10 -1 -4
right_child=2 3 5 4 -6 -7 8 -9 -10 -11 -12 -13
leaf_value=0.0087177501400716138 -0.045529596407841218 -0.047718671648528131 -0.015437724243950913 0.036496333683522987 -0.0033443247040659493 0 0 -0.0007716478893367416 0.046000666314591286 0 0.050025574481407077 -0.057283455105090877
leaf_weight=5.0956606566906038 10.800109535455706 5.2476425915956488 5.0487845391035142 13.377861097455023 57.14600944519043 7.4578099548816672 93.224996581673622 19.596871390938759 5.1721615195274344 5.5861759632825843 14.116143479943274 11.633058100938795
leaf_count=20 43 21 20 52 225 30 366 77 20 22 55 48
internal_value=-0.00108415 0.0082334 -0.00738747 0 0.00426823 -0.0328663 -0.00220297 -0.0184141 0.00268836 0.0321386 0.0412796 -0.047622
internal_weight=253.503 100.569 152.934 75.7715 70.5239 24.1397 128.794 30.397 98.3972 24.798 19.2118 16.6818
internal_count=999 395 604 298 277 98 506 120 386 97 75 68
is_linear=0
shrinkage=0.05


Tree=26
num_leaves=9
num_cat=0
split_feature=31 32 17 25 45 14 32 8
split_gain=5.73775 5.53515 6.78345 6.77117 5.23406 5.12084 3.91359 2.69254
threshold=0.11686180963996497 -1.1265850704842302 0.69286597007471917 36.500000000000007 0.036549263369621374 -0.95137678183909891 2.4307296060840931 -0.0049663353714627509
decision_type=2 2 2 2 2 2 2 2
left_child=-1 3 6 7 -4 -5 -3 -2
right_child=1 2 4 5 -6 -7 -8 -9
leaf_value=0.037714464767504334 0.038650624478668537 -0.0058775994683294948 -0.044728643464572115 0.034311785615619164 0.0070024533353616209 -0.0058608488395067489 0.033084948825383688 0
leaf_weight=8.1292596459388715 17.652338266372684 119.95721283555031 18.628609150648121 7.9923793971538535 5.1406439989805213 64.498541489243507 5.6802020668983451 5.5861759632825843
leaf_count=32 69 472 77 31 20 254 22 22
internal_value=-0.00104305 -0.00257791 -0.00864247 0.00662021 -0.0327003 -0.00068488 -0.0036713 0.0295274
internal_weight=253.265 245.136 149.407 95.7294 23.7693 72.4909 125.637 23.2385
internal_count=999 967 591 376 97 285 494 91
is_linear=0
shrinkage=0.05


Tree=27
num_leaves=9
num_cat=0
split_feature=31 32 17 25 55 31 9 8
split_gain=5.25419 5.02298 6.19504 6.15146 5.46179 5.19301 4.44071 2.46402
threshold=0.11686180963996497 -1.1265850704842302 0.69286597007471917 36.500000000000007 1.0407665170090785 1.2064253243743057 -0.0029042756262339735 -0.0049663353714627509
decision_type=2 2 2 2 2 2 2 2
left_child=-1 3 6 7 -5 -4 -3 -2
right_child=1 2 5 4 -6 -7 -8 -9
leaf_value=0.036217068716552059 0.036949558760315852 -0.030490713531451087 -0.046439761733558078 -0.045623299504615945 0.0031495542595075345 0.00039992283324025743 -1.8915819612866743e-07 0
leaf_weight=8.0845814049243909 17.58938750624657 12.579229563474653 16.197293758392338 5.2480769157409659 67.239393472671509 7.4142861515283576 113.02852886915207 5.5861759632825843
leaf_count=32 69 50 67 21 264 30 444 22
internal_value=-0.000959991 -0.00243134 -0.00821689 0.00632623 -0.000614176 -0.0312972 -0.00346789 0.0281957
internal_weight=252.967 244.882 149.219 95.663 72.4875 23.6116 125.608 23.1756
internal_count=999 967 591 376 285 97 494 91
is_linear=0
shrinkage=0.05


Tree=28
num_leaves=9
num_cat=0
split_feature=31 32 5 5 25 1 55 3
split_gain=4.82383 4.56013 5.9714 8.55076 5.60937 5.58842 5.01397 1.6421
threshold=0.11686180963996497 -1.1265850704842302 48.911039485288796 43.217085130760559 36.500000000000007 57.127774951560014 1.0407665170090785 -0.38427737591250655
decision_type=2 2 2 2 2 2 2 2
left_child=-1 4 3 -3 7 -4 -6 -2
right_child=1 2 5 -5 6 -7 -8 -9
leaf_value=0.034793297912326826 0.0046412168671627601 -0.010744813162267837 0.015984856429458447 -0.062719738246040449 -0.043754662899435547 -0.0093939648321832749 0.0029946045712166674 0.03682100760835836
leaf_weight=8.0367828160524351 8.3268283456563967 50.241578489542007 34.126032173633575 9.0755488127469999 5.2414538562297812 55.614546924829483 67.234498411417007 14.777057990431784
leaf_count=32 33 200 134 37 21 220 264 58
internal_value=-0.000918462 -0.0023303 -0.00784943 -0.0200195 0.00601013 5.12397e-05 -0.000595533 0.026934
internal_weight=252.674 244.638 149.058 59.3171 95.5798 89.7406 72.476 23.1039
internal_count=999 967 591 237 376 354 285 91
is_linear=0
shrinkage=0.05


Tree=29
num_leaves=9
num_cat=0
split_feature=31 32 17 25 24 55 9 8
split_gain=4.42792 4.14923 5.64775 5.14181 4.82268 4.60649 4.0011 2.22112
threshold=0.11686180963996497 -1.1265850704842302 0.69286597007471917 36.500000000000007 1.9197159725944826 1.0407665170090785 -0.0029042756262339735 -0.0049663353714627509
decision_type=2 2 2 2 2 2 2 2
left_child=-1 3 6 7 -4 -5 -3 -2
right_child=1 2 4 5 -6 -7 -8 -9
leaf_value=0.033437133795104171 0.03416436842793933 -0.028655609182795118 0.0081948276779489904 -0.041995235629886433 -0.041398426179309555 0.0028472809050666828 0 0
leaf_weight=7.9864560365676871 17.462212696671489 12.535919681191443 5.1371243745088604 5.2301656603813163 18.297655209898949 67.229544118046761 112.97475329041481 5.5784221142530432
leaf_count=32 69 50 20 21 77 264 444 22
internal_value=-0.000869899 -0.00222429 -0.00749409 0.00572809 -0.0296135 -0.00057676 -0.002965 0.0257951
internal_weight=252.432 244.446 148.945 95.5003 23.4348 72.4597 125.511 23.0406
internal_count=999 967 591 376 97 285 494 91
is_linear=0
shrinkage=0.05


Tree=30
num_leaves=11
num_cat=0
split_feature=6 28 7 13 45 33 55 31 15 31
split_gain=6.46134 8.18449 5.87949 5.80991 4.62328 4.43041 4.3726 3.94814 1.7578 0.848331
threshold=79.198210889989483 0.56169434732210233 0.016539852858444674 12.861831767733355 0.023361608088738866 -0.030965201019614339 1.2633236697376435 0.11686180963996497 0.54195033823697136 0.68654583846365613
decision_type=2 2 2 2 2 2 2 2 2 2
left_child=2 6 3 7 -3 -5 -2 -1 -8 -6
right_child=1 4 -4 5 9 -7 8 -9 -10 -11
leaf_value=0.042680388251088344 -0.018090590982586009 -0.0015162112345107536 0.042121220961811562 0.0011592579820982149 -0.023084490320527853 -0.032247949359231733 0.00031550902395538222 0.0047979840108576645 0.044622831959486242 -0.069222500551397045
leaf_weight=6.4754055291414252 9.3050559312105197 6.8373679518699673 9.0447815060615522 18.013210892677307 5.0072296410799009 17.781953126192093 5.3933315575122815 157.29818813502789 5.2090725749731064 7.856496199965477
leaf_count=26 37 27 35 71 20 71 21 623 20 32
internal_value=0.00099132 -0.0171384 0.00461814 0.00259226 -0.0393035 -0.0151824 0.00443186 0.00669747 0.0262087 -0.056027
internal_weight=248.222 39.6086 208.614 199.569 19.7011 35.7952 19.9075 163.774 10.6024 12.8637
internal_count=983 157 826 791 79 142 78 649 41 52
is_linear=0
shrinkage=0.05


Tree=31
num_leaves=8
num_cat=0
split_feature=9 0 31 13 32 32 33
split_gain=5.9645 6.173 5.4957 4.09381 6.23964 4.25577 3.88653
threshold=0.0047606156827467057 61.540874897883938 0.11686180963996497 2.1427922985138932 -1.1265850704842302 1.5791674385622447 0.075271375972984375
decision_type=2 2 2 2 2 2 2
left_child=2 -2 -1 4 -4 -5 -3
right_child=1 6 3 5 -6 -7 -8
leaf_value=0.042051336422729596 0.014128038015372539 -0.068989450433573782 0.022460659260129773 -0.0099524568166663042 -0.00041092290233250405 0.021403422836905314 -0.011515417647858985
leaf_weight=7.887065738439559 5.8710915148258236 6.3806676715612394 44.768472492694855 84.720245480537415 79.588226422667503 11.034590989351271 7.8287008702754974
leaf_count=32 23 26 176 336 316 43 31
internal_value=0.000940515 -0.0243723 0.00337575 0.00169294 0.00773692 -0.00589682 -0.0418068
internal_weight=248.079 20.0805 227.999 220.112 124.357 95.7548 14.2094
internal_count=983 80 903 871 492 379 57
is_linear=0
shrinkage=0.05


Tree=32
num_leaves=13
num_cat=0
split_feature=14 10 17 7 13 20 20 30 27 3 29 13
split_gain=6.98967 5.75155 5.39106 4.69843 4.39948 4.71735 4.86797 4.48128 4.92579 3.95484 2.37607 1.83241
threshold=0.28438098268025519 42.751401289395197 0.49673889733191773 -0.0065262758266053092 -7.864637599304662 0.010759158490904933 0.02110939627372568 0.99135527079465879 0.66436600000000001 -1.1222539008081496 0.058052074970821342 12.710764575315883
decision_type=2 2 2 2 2 2 2 2 2 2 2 2
left_child=4 2 10 -4 7 9 -7 8 -1 -6 -2 -3
right_child=1 11 3 -5 5 6 -8 -9 -10 -11 -12 -13
leaf_value=0.011724495815586532 -0.012627530368409356 0 -0.0037527227051296057 -0.032151788440486787 0.0043665964768584524 -0.030961191881042096 0.018603903723769882 -0.042122424910607331 -0.014199119184811926 0.033434641669489722 0.024897866082890144 0.041236499135133518
leaf_weight=52.256603255867958 5.0823462456464759 5.0694525241851789 27.071221083402634 38.294648572802544 21.018261358141899 8.7123530358076113 8.6915406435728055 5.0075150281190863 26.487705513834953 35.044904053211212 9.9625292867422086 5.163796067237854
leaf_count=206 20 20 107 154 83 35 34 20 107 138 39 20
internal_value=0.000891214 -0.00998595 -0.0147106 -0.0210008 0.00734389 0.0161936 -0.00518399 -0.000223541 0.0026222 0.0232425 0.0106662 0.0229182
internal_weight=247.863 90.644 80.4107 65.3659 157.219 73.4671 17.4039 83.7518 78.7443 56.0632 15.0449 10.2332
internal_count=983 360 320 261 623 290 69 333 313 221 59 40
is_linear=0
shrinkage=0.05


Tree=33
num_leaves=10
num_cat=0
split_feature=14 12 26 7 12 55 29 12 29
split_gain=6.30426 5.5274 5.59696 6.48337 4.40099 5.39611 6.0767 3.16274 2.06297
threshold=0.28438098268025519 9.1116023724679192 0.51992209860901861 -0.0065262758266053092 13.147944533839812 1.0269616537615995 0.055875558116454095 14.75195084202595 0.058052074970821342
decision_type=2 2 2 2 2 2 2 2 2
left_child=4 -2 8 -4 -1 6 -6 -7 -3
right_child=1 2 3 -5 5 7 -8 -9 -10
leaf_value=-0.024547765718415118 0.023165364491540816 -0.0069972785835929335 -0.0019357636095909654 -0.034069563549729363 0.019592903266640829 0.04472862627365401 -0.013832888803771023 0.012957248682657744 0.028093097270657591
leaf_weight=9.0169268250465375 9.9855307936668378 5.3440487235784522 30.138331368565559 36.633253425359726 19.330353587865829 9.032448858022688 39.133929759263992 80.569188117980957 8.3945199400186521
leaf_count=36 39 21 119 148 76 35 157 319 33
internal_value=0.000842825 -0.00949128 -0.0140828 -0.020177 0.00697684 0.00921614 -0.00221709 0.0168943 0.0131987
internal_weight=247.579 90.4957 80.5102 66.7716 157.083 148.066 58.4643 89.6016 13.7386
internal_count=983 360 321 267 623 587 233 354 54
is_linear=0
shrinkage=0.05


Tree=34
num_leaves=12
num_cat=0
split_feature=14 23 10 33 13 20 33 32 23 3 33
split_gain=5.70255 5.2236 6.45249 10.5787 3.98689 4.29011 4.49641 4.19967 5.6563 3.62411 2.94494
threshold=0.28438098268025519 0.024800261497133724 26.028815498713509 -0.030965201019614339 -7.864637599304662 0.010759158490904933 0.036258430657335035 -1.9249901283856949 0.017333359286018851 -1.1222539008081496 0.10682440008901113
decision_type=2 2 2 2 2 2 2 2 2 2 2
left_child=4 2 3 -2 7 9 -7 -1 -9 -6 -4
right_child=1 -3 10 -5 5 6 -8 8 -10 -11 -12
leaf_value=0.033633328094349289 0.017450654882078333 -0.054842679329348089 0.01371561331264968 -0.03673371226350599 0.0037498037901384828 -0.032000983262546481 0.015747444777699456 0.0041581371386716966 -0.024761301757390441 0.031595282457667843 -0.015611101720623702
leaf_weight=6.986466482281684 11.642216712236403 4.9562525153160086 36.22129037976265 27.985910266637802 21.028136864304543 7.9446744322776821 9.4450589120388013 53.759134560823441 22.95057487487793 34.942139968276024 9.5298012942075712
leaf_count=28 46 20 143 113 83 32 37 212 93 138 38
internal_value=0.000805329 -0.00902903 -0.00547602 -0.020162 0.00664136 0.0150813 -0.00526138 -0.000551855 -0.00437978 0.021822 0.00686895
internal_weight=247.392 90.3355 85.3792 39.6281 157.056 73.36 17.3897 83.6962 76.7097 55.9703 45.7511
internal_count=983 360 340 159 623 290 69 333 305 221 181
is_linear=0
shrinkage=0.05


Tree=35
num_leaves=11
num_cat=0
split_feature=20 9 28 25 55 0 8 11 0 12
split_gain=6.05646 6.38416 4.58497 5.78009 4.5343 4.4124 3.99956 3.88667 4.35357 3.21652
threshold=0.014391890647997575 0.0044135113639569689 0.60865610454996066 42.500000000000007 1.2645924738194017 67.733184629609568 0.0068795332449327375 25.206538464856155 39.009065984911132 18.793100502987059
decision_type=2 2 2 2 2 2 2 2 2 2
left_child=1 7 4 -4 5 -2 -6 8 -1 -9
right_child=2 -3 3 -5 6 -7 -8 9 -10 -11
leaf_value=0.011703933367170551 0.0059385113480119114 0.050519962290721393 0.0028989039687718223 -0.053235909958872285 0.039593373281287828 -0.043463986764772117 -0.0037459369530964863 0.028286470252289482 -0.0048214233400519719 -0.0056115515005032693
leaf_weight=70.602506935596466 7.1508957594633085 7.6964540034532538 6.2077351063489941 10.302146926522253 8.5352744013071078 7.9888651669025421 9.6408667862415296 28.675470918416977 86.676422536373138 7.2726031839847556
leaf_count=279 28 30 25 43 33 32 38 113 346 29
internal_value=0.00421945 0.00815974 -0.0110259 -0.0317413 0 -0.0196588 0.0163053 0.00609235 0.00246594 0.0207857
internal_weight=250.749 200.923 49.8258 16.5099 33.3159 15.1398 18.1761 193.227 157.279 35.9481
internal_count=996 797 199 68 131 60 71 767 625 142
is_linear=0
shrinkage=0.05


Tree=36
num_leaves=10
num_cat=0
split_feature=20 9 20 30 55 55 22 32 6
split_gain=5.50473 5.84899 4.44155 5.47367 3.70746 4.42812 3.02875 2.13774 2.05856
threshold=0.014391890647997575 0.0044135113639569689 0.02065559280812285 0.88554431898008479 0.70917965177089937 1.1549814134477592 0.0048566890493066091 -0.21149173811325686 83.688299399582789
decision_type=2 2 2 2 2 2 2 2 2
left_child=1 4 6 -4 -1 -6 -2 -8 -5
right_child=2 -3 3 8 5 -7 7 -9 -10
leaf_value=-0.02589665481771591 0 0.048370158792202606 0.03339089400088547 0.00099304241018353489 0.013992788285083053 -0.0013049073937794029 -0.064309327488593457 -0.01495547079551213 -0.026875241981244809
leaf_weight=7.5291696935892096 6.2859303951263454 7.6813933104276648 8.4507542699575442 11.750039950013162 106.21381175518036 79.443973913788795 5.730923369526864 7.0097079724073383 10.481788128614424
leaf_count=30 25 30 33 47 422 315 24 28 42
internal_value=0.00401635 0.00777384 -0.0105281 0.000620361 0.00579015 0.00734096 -0.0288878 -0.0420396 -0.0116614
internal_weight=250.577 200.868 49.7091 30.6826 193.187 185.658 19.0266 12.7406 22.2318
internal_count=996 797 199 122 767 737 77 52 89
is_linear=0
shrinkage=0.05


Tree=37
num_leaves=7
num_cat=0
split_feature=33 8 12 10 55 12
split_gain=3.82353 3.48483 5.79482 6.2782 3.34317 3.14638
threshold=0.14955066097199057 0.015367002001296202 13.283931898452789 26.084843711226096 1.3348456008699643 18.536037427427065
decision_type=2 2 2 2 2 2
left_child=1 2 3 -1 -3 -4
right_child=-2 4 5 -5 -6 -7
leaf_value=-0.055455940696058172 -0.034324109376043341 0 0.015319635917211333 0 0.047805860938695544 0.0016653939161002254
leaf_weight=7.1910354346036938 5.2667761147022238 7.0392443835735312 61.819098144769669 15.900789648294447 8.007539287209509 145.21508878469467
leaf_count=30 21 28 245 64 31 577
internal_value=0.00379995 0.00485659 0.00314804 -0.0198523 0.0276046 0.00591668
internal_weight=250.44 245.173 230.126 23.0918 15.0468 207.034
internal_count=996 975 916 94 59 822
is_linear=0
shrinkage=0.05


Tree=38
num_leaves=12
num_cat=0
split_feature=20 20 0 11 12 0 12 1 22 13 32
split_gain=4.96975 4.15456 6.32295 4.11856 5.22328 6.53949 3.55258 3.02262 2.81431 2.16437 1.94073
threshold=0.014391890647997575 0.02065559280812285 66.735454709681392 25.206538464856155 12.984853618699304 55.350239143959065 18.793100502987059 57.332179187221357 0.0048566890493066091 26.404207438094506 -0.21149173811325686
decision_type=2 2 2 2 2 2 2 2 2 2 2
left_child=3 8 -3 4 -1 -6 7 -5 -2 -4 -10
right_child=1 2 9 6 5 -7 -8 -9 10 -11 -12
leaf_value=-0.042671846326519602 0 0.046747476306415972 -0.00038936878772959023 0.050152623134450014 0.0015809208752228709 0.035116279453611461 -0.0054504113991072 0.01452244243975896 -0.06226458592192248 -0.036097819488924668 -0.014613463866210655
leaf_weight=4.821845978498458 6.2836176604032543 5.1800135523080852 20.520953387022022 11.133613467216493 141.46248252689838 15.503386527299879 7.7781322896480551 20.085305258631706 5.6681382954120645 4.9234073460102072 6.9976805448532078
leaf_count=20 25 20 82 44 562 61 31 79 24 20 28
internal_value=0.00360354 -0.0102316 0.000528022 0.0071771 0.00341752 0.00525278 0.0216741 0.0291674 -0.0280282 -0.00934799 -0.0407632
internal_weight=250.359 49.5738 30.6244 200.785 161.788 156.966 38.9971 31.2189 18.9494 25.4444 12.6658
internal_count=996 199 122 797 643 623 154 123 77 102 52
is_linear=0
shrinkage=0.05


Tree=39
num_leaves=11
num_cat=0
split_feature=20 2 25 55 1 15 23 13 10 6
split_gain=4.56775 4.09275 4.16918 6.80465 6.4881 3.91481 5.26066 4.22254 2.09456 1.4286
threshold=0.014391890647997575 62.050402495176982 88.500000000000014 1.4909786087227741 57.127774951560014 0.71236458827567095 0.019004365506583559 -6.324551279419345 39.795731605031357 83.688299399582789
decision_type=2 2 2 2 2 2 2 2 2 2
left_child=1 2 4 -4 -1 6 7 -2 -3 -8
right_child=5 8 3 -5 -6 -7 9 -9 -10 -11
leaf_value=0.010994865651582982 0.012111550640632473 0.057007871120014875 -0.034167757746084562 0.014492049044916022 -0.024910922352258391 -0.041357669704940515 0.042122560280530928 -0.025608254078106768 0.0062941036689336972 0.0014916208397425385
leaf_weight=151.28031080961227 9.162681579589842 5.1702210009098035 15.2395356297493 11.245054811239241 12.404172599315642 7.3736536353826514 5.1638816148042661 22.189973533153537 5.3568881005048752 5.5854270309209824
leaf_count=601 36 20 61 44 50 32 20 89 21 22
internal_value=0.00341248 0.00684069 0.00490654 -0.0128222 0.00798734 -0.00985867 -0.00293043 -0.0137784 0.036155 0.025062
internal_weight=250.172 200.696 190.169 26.4846 163.684 49.4756 42.102 31.3527 10.5271 10.7493
internal_count=996 797 756 105 651 199 167 125 41 42
is_linear=0
shrinkage=0.05


Tree=40
num_leaves=11
num_cat=0
split_feature=17 0 9 31 31 32 9 10 10 31
split_gain=5.04412 3.74535 8.59369 6.80257 5.95913 4.63742 3.56213 3.42168 2.54397 3.86719
threshold=0.49852242127741803 34.013944356515154 -0.0022507302500814966 0.463781714269833 3.4345126557873829 0.59874621894237323 -0.0017043755934582304 18.119739342291499 35.903417668418335 1.1623006839885488
decision_type=2 2 2 2 2 2 2 2 2 2
left_child=7 3 5 -2 -4 -3 -5 -1 9 -9
right_child=1 2 4 6 -6 -7 -8 8 -10 -11
leaf_value=-0.013444404337704949 0.052995484895549609 -0.014886521470987025 0.0022987796597345117 0.010091431045935718 -0.046447443504422287 -0.065961820865131318 -0.026297734499996485 0.042324929893754269 0 0.0026687451278021093
leaf_weight=6.323831468820571 7.1024369448423377 17.947575643658642 134.39952546358109 29.524344593286514 5.573907956480979 6.5202275663614264 7.5149306356906882 19.359251737594608 9.3685955107212049 11.037906691431997
leaf_count=25 28 72 537 116 23 27 30 77 37 44
internal_value=0.00198559 -0.00123433 -0.00481862 0.0113754 0 -0.0315344 0.00155394 0.0168053 0.0224409 0.0292648
internal_weight=254.673 208.583 164.441 44.1417 139.973 24.4678 37.0393 46.0896 39.7658 30.3972
internal_count=1016 833 659 174 560 99 146 183 158 121
is_linear=0
shrinkage=0.05


Tree=41
num_leaves=9
num_cat=0
split_feature=16 28 26 11 4 21 28 24
split_gain=5.31769 4.6001 3.50989 3.53504 3.77193 1.62018 3.383 0.84692
threshold=0.48584699025415984 0.46341067826043875 0.50641672832315743 34.817074409005379 -0.050333350961608396 0.017502638957539216 0.45449289234861617 1.9920996660817256
decision_type=2 2 2 2 2 2 2 2
left_child=1 5 -2 4 -4 6 -1 -5
right_child=2 -3 3 7 -6 -7 -8 -9
leaf_value=0.030079262344061754 -0.029804830095796993 0.049962853945279558 0.023657581370018742 0.040878382844872121 -0.0029659104166689879 -0.010952391362241218 -0.013250942166124447 0.0052018768089397522
leaf_weight=11.964892074465757 9.0039957165718061 8.7393743395805341 13.221136093139647 5.3568326234817487 189.03085517883301 6.5607656836509696 5.2507692128419867 5.2572288364171982
leaf_count=48 36 35 52 21 756 26 21 21
internal_value=0.0018717 0.0204663 -0.000820827 0.000421898 -0.00099471 0.00703642 0.0154892 0.0273295
internal_weight=254.386 32.5158 221.87 212.866 202.252 23.7764 17.2157 10.6141
internal_count=1016 130 886 850 808 95 69 42
is_linear=0
shrinkage=0.05


Tree=42
num_leaves=12
num_cat=0
split_feature=16 28 31 26 55 33 26 55 13 31 5
split_gain=4.83425 4.26462 3.49517 8.67475 4.95078 4.37648 3.5909 3.38173 2.99747 1.52438 1.87425
threshold=0.48584699025415984 0.46341067826043875 1.1218057033676347 0.5617506863031011 1.4987102026422623 0.027743474211031047 0.73576624609579289 1.0129336647339742 14.244926038113865 0.42928297543417915 64.518824550104242
decision_type=2 2 2 2 2 2 2 2 2 2 2
left_child=1 9 6 5 -5 -4 7 -2 -8 -1 -11
right_child=2 -3 3 4 -6 -7 8 -9 -10 10 -12
leaf_value=-0.011433365952398321 -0.0026324524977713176 0.048106048220824579 -0.059557715310465512 -0.0074782606157758544 0.028884618277268483 0 -0.0016960594083955444 0.015128805690541714 -0.038516709324279669 0.029708790495955498 0
leaf_weight=6.1902523934841183 39.831440553069115 8.6633941531181318 10.155214160680769 49.382301032543182 10.465985760092734 5.0633562803268424 32.553491398692131 68.242945149540901 6.1561364233493796 8.7857424169778842 8.7544504702091199
leaf_count=25 158 35 41 199 41 20 132 269 26 35 35
internal_value=0.00179782 0.0195642 -0.000760332 -0.00955708 -0.000338241 -0.0420133 0.00360348 0.00838947 -0.00900385 0.00660953 0.0145988
internal_weight=254.245 32.3938 221.851 75.0669 59.8483 15.2186 146.784 108.074 38.7096 23.7304 17.5402
internal_count=1016 130 886 301 240 61 585 427 158 95 70
is_linear=0
shrinkage=0.05


Tree=43
num_leaves=13
num_cat=0
split_feature=16 28 31 26 55 33 17 17 3 3 29 32
split_gain=4.42733 3.95106 3.16035 7.96439 4.50893 3.99817 3.33148 8.52341 3.62432 1.87924 3.48633 2.42813
threshold=0.48584699025415984 0.46341067826043875 1.1218057033676347 0.5617506863031011 1.4987102026422623 0.027743474211031047 0.58651349359191329 0.61025769446426981 -1.4021608224752993 0.29046992820855383 0.083197013763938774 -0.91563480006689957
decision_type=2 2 2 2 2 2 2 2 2 2 2 2
left_child=1 9 6 5 -5 -4 8 -8 -2 10 -1 -11
right_child=2 -3 3 4 -6 -7 7 -9 -10 11 -12 -13
leaf_value=-0.0037399321968963175 -0.010207208015278113 0.046351870566955194 -0.057127560663194112 -0.0071148930037490572 0.027612101614245793 0 -0.04119887412681808 0.0035191728408894233 0.022001144268117449 0.013749776448692845 0.042929592169612243 -0.028698653731153569
leaf_weight=6.5175334513187426 9.6168601065874082 8.5816262662410718 10.101707234978674 49.360742226243019 10.447452187538145 5.0633562803268424 11.013928160071371 90.380921989679337 35.702675089240074 5.0254197716712952 6.4035777002573013 5.745549723505972
leaf_count=26 38 35 41 199 41 20 44 363 140 20 26 23
internal_value=0.00168813 0.0187266 -0.000753055 -0.0091276 -0.000283236 -0.0402863 0.00339004 -0.00144905 0.014554 0.00623591 0.0190155 -0.00728402
internal_weight=253.961 32.2737 221.688 74.9733 59.8082 15.1651 146.714 101.395 45.3195 23.6921 12.9211 10.771
internal_count=1016 130 886 301 240 61 585 407 178 95 52 43
is_linear=0
shrinkage=0.05


Tree=44
num_leaves=13
num_cat=0
split_feature=17 0 9 31 31 32 13 25 31 15 13 26
split_gain=3.8705 3.56182 7.79245 6.08529 5.25948 4.23203 3.26437 3.07095 2.61618 2.75528 2.56012 1.71474
threshold=0.49852242127741803 34.013944356515154 -0.0022507302500814966 0.463781714269833 3.4345126557873829 0.59874621894237323 13.082097917802951 37.500000000000007 1.2474238061470968 0.47414554099576023 15.303681383588776 0.49280358975593863
decision_type=2 2 2 2 2 2 2 2 2 2 2 2
left_child=7 3 5 -2 -4 -3 -5 8 9 -1 11 -9
right_child=1 2 4 6 -6 -7 -8 10 -10 -11 -12 -13
leaf_value=-0.0096630262494528732 0.050639639050121033 -0.014242086281964248 0.0020404015403296329 0.013972121683834833 -0.043964148804799132 -0.063378919842755899 -0.015447279521058448 0.0018194585029086407 -0.026915269910002405 0.030384044250286093 -0.00054312194925062952 0.041572726466476508
leaf_weight=6.4637311100959796 7.0523780137300482 17.906740769743923 134.19544592499733 22.6239874958992 5.5115645825862876 6.437422275543212 14.376559615135191 4.992516413331038 5.4757491797208777 7.7094794511795044 5.4688948243856421 15.414910390973089
leaf_count=26 28 72 537 89 23 27 57 20 22 31 22 62
internal_value=0.00159944 -0.00119916 -0.00470199 0.0111052 0 -0.03021 0.00177764 0.0146805 0 0.0110397 0.0256658 0.0335545
internal_weight=253.629 208.104 164.051 44.0529 139.707 24.3442 37.0005 45.5253 19.649 14.1732 25.8763 20.4074
internal_count=1016 833 659 174 560 99 146 183 79 57 104 82
is_linear=0
shrinkage=0.05


Tree=45
num_leaves=9
num_cat=0
split_feature=33 33 20 11 25 29 25 32
split_gain=2.98121 3.90006 3.66814 5.22182 3.90418 2.9194 2.94178 2.36168
threshold=0.11791393061455681 0.056886677883455215 0.012672947797331741 24.277683573800321 23.500000000000004 0.18583031486255888 56.500000000000007 1.5132254872174271
decision_type=2 2 2 2 2 2 2 2
left_child=1 2 3 -1 -4 6 -3 -2
right_child=7 5 4 -5 -6 -7 -8 -9
leaf_value=-0.00092046805608423624 -0.045414788883719498 0.0020937752813021348 -0.050186920697454229 0.021189041980733885 -0.0054499401839664336 -0.0092595758607944643 0.039337949077377282 0
leaf_weight=144.42116285860538 4.8982149511575681 10.222540512681013 5.5583598613739005 31.277003929018974 27.679886341094971 5.7469080835580817 15.39545978605747 6.2877123653888702
leaf_count=577 20 42 23 125 111 23 61 25
internal_value=0.00126497 0.0025719 0 0.00297153 -0.0149087 0.0187236 0.0260523 -0.0226667
internal_weight=251.487 240.301 208.936 175.698 33.2382 31.3649 25.618 11.1859
internal_count=1007 962 836 702 134 126 103 45
is_linear=0
shrinkage=0.05


Tree=46
num_leaves=6
num_cat=0
split_feature=3 3 34 9 11
split_gain=3.7115 3.87737 4.86336 3.44338 3.27369
threshold=4.6906631318624665 3.1428109452274069 0.67789064178755265 0.0059394820131164717 24.277683573800321
decision_type=2 2 2 2 2
left_child=1 3 -3 4 -1
right_child=-2 2 -4 -5 -6
leaf_value=-0.00074120271345329237 0.038268475093365679 -0.052930301689753267 0.0053864260453765156 -0.026765767837591593 0.0123210144572457
leaf_weight=159.34032633900642 5.5729938000440589 6.5118277519941312 5.1852322965860367 9.0512502640485746 65.746197581291199
leaf_count=637 22 27 21 37 263
internal_value=0.00117571 8.19161e-05 -0.0267217 0.00163524 0.00300122
internal_weight=251.408 245.835 11.6971 234.138 225.087
internal_count=1007 985 48 937 900
is_linear=0
shrinkage=0.05


Tree=47
num_leaves=7
num_cat=0
split_feature=3 20 2 2 31 55
split_gain=3.4079 4.0313 4.40255 5.30227 4.15545 3.28166
threshold=4.6906631318624665 0.031504709267437585 61.814996427073375 59.528276111123482 0.51828473795816243 1.4164412342771768
decision_type=2 2 2 2 2 2
left_child=1 2 3 -1 -4 -3
right_child=-2 5 4 -5 -6 -7
leaf_value=0.001209400997747061 0.036651184006642031 -0.052897854426072359 -0.0046878931685913408 -0.041782029102486129 0.044261651148141401 0
leaf_weight=211.91258212924004 5.57209888100624 5.306039556860922 5.4164416044950476 6.4167383611202231 10.172656774520872 6.5593981146812439
leaf_count=849 22 22 22 26 40 26
internal_value=0.00110719 5.48277e-05 0.0016476 -0.000124879 0.0264897 -0.0270897
internal_weight=251.356 245.784 233.918 218.329 15.5891 11.8654
internal_count=1007 985 937 875 62 48
is_linear=0
shrinkage=0.05


Tree=48
num_leaves=8
num_cat=0
split_feature=3 0 31 13 3 9 13
split_gain=3.13132 3.51054 7.40602 7.28528 7.74805 5.80639 5.7576
threshold=4.6906631318624665 34.432014340889246 3.1739101438691377 10.787766145239924 -1.8262379697414064 -0.0029605214434952009 29.399209526780322
decision_type=2 2 2 2 2 2 2
left_child=1 3 5 4 -1 -3 -5
right_child=-2 2 -4 6 -6 -7 -8
leaf_value=0.0018118365584130058 0.035121375619631516 -0.028671923536336144 -0.051961780685151615 -0.025745451538653347 0.054205004211333022 0.0017481225490731077 0.026071529384075278
leaf_weight=15.871206954121591 5.5677237063646308 16.196901142597198 6.4382580965757361 15.750306352972986 13.541247442364691 171.29111388325691 6.5837839096784583
leaf_count=63 22 66 27 63 53 687 26
internal_value=0.0010408 2.78324e-05 -0.00296721 0.0115695 0.0277444 -0.000885373 -0.00893643
internal_weight=251.241 245.673 193.926 51.7465 29.4125 187.488 22.3341
internal_count=1007 985 780 205 116 753 89
is_linear=0
shrinkage=0.05


Tree=49
num_leaves=9
num_cat=0
split_feature=30 28 25 29 28 9 27 29
split_gain=2.67336 2.8512 6.11845 6.22248 5.63398 5.96719 4.68684 2.27496
threshold=1.1133391760443683 0.61444167807682881 83.500000000000014 0.090806778986006559 0.58251007797304211 0.0046564746377139509 1.0321187499999989 0.06392680285483307
decision_type=2 2 2 2 2 2 2 2
left_child=1 4 6 -4 5 -1 -3 -6
right_child=-2 2 3 -5 7 -7 -8 -9
leaf_value=0.0040276724092288916 -0.032330614520751109 -0.0027052411004445725 -0.062189749276441622 0 0 -0.040802501137566005 0.040712226066051647 0.03068086445574203
leaf_weight=113.0706685334444 4.8011166602373114 73.604382261633873 7.5309987515211088 7.4734164923429489 5.8057694882154491 6.9109768271446219 5.7573062628507605 26.08620747923851
leaf_count=451 20 298 31 30 23 28 23 103
internal_value=0.000997026 0.00187609 -0.00477112 -0.0330087 0.00617404 0.000922881 0.00060081 0.0245408
internal_weight=251.041 246.24 94.3661 15.0044 151.874 119.982 79.3617 31.892
internal_count=1007 987 382 61 605 479 321 126
is_linear=0
shrinkage=0.05


Tree=50
num_leaves=13
num_cat=0
split_feature=0 4 3 31 29 25 34 8 45 28 0 32
split_gain=5.05918 5.56509 5.38533 4.15228 3.82595 6.32776 4.44928 3.36636 3.00349 2.46509 2.19653 1.63852
threshold=60.819212145376831 -0.020144250431112235 2.6279132289071856 0.85829391425403612 0.0471259449925523 16.500000000000004 0.86437235493715503 -0.0040895138199926401 0.029547844152672375 0.60865610454996066 73.32578503758802 0.067009262548603357
decision_type=2 2 2 2 2 2 2 2 2 2 2 2
left_child=1 11 3 8 5 -3 -6 -4 -2 -5 -9 -1
right_child=2 4 7 9 6 -7 -8 10 -10 -11 -12 -13
leaf_value=0.0069123899470009079 -0.011081137692798889 0.055718786675368871 -0.016882115491796659 0.005723416067124204 0.0013598647263572993 -0.00011909853907750878 -0.027155930059140417 0.047576274307110894 -0.050477943938698561 -0.02733054214453905 0.0014602630622510466 0.052058626140149659
leaf_weight=5.2469266355037671 11.123912960290911 7.17271460592747 5.8476194590330151 15.862953498959543 136.08764347434044 11.085377827286718 14.092902824282644 5.0889183729886991 13.808024600148199 7.0556282699108115 6.6985460370779037 6.3954998403787613
leaf_count=21 45 28 24 63 545 44 59 20 57 30 27 25
internal_value=-0.000452108 0.00377551 -0.0123357 -0.0210945 0.00121279 0.0222729 -0.00131261 0.00994509 -0.0349694 -0.00412445 0.0254882 0.035846
internal_weight=245.567 180.081 65.4856 47.8505 168.439 18.2581 150.181 17.6351 24.9319 22.9186 11.7875 11.6424
internal_count=988 722 266 195 676 72 604 71 102 93 47 46
is_linear=0
shrinkage=0.05


Tree=51
num_leaves=12
num_cat=0
split_feature=20 25 8 8 14 10 25 55 45 9 13
split_gain=4.01322 5.35288 4.05245 3.73035 3.10334 4.70403 3.82095 5.71785 4.34313 3.11534 1.9658
threshold=0.012672947797331741 23.500000000000004 0.006260819757630833 -0.0092684054680198507 -0.95137678183909891 19.846354440860967 16.500000000000004 0.90896456497011702 0.035887493171230571 -0.0040454495141598679 12.149480561901626
decision_type=2 2 2 2 2 2 2 2 2 2 2
left_child=4 -2 3 -3 5 -1 8 -8 -6 -7 -4
right_child=1 2 10 -5 6 9 7 -9 -10 -11 -12
leaf_value=-0.013269163660065442 -0.054449086292483663 -0.029280813789063206 -0.043195286260902077 0.011633764887302469 -0.0063272260186546846 0 -0.034927943361740287 2.7474764801266925e-05 0.03239388476708234 0.043706717178776694 -0.006411389290678424
leaf_weight=6.9067166745662716 5.7014832198619834 5.6762230247259131 7.5363937020301845 29.071632921695709 10.176900506019594 6.3612060844898268 11.785349205136297 121.42869012057781 16.790131375193596 13.486529335379597 10.480100110173224
leaf_count=28 24 23 31 117 41 26 48 488 66 53 43
internal_value=-0.000412128 -0.0118196 -0.00582122 0.00361871 0.00306656 0.0185176 0.000231854 -0.00311594 0.0171835 0.0308839 -0.0245753
internal_weight=245.401 58.4658 52.7643 34.7479 186.936 26.7545 160.181 133.214 26.967 19.8477 18.0165
internal_count=988 238 214 140 750 107 643 536 107 79 74
is_linear=0
shrinkage=0.05


Tree=52
num_leaves=15
num_cat=0
split_feature=0 12 0 32 3 12 30 29 31 20 45 30 22 28
split_gain=4.36145 7.25495 5.97735 6.98077 4.82051 4.71018 5.21414 4.42002 3.79407 3.50624 2.74026 2.68579 2.82474 2.26307
threshold=60.819212145376831 18.886049922721458 39.009065984911132 -1.1265850704842302 2.6279132289071856 15.521572467884221 0.62371834345420674 0.059035073168360659 0.85829391425403612 -0.010228558941548721 0.029547844152672375 1.1018050161644763 0.023088523811037997 0.60865610454996066
decision_type=2 2 2 2 2 2 2 2 2 2 2 2 2 2
left_child=1 5 9 -4 8 7 -7 -1 10 -3 -2 12 -6 -10
right_child=4 2 3 -5 11 6 -8 -9 13 -11 -12 -13 -14 -15
leaf_value=-0.031338883228839952 -0.010162350797783302 0.0018702103248294509 0.00188160907678177 -0.031059221669732087 0 0.047014759009763533 0.00072694477200755227 0.01610979550880668 0.005834957151764064 0.033261161396414829 -0.047903901222633605 -0.017161183735528076 0.04655094379608303 -0.025913909630597184
leaf_weight=6.2039207816123989 11.10113361477852 59.50385183095932 30.839146286249161 29.643840238451958 7.3963132649660128 19.032723590731624 10.393805578351019 14.315980508923529 15.859450548887255 9.9822210073471052 13.75875213742256 4.8467667400836936 5.3501708805561066 7.0133981555700293
leaf_count=26 45 237 124 120 30 75 42 58 63 40 57 20 21 30
internal_value=-0.000420236 0.003497 -0.00258404 -0.0140993 -0.0114758 0.0195517 0.0320482 0 -0.0197867 0.00714235 -0.0330619 0.00957984 0.0220753 -0.00353055
internal_weight=245.241 179.915 129.969 60.483 65.326 49.9464 29.4265 20.5199 47.7327 69.4861 24.8599 17.5933 12.7465 22.8728
internal_count=988 722 521 244 266 201 117 84 195 277 102 71 51 93
is_linear=0
shrinkage=0.05


Tree=53
num_leaves=15
num_cat=0
split_feature=0 12 0 32 3 34 34 6 24 0 5 20 34 34
split_gain=3.98781 6.57514 5.42764 6.35475 4.41229 4.35541 6.29391 3.52837 3.48004 6.8099 5.43828 3.20325 2.87949 2.05248
threshold=60.819212145376831 18.886049922721458 39.009065984911132 -1.1265850704842302 2.6279132289071856 0.87083628074987718 0.49135092058027846 52.911830658677836 2.3745824732582501 68.801018675386885 85.200537940344105 -0.010228558941548721 0.66272563891591396 1.0574067057852734
decision_type=2 2 2 2 2 2 2 2 2 2 2 2 2 2
left_child=1 5 11 -4 8 6 -1 -7 9 -2 -10 -3 -6 -14
right_child=4 2 3 -5 12 7 -8 -9 10 -11 -12 -13 13 -15
leaf_value=0.0020414726131877301 -0.04946751616197223 0.0017783826124515339 0.0017907989238248529 -0.029627158095316797 -0.018777082060289663 -0.032449197618891895 0.050510251720459622 0.012525481000900569 0.011537752465110757 0.0062772237207587393 -0.035180931917845798 0.031846102459980589 0.040930772415910172 0
leaf_weight=12.883526965975763 16.318476080894474 59.499297574162483 30.833680659532547 29.573009938001633 4.8033867329359081 4.8778776526451137 16.351793944835663 15.775114223361014 16.163983657956127 6.6288738399744025 8.5361969321966154 9.9497461766004545 6.0656916648149473 6.6978191286325455
leaf_count=52 68 237 124 120 20 21 64 64 65 27 35 40 24 27
internal_value=-0.000385224 0.00335659 -0.00242623 -0.0134152 -0.0109709 0.018652 0.0307517 0 -0.0189377 -0.0327307 -0.00437579 0.00683185 0.00914741 0.0220736
internal_weight=244.958 179.744 129.856 60.4067 65.2144 49.8883 29.2353 20.653 47.6475 22.9473 24.7002 69.449 17.5669 12.7635
internal_count=988 722 521 244 266 201 116 85 195 95 100 277 71 51
is_linear=0
shrinkage=0.05


Tree=54
num_leaves=15
num_cat=0
split_feature=0 12 0 14 12 30 3 29 31 3 34 45 33 28
split_gain=3.62432 5.96291 4.92919 5.05488 4.2504 4.67194 4.02329 3.88108 3.34072 2.98327 2.65708 2.30426 2.13896 2.01387
threshold=60.819212145376831 18.886049922721458 39.009065984911132 -0.81272035356486738 15.521572467884221 0.62371834345420674 2.6279132289071856 0.059035073168360659 0.85829391425403612 1.0177353185336269 0.66272563891591396 0.029547844152672375 0.041405230790549488 0.60865610454996066
decision_type=2 2 2 2 2 2 2 2 2 2 2 2 2 2
left_child=1 4 9 -4 7 -6 8 -1 11 -3 -8 -2 -12 -10
right_child=6 2 3 -5 5 -7 10 -9 13 -11 12 -13 -14 -15
leaf_value=-0.030186336702023975 -0.009292366512072282 0.0028353160688122225 0.0093035670592323937 -0.021724584980624882 0.043844315147726486 0 -0.018031558531104674 0.014402634866314596 0.0059708014659295983 0.039669498860672954 0.041832207064212375 -0.044275382322741058 0 -0.024096644082019031
leaf_weight=6.1673558801412609 11.080773189663889 64.090846851468086 16.600792229175568 43.720937758684158 18.982033446431164 10.369810998439787 4.7934860587120083 14.290014058351515 15.854514658451082 5.3181751668453208 5.5831561982631666 13.663014382123945 7.1734776347875595 6.9506209492683402
leaf_count=26 45 256 67 177 75 42 20 58 63 21 22 57 29 30
internal_value=-0.000339777 0.00322377 -0.00227645 -0.0127654 0.0178043 0.0296773 -0.0104462 0 -0.0180729 0.00653598 0.00872968 -0.0305499 0.0211827 -0.00277034
internal_weight=244.639 179.54 129.731 60.3217 49.8092 29.3518 65.099 20.4574 47.5489 69.409 17.5501 24.7438 12.7566 22.8051
internal_count=988 722 521 244 201 117 266 84 195 277 71 102 51 93
is_linear=0
shrinkage=0.05


Tree=55
num_leaves=9
num_cat=0
split_feature=30 23 31 45 31 29 3 22
split_gain=3.36598 5.44686 5.87633 4.3229 3.6449 2.76238 2.01696 1.18559
threshold=0.052161788190076781 0.023222259147837467 3.1739101438691377 0.021605625197276844 0.24628034099459109 0.123887762136645 -4.0546035716667665 -0.042970458611056528
decision_type=2 2 2 2 2 2 2 2
left_child=5 2 4 -3 -2 6 -1 -8
right_child=1 3 -4 -5 -6 -7 7 -9
leaf_value=0 -0.016193194292134588 -0.0025274076601108338 -0.042734259795630988 -0.06291308375472382 0.0023033386169439081 -0.0078030509679563312 0.01336624134468881 0.055435548644572036
leaf_weight=5.2554546296596572 30.216942653059959 6.9442080408334714 7.5658823549747458 5.9392419904470444 177.87361040711403 7.1008945256471625 6.3621829748153722 5.0929049998521769
leaf_count=21 123 28 32 25 716 28 25 20
internal_value=-0.00224104 -0.00420929 -0.00212111 -0.0346922 -0.000327588 0.0150507 0.0260658 0.0370265
internal_weight=252.351 228.54 215.656 12.8835 208.091 23.8114 16.7105 11.4551
internal_count=1018 924 871 53 839 94 66 45
is_linear=0
shrinkage=0.05


Tree=56
num_leaves=8
num_cat=0
split_feature=30 23 31 45 5 22 32
split_gain=3.09528 5.04466 5.41154 4.00521 3.51651 2.23091 3.29896
threshold=0.052161788190076781 0.023222259147837467 3.1739101438691377 0.021605625197276844 48.769150077540878 -0.042970458611056528 -1.4967607327522348
decision_type=2 2 2 2 2 2 2
left_child=5 2 4 -3 -2 6 -1
right_child=1 3 -4 -5 -6 -7 -8
leaf_value=0.022409361689183307 -0.0070549732212060777 -0.0024168210054598084 -0.0411495031712188 -0.060836939019528337 0.0058726045954068124 0.036913682675901435 -0.01908870708972291
leaf_weight=9.4242256283760106 101.37292262911797 6.9446045309305173 7.5044800341129294 5.8706868141889572 106.74366070330143 6.8001515716314307 7.5752377659082422
leaf_count=37 409 28 32 25 430 27 30
internal_value=-0.00214743 -0.00403881 -0.00202869 -0.0334551 -0.000308451 0.0144294 0.00249508
internal_weight=252.236 228.436 215.621 12.8153 208.117 23.7996 16.9995
internal_count=1018 924 871 53 839 94 67
is_linear=0
shrinkage=0.05


Tree=57
num_leaves=10
num_cat=0
split_feature=45 30 31 11 24 10 28 28 33
split_gain=3.02081 3.73988 5.13244 3.33264 3.28917 2.92616 2.41545 3.41986 2.11923
threshold=0.022753525083458428 0.052161788190076781 2.1441043710353997 24.277683573800321 3.7045683194122376 24.910430054473817 0.45823916386015939 0.58108193770088834 -0.036315061928853858
decision_type=2 2 2 2 2 2 2 2 2
left_child=4 8 3 -3 6 -4 -1 -8 -2
right_child=1 2 5 -5 -6 -7 7 -9 -10
leaf_value=0.0053044200983009306 0.035239016347467456 -0.0040690329473622574 -0.039642199992128514 0.010271854030982127 0.011497348453204662 0.00022453297265028445 -0.042890483940779711 -0.0055630349802248229 0
leaf_weight=5.2970741540193549 10.373934268951418 114.04254652559757 12.088982716202738 61.028149157762527 8.0864598304033262 5.2098388373851767 15.090087756514551 13.287775397300718 7.5686312913894644
leaf_count=21 41 461 51 247 32 21 61 53 30
internal_value=-0.00205983 0.000285995 -0.0016727 0.000818036 -0.0141886 -0.0269133 -0.0212313 -0.0270474 0.0215855
internal_weight=252.073 210.312 192.37 175.071 41.7614 17.2988 33.6749 28.3779 17.9426
internal_count=1018 851 780 708 167 72 135 114 71
is_linear=0
shrinkage=0.05


Tree=58
num_leaves=10
num_cat=0
split_feature=31 28 31 45 31 29 29 31 25
split_gain=2.90284 5.57973 5.44062 4.01493 6.86509 5.96415 3.77188 3.33095 1.91443
threshold=0.24628034099459109 0.5659014052691046 0.27505559254999623 0.035157721336076621 0.36112384476413378 0.097805111958076729 0.062597493026491063 0.1411968982035168 49.500000000000007
decision_type=2 2 2 2 2 2 2 2 2
left_child=1 7 -2 4 -4 -5 -3 -1 -8
right_child=2 6 3 5 -6 -7 8 -9 -10
leaf_value=-0.00089257230586386083 0.044148956007142443 -0.028337914025084694 -0.043830108006280261 0.0026781053294126439 -0.002576843014909967 0.048959896213007344 0.030927933223164034 -0.058547959800464157 -0.0035963393172534562
leaf_weight=4.7985237240791339 5.7954077571630469 5.9405394494533565 10.055800706148146 54.203605130314827 143.16122962534428 7.2912067025899878 7.9602754265069944 7.8944264054298401 4.8651494383811951
leaf_count=20 23 24 41 218 579 29 32 32 20
internal_value=-0.00195222 -0.0159148 0 -0.00128542 -0.0057131 0.00926121 0.000473001 -0.0402343 0.0167105
internal_weight=251.966 31.4589 220.507 214.712 153.217 61.4948 18.766 12.693 12.8254
internal_count=1018 128 890 867 620 247 76 52 52
is_linear=0
shrinkage=0.05


Tree=59
num_leaves=11
num_cat=0
split_feature=45 30 29 29 8 24 17 28 9 14
split_gain=2.63491 3.41722 3.83131 5.47682 3.32153 2.99236 2.21796 3.08489 1.61217 1.6018
threshold=0.022753525083458428 0.052161788190076781 0.11662740423081876 0.085701858936110306 -0.010293000075763338 3.7045683194122376 0.50269655268026547 0.58108193770088834 -0.0016628579590014039 0.24134361930760059
decision_type=2 2 2 2 2 2 2 2 2 2
left_child=5 8 3 -3 -4 6 -1 -8 9 -2
right_child=1 2 4 -5 -6 -7 7 -9 -10 -11
leaf_value=0.0053698681136368004 0.050351817470280974 0 -0.011656085711054448 -0.022188409562694616 0.017583241006077565 0.01123910661002292 -0.040581973275156363 -0.0050432965659706272 0 0.0089758018153820625
leaf_weight=5.2887424975633612 5.0863773524761218 107.00705021619797 11.144724994897841 36.562606260180473 37.463787123560905 8.0782088190317136 15.084134846925737 13.287316828966139 5.0295071750879279 7.7917719781398773
leaf_count=21 20 434 45 150 151 32 61 53 20 31
internal_value=-0.00186251 0.000322587 -0.00154445 -0.00576271 0.0102756 -0.0131961 -0.0199367 -0.0255275 0.0207032 0.0295697
internal_weight=251.824 210.086 192.178 143.57 48.6085 41.7384 33.6602 28.3715 17.9077 12.8781
internal_count=1018 851 780 584 196 167 135 114 71 51
is_linear=0
shrinkage=0.05


Tree=60
num_leaves=9
num_cat=0
split_feature=32 3 26 23 22 10 29 13
split_gain=4.39078 2.89217 3.29536 4.77827 2.83533 2.78335 2.57229 1.4287
threshold=-2.1408149126633327 4.6906631318624665 0.75907627860043336 0.018255615067362001 -0.048770047333989548 31.942366564767486 0.18791743221241355 2.3242944321092716
decision_type=2 2 2 2 2 2 2 2
left_child=4 2 3 -2 6 -4 7 -1
right_child=1 -3 5 -5 -6 -7 -8 -9
leaf_value=0.0072717858089650219 -0.0038900527902974063 0.031076588500155877 -0.028033257649782324 0.016873062741718816 0.041185737939191752 0.0023665175475839888 0.028260188542283432 -0.024218986579152516
leaf_weight=5.2493327260017448 151.13512949645519 5.4867616444826117 20.152283504605297 32.872416600584984 9.0875524729490262 9.2544409185647947 6.8581642508506766 5.7623283863067627
leaf_count=21 610 22 84 132 37 38 27 23
internal_value=0.000736485 -0.00153431 -0.00263034 0 0.0194655 -0.0178809 0.00549768 -0.00777019
internal_weight=245.858 218.901 213.414 184.008 26.9574 29.4067 17.8698 11.0117
internal_count=994 886 864 742 108 122 71 44
is_linear=0
shrinkage=0.05


Tree=61
num_leaves=14
num_cat=0
split_feature=25 22 29 3 34 0 3 31 26 21 17 5 31
split_gain=2.57757 8.72703 3.71988 2.83774 3.3486 5.40603 4.12381 2.83501 2.66753 2.74846 2.56562 2.34389 2.04124
threshold=19.500000000000004 -0.021731602542387502 0.064282940642254968 -0.19890920103888657 0.87083628074987718 65.443248128096755 -0.65582406736005716 0.59870176845311252 0.50732353419629594 -0.0079280999088339205 0.48653582957518643 32.157237626536784 0.32763343936077433
decision_type=2 2 2 2 2 2 2 2 2 2 2 2 2
left_child=1 2 -1 4 6 -6 -2 12 10 -10 -5 -4 -3
right_child=3 7 11 8 5 -7 -8 -9 9 -11 -12 -13 -14
leaf_value=0.036075768934715105 0.0078897435565597907 -0.030414020069821725 0.012137975588755798 0.0034170142250675608 -0.03072212923336376 0.022133997698310339 -0.024952754647401695 -0.05213830784893593 0 0.017960316298579259 -0.034214183933777446 -0.028553038736155851 0.005836948924112427
leaf_weight=8.3883386850357073 58.290623992681503 6.1789457798004168 6.7135161608457548 11.731452897191049 19.633850663900379 4.965916469693183 10.23900932073593 9.4908594638109189 31.057953327894211 62.576205223798752 5.4330714344978324 5.0845274776220322 5.9612633287906647
leaf_count=33 233 25 27 48 81 20 42 39 125 253 23 21 24
internal_value=0.000724578 -0.0103018 0.0122053 0.00314688 -0.00307579 -0.0186278 0.00233488 -0.0320216 0.00858155 0.0120042 -0.00834587 -0.00430576 -0.0116214
internal_weight=245.746 41.8175 20.1864 203.928 93.1294 24.5998 68.5296 21.6311 110.799 93.6342 17.1645 11.798 12.1402
internal_count=994 169 81 825 376 101 275 88 449 378 71 48 49
is_linear=0
shrinkage=0.05


Tree=62
num_leaves=13
num_cat=0
split_feature=25 2 21 26 11 12 5 33 33 55 28 55
split_gain=2.34365 10.4699 4.25376 4.13198 3.1149 2.99057 4.77404 2.85639 6.51593 3.11816 2.49078 1.21004
threshold=22.500000000000004 44.014952958271529 -0.016710228765533901 0.50096128744787349 16.933380630350857 30.355027894982701 25.966890053314806 0.10682440008901113 0.056886677883455215 1.4010486638438719 0.56669907944557674 1.261616592159752
decision_type=2 2 2 2 2 2 2 2 2 2 2 2
left_child=1 2 10 -3 -5 7 11 8 -2 -9 -1 -7
right_child=5 3 -4 4 -6 6 -8 9 -10 -11 -12 -13
leaf_value=-0.024935545788800528 0.0031772303897750487 0.008968544097124059 0.04377465426701737 0 -0.045092809846332654 -0.010862948446334718 -0.051358977944517249 -0.033975191883108234 0.031579899500491816 0.0043510910997269113 0.018134608297024592 0.015219878623697322
leaf_weight=5.2049975991249102 133.41281846165657 4.9704858660697964 8.140616372227667 5.740136772394183 19.094387218356133 9.2226456403732353 5.1251586675643912 8.0941584110260028 23.524940401315689 10.033602461218832 6.2030049264431 6.8516362011432639
leaf_count=21 540 20 32 23 79 37 21 34 95 40 25 27
internal_value=0.000667816 -0.00883279 0.0182993 -0.0274562 -0.0357791 0.00321628 -0.0137899 0.00548425 0.00776607 -0.0123364 0 0
internal_weight=245.619 49.3536 19.5486 29.805 24.8345 196.265 21.1994 175.066 156.938 18.1278 11.408 16.0743
internal_count=994 200 78 122 102 794 85 709 635 74 46 64
is_linear=0
shrinkage=0.05


Tree=63
num_leaves=9
num_cat=0
split_feature=32 25 55 6 3 26 20 20
split_gain=3.98904 2.6123 4.70358 3.43763 2.49923 3.00247 3.92289 2.54484
threshold=-2.1408149126633327 69.500000000000014 1.4909786087227741 19.631694366176291 4.6906631318624665 0.75907627860043336 0.012672947797331741 -0.015970843152812785
decision_type=2 2 2 2 2 2 2 2
left_child=1 -1 3 -3 5 7 -7 -2
right_child=4 2 -4 -5 -6 6 -8 -9
leaf_value=0.04120361789072946 0.013772700065576689 0.014011594156759481 0.037771315402541181 -0.034068482671936101 0.028814153421972934 -0.0066348935806579039 -0.05377266990583162 -0.0026073855729293999
leaf_weight=8.062762916088106 26.882917299866676 5.5247670561075228 6.6154506206512442 6.6731715053319931 5.4596546143293372 24.274836003780369 5.0872153639793387 156.84589527547359
leaf_count=33 107 22 26 27 22 99 23 635
internal_value=0.000627526 0.0185131 0.00593814 -0.0109859 -0.00153238 -0.00255762 -0.0171274 -1.3761e-05
internal_weight=245.427 26.8762 18.8134 12.1979 218.551 213.091 29.3621 183.729
internal_count=994 108 75 49 886 864 122 742
is_linear=0
shrinkage=0.05


Tree=64
num_leaves=15
num_cat=0
split_feature=32 25 33 23 26 12 3 13 3 30 2 6 32 31
split_gain=3.82157 5.04345 6.42442 5.99848 5.31186 3.91791 4.4503 4.31442 3.4266 4.12973 3.16345 2.59062 2.51807 1.47376
threshold=-1.1364288461963143 29.500000000000004 -0.017623630358064846 0.011710066455474769 0.50096128744787349 30.355027894982701 1.7730669147986748 0.43403778278377791 2.7292080193897195 0.10752338696747406 49.709683296608254 27.71999658904679 0.64847442874122552 0.75034829318402907
decision_type=2 2 2 2 2 2 2 2 2 2 2 2 2 2
left_child=5 2 3 -2 -4 6 7 -1 9 -3 -8 13 -10 -7
right_child=1 8 4 -5 -6 11 10 -9 12 -11 -12 -13 -14 -15
leaf_value=0.030963330448762351 0.041169385770906251 0.030717385310410496 0.0074728063272499028 -0.01697257430250634 -0.042425991346950354 0.020678025937756181 0.0053357754313497477 0.0023619337040763837 0.041144029273765516 -0.0053111787520732558 -0.037539892936093999 -0.03814756204705113 0 -0.0096976975150876114
leaf_weight=35.742464676499367 6.3569676280021694 7.7032437771558753 5.4642098993063 9.6762401312589628 23.216715738177299 5.0269392430782345 11.646164461970331 23.977909177541733 7.7740311771631223 83.054649889469147 5.1026811152696601 4.9168460816144934 4.7811646312475204 10.77504527568817
leaf_count=144 25 31 22 39 96 20 47 97 31 338 21 20 20 43
internal_value=0.000604506 -0.00433431 -0.0182096 0.00567589 -0.0321456 0.00834897 0.0136835 0.0201195 0.00154825 -0.00167929 -0.00769723 -0.00991208 0.0251263 0
internal_weight=245.215 148.027 44.7141 16.0332 28.6809 97.1881 76.4692 59.7204 103.313 90.7579 16.7488 20.7188 12.5552 15.802
internal_count=994 602 182 64 118 392 309 241 420 369 68 83 51 63
is_linear=0
shrinkage=0.05


Tree=65
num_leaves=11
num_cat=0
split_feature=25 55 55 32 32 4 12 26 32 23
split_gain=3.61614 5.33354 5.99165 5.75678 5.09539 4.89712 4.0193 4.199 3.98587 2.50241
threshold=86.500000000000014 1.261616592159752 1.2442801255080347 0.75886675742018761 -1.1265850704842302 -0.05571780640673054 26.127983666235355 0.54485160116734777 -2.0945414865600394 0.011346474689268337
decision_type=2 2 2 2 2 2 2 2 2 2
left_child=1 2 4 9 -1 -2 7 -7 -8 -3
right_child=5 3 -4 -5 -6 6 8 -9 -10 -11
leaf_value=0.010048034719625938 0.024943636137581399 0.0043025716617153464 -0.051919848994541822 -0.012125146803461356 -0.00775385763839068 0.0070603461113795569 0.020530864644976422 -0.037425623343620193 -0.030796223313510701 0.052928232847176605
leaf_weight=62.882893323898315 5.5353809446096411 5.2799342870712307 5.0333035290241233 6.7075022608041754 106.25005772709846 5.069030061364173 9.3263149857521039 27.371825188398361 4.9188048541545859 10.168814599514006
leaf_count=255 22 21 21 28 433 20 37 112 20 40
internal_value=-0.00302343 0 -0.00287129 0.0226596 -0.000968091 -0.0145851 -0.0202209 -0.0297236 0.000310351 0.0391012
internal_weight=248.544 196.323 174.166 22.1563 169.133 52.2214 46.686 32.4409 14.2451 15.4487
internal_count=1009 798 709 89 688 211 189 132 57 61
is_linear=0
shrinkage=0.05


Tree=66
num_leaves=13
num_cat=0
split_feature=25 4 32 8 24 0 1 10 12 26 32 17
split_gain=3.25333 4.4822 4.11123 5.78433 6.82419 5.05154 11.3288 4.8164 3.62296 3.84323 3.65632 2.68969
threshold=86.500000000000014 -0.05571780640673054 -1.1265850704842302 -0.012038307133872548 2.1550183601279338 33.78328015793852 49.920066337424913 32.544380357735598 26.127983666235355 0.54485160116734777 -2.0945414865600394 0.68025600041126533
decision_type=2 2 2 2 2 2 2 2 2 2 2 2
left_child=2 -2 3 7 -5 11 -7 -1 9 -3 -10 -4
right_child=1 8 5 4 -6 6 -8 -9 10 -11 -12 -13
leaf_value=-0.037898878228218733 0.023965447555738442 0.0067694490007892518 1.1036476958755105e-05 -0.0031358264129680482 0.031958462330620621 -0.030267154236516436 0.002727439412169842 0.0087518440106597647 0.019632344541640465 -0.035657159903761997 -0.029573852368499784 0.043880849759101323
leaf_weight=9.1376738399267214 5.5146010965108863 5.0655753016471854 9.4926050603389722 21.169345855712891 32.777835622429848 40.042462736368179 67.467356309294701 10.149523347616194 9.3116409480571729 27.343171551823616 4.907622054219245 5.8943300098180762
leaf_count=37 22 20 38 87 132 163 277 41 37 112 20 23
internal_value=-0.00286927 -0.0138443 0 0.00940724 0.0179257 -0.00547111 -0.00949682 -0.0128962 -0.0192501 -0.0282733 0.000179414 0.0199943
internal_weight=248.274 52.1426 196.131 73.2344 53.9472 122.897 107.51 19.2872 46.628 32.4087 14.2193 15.3869
internal_count=1009 211 798 297 219 501 440 78 189 132 57 61
is_linear=0
shrinkage=0.05


Tree=67
num_leaves=6
num_cat=0
split_feature=21 34 9 5 24
split_gain=2.95039 3.871 2.91053 3.10489 1.4953
threshold=0.070141796632979467 1.3104202345534122 0.0056414040234232261 48.769150077540878 2.0164870964452346
decision_type=2 2 2 2 2
left_child=1 2 3 -1 -3
right_child=-2 4 -4 -5 -6
leaf_value=-0.0071093033965457563 -0.03549796975593069 0.040120384973171989 -0.032907060922160003 0.0047635708090689958 0.0021853564667486396
leaf_weight=130.72494713962078 5.7559100687503806 6.1665955334901792 7.1410339027643195 91.472810387611389 6.6752672046422958
leaf_count=532 24 25 30 370 28
internal_value=-0.00270909 -0.00168422 -0.00331629 -0.00211011 0.0237901
internal_weight=247.937 242.181 229.339 222.198 12.8419
internal_count=1009 985 932 902 53
is_linear=0
shrinkage=0.05


Tree=68
num_leaves=9
num_cat=0
split_feature=7 55 58 2 24 10 58 23
split_gain=2.95839 2.78501 4.91874 4.57035 3.96669 7.83934 3.22849 1.18892
threshold=0.023638295907116361 0.89304111781886364 0.15500000000000003 44.014952958271529 1.9232706158438873 29.450670541879642 0.8650000000000001 0.011877878099503521
decision_type=2 2 2 2 2 2 2 2
left_child=1 2 3 -1 5 -3 -6 -4
right_child=-2 4 7 -5 6 -7 -8 -9
leaf_value=0.026738024670109453 -0.035875298398388038 0 -0.046731181454309226 -0.016530821666769266 0.0014827225526862027 0.048485166685038182 -0.013911624553187044 -0.0072137370476999382
leaf_weight=9.0066380202770251 5.5669082999229422 29.305929407477379 9.2723674923181516 14.632692366838453 118.55739906430244 11.080951079726217 45.553864687681198 4.8957393169403067
leaf_count=36 23 118 38 60 484 45 185 20
internal_value=-0.00257498 -0.00156286 -0.0138745 0 0.000648095 0.0145832 -0.00269739 -0.0361001
internal_weight=247.872 242.306 37.8074 23.6393 204.498 40.3869 164.111 14.1681
internal_count=1009 986 154 96 832 163 669 58
is_linear=0
shrinkage=0.05


Tree=69
num_leaves=7
num_cat=0
split_feature=11 11 29 32 29 9
split_gain=2.92517 4.3759 2.9874 4.17384 3.03468 2.91117
threshold=10.215762835840566 11.792549007426681 0.0509569408972654 -2.1736395432514137 0.036363932098892562 -0.0034002821010422394
decision_type=2 2 2 2 2 2
left_child=5 -2 4 -4 -3 -1
right_child=1 2 3 -5 -6 -7
leaf_value=-0.0047639459668554433 -0.037439902937382294 -0.0046291575469383115 0.019091552392274044 -0.0069767226206453904 0.024807845645791214 0.039035397076145145
leaf_weight=5.0395770072937012 8.3987345397472364 13.634985595941545 15.399539306759833 180.14321266114712 17.840904876589775 7.2085999995470029
leaf_count=20 34 55 63 737 71 29
internal_value=-0.00245821 -0.0038192 -0.002307 -0.00470988 0.0115364 0.0201276
internal_weight=247.666 235.417 227.019 195.543 31.4759 12.2482
internal_count=1009 960 926 800 126 49
is_linear=0
shrinkage=0.05


Tree=70
num_leaves=8
num_cat=0
split_feature=33 23 23 24 12 28 29
split_gain=3.86829 3.58788 5.44658 4.79657 4.01876 2.82949 2.47098
threshold=0.14955066097199057 0.019366083355694647 0.01973331840613966 2.9984874510759774 11.822258321784323 0.44819200656197283 0.16831654582973482
decision_type=2 2 2 2 2 2 2
left_child=1 3 -3 4 -1 -5 -4
right_child=-2 2 6 5 -6 -7 -8
leaf_value=-0.026319445709268426 -0.039275989667793831 0.055918649655831244 0.016227421087224358 0.0034388191862241586 0.0031198518281759318 -0.034363885399620868 -0.0080993997689276266
leaf_weight=11.39890895783901 5.0558772087097159 5.7208931297063819 23.416501417756081 5.2259020656347301 164.71307264268398 15.408654525876043 15.906733989715574
leaf_count=48 21 23 96 21 668 62 65
internal_value=8.25817e-05 0.00116692 0.0137934 -0.00165256 0.000935385 -0.023918 0.00581011
internal_weight=246.847 241.791 45.0441 196.747 176.112 20.6346 39.3232
internal_count=1004 983 184 799 716 83 161
is_linear=0
shrinkage=0.05


Tree=71
num_leaves=10
num_cat=0
split_feature=28 30 10 13 31 10 58 14 30
split_gain=3.6584 4.3459 4.10814 7.28364 4.27593 3.98318 3.86927 3.39905 3.88962
threshold=0.65696187139314099 0.052161788190076781 15.130942867818794 -13.756732026476095 0.80132450156189561 16.941890151209893 0.7350000000000001 -1.3135268048872024 0.21630696797250107
decision_type=2 2 2 2 2 2 2 2 2
left_child=2 -2 3 -1 5 -4 -6 -3 -9
right_child=1 7 4 -5 6 -7 -8 8 -10
leaf_value=-0.016853227032141198 0.051416038872459748 -0.028545371151498862 -0.023460810000235165 0.043710528252257547 -0.021865089124060079 0.0063558575142909747 0 -0.015689937594890787 0.01935518531121206
leaf_weight=7.0670028924942043 5.310556396842002 4.9701880514621726 11.883977696299551 10.874226361513136 51.805664300918579 78.58852507174015 34.990568369626999 8.7657915800809842 32.505968138575554
leaf_count=29 21 21 48 43 211 317 142 36 136
internal_value=6.74953e-05 0.0118802 -0.00296932 0.0189045 -0.00541701 0.00195233 -0.013318 0.00581831 0.0111254
internal_weight=246.762 51.5525 195.21 17.9412 177.269 90.4725 86.7962 46.2419 41.2718
internal_count=1004 214 790 72 718 365 353 193 172
is_linear=0
shrinkage=0.05


Tree=72
num_leaves=8
num_cat=0
split_feature=33 28 30 7 34 17 29
split_gain=3.56862 2.93719 3.94601 3.44286 4.63787 3.32013 3.01479
threshold=0.14955066097199057 0.65696187139314099 0.052161788190076781 -0.014960249377694189 0.079265151311681756 0.69286597007471917 0.11662740423081876
decision_type=2 2 2 2 2 2 2
left_child=1 3 -3 4 -1 -4 -5
right_child=-2 2 5 6 -6 -7 -8
leaf_value=0.0010361213259828994 -0.037812037765268751 0.04946368241783286 0.030982371964137653 -0.0040427452476652003 -0.051916274483634665 -0.00053057768022258145 0.010043075101685579
leaf_weight=6.9663943201303464 5.0356229692697516 5.2842843830585471 9.298433765769003 123.01855635643005 6.6874339729547501 36.758649602532387 53.65719185769558
leaf_count=28 21 21 37 498 27 155 217
internal_value=5.39458e-05 0.00109853 0.011652 -0.00166361 -0.0249661 0.00582348 0.000126921
internal_weight=246.707 241.671 51.3414 190.33 13.6538 46.0571 176.676
internal_count=1004 983 213 770 55 192 715
is_linear=0
shrinkage=0.05


Tree=73
num_leaves=8
num_cat=0
split_feature=33 23 23 24 31 3 29
split_gain=3.28967 2.9777 5.10941 4.35725 4.77996 2.70517 2.13899
threshold=0.14955066097199057 0.019366083355694647 0.01973331840613966 2.9984874510759774 1.1352030380115472 0.95532054841174707 0.16831654582973482
decision_type=2 2 2 2 2 2 2
left_child=1 3 -3 4 -1 -5 -4
right_child=-2 2 6 5 -6 -7 -8
leaf_value=0.006622293445412277 -0.036378206117581198 0.053472767113949271 0.014614427318976482 -0.032758210546352355 -0.010986806303736421 0.0045856775777243222 -0.00802375633463113
leaf_weight=121.08717647194862 5.0123997777700415 5.6740765273571006 23.405731573700905 15.604667365550997 54.971085593104362 4.9951215982437125 15.90397886931896
leaf_count=491 21 23 96 63 225 20 65
internal_value=4.56667e-05 0.00105105 0.012568 -0.00150712 0.000951967 -0.0227524 0.0048634
internal_weight=246.654 241.642 44.9838 196.658 176.058 20.5998 39.3097
internal_count=1004 983 184 799 716 83 161
is_linear=0
shrinkage=0.05


Tree=74
num_leaves=9
num_cat=0
split_feature=33 23 45 31 23 27 13 10
split_gain=3.0336 2.71829 4.07905 4.80019 3.47739 2.66817 2.36099 1.24889
threshold=0.14955066097199057 0.0192215482010482 0.023288798875897208 1.1352030380115472 0.023549090127688545 0.49232075000000025 -6.324551279419345 27.30192520034247
decision_type=2 2 2 2 2 2 2 2
left_child=1 2 5 -4 6 -1 -3 -6
right_child=-2 4 3 -5 7 -7 -8 -9
leaf_value=0.00079327816524460296 -0.035012377354706775 0 0.0065604651614973621 -0.011204962862438042 0.005210120204513378 -0.034252372004372374 0.028399700156423159 -0.021919356722512325
leaf_weight=6.4254794865846661 4.9871889054775229 10.405738070607184 119.81948947906494 54.179865807294846 5.8317027390003187 13.649106994271277 23.994988337159157 7.2483725398778915
leaf_count=26 21 43 486 222 24 55 97 30
internal_value=3.66246e-05 0.00100469 -0.0015201 0.000853396 0.0116587 -0.0223433 0.0200682 -0.00853724
internal_weight=246.542 241.555 194.074 173.999 47.4808 20.0746 34.4007 13.0801
internal_count=1004 983 789 708 194 81 140 54
is_linear=0
shrinkage=0.05


Tree=75
num_leaves=12
num_cat=0
split_feature=45 22 20 14 0 5 24 0 24 20 34
split_gain=2.84756 5.807 4.51572 5.81007 3.94098 5.05551 4.39984 8.65815 4.85938 3.37861 0.570978
threshold=0.035157721336076621 0.03215841028040118 -0.013328232587465403 0.2884365598524179 34.432014340889246 7.6743619388102315 2.4025908126061455 61.106709203260664 2.4627808184884228 -0.028577306782462009 -0.14220037415913839
decision_type=2 2 2 2 2 2 2 2 2 2 2
left_child=4 2 -2 -4 5 10 7 -6 -8 -7 -1
right_child=1 -3 3 -5 6 9 8 -9 -10 -11 -12
leaf_value=-0.028360602409884861 0.038560680254803893 0.043432915991727841 0.0075079187476057617 -0.026388090914254172 -0.004793748709039136 0.0031884337479757803 0.042495242137583433 -0.051066878621506433 -0.0037616467582088503 0.040368316434563498 0
leaf_weight=4.8966142982244492 6.6809424459934226 9.2226354628801328 42.282826781272888 16.681452676653862 35.734178394079208 14.567867308855055 5.1140061020851126 14.116137042641638 77.352125972509384 12.401022493839266 5.0351065993309003
leaf_count=20 27 37 172 68 148 58 21 60 316 50 20
internal_value=6.47111e-05 0.0082191 0.00231924 -0.00194476 -0.00342331 0.0105602 -0.00756055 -0.0191351 -0.000118813 0.0220107 -0.0174149
internal_weight=244.085 74.8679 65.6452 58.9643 169.217 36.9006 132.316 49.8503 82.4661 26.9689 9.93172
internal_count=997 304 267 240 693 148 545 208 337 108 40
is_linear=0
shrinkage=0.05


Tree=76
num_leaves=9
num_cat=0
split_feature=45 14 14 24 31 32 25 7
split_gain=2.60456 5.28404 6.50125 3.4583 2.7013 2.66535 4.23137 3.28271
threshold=0.035157721336076621 0.9248426181322088 0.50428628506672724 3.6032006631312714 0.24628034099459109 -1.3939032579535935 79.500000000000014 -0.010697511482099185
decision_type=2 2 2 2 2 2 2 2
left_child=3 2 4 5 -2 6 -1 -7
right_child=1 -3 -4 -5 -6 7 -8 -9
leaf_value=0.016347101756162399 -0.01193836268654927 0.04166654379627914 -0.033747411354755903 0.023724773922651449 0.014543995753342118 -0.035794679259456653 -0.012203966035189702 -0.006354367018578758
leaf_weight=29.222744897007942 10.268132761120794 9.1224573254585248 9.3525887429714185 9.8172803819179517 46.029172584414482 10.264463871717451 21.041553974151611 98.678679719567299
leaf_count=120 42 37 38 39 187 42 85 407
internal_value=6.92754e-05 0.00787707 0.00225201 -0.00326367 0.00915347 -0.00522162 0.00390252 -0.00965593
internal_weight=243.797 74.7724 65.6499 169.025 56.2973 159.207 50.2643 108.943
internal_count=997 304 267 693 229 654 205 449
is_linear=0
shrinkage=0.05


Tree=77
num_leaves=14
num_cat=0
split_feature=0 24 10 30 22 30 13 55 3 10 11 6 6
split_gain=2.3821 3.24892 4.51193 4.59792 3.93308 4.39212 3.61844 2.78197 4.07938 5.70066 5.05687 2.96686 1.87431
threshold=34.013944356515154 1.9232706158438873 18.992255956013143 0.45751377372430213 0.03215841028040118 0.55182347316085656 30.909876415264382 1.0899555096406945 -1.7679759757253974 21.353395838881884 14.30777200356785 14.60975382971621 22.847668494100017
decision_type=2 2 2 2 2 2 2 2 2 2 2 2 2
left_child=7 4 3 -3 5 -2 -4 11 9 -9 -10 -1 -13
right_child=1 2 6 -5 -6 -7 -8 8 10 -11 -12 12 -14
leaf_value=0.043833274016375795 0.016196453563894889 -0.040373011002307016 0.00099270284498634981 -0.0004822574478822797 0.039411660922852539 -0.01358820563767462 -0.033027718531825567 0.01397665261707523 -0.0069921509942304939 -0.049634423108560394 0.046068990411954724 -0.013585791676851956 0.024040989087959905
leaf_weight=9.0021512955427188 24.884805604815483 16.3787344545126 103.64239758253098 14.63691809773445 7.4310985356569281 22.35662242770195 7.3770927488803855 4.9793363958597201 8.6497354358434659 6.7235753983259201 6.7389797419309607 5.597742632031439 5.1665030866861343
leaf_count=36 100 69 425 60 30 92 32 20 35 27 27 23 21
internal_value=5.51653e-05 -0.00226506 -0.00634089 -0.0229317 0.0077983 0.00159339 -0.00131939 0.0101615 0 -0.0216316 0.016112 0.0239348 0.00285724
internal_weight=243.566 196.708 142.035 31.0157 54.6725 47.2414 111.019 46.858 27.0916 11.7029 15.3887 19.7664 10.7642
internal_count=997 808 586 129 222 192 457 189 109 47 62 80 44
is_linear=0
shrinkage=0.05


