tree
version=v4
num_class=1
num_tree_per_iteration=1
label_index=0
max_feature_idx=58
objective=binary sigmoid:1
feature_names=feature_0 feature_1 feature_2 feature_3 feature_4 feature_5 feature_6 feature_7 feature_8 feature_9 feature_10 feature_11 feature_12 feature_13 feature_14 feature_15 feature_16 feature_17 feature_18 feature_19 feature_20 feature_21 feature_22 feature_23 feature_24 feature_25 feature_26 feature_27 feature_28 feature_29 feature_30 feature_31 feature_32 feature_33 feature_34 feature_35 feature_36 feature_37 feature_38 feature_39 feature_40 feature_41 feature_42 feature_43 feature_44 feature_45 feature_46 feature_47 feature_48 feature_49 feature_50 feature_51 feature_52 feature_53 feature_54 feature_55 feature_56 feature_57 feature_58
feature_infos=[9.1140857204227785:94.427186637143421] [17.385189130874394:88.637393080838734] [20.68056297304409:85.914687707778427] [-9.8862625751276418:9.4462687214584324] none [4.9395457211897638:95.657406552046268] [6.6234659904748696:94.141296927828378] [-60.921024511841097:93.414638628080866] [-35.050290137237099:85.68875201132775] [-39.876373109842611:12.2165014603824] [9.9117155116682678:64.546126903855537] [1.6922242714714983:49.109456893916587] [4.2808964359809911:52.894326663607188] [-29.888796016271346:109.89613546225389] [-3.1067935899220132:2.3188827016809581] [3935.1527769970071:5553.1585028448135] [3958.5400163218269:5503.8197444119614] [3977.6483311065749:5389.1310239150325] none none [-0.042102940686303256:0.016186033637735728] [-0.040901943843061353:0.02713279504569582] [-0.033505582637404864:0.045999135444849147] [3.1960637529158795:77.703851549968221] [0.06904884207047074:1.4811171978340587] [12:99] [3991.5515901023541:5717.5549748802159] [3947.7249999999972:5530.4700000000012] [3899.1982992020435:5393.5372988962145] [0.0023254357444130601:0.093006239967190485] [-0.36636936985926966:1.3899541080656581] [0.062026197002501768:8.0395568954841217] [-3.8726325277536571:4.7952518607736474] [-0.030021520803443388:0.056032246108228385] [-1.1685116851168682:4.2455089820360516] none none none none none none none none none none [0.047261621229141015:0.69999999999999996] none none none none none none none none none [0.35892633490114639:3] [0.32547190045481061:5] [0:2] [0.12:0.98999999999999999]
tree_sizes=559 563 461 459 562 566 568 564 558 540 564 563 564 565 562 545 540 541 442 566 555 554 552 553 563 462 463 547 546 462 557 557 554 566 552 544 550 567 546 557 565 566 564 564 566 546 544 650 568 545 552 554 546 463 556 537 558 560 562 549 556 459 652 555 571 545 568 566 546 566 557 540 559 559 558 464 463 446 461 526 534 536 536 554 535 561 562 560 539 560 568 549 570 571 572 572 566 567 563 572 554 563 557 655 538 548 564 548 569 551 560 562 562 559 559 536 545 546 555 547 546 623 541 546 643 539 539 541 556 558 554 565 556 556 555 575 548 654 549 570 570 547 463 465 564 549 548 657 548 572

Tree=0
num_leaves=4
num_cat=0
split_feature=31 56 23
split_gain=7.5973 2.92747 6.45115
threshold=0.45316826273510685 2.3131555344982222 14.254130789631008
decision_type=2 2 2
left_child=-1 2 -2
right_child=1 -3 -4
leaf_value=-0.072647745558235791 0.004391440783933543 0.013551354359796697 -0.065672094444142098
leaf_weight=5.7871325612068203 6.1293617486953753 6.394685447216033 5.0373047590255737
leaf_count=23 24 25 20
internal_value=-0.0284256 -0.0110097 -0.0295783
internal_weight=23.3485 17.5614 11.1667
internal_count=92 69 44
is_linear=0
shrinkage=1


Tree=1
num_leaves=4
num_cat=0
split_feature=31 56 45
split_gain=6.96289 2.68193 5.96887
threshold=0.45316826273510685 2.3131555344982222 0.2416569181783402
decision_type=2 2 2
left_child=-1 2 -2
right_child=1 -3 -4
leaf_value=-0.040575728701785309 -0.028843366872259354 0.041953421925755775 0.038495732679139937
leaf_weight=5.7808307111263302 6.0484127402305621 6.3958601951599112 5.1153597980737686
leaf_count=23 24 25 20
internal_value=0.0017362 0.0184485 0.000584958
internal_weight=23.3405 17.5596 11.1638
internal_count=92 69 44
is_linear=0
shrinkage=0.05


Tree=2
num_leaves=3
num_cat=0
split_feature=45 56
split_gain=3.73015 7.90073
threshold=0.2416569181783402 2.3131555344982222
decision_type=2 2
left_child=1 -1
right_child=-2 -3
leaf_value=-0.041180995635185187 0.034628752854021533 0.021546539255145242
leaf_weight=8.7913318127393776 5.6191017329692832 8.9062382280826551
leaf_count=35 22 35
internal_value=0.00162192 -0.00881246
internal_weight=23.3167 17.6976
internal_count=92 70
is_linear=0
shrinkage=0.05


Tree=3
num_leaves=3
num_cat=0
split_feature=45 56
split_gain=3.41228 7.22734
threshold=0.2416569181783402 2.3131555344982222
decision_type=2 2
left_child=1 -1
right_child=-2 -3
leaf_value=-0.039416295026923891 0.033181888448551175 0.020581748016948322
leaf_weight=8.7709515094757133 5.6146171540021887 8.9044528007507306
leaf_count=35 22 35
internal_value=0.00157273 -0.00836843
internal_weight=23.29 17.6754
internal_count=92 70
is_linear=0
shrinkage=0.05


Tree=4
num_leaves=4
num_cat=0
split_feature=31 56 23
split_gain=6.19334 2.12457 4.68924
threshold=0.45316826273510685 2.3131555344982222 14.254130789631008
decision_type=2 2 2
left_child=-1 2 -2
right_child=1 -3 -4
leaf_value=-0.038376080769218009 0.030246196849010882 0.038398431175253801 -0.02952505335244824
leaf_weight=5.7592764347791698 6.1123341619968432 6.3809355497360221 5.0000326335430145
leaf_count=23 24 25 20
internal_value=0.00152526 0.0173785 0.00107079
internal_weight=23.2526 17.4933 11.1124
internal_count=92 69 44
is_linear=0
shrinkage=0.05


Tree=5
num_leaves=4
num_cat=0
split_feature=31 12 21
split_gain=3.63315 6.01835 2.18449
threshold=0.62592866275268466 17.489407303211845 -0.0024432849661402112
decision_type=2 2 2
left_child=-1 -2 -3
right_child=1 2 -4
leaf_value=-0.021763808656013725 -0.02345959726546144 0.0086357990858863289 0.057337011392503946
leaf_weight=9.0288756340742129 5.2670877426862743 6.5780848711729076 5.3519681543111757
leaf_count=36 21 26 21
internal_value=0.00144552 0.0155311 0.0351619
internal_weight=26.226 17.1971 11.9301
internal_count=104 68 47
is_linear=0
shrinkage=0.05


Tree=6
num_leaves=4
num_cat=0
split_feature=12 31 21
split_gain=3.34441 5.60708 1.97996
threshold=17.489407303211845 0.62592866275268466 -0.0024432849661402112
decision_type=2 2 2
left_child=-1 -2 -3
right_child=1 2 -4
leaf_value=-0.024983804709465249 -0.018024326718358363 0.0082631569790116207 0.054958177413647273
leaf_weight=7.0141184478998211 7.2704490870237377 6.5761449038982427 5.3477996140718407
leaf_count=28 29 26 21
internal_value=0.00136626 0.0129936 0.0337719
internal_weight=26.2085 19.1944 11.9239
internal_count=104 76 47
is_linear=0
shrinkage=0.05


Tree=7
num_leaves=4
num_cat=0
split_feature=31 56 55
split_gain=3.1414 1.75839 2.51866
threshold=1.7115764446622432 2.5010114226994284 1.3584313187414734
decision_type=2 2 2
left_child=1 2 -1
right_child=-2 -3 -4
leaf_value=0.0007225192972811252 0.02947191361798503 0.0089616797474652756 -0.038946891967378605
leaf_weight=6.0287425965070778 6.5944178700447074 7.0799898058176032 6.4775267690420151
leaf_count=24 26 28 26
internal_value=0.00129078 -0.00795374 -0.0193353
internal_weight=26.1807 19.5863 12.5063
internal_count=104 78 50
is_linear=0
shrinkage=0.05


Tree=8
num_leaves=4
num_cat=0
split_feature=12 31 0
split_gain=3.09643 5.01338 2.47766
threshold=17.489407303211845 0.62592866275268466 40.270434976047234
decision_type=2 2 2
left_child=-1 -2 -3
right_child=1 2 -4
leaf_value=-0.024051143563325952 -0.016750997954766641 0.0044532206561296115 0.054277944245720217
leaf_weight=7.0057329386472729 7.2522541135549572 6.3098295629024488 5.5921915620565414
leaf_count=28 29 25 22
internal_value=0.00127328 0.01251 0.0321936
internal_weight=26.16 19.1543 11.902
internal_count=104 76 47
is_linear=0
shrinkage=0.05


Tree=9
num_leaves=4
num_cat=0
split_feature=10 31 8
split_gain=3.00598 3.19864 1.56148
threshold=41.602043666282455 0.48431421505101496 5.4216565576232751
decision_type=2 2 2
left_child=1 -1 -3
right_child=-2 2 -4
leaf_value=-0.01549081980642497 -0.026913617927744327 0.035291182146107075 0
leaf_weight=5.9814915657043519 5.7415224313735953 9.3541440516710264 5.0442715883254996
leaf_count=24 23 37 20
internal_value=0.001199 0.0111767 0.0241652
internal_weight=26.1214 20.3799 14.3984
internal_count=104 81 57
is_linear=0
shrinkage=0.05


Tree=10
num_leaves=4
num_cat=0
split_feature=56 0 56
split_gain=4.29459 4.88268 0.286697
threshold=2.5010114226994284 57.672171132766422 1.8878775334655311
decision_type=2 2 2
left_child=1 2 -1
right_child=-2 -3 -4
leaf_value=-0.018034121682820935 0.0170356287469733 0.0060787753467610086 -0.054906166922941591
leaf_weight=4.9851413965225273 8.5876526981592161 6.9935552626848212 5.9512217044830322
leaf_count=20 34 28 24
internal_value=-0.00918246 -0.023297 -0.0431121
internal_weight=26.5176 17.9299 10.9364
internal_count=106 72 44
is_linear=0
shrinkage=0.05


Tree=11
num_leaves=4
num_cat=0
split_feature=10 6 31
split_gain=5.49382 5.45946 3.89777
threshold=41.602043666282455 63.187627580765671 1.1494200538877142
decision_type=2 2 2
left_child=1 2 -1
right_child=-2 -3 -4
leaf_value=-0.034356913316431106 -0.05039688430220101 0.03784548589132742 0.013251765326852677
leaf_weight=8.6869952678680473 5.2039340436458579 6.5534914135932913 6.0397482812404624
leaf_count=35 21 26 24
internal_value=-0.00878031 0.00207984 -0.0136409
internal_weight=26.4842 21.2802 14.7267
internal_count=106 85 59
is_linear=0
shrinkage=0.05


Tree=12
num_leaves=4
num_cat=0
split_feature=10 6 31
split_gain=5.07178 4.98247 3.58003
threshold=41.602043666282455 63.187627580765671 1.1494200538877142
decision_type=2 2 2
left_child=1 2 -1
right_child=-2 -3 -4
leaf_value=-0.032895410920215758 -0.048445678086967897 0.036221453085839093 0.012694165480009002
leaf_weight=8.6643007248640114 5.1836291551589957 6.5498702079057685 6.0338723212480536
leaf_count=35 21 26 24
internal_value=-0.00837444 0.00201569 -0.0129711
internal_weight=26.4317 21.248 14.6982
internal_count=106 85 59
is_linear=0
shrinkage=0.05


Tree=13
num_leaves=4
num_cat=0
split_feature=10 6 56
split_gain=4.68692 4.54908 1.71107
threshold=41.602043666282455 63.187627580765671 2.3802336039606198
decision_type=2 2 2
left_child=1 2 -1
right_child=-2 -3 -4
leaf_value=-0.025196978686313532 -0.046611469537571351 0.034686335238160206 0.0057624832031911233
leaf_weight=9.1505778729915672 5.1582161486148825 6.5422009229660025 5.5152180790901175
leaf_count=37 21 26 22
internal_value=-0.00798986 0.00195386 -0.0123339
internal_weight=26.3662 21.208 14.6658
internal_count=106 85 59
is_linear=0
shrinkage=0.05


Tree=14
num_leaves=4
num_cat=0
split_feature=10 6 31
split_gain=4.33584 4.1534 3.31205
threshold=41.602043666282455 63.187627580765671 1.1494200538877142
decision_type=2 2 2
left_child=1 2 -1
right_child=-2 -3 -4
leaf_value=-0.031030096719524704 -0.044881996255205295 0.033232443781727433 0.01284280846247733
leaf_weight=8.6232147216796928 5.1284175962209693 6.5310203731060019 6.0329337567090979
leaf_count=35 21 26 24
internal_value=-0.00761719 0.00189242 -0.011707
internal_weight=26.3156 21.1872 14.6561
internal_count=106 85 59
is_linear=0
shrinkage=0.05


Tree=15
num_leaves=4
num_cat=0
split_feature=31 8 29
split_gain=5.40436 1.33335 2.61573
threshold=0.48431421505101496 5.4216565576232751 0.017807370091400997
decision_type=2 2 2
left_child=-1 2 -2
right_child=1 -3 -4
leaf_value=-0.029240582590114046 0.04995866814235006 0 9.7576148052698226e-07
leaf_weight=6.3326016813516643 6.2884061336517352 6.9928435981273642 5.7071616649627686
leaf_count=26 25 28 23
internal_value=0.00639602 0.0203998 0.0299429
internal_weight=25.321 18.9884 11.9956
internal_count=102 76 48
is_linear=0
shrinkage=0.05


Tree=16
num_leaves=4
num_cat=0
split_feature=31 9 31
split_gain=4.98764 1.3187 0.78493
threshold=0.48431421505101496 -1.9548350840097986 1.0555726743154561
decision_type=2 2 2
left_child=-1 -2 -3
right_child=1 2 -4
leaf_value=-0.028099246574453604 0 0.0449341447974929 0.010462624342435584
leaf_weight=6.3017387241125133 7.0174345076084199 4.9881429225206322 6.9539591670036316
leaf_count=26 28 20 28
internal_value=0.00616543 0.019644 0.0291522
internal_weight=25.2613 18.9595 11.9421
internal_count=102 76 48
is_linear=0
shrinkage=0.05


Tree=17
num_leaves=4
num_cat=0
split_feature=31 6 8
split_gain=4.60463 1.22441 1.14726
threshold=0.48431421505101496 34.131170966129808 5.4216565576232751
decision_type=2 2 2
left_child=-1 -2 -3
right_child=1 2 -4
leaf_value=-0.027007792572441593 0 0.03961501082185747 0.0049343434881944275
leaf_weight=6.2698212563991573 5.2436428517103222 7.2090892493724805 6.4907618761062622
leaf_count=26 21 29 26
internal_value=0.00594779 0.0189161 0.026338
internal_weight=25.2133 18.9435 13.6999
internal_count=102 76 55
is_linear=0
shrinkage=0.05


Tree=18
num_leaves=3
num_cat=0
split_feature=31 9
split_gain=4.2829 1.62798
threshold=0.62592866275268466 -1.1036353989276826
decision_type=2 2
left_child=-1 -2
right_child=1 -3
leaf_value=-0.020451406235232159 0 0.033475876615715418
leaf_weight=8.4470274448394793 7.2824979275465038 9.4133413285016996
leaf_count=35 29 38
internal_value=0.00568077 0.0207233
internal_weight=25.1429 16.6958
internal_count=102 67
is_linear=0
shrinkage=0.05


Tree=19
num_leaves=4
num_cat=0
split_feature=31 24 29
split_gain=3.95851 1.13926 3.58125
threshold=0.48431421505101496 0.44448579275938832 0.016101497770496912
decision_type=2 2 2
left_child=-1 2 -2
right_child=1 -3 -4
leaf_value=-0.025174303419531793 0.029212046069053334 0.031268979459842701 -0.023115403578315305
leaf_weight=6.211018159985545 5.9609706252813357 7.9951048493385306 4.9126670211553574
leaf_count=26 24 32 20
internal_value=0.00542206 0.0175118 0.0035095
internal_weight=25.0798 18.8687 10.8736
internal_count=102 76 44
is_linear=0
shrinkage=0.05


Tree=20
num_leaves=4
num_cat=0
split_feature=13 0 34
split_gain=3.49862 3.28673 4.57113
threshold=10.848646591782801 57.007026538592555 0.51324971459321944
decision_type=2 2 2
left_child=1 2 -1
right_child=-2 -3 -4
leaf_value=0.028970185360048598 -0.019762665640465332 0.043907991884242104 -0.028630443412402687
leaf_weight=5.9381913840770775 9.0360104739665967 5.9005964994430533 5.8375883251428604
leaf_count=24 37 24 24
internal_value=0.00306327 0.0165037 0
internal_weight=26.7124 17.6764 11.7758
internal_count=109 72 48
is_linear=0
shrinkage=0.05


Tree=21
num_leaves=4
num_cat=0
split_feature=13 0 34
split_gain=3.20358 3.02144 4.19449
threshold=10.848646591782801 57.007026538592555 0.51324971459321944
decision_type=2 2 2
left_child=1 2 -1
right_child=-2 -3 -4
leaf_value=0.02771904027343014 -0.018870369849341508 0.042140867759909141 -0.027495113693520423
leaf_weight=5.9409646689891868 9.0373626947402936 5.8829994946718207 5.8165334463119507
leaf_count=24 37 24 24
internal_value=0.00291288 0.0158274 0
internal_weight=26.6779 17.6405 11.7575
internal_count=109 72 48
is_linear=0
shrinkage=0.05


Tree=22
num_leaves=4
num_cat=0
split_feature=10 0 12
split_gain=3.11087 2.24708 3.18664
threshold=41.602043666282455 57.007026538592555 25.804681512803217
decision_type=2 2 2
left_child=1 2 -1
right_child=-2 -3 -4
leaf_value=-0.02553740498730199 -0.027796535718802057 0.031698235904164145 0.019764387750027656
leaf_weight=6.0399812012910896 5.1094008535146704 7.8441062718629828 7.6409301608800888
leaf_count=25 21 32 31
internal_value=0.00276909 0.0120463 0
internal_weight=26.6344 21.525 13.6809
internal_count=109 88 56
is_linear=0
shrinkage=0.05


Tree=23
num_leaves=4
num_cat=0
split_feature=13 0 12
split_gain=3.00935 2.57414 3.87665
threshold=10.848646591782801 57.007026538592555 24.589702438625554
decision_type=2 2 2
left_child=1 2 -1
right_child=-2 -3 -4
leaf_value=-0.029004556640029586 -0.018509649673655343 0.039591986629466058 0.02448906984928596
leaf_weight=5.0711413621902519 9.0127762556076032 5.8343513906002036 6.6439612507820129
leaf_count=21 37 24 27
internal_value=0.00258888 0.0151858 0
internal_weight=26.5622 17.5495 11.7151
internal_count=109 72 48
is_linear=0
shrinkage=0.05


Tree=24
num_leaves=4
num_cat=0
split_feature=10 56 0
split_gain=2.83049 2.87054 1.79058
threshold=41.602043666282455 2.3802336039606198 57.672171132766422
decision_type=2 2 2
left_child=1 2 -1
right_child=-2 -3 -4
leaf_value=-0.017143743906183236 -0.026714882291949762 0.033648595064028015 0.016821666721188778
leaf_weight=7.9917665123939567 5.0859902501106253 7.8762965500354758 5.5652394145727158
leaf_count=33 21 32 23
internal_value=0.00244825 0.0113653 -0.00128559
internal_weight=26.5193 21.4333 13.557
internal_count=109 88 56
is_linear=0
shrinkage=0.05


Tree=25
num_leaves=3
num_cat=0
split_feature=13 55
split_gain=3.61841 5.81963
threshold=10.216220489242135 1.5889766279256943
decision_type=2 2
left_child=1 -1
right_child=-2 -3
leaf_value=0.038090021815420885 -0.02607003356847189 -0.017800572569177671
leaf_weight=8.7947134673595482 8.9811207205057126 7.3648056685924521
leaf_count=36 37 30
internal_value=-0.00137815 0.0116077
internal_weight=25.1406 16.1595
internal_count=103 66
is_linear=0
shrinkage=0.05


Tree=26
num_leaves=3
num_cat=0
split_feature=13 55
split_gain=3.29331 5.33666
threshold=10.216220489242135 1.5889766279256943
decision_type=2 2
left_child=1 -1
right_child=-2 -3
leaf_value=0.036487195330226048 -0.024917299389016326 -0.017042240977896524
leaf_weight=8.7666364163160377 8.9732356667518598 7.3527012169361106
leaf_count=36 37 30
internal_value=-0.00132213 0.0110406
internal_weight=25.0926 16.1193
internal_count=103 66
is_linear=0
shrinkage=0.05


Tree=27
num_leaves=4
num_cat=0
split_feature=32 11 13
split_gain=3.1032 3.29254 1.96264
threshold=-1.0977056420676952 24.947998885113673 -5.3102480587063114
decision_type=2 2 2
left_child=-1 2 -2
right_child=1 -3 -4
leaf_value=-0.031294150509476093 0.040168580798906936 -0.015286700639688173 0
leaf_weight=5.7715250551700619 6.6408210247755086 7.4634313732385626 5.1621016263961774
leaf_count=24 27 31 21
internal_value=-0.00126851 0.00759287 0.0240771
internal_weight=25.0379 19.2664 11.8029
internal_count=103 79 48
is_linear=0
shrinkage=0.05


Tree=28
num_leaves=4
num_cat=0
split_feature=32 12 55
split_gain=2.84495 3.70801 2.18047
threshold=-1.0977056420676952 16.378511985057091 1.5373285366847782
decision_type=2 2 2
left_child=-1 -2 -3
right_child=1 2 -4
leaf_value=-0.030042325406740147 -0.025285146328057853 0.035568940743955543 0
leaf_weight=5.7535427063703564 4.839168235659602 8.5194202363491041 5.9069995731115332
leaf_count=24 20 35 24
internal_value=-0.00121597 0.00721685 0.0206722
internal_weight=25.0191 19.2656 14.4264
internal_count=103 79 59
is_linear=0
shrinkage=0.05


Tree=29
num_leaves=3
num_cat=0
split_feature=13 55
split_gain=2.76912 4.53003
threshold=10.216220489242135 1.5889766279256943
decision_type=2 2
left_child=1 -1
right_child=-2 -3
leaf_value=0.033640248374716679 -0.022978699847807121 -0.015699328409400786
leaf_weight=8.7142830938100868 8.9295039027929288 7.3217871040105811
leaf_count=36 37 30
internal_value=-0.00123327 0.010046
internal_weight=24.9656 16.0361
internal_count=103 66
is_linear=0
shrinkage=0.05


Tree=30
num_leaves=4
num_cat=0
split_feature=13 21 6
split_gain=4.59814 3.57573 1.91861
threshold=10.848646591782801 -0.000712714499888186 63.187627580765671
decision_type=2 2 2
left_child=1 -1 -3
right_child=-2 2 -4
leaf_value=0.044266549109152481 -0.023672660713252879 -0.021425086483367561 0.018880009288110192
leaf_weight=6.9129762947559401 8.3948232233524305 4.7565382719039917 5.0430486649274826
leaf_count=28 35 20 21
internal_value=0.00358665 0.0192541 0
internal_weight=25.1074 16.7126 9.79959
internal_count=104 69 41
is_linear=0
shrinkage=0.05


Tree=31
num_leaves=4
num_cat=0
split_feature=13 21 6
split_gain=4.20666 3.26904 1.76374
threshold=10.848646591782801 -0.000712714499888186 63.187627580765671
decision_type=2 2 2
left_child=1 -1 -3
right_child=-2 2 -4
leaf_value=0.042323518294200869 -0.022651400976665827 -0.020540006819807211 0.018115876282597813
leaf_weight=6.9146651774644896 8.3801080137491208 4.7565118819475174 5.0353552401065826
leaf_count=28 35 20 21
internal_value=0.00339641 0.0184154 0
internal_weight=25.0866 16.7065 9.79187
internal_count=104 69 41
is_linear=0
shrinkage=0.05


Tree=32
num_leaves=4
num_cat=0
split_feature=13 21 6
split_gain=3.84982 2.99167 1.62157
threshold=10.848646591782801 -0.000712714499888186 63.187627580765671
decision_type=2 2 2
left_child=1 -1 -3
right_child=-2 2 -4
leaf_value=0.040496092475631032 -0.021677410250755553 -0.019694484592029039 0.017384050304263276
leaf_weight=6.9105700552463576 8.364144101738928 4.755633682012558 5.0272701382637024
leaf_count=28 35 20 21
internal_value=0.00321522 0.0176207 0
internal_weight=25.0576 16.6935 9.7829
internal_count=104 69 41
is_linear=0
shrinkage=0.05


Tree=33
num_leaves=4
num_cat=0
split_feature=24 8 8
split_gain=2.5572 3.62601 3.18084
threshold=0.48335182990359665 -1.0000000180025095e-35 8.6675878010251548
decision_type=2 2 2
left_child=1 -1 -3
right_child=-2 2 -4
leaf_value=-0.03509520946591009 0.023561970642351188 0.036522279743712797 -0.01459499174067721
leaf_weight=6.4079517126083383 9.0682388693094236 4.779430016875267 4.7658420354127884
leaf_count=27 37 20 20
internal_value=0.00304247 -0.00784854 0.00966552
internal_weight=25.0215 15.9532 9.54527
internal_count=104 67 40
is_linear=0
shrinkage=0.05


Tree=34
num_leaves=4
num_cat=0
split_feature=13 21 6
split_gain=3.34667 2.69918 1.48684
threshold=10.848646591782801 -0.000712714499888186 63.187627580765671
decision_type=2 2 2
left_child=1 -1 -3
right_child=-2 2 -4
leaf_value=0.03814595653446607 -0.020331107035002221 -0.019155902163999927 0.0163620880358212
leaf_weight=6.8881112486124083 8.3147398233413679 4.7527876496315002 4.9993172436952591
leaf_count=28 35 20 21
internal_value=0.00286967 0.0163751 0
internal_weight=24.955 16.6402 9.7521
internal_count=104 69 41
is_linear=0
shrinkage=0.05


Tree=35
num_leaves=4
num_cat=0
split_feature=31 12 32
split_gain=3.411 1.66114 1.94612
threshold=0.62592866275268466 16.898114741310142 -0.7086785440826826
decision_type=2 2 2
left_child=-1 -2 -3
right_child=1 2 -4
leaf_value=-0.029509868811284132 -0.00951481249673157 0 0.03589174813250371
leaf_weight=6.7958586215972927 5.3018510937690762 5.259774118661884 6.9257318526506371
leaf_count=29 22 22 29
internal_value=-0.000970886 0.00976384 0.0201334
internal_weight=24.2832 17.4874 12.1855
internal_count=102 73 51
is_linear=0
shrinkage=0.05


Tree=36
num_leaves=4
num_cat=0
split_feature=31 12 33
split_gain=3.1163 1.52733 1.71489
threshold=0.62592866275268466 16.898114741310142 -0.0011784288031303348
decision_type=2 2 2
left_child=-1 -2 -3
right_child=1 2 -4
leaf_value=-0.028337298344876184 -0.0091157088699884547 0 0.03542549379077977
leaf_weight=6.7653739899396923 5.3010787814855602 5.8425719588995015 6.2995868921279854
leaf_count=29 22 24 27
internal_value=-0.000968337 0.00925213 0.019257
internal_weight=24.2086 17.4432 12.1422
internal_count=102 73 51
is_linear=0
shrinkage=0.05


Tree=37
num_leaves=4
num_cat=0
split_feature=10 6 9
split_gain=2.26449 2.78657 1.45711
threshold=41.602043666282455 63.187627580765671 -0.59136086918427366
decision_type=2 2 2
left_child=1 2 -1
right_child=-2 -3 -4
leaf_value=0.0040603530293055051 -0.029620535629774028 0.029512290263993851 -0.027017233065188957
leaf_weight=7.7073798030614888 4.6792585402727118 7.0585652291774741 4.681747257709505
leaf_count=32 20 30 20
internal_value=-0.000937082 0.00585282 -0.00695714
internal_weight=24.127 19.4477 12.3891
internal_count=102 82 52
is_linear=0
shrinkage=0.05


Tree=38
num_leaves=4
num_cat=0
split_feature=31 12 32
split_gain=2.86256 1.40973 1.7267
threshold=0.62592866275268466 16.898114741310142 -0.7086785440826826
decision_type=2 2 2
left_child=-1 -2 -3
right_child=1 2 -4
leaf_value=-0.027264789860627976 -0.0086859586698022333 0 0.033549750693243834
leaf_weight=6.7080539166927364 5.2779470682144192 5.23819695413113 6.8303211033344216
leaf_count=29 22 22 29
internal_value=-0.00088871 0.00887867 0.0185501
internal_weight=24.0545 17.3465 12.0685
internal_count=102 73 51
is_linear=0
shrinkage=0.05


Tree=39
num_leaves=4
num_cat=0
split_feature=31 56 55
split_gain=2.61493 1.32877 2.18362
threshold=0.62592866275268466 2.3802336039606198 1.3584313187414734
decision_type=2 2 2
left_child=-1 2 -2
right_child=1 -3 -4
leaf_value=-0.026190223894264293 0.01930181953747848 0.027936570598439528 -0.019643507247295539
leaf_weight=6.6759724467992809 5.964411139488222 4.9118822813034049 6.4232698976993561
leaf_count=29 25 21 27
internal_value=-0.000891711 0.00840263 0
internal_weight=23.9755 17.2996 12.3877
internal_count=102 73 52
is_linear=0
shrinkage=0.05


Tree=40
num_leaves=4
num_cat=0
split_feature=31 6 5
split_gain=2.93873 1.24248 1.84835
threshold=1.7115764446622432 63.187627580765671 44.972138625798536
decision_type=2 2 2
left_child=1 2 -1
right_child=-2 -3 -4
leaf_value=-0.00071343326785782736 0.02353015897219473 0.0028024871315331244 -0.044157576522342902
leaf_weight=6.6428844630718284 6.5145564377307883 4.9570841044187537 4.5959692895412445
leaf_count=28 27 21 20
internal_value=-0.00143581 -0.0137162 -0.0226784
internal_weight=22.7105 16.1959 11.2389
internal_count=96 69 48
is_linear=0
shrinkage=0.05


Tree=41
num_leaves=4
num_cat=0
split_feature=31 6 5
split_gain=2.70217 1.16417 1.69875
threshold=1.7115764446622432 63.187627580765671 44.972138625798536
decision_type=2 2 2
left_child=1 2 -1
right_child=-2 -3 -4
leaf_value=-0.00068246371173448289 0.022567350056752269 0.0026863241511048616 -0.042583923841903515
leaf_weight=6.6425165385007912 6.4960084408521643 4.9561352282762519 4.5652547925710678
leaf_count=28 27 21 20
internal_value=-0.00135423 -0.0131792 -0.0218882
internal_weight=22.6599 16.1639 11.2078
internal_count=96 69 48
is_linear=0
shrinkage=0.05


Tree=42
num_leaves=4
num_cat=0
split_feature=31 6 5
split_gain=2.48515 1.09164 1.56185
threshold=1.7115764446622432 63.187627580765671 44.972138625798536
decision_type=2 2 2
left_child=1 2 -1
right_child=-2 -3 -4
leaf_value=-0.00065283650189722567 0.021646421887154082 0.0025749690262003126 -0.041085319995078959
leaf_weight=6.642163231968885 6.476795181632041 4.9552110433578482 4.5324967056512833
leaf_count=28 27 21 20
internal_value=-0.00127562 -0.0126655 -0.0211335
internal_weight=22.6067 16.1299 11.1747
internal_count=96 69 48
is_linear=0
shrinkage=0.05


Tree=43
num_leaves=4
num_cat=0
split_feature=31 6 5
split_gain=2.28598 1.02438 1.43635
threshold=1.7115764446622432 63.187627580765671 44.972138625798536
decision_type=2 2 2
left_child=1 2 -1
right_child=-2 -3 -4
leaf_value=-0.00062449470382658747 0.020765051767778094 0.0024682222467786825 -0.039655509929741539
leaf_weight=6.6418240815401131 6.457070365548133 4.9543116688728324 4.4980593323707581
leaf_count=28 27 21 20
internal_value=-0.00119983 -0.012174 -0.0204121
internal_weight=22.5513 16.0942 11.1399
internal_count=96 69 48
is_linear=0
shrinkage=0.05


Tree=44
num_leaves=4
num_cat=0
split_feature=31 6 5
split_gain=2.10312 0.961955 1.32114
threshold=1.7115764446622432 63.187627580765671 44.972138625798536
decision_type=2 2 2
left_child=1 2 -1
right_child=-2 -3 -4
leaf_value=-0.00059738212789925361 0.019921113094923892 0.0023658944850241627 -0.038289005052787775
leaf_weight=6.6414986699819618 6.4369703978300086 4.953437164425849 4.4622672945261002
leaf_count=28 27 21 20
internal_value=-0.00112674 -0.0117032 -0.0197219
internal_weight=22.4942 16.0572 11.1038
internal_count=96 69 48
is_linear=0
shrinkage=0.05


Tree=45
num_leaves=4
num_cat=0
split_feature=13 34 17
split_gain=4.24581 1.5049 1.38485
threshold=10.216220489242135 0.91664931786575665 4550.8417425743946
decision_type=2 2 2
left_child=1 2 -1
right_child=-2 -3 -4
leaf_value=0.037705689880700451 -0.027102886747176098 -0.0029924972884477078 0
leaf_weight=6.3027450144290977 9.0666474401950818 6.1008997261524192 4.6151878386735916
leaf_count=27 39 26 20
internal_value=-0.000254684 0.0133714 0.024097
internal_weight=26.0855 17.0188 10.9179
internal_count=112 73 47
is_linear=0
shrinkage=0.05


Tree=46
num_leaves=4
num_cat=0
split_feature=13 34 17
split_gain=3.88044 1.39791 1.26809
threshold=10.216220489242135 0.91664931786575665 4550.8417425743946
decision_type=2 2 2
left_child=1 2 -1
right_child=-2 -3 -4
leaf_value=0.036232124493966407 -0.025950601532624282 -0.0028633727848715543 0
leaf_weight=6.272565305233007 9.0408376008272153 6.1022812873125067 4.6151878386735916
leaf_count=27 39 26 20
internal_value=-0.000206076 0.0127846 0.023161
internal_weight=26.0309 16.99 10.8878
internal_count=112 73 47
is_linear=0
shrinkage=0.05


Tree=47
num_leaves=5
num_cat=0
split_feature=14 31 56 55
split_gain=2.95731 2.5445 1.5995 0.644213
threshold=-0.51779288271314716 1.5189427745005737 2.3131555344982222 1.4061404965066704
decision_type=2 2 2 2
left_child=2 3 -1 -2
right_child=1 -3 -4 -5
leaf_value=0 -0.043133552827618958 0.0082653845338643544 0.038344569132167189 -0.0089707139572549124
leaf_weight=4.6736555844545382 4.4224711954593676 6.2406284660100928 4.5865921229124069 6.0495196431875229
leaf_count=20 20 26 20 26
internal_value=-0.000160088 -0.0133963 0.020269 -0.0280797
internal_weight=25.9729 16.7126 9.26025 10.472
internal_count=112 72 40 46
is_linear=0
shrinkage=0.05


Tree=48
num_leaves=4
num_cat=0
split_feature=13 3 1
split_gain=3.41872 1.81514 1.32464
threshold=10.216220489242135 -0.51181698310875867 54.756559330591791
decision_type=2 2 2
left_child=1 -1 -3
right_child=-2 2 -4
leaf_value=-0.0033325999439847314 -0.024448027633474912 0.042587012054657203 0.00023918207579132135
leaf_weight=7.6291451752185866 8.9730210751295072 4.7009792625904083 4.6044619977474213
leaf_count=33 39 20 20
internal_value=-0.000128217 0.0120087 0.0261152
internal_weight=25.9076 16.9346 9.30544
internal_count=112 73 40
is_linear=0
shrinkage=0.05


Tree=49
num_leaves=4
num_cat=0
split_feature=13 10 31
split_gain=3.13275 1.27664 0.995941
threshold=10.216220489242135 19.523985542801015 0.71326860924855995
decision_type=2 2 2
left_child=1 -1 -3
right_child=-2 2 -4
leaf_value=-0.004498790649574245 -0.023416626809554045 0 0.032410288545417047
leaf_weight=5.4532903730869355 8.9446099102497083 4.935725271701811 6.5490801781415939
leaf_count=24 39 21 28
internal_value=-4.81342e-05 0.011516 0.020874
internal_weight=25.8827 16.9381 11.4848
internal_count=112 73 49
is_linear=0
shrinkage=0.05


Tree=50
num_leaves=4
num_cat=0
split_feature=31 24 23
split_gain=1.73917 1.43974 1.4129
threshold=0.62592866275268466 0.44448579275938832 13.839378954358093
decision_type=2 2 2
left_child=-1 2 -2
right_child=1 -3 -4
leaf_value=-0.012205444357037513 0.017379070401674825 0.029753159478804875 -0.016987458218720951
leaf_weight=8.382270887494089 5.2248587757349032 6.8820915371179572 4.7252383679151535
leaf_count=37 22 30 20
internal_value=0.0040408 0.013764 0
internal_weight=25.2145 16.8322 9.9501
internal_count=109 72 42
is_linear=0
shrinkage=0.05


Tree=51
num_leaves=4
num_cat=0
split_feature=31 24 23
split_gain=1.59705 1.32653 1.29944
threshold=0.62592866275268466 0.44448579275938832 13.839378954358093
decision_type=2 2 2
left_child=-1 2 -2
right_child=1 -3 -4
leaf_value=-0.011689158823194466 0.016682134325031212 0.028599108375657118 -0.016296262097734486
leaf_weight=8.3596301227808016 5.2130647003650683 6.8431681543588629 4.72187340259552
leaf_count=37 22 30 20
internal_value=0.0038375 0.0132022 0
internal_weight=25.1377 16.7781 9.93494
internal_count=109 72 42
is_linear=0
shrinkage=0.05


Tree=52
num_leaves=4
num_cat=0
split_feature=17 5 14
split_gain=1.72905 2.40744 1.25504
threshold=4160.8030734786344 72.722676002307722 -0.32396412404230346
decision_type=2 2 2
left_child=-1 2 -2
right_child=1 -3 -4
leaf_value=0.021719696811156985 0 0.017460302218242237 -0.033931247337048026
leaf_weight=8.1576096862554568 5.5375523716211346 5.9505076408386222 5.4148403555154792
leaf_count=35 24 26 24
internal_value=0.0036426 -0.00441116 -0.0188523
internal_weight=25.0605 16.9029 10.9524
internal_count=109 74 48
is_linear=0
shrinkage=0.05


Tree=53
num_leaves=3
num_cat=0
split_feature=17 15
split_gain=1.57789 2.10402
threshold=4160.8030734786344 4625.2684996074431
decision_type=2 2
left_child=-1 -2
right_child=1 -3
leaf_value=0.020741163080517721 -0.022197466382575297 0.010514110715178465
leaf_weight=8.1623951345682162 8.1250540614128131 8.7550043165683729
leaf_count=35 36 38
internal_value=0.00345785 -0.00419394
internal_weight=25.0425 16.8801
internal_count=109 74
is_linear=0
shrinkage=0.05


Tree=54
num_leaves=4
num_cat=0
split_feature=31 24 23
split_gain=1.46643 1.21621 1.26111
threshold=0.62592866275268466 0.44448579275938832 13.839378954358093
decision_type=2 2 2
left_child=-1 2 -2
right_child=1 -3 -4
leaf_value=-0.011556267099128895 0.016220751255905278 0.027174088696289622 -0.016294017563505851
leaf_weight=8.3310204148292559 5.2075343579053897 6.779281571507453 4.7232419550418854
leaf_count=37 22 30 20
internal_value=0.00330245 0.0123563 0
internal_weight=25.0411 16.7101 9.93078
internal_count=109 72 42
is_linear=0
shrinkage=0.05


Tree=55
num_leaves=4
num_cat=0
split_feature=10 10 31
split_gain=1.28823 1.31821 0.879057
threshold=20.693210683530669 41.602043666282455 1.1494200538877142
decision_type=2 2 2
left_child=-1 2 -2
right_child=1 -3 -4
leaf_value=-0.016726738645571542 0 -0.010317280435927062 0.030424840014370669
leaf_weight=7.3349782228469875 6.2603594362735766 4.9285588860511771 5.2124469578266144
leaf_count=33 27 21 22
internal_value=0 0.00714587 0.0168779
internal_weight=23.7363 16.4014 11.4728
internal_count=103 70 49
is_linear=0
shrinkage=0.05


Tree=56
num_leaves=4
num_cat=0
split_feature=10 55 30
split_gain=1.17722 1.84644 1.87108
threshold=20.693210683530669 1.4383815447232144 0.37077319330978592
decision_type=2 2 2
left_child=-1 -2 -3
right_child=1 2 -4
leaf_value=-0.015966015198260946 0.029709443222785639 0.010895392335710453 -0.026443715470371939
leaf_weight=7.3475542366504696 5.0381127744913128 6.8214313387870771 4.5070481896400452
leaf_count=33 21 29 20
internal_value=0 0.00685107 -0.00287215
internal_weight=23.7141 16.3666 11.3285
internal_count=103 70 49
is_linear=0
shrinkage=0.05


Tree=57
num_leaves=4
num_cat=0
split_feature=10 55 20
split_gain=1.07516 1.69838 2.31695
threshold=20.693210683530669 1.4383815447232144 -0.0024718006635619468
decision_type=2 2 2
left_child=-1 -2 -3
right_child=1 2 -4
leaf_value=-0.015242076851988319 0.028517474171772736 0.01576643468225716 -0.025362971104576245
leaf_weight=7.3589039295911816 5.0283055305480984 5.7948337495327031 5.5177120268344826
leaf_count=33 21 24 25
internal_value=0 0.00655872 -0.00269467
internal_weight=23.6998 16.3409 11.3125
internal_count=103 70 49
is_linear=0
shrinkage=0.05


Tree=58
num_leaves=4
num_cat=0
split_feature=10 55 20
split_gain=0.983642 1.56051 2.13375
threshold=20.693210683530669 1.4383815447232144 -0.0024718006635619468
decision_type=2 2 2
left_child=-1 -2 -3
right_child=1 2 -4
leaf_value=-0.014552854259945078 0.027380012777549645 0.015103049212856684 -0.024394938878983467
leaf_weight=7.3691390454769161 5.0171652138233211 5.7909209728241002 5.4902217835187859
leaf_count=33 21 24 25
internal_value=0 0.00630033 -0.00250506
internal_weight=23.6674 16.2983 11.2811
internal_count=103 70 49
is_linear=0
shrinkage=0.05


Tree=59
num_leaves=4
num_cat=0
split_feature=6 5 5
split_gain=1.83507 3.39719 0.566764
threshold=63.187627580765671 42.659984050586978 24.008183668827467
decision_type=2 2 2
left_child=1 2 -1
right_child=-2 -3 -4
leaf_value=-0.0013551973397186382 0.0181730271258875 -0.037096902984652763 0.0180617058381045
leaf_weight=5.1946784257888812 7.707048386335372 6.1026882082223883 4.6281132698059082
leaf_count=22 34 27 20
internal_value=0 -0.0100576 0.0063069
internal_weight=23.6325 15.9255 9.82279
internal_count=103 69 42
is_linear=0
shrinkage=0.05


Tree=60
num_leaves=4
num_cat=0
split_feature=24 58 0
split_gain=2.16722 1.98702 0.99717
threshold=0.54502492963549642 0.8650000000000001 49.482381873723746
decision_type=2 2 2
left_child=1 2 -1
right_child=-2 -3 -4
leaf_value=0.013801922151501212 0.018097606521989863 -0.034045820918234611 -0.013728724532405917
leaf_weight=5.5837444067001396 6.7974804192781439 5.9212132692337027 5.5724863409996033
leaf_count=25 29 26 24
internal_value=-0.0027693 -0.0129997 0
internal_weight=23.8749 17.0774 11.1562
internal_count=104 75 49
is_linear=0
shrinkage=0.05


Tree=61
num_leaves=3
num_cat=0
split_feature=45 25
split_gain=1.98702 1.8337
threshold=0.12843466879125123 75.500000000000014
decision_type=2 2
left_child=-1 -2
right_child=1 -3
leaf_value=0.017316289345713411 0.0016632312776514 -0.027692036032536789
leaf_weight=6.7941790819168117 8.476318374276163 8.5955646783113462
leaf_count=29 37 38
internal_value=-0.00261373 -0.012448
internal_weight=23.8661 17.0719
internal_count=104 75
is_linear=0
shrinkage=0.05


Tree=62
num_leaves=5
num_cat=0
split_feature=14 55 3 8
split_gain=1.91467 2.90974 0.921736 0.712686
threshold=-0.51779288271314716 1.6300145929773964 0.7186941496865108 -1.2913558414271809
decision_type=2 2 2 2
left_child=1 -1 3 -2
right_child=2 -3 -4 -5
leaf_value=0.038479232756319807 -0.0015817010446395889 -0.010495592705609041 0 -0.03556387374792068
leaf_weight=4.7102675586938876 4.5835656076669684 4.5914486795663834 5.2674409449100486 4.6970852464437476
leaf_count=21 20 20 23 20
internal_value=-0.00240186 0.0132057 -0.0141964 -0.0229987
internal_weight=23.8498 9.30172 14.5481 9.28065
internal_count=104 41 63 40
is_linear=0
shrinkage=0.05


Tree=63
num_leaves=4
num_cat=0
split_feature=24 25 13
split_gain=1.85698 1.72056 1.59442
threshold=0.54502492963549642 86.500000000000014 10.216220489242135
decision_type=2 2 2
left_child=1 2 -1
right_child=-2 -3 -4
leaf_value=0.017965433531860524 0.016919227978653376 -0.031522084438732667 -0.016877037933234511
leaf_weight=5.447768330574041 6.7848516255617133 5.8928808569908133 5.68803371489048
leaf_count=24 29 26 25
internal_value=-0.00232138 -0.0118875 0
internal_weight=23.8135 17.0287 11.1358
internal_count=104 75 49
is_linear=0
shrinkage=0.05


Tree=64
num_leaves=4
num_cat=0
split_feature=24 23 33
split_gain=1.70393 1.63158 1.01393
threshold=0.54502492963549642 17.234078123517254 0.0012821679691129675
decision_type=2 2 2
left_child=1 2 -1
right_child=-2 -3 -4
leaf_value=-0.012957282063794082 0.016191064617330386 -0.027697666642243896 0.016244775656158963
leaf_weight=4.5595771968364769 6.7805705070495597 7.3649368584156027 5.0692850351333618
leaf_count=20 29 34 21
internal_value=-0.00218598 -0.0114002 0.000146503
internal_weight=23.7744 16.9938 9.62886
internal_count=104 75 41
is_linear=0
shrinkage=0.05


Tree=65
num_leaves=4
num_cat=0
split_feature=31 13 1
split_gain=3.03216 1.80759 1.19069
threshold=1.7115764446622432 -9.5958529880372492 42.602684279835138
decision_type=2 2 2
left_child=1 -1 -3
right_child=-2 2 -4
leaf_value=0.010218885355840795 0.032329141783457832 0 -0.03452598278653795
leaf_weight=7.1677421629428908 5.9964246153831473 4.6823440343141556 5.1077971756458282
leaf_count=32 26 20 23
internal_value=0.00393047 -0.00596043 -0.0199721
internal_weight=22.9543 16.9579 9.79014
internal_count=101 75 43
is_linear=0
shrinkage=0.05


Tree=66
num_leaves=4
num_cat=0
split_feature=31 32 14
split_gain=2.78948 1.68765 1.99933
threshold=1.7115764446622432 0.89127298460810089 0.29711555573791526
decision_type=2 2 2
left_child=1 2 -1
right_child=-2 -3 -4
leaf_value=0.023877549643694387 0.031085812854414627 -0.026315924969499471 -0.014109025147846897
leaf_weight=5.8587028235197121 5.9652460366487494 5.6549385190010062 5.4170598834753036
leaf_count=26 26 25 24
internal_value=0.00375043 -0.00568301 0.00392893
internal_weight=22.8959 16.9307 11.2758
internal_count=101 75 50
is_linear=0
shrinkage=0.05


Tree=67
num_leaves=4
num_cat=0
split_feature=31 32 14
split_gain=2.57158 1.54767 1.84002
threshold=1.7115764446622432 0.89127298460810089 0.29711555573791526
decision_type=2 2 2
left_child=1 2 -1
right_child=-2 -3 -4
leaf_value=0.022905604566601474 0.029895996265249327 -0.025261674800111468 -0.013544848614324773
leaf_weight=5.8447296321392113 5.9331452697515479 5.6385442763566962 5.402587041258812
leaf_count=26 26 25 24
internal_value=0.00355318 -0.00545907 0.00367922
internal_weight=22.819 16.8859 11.2473
internal_count=101 75 50
is_linear=0
shrinkage=0.05


Tree=68
num_leaves=4
num_cat=0
split_feature=31 13 1
split_gain=2.37122 1.48959 1.06192
threshold=1.7115764446622432 -9.5958529880372492 42.602684279835138
decision_type=2 2 2
left_child=1 -1 -3
right_child=-2 2 -4
leaf_value=0.0092799571462688218 0.028756306549541318 0 -0.031948458995321734
leaf_weight=7.1302558481693312 5.9003542065620413 4.6656629741191864 5.0441464632749557
leaf_count=32 26 20 23
internal_value=0.00336423 -0.0052444 -0.0181151
internal_weight=22.7404 16.8401 9.70981
internal_count=101 75 43
is_linear=0
shrinkage=0.05


Tree=69
num_leaves=4
num_cat=0
split_feature=31 11 14
split_gain=2.18138 1.39366 1.97429
threshold=1.7115764446622432 22.185414186512066 0.29711555573791526
decision_type=2 2 2
left_child=1 2 -1
right_child=-2 -3 -4
leaf_value=0.024293578370904283 0.027663703450119443 -0.022560957080157998 -0.014517949610522008
leaf_weight=5.6307662427425438 5.8670777082443228 6.2817659974098197 4.898333415389061
leaf_count=25 26 28 22
internal_value=0.00321559 -0.00498742 0.00437617
internal_weight=22.6779 16.8109 10.5291
internal_count=101 75 47
is_linear=0
shrinkage=0.05


Tree=70
num_leaves=4
num_cat=0
split_feature=13 24 32
split_gain=2.24558 2.80656 1.98041
threshold=-12.974424577700072 0.52441308619425941 0.42763717416333707
decision_type=2 2 2
left_child=-1 2 -2
right_child=1 -3 -4
leaf_value=-0.023559578860140002 -0.023929994150376586 0.035559327561601281 0.0133037025761658
leaf_weight=6.4255687594413784 5.7696385085582751 5.6058943420648566 5.951047271490097
leaf_count=29 26 24 27
internal_value=0 0.00902396 -0.00350003
internal_weight=23.7521 17.3266 11.7207
internal_count=106 77 53
is_linear=0
shrinkage=0.05


Tree=71
num_leaves=4
num_cat=0
split_feature=56 55 14
split_gain=1.41116 1.62845 1.51668
threshold=2.5010114226994284 1.3721920599542388 -0.22964418917012117
decision_type=2 2 2
left_child=1 -1 -3
right_child=-2 2 -4
leaf_value=0.0067630127615791319 0.017090443876311465 -0.038329961977985876 0
leaf_weight=7.2486392110586229 6.9878340363502494 4.9082482606172597 4.5686748474836296
leaf_count=33 31 21 21
internal_value=0 -0.00821005 -0.0216011
internal_weight=23.7134 16.7256 9.47692
internal_count=106 75 42
is_linear=0
shrinkage=0.05


Tree=72
num_leaves=4
num_cat=0
split_feature=13 24 32
split_gain=1.96636 2.52141 1.79493
threshold=-12.974424577700072 0.52441308619425941 0.42763717416333707
decision_type=2 2 2
left_child=-1 2 -2
right_child=1 -3 -4
leaf_value=-0.022023021760385276 -0.022834605679647457 0.033724097432577892 0.01260515381211404
leaf_weight=6.4155945479869869 5.7530303895473498 5.5820347368717185 5.9424884021282196
leaf_count=29 26 24 27
internal_value=0 0.00849575 -0.00328397
internal_weight=23.6931 17.2776 11.6955
internal_count=106 77 53
is_linear=0
shrinkage=0.05


Tree=73
num_leaves=4
num_cat=0
split_feature=13 45 29
split_gain=1.80199 2.31709 1.0461
threshold=-12.974424577700072 0.13348283740568695 0.017270520992210794
decision_type=2 2 2
left_child=-1 -2 -3
right_child=1 2 -4
leaf_value=-0.021071048574819798 0.032393274199263418 0.0066933306286622828 -0.02034973779285525
leaf_weight=6.4153545498847988 5.562379568815234 6.9257741123437864 4.7459374815225601
leaf_count=29 24 31 22
internal_value=0 0.00815497 -0.00306813
internal_weight=23.6494 17.2341 11.6717
internal_count=106 77 53
is_linear=0
shrinkage=0.05


Tree=74
num_leaves=4
num_cat=0
split_feature=13 24 32
split_gain=1.65025 2.13174 1.64783
threshold=-12.974424577700072 0.52441308619425941 0.42763717416333707
decision_type=2 2 2
left_child=-1 2 -2
right_child=1 -3 -4
leaf_value=-0.020162953359874849 -0.021749664403491853 0.031123296001358443 0.012262911322677442
leaf_weight=6.4141391217708614 5.7275269031524676 5.5412291139364234 5.9270944967865944
leaf_count=29 26 24 27
internal_value=0 0.00781549 -0.00287445
internal_weight=23.61 17.1959 11.6546
internal_count=106 77 53
is_linear=0
shrinkage=0.05


Tree=75
num_leaves=3
num_cat=0
split_feature=55 56
split_gain=3.03993 3.57069
threshold=1.3721920599542388 2.3131555344982222
decision_type=2 2
left_child=-1 -2
right_child=1 -3
leaf_value=0.019333200912047002 -0.044422864193021945 0.0016059499796051433
leaf_weight=7.9826955050230053 5.7406023666262618 8.5230376869440061
leaf_count=36 26 38
internal_value=-0.00260166 -0.0169778
internal_weight=22.2463 14.2636
internal_count=100 64
is_linear=0
shrinkage=0.05


Tree=76
num_leaves=3
num_cat=0
split_feature=55 56
split_gain=2.77737 3.3136
threshold=1.3721920599542388 2.3131555344982222
decision_type=2 2
left_child=-1 -2
right_child=1 -3
leaf_value=0.018482267121512363 -0.042806155477537064 0.0015342205545788264
leaf_weight=7.9788493514061001 5.6983896791934958 8.5222141444683057
leaf_count=36 26 38
internal_value=-0.00242133 -0.0162361
internal_weight=22.1995 14.2206
internal_count=100 64
is_linear=0
shrinkage=0.05


Tree=77
num_leaves=3
num_cat=0
split_feature=55 3
split_gain=2.53747 1.20037
threshold=1.3721920599542388 1.0000000180025095e-35
decision_type=2 2
left_child=-1 -2
right_child=1 -3
leaf_value=0.017670344926875598 -0.02622729220577415 0
leaf_weight=7.9742545336484936 8.6813187748193723 5.4941212385892859
leaf_count=36 38 26
internal_value=-0.00224838 -0.0155269
internal_weight=22.1497 14.1754
internal_count=100 64
is_linear=0
shrinkage=0.05


Tree=78
num_leaves=3
num_cat=0
split_feature=55 56
split_gain=2.31143 3.09986
threshold=1.3721920599542388 2.3131555344982222
decision_type=2 2
left_child=-1 -2
right_child=1 -3
leaf_value=0.016895374264647225 -0.04074249661611689 0.0022268388629430361
leaf_weight=7.9690250009298351 5.6382639631628981 8.5237532407045347
leaf_count=36 26 38
internal_value=-0.00206288 -0.0147904
internal_weight=22.131 14.162
internal_count=100 64
is_linear=0
shrinkage=0.05


Tree=79
num_leaves=4
num_cat=0
split_feature=58 56 7
split_gain=1.94876 1.6072 0.676168
threshold=0.77000000000000013 2.3037158218292744 -0.50899728080185003
decision_type=2 2 2
left_child=2 -2 -1
right_child=1 -3 -4
leaf_value=0 -0.035240323566026785 0 0.025846533103707908
leaf_weight=4.3443254083395004 4.6551994234323493 8.6277759820222837 4.4501757025718707
leaf_count=20 22 38 20
internal_value=-0.00190473 -0.0145051 0.0141119
internal_weight=22.0775 13.283 8.7945
internal_count=100 60 40
is_linear=0
shrinkage=0.05


Tree=80
num_leaves=4
num_cat=0
split_feature=24 24 6
split_gain=2.09307 2.22995 1.43467
threshold=0.53664797755060767 0.2896674720318389 60.16697862546426
decision_type=2 2 2
left_child=1 -1 -3
right_child=-2 2 -4
leaf_value=0.013677417284753439 0.020695956795483191 -0.037431650273228007 0
leaf_weight=4.5181020647287395 7.0367715507745734 6.0797285884618741 4.4125826209783554
leaf_count=20 31 28 20
internal_value=0 -0.0105746 -0.0234746
internal_weight=22.0472 15.0104 10.4923
internal_count=99 68 48
is_linear=0
shrinkage=0.05


Tree=81
num_leaves=4
num_cat=0
split_feature=24 24 13
split_gain=1.91043 2.06388 1.32223
threshold=0.53664797755060767 0.2896674720318389 -9.5958529880372492
decision_type=2 2 2
left_child=1 -1 -3
right_child=-2 2 -4
leaf_value=0.013136002070066436 0.019809627760327027 0 -0.036395955506785677
leaf_weight=4.5105172842741039 7.0289739966392508 4.548612043261528 5.8996548503637296
leaf_count=20 31 21 27
internal_value=0 -0.0100918 -0.0225746
internal_weight=21.9878 14.9588 10.4483
internal_count=99 68 48
is_linear=0
shrinkage=0.05


Tree=82
num_leaves=4
num_cat=0
split_feature=24 24 13
split_gain=1.74454 1.91131 1.2184
threshold=0.53664797755060767 0.2896674720318389 -9.5958529880372492
decision_type=2 2 2
left_child=1 -1 -3
right_child=-2 2 -4
leaf_value=0.012616137110122369 0.018963039201325738 0 -0.035045383413885287
leaf_weight=4.5029622912406948 7.0204988569021216 4.548612043261528 5.8602142930030805
leaf_count=20 31 21 27
internal_value=0 -0.00963518 -0.0217147
internal_weight=21.9323 14.9118 10.4088
internal_count=99 68 48
is_linear=0
shrinkage=0.05


Tree=83
num_leaves=4
num_cat=0
split_feature=24 6 1
split_gain=1.593 1.82786 0.249167
threshold=0.53664797755060767 63.187627580765671 44.898023730261812
decision_type=2 2 2
left_child=1 2 -1
right_child=-2 -3 -4
leaf_value=-0.032749076033401679 0.018154081051870496 0.0086981264145964687 -0.0049119817345056457
leaf_weight=4.4811403453350085 7.0114629417657843 5.9366455823183051 4.446082204580307
leaf_count=21 31 27 20
internal_value=0 -0.0091981 -0.0232949
internal_weight=21.8753 14.8639 8.92722
internal_count=99 68 41
is_linear=0
shrinkage=0.05


Tree=84
num_leaves=4
num_cat=0
split_feature=24 24 6
split_gain=1.46286 1.76751 1.26906
threshold=0.53664797755060767 0.2896674720318389 60.16697862546426
decision_type=2 2 2
left_child=1 -1 -3
right_child=-2 2 -4
leaf_value=0.012450375039480953 0.017380802429265582 -0.033905455251991561 0
leaf_weight=4.4914613664150265 7.0019700676202765 5.9416619911789876 4.3959874510765076
leaf_count=20 31 28 20
internal_value=0 -0.00885017 -0.0205917
internal_weight=21.8311 14.8291 10.3376
internal_count=99 68 48
is_linear=0
shrinkage=0.05


Tree=85
num_leaves=4
num_cat=0
split_feature=33 0 7
split_gain=1.83649 1.86114 0.53477
threshold=-0.0060672421451053006 57.007026538592555 0.94533302914851458
decision_type=2 2 2
left_child=-1 2 -2
right_child=1 -3 -4
leaf_value=0.023288851469563825 -0.036539838440658105 0.0066213067320155848 -0.0038567875697650038
leaf_weight=5.2073097229003933 4.046086288988592 7.9401029497385016 4.7185859233140945
leaf_count=23 20 36 21
internal_value=0 -0.00831659 -0.0237016
internal_weight=21.9121 16.7048 8.76467
internal_count=100 77 41
is_linear=0
shrinkage=0.05


Tree=86
num_leaves=4
num_cat=0
split_feature=33 32 3
split_gain=1.69051 1.77027 1.28067
threshold=-0.0060672421451053006 -0.20187401904610505 0.80810059542797907
decision_type=2 2 2
left_child=-1 -2 -3
right_child=1 2 -4
leaf_value=0.022325958050985903 -0.029171076928541075 -0.008921142255882893 0.02219428604663044
leaf_weight=5.2035237103700664 5.4845343977212968 6.8810089528560585 4.3111989796161652
leaf_count=23 25 32 20
internal_value=0 -0.00800997 0.00185124
internal_weight=21.8803 16.6767 11.1922
internal_count=100 77 52
is_linear=0
shrinkage=0.05


Tree=87
num_leaves=4
num_cat=0
split_feature=33 32 29
split_gain=1.55109 1.62764 1.8026
threshold=-0.0060672421451053006 -0.20187401904610505 0.016101497770496912
decision_type=2 2 2
left_child=-1 -2 -3
right_child=1 2 -4
leaf_value=0.021405708312310989 -0.0279885348300364 0.023698014396581386 -0.01297093759290825
leaf_weight=5.1989720165729549 5.4729931578040185 4.9116593003272957 6.264923945069313
leaf_count=23 25 23 29
internal_value=0 -0.00766635 0.00171326
internal_weight=21.8485 16.6496 11.1766
internal_count=100 77 52
is_linear=0
shrinkage=0.05


Tree=88
num_leaves=4
num_cat=0
split_feature=31 33 15
split_gain=1.48608 1.64364 0.753647
threshold=0.48431421505101496 0.00616458476733931 4356.3133971655852
decision_type=2 2 2
left_child=-1 2 -2
right_child=1 -3 -4
leaf_value=-0.022536464365303148 0.025046285936263665 -0.014393396023990049 0
leaf_weight=4.6321597546339062 8.1007761657238024 4.4971025586128226 4.5824941694736472
leaf_count=22 36 21 21
internal_value=0 0.00685644 0.0167193
internal_weight=21.8125 17.1804 12.6833
internal_count=100 78 57
is_linear=0
shrinkage=0.05


Tree=89
num_leaves=4
num_cat=0
split_feature=45 11 3
split_gain=1.07328 2.89174 1.12018
threshold=0.2416569181783402 23.955136489773864 1.0000000180025095e-35
decision_type=2 2 2
left_child=1 2 -1
right_child=-2 -3 -4
leaf_value=-0.0043271222530267611 0.017835375141068532 -0.03713058618207004 0.023146645571044514
leaf_weight=7.5521395057439857 5.1401910036802283 4.5268518775701514 4.5619377866387367
leaf_count=34 23 21 22
internal_value=0 -0.00643284 0.00508873
internal_weight=21.7811 16.6409 12.1141
internal_count=100 77 56
is_linear=0
shrinkage=0.05


Tree=90
num_leaves=4
num_cat=0
split_feature=6 26 29
split_gain=2.39961 1.60907 0.731059
threshold=63.187627580765671 4533.9037032051219 0.017140314771980494
decision_type=2 2 2
left_child=1 2 -1
right_child=-2 -3 -4
leaf_value=0.0096887591455615506 0.014569851293090475 -0.036433650074050875 -0.015571136917056711
leaf_weight=4.4261315912008303 7.3570005893707267 5.7876304015517226 4.4602771624922752
leaf_count=20 34 27 21
internal_value=-0.0057743 -0.0178479 -0.000753584
internal_weight=22.031 14.674 8.88641
internal_count=102 68 41
is_linear=0
shrinkage=0.05


Tree=91
num_leaves=4
num_cat=0
split_feature=10 20 23
split_gain=2.31478 2.02264 1.20739
threshold=40.841836140755674 -0.0030058708753442267 18.46199212412656
decision_type=2 2 2
left_child=1 -1 -3
right_child=-2 2 -4
leaf_value=-0.023244631998351303 -0.034654653840881421 0 0.028937130174871508
leaf_weight=4.2559541165828767 4.3473641425371161 8.0530409216880781 5.3253533691167823
leaf_count=19 21 37 25
internal_value=-0.00550435 0.00181448 0.0125872
internal_weight=21.9817 17.6343 13.3784
internal_count=102 81 62
is_linear=0
shrinkage=0.05


Tree=92
num_leaves=4
num_cat=0
split_feature=6 26 29
split_gain=2.1526 1.47044 0.653749
threshold=63.187627580765671 4533.9037032051219 0.017140314771980494
decision_type=2 2 2
left_child=1 2 -1
right_child=-2 -3 -4
leaf_value=0.0093296449423658934 0.013941569255593339 -0.034593113296289661 -0.014623291807181499
leaf_weight=4.4333296120166796 7.3101893514394751 5.7579294741153708 4.4383142590522766
leaf_count=20 34 27 21
internal_value=-0.00530763 -0.0168023 -0.000388489
internal_weight=21.9398 14.6296 8.87164
internal_count=102 68 41
is_linear=0
shrinkage=0.05


Tree=93
num_leaves=4
num_cat=0
split_feature=6 26 29
split_gain=1.98013 1.35519 0.602688
threshold=63.187627580765671 4533.9037032051219 0.017140314771980494
decision_type=2 2 2
left_child=1 2 -1
right_child=-2 -3 -4
leaf_value=0.0089469830299804612 0.013349519655681638 -0.033256254410931267 -0.014057942771623762
leaf_weight=4.4345341622829455 7.2973584681749335 5.7308159917592993 4.4264856278896332
leaf_count=20 34 27 21
internal_value=-0.00505647 -0.0161305 -0.000270007
internal_weight=21.8892 14.5918 8.86102
internal_count=102 68 41
is_linear=0
shrinkage=0.05


Tree=94
num_leaves=4
num_cat=0
split_feature=10 20 33
split_gain=2.08478 1.74521 1.10461
threshold=40.841836140755674 -0.0030058708753442267 0.0012821679691129675
decision_type=2 2 2
left_child=1 -1 -3
right_child=-2 2 -4
leaf_value=-0.021063745233934485 -0.032745621299258759 -0.0032787172382148506 0.02219128544510517
leaf_weight=4.2550336420536103 4.2820037975907317 4.530729576945304 8.7701078951358777
leaf_count=19 21 23 39
internal_value=-0.00481549 0.00204716 0.0121446
internal_weight=21.8379 17.5559 13.3008
internal_count=102 81 62
is_linear=0
shrinkage=0.05


Tree=95
num_leaves=4
num_cat=0
split_feature=33 33 33
split_gain=2.1737 1.61304 2.24169
threshold=-0.0051743680735626676 0.0012821679691129675 0.00616458476733931
decision_type=2 2 2
left_child=-1 -2 -3
right_child=1 2 -4
leaf_value=0.029309370272739443 -0.025659658808919402 0.027628651666116229 -0.011725442444464234
leaf_weight=5.9266820400953319 4.7690069675445583 5.5448842793703061 6.2614983543753624
leaf_count=26 23 26 29
internal_value=0.0053471 -0.00297852 0.00551928
internal_weight=22.5021 16.5754 11.8064
internal_count=104 78 55
is_linear=0
shrinkage=0.05


Tree=96
num_leaves=4
num_cat=0
split_feature=12 26 29
split_gain=2.14881 2.36998 0.165431
threshold=17.489407303211845 4533.9037032051219 0.017270520992210794
decision_type=2 2 2
left_child=-1 2 -2
right_child=1 -3 -4
leaf_value=-0.017245005030576018 0.038141675010744794 -0.0051673695425757792 0.0091174057947887577
leaf_weight=5.8856438770890263 5.6079084128141421 6.526285968720912 4.4528265297412872
leaf_count=28 25 30 21
internal_value=0.00507477 0.0149463 0.0295416
internal_weight=22.4727 16.587 10.0607
internal_count=104 76 46
is_linear=0
shrinkage=0.05


Tree=97
num_leaves=4
num_cat=0
split_feature=12 26 29
split_gain=1.97767 2.20353 0.131262
threshold=17.489407303211845 4533.9037032051219 0.017270520992210794
decision_type=2 2 2
left_child=-1 2 -2
right_child=1 -3 -4
leaf_value=-0.016535823274190693 0.036654099453888415 -0.0049423742494588609 0.0087459940142128861
leaf_weight=5.8743414282798794 5.5848966538906115 6.5277028903365126 4.4523062407970428
leaf_count=28 25 30 21
internal_value=0.0048283 0.0143379 0.0284537
internal_weight=22.4392 16.5649 10.0372
internal_count=104 76 46
is_linear=0
shrinkage=0.05


Tree=98
num_leaves=4
num_cat=0
split_feature=12 26 29
split_gain=1.8205 2.05003 0.100845
threshold=17.489407303211845 4533.9037032051219 0.017270520992210794
decision_type=2 2 2
left_child=-1 2 -2
right_child=1 -3 -4
leaf_value=-0.015856092115424839 0.035234870772921222 -0.0047272445291732228 0.0083898439162466767
leaf_weight=5.8630211427807835 5.5602677613496798 6.529004454612731 4.4517071396112442
leaf_count=28 25 30 21
internal_value=0.00459225 0.0137562 0.0274146
internal_weight=22.404 16.541 10.012
internal_count=104 76 46
is_linear=0
shrinkage=0.05


Tree=99
num_leaves=4
num_cat=0
split_feature=33 33 33
split_gain=1.89104 1.77031 1.83452
threshold=-0.0040189167598097264 0.0012821679691129675 0.00616458476733931
decision_type=2 2 2
left_child=-1 -2 -3
right_child=1 2 -4
leaf_value=0.026101013233802248 -0.028193187847878772 0.025432359562089925 -0.010187505709627287
leaf_weight=6.2588205635547665 4.4278910011053112 5.455989941954611 6.2245825752615929
leaf_count=28 21 26 29
internal_value=0.00436609 -0.0036496 0.00517253
internal_weight=22.3673 16.1085 11.6806
internal_count=104 76 55
is_linear=0
shrinkage=0.05


Tree=100
num_leaves=4
num_cat=0
split_feature=13 28 5
split_gain=1.43149 2.00833 0.434467
threshold=10.216220489242135 4823.43961104551 49.047822738550472
decision_type=2 2 2
left_child=1 2 -1
right_child=-2 -3 -4
leaf_value=0.032906969982497446 -0.015382504909660822 -0.013298293592873831 0.0047632009679670897
leaf_weight=4.8681604266166705 8.2371160313487035 4.625849485397338 5.6411191523075104
leaf_count=22 39 21 27
internal_value=0 0.00929166 0.0216987
internal_weight=23.3722 15.1351 10.5093
internal_count=109 70 49
is_linear=0
shrinkage=0.05


Tree=101
num_leaves=4
num_cat=0
split_feature=31 12 22
split_gain=1.24757 0.880887 2.20683
threshold=0.48431421505101496 16.898114741310142 -0.00090146986082597941
decision_type=2 2 2
left_child=-1 -2 -3
right_child=1 2 -4
leaf_value=-0.018429963773188923 -0.0071789651491456167 -0.001129225612874893 0.035896067185190138
leaf_weight=5.571900054812434 4.9108383059501675 7.4262175858020818 5.434171229600901
leaf_count=28 22 33 26
internal_value=0 0.00687289 0.0141732
internal_weight=23.3431 17.7712 12.8604
internal_count=109 81 59
is_linear=0
shrinkage=0.05


Tree=102
num_leaves=4
num_cat=0
split_feature=13 28 9
split_gain=1.26544 1.79511 1.16348
threshold=10.216220489242135 4823.43961104551 -0.34513453305137615
decision_type=2 2 2
left_child=1 2 -1
right_child=-2 -3 -4
leaf_value=0.037361319884701184 -0.014561093927566313 -0.012528615468885765 0.00043384910743818859
leaf_weight=4.5353690087795249 8.2030592486262304 4.6116285920143119 5.9048142284154919
leaf_count=20 39 21 29
internal_value=0 0.00869051 0.0205245
internal_weight=23.2549 15.0518 10.4402
internal_count=109 70 49
is_linear=0
shrinkage=0.05


Tree=103
num_leaves=5
num_cat=0
split_feature=17 3 22 29
split_gain=1.1898 2.14371 2.09942 0.441061
threshold=4059.6942631513762 -1.8767239372117588 0.0010127931249978076 0.016101497770496912
decision_type=2 2 2 2
left_child=-1 -2 -3 -4
right_child=1 2 3 -5
leaf_value=0.020632754269581156 0.018438722651761937 -0.038725899098440236 0.009984125123245223 -0.010368298988932836
leaf_weight=4.5653260797262218 4.8674037456512513 5.1467676237225488 4.2116640955209714 4.4244818091392517
leaf_count=21 22 25 20 21
internal_value=0 -0.00555006 -0.016387 0
internal_weight=23.2156 18.6503 13.7829 8.63615
internal_count=109 88 66 41
is_linear=0
shrinkage=0.05


Tree=104
num_leaves=4
num_cat=0
split_feature=34 12 10
split_gain=1.14523 1.77533 0.876028
threshold=0.054809032659334601 17.489407303211845 20.693210683530669
decision_type=2 2 2
left_child=-1 -2 -3
right_child=1 2 -4
leaf_value=-0.01875928443553701 -0.012103964436853085 0 0.027887496929989777
leaf_weight=5.0138908922672298 6.1764765158295658 4.8194925189018232 7.1311773955821991
leaf_count=23 29 24 33
internal_value=0 0.00624815 0.0178657
internal_weight=23.141 18.1271 11.9507
internal_count=109 86 57
is_linear=0
shrinkage=0.05


Tree=105
num_leaves=4
num_cat=0
split_feature=3 32 58
split_gain=1.03226 2.22073 0.8491
threshold=0.7186941496865108 -0.55504026551992613 0.8650000000000001
decision_type=2 2 2
left_child=1 -1 -3
right_child=-2 2 -4
leaf_value=0.013617572085282182 0.015812093806894828 0 -0.033445902818242612
leaf_weight=6.4906630665063867 7.4880579859018317 3.9834621846675873 5.0444846302270889
leaf_count=29 36 20 23
internal_value=0.000855576 -0.00536815 -0.0215078
internal_weight=23.0067 15.5186 9.02795
internal_count=108 72 43
is_linear=0
shrinkage=0.05


Tree=106
num_leaves=4
num_cat=0
split_feature=13 56 13
split_gain=0.96134 1.8348 1.92675
threshold=-12.974424577700072 2.643398349972061 10.216220489242135
decision_type=2 2 2
left_child=-1 2 -2
right_child=1 -3 -4
leaf_value=-0.013239520173724423 0.016216861104785905 0.031397055302167118 -0.020725973225955884
leaf_weight=6.3564432784914997 5.6724584847688693 4.7789981216192237 6.1715412810444832
leaf_count=30 26 21 31
internal_value=0.000776369 0.00800163 -0.0012014
internal_weight=22.9794 16.623 11.844
internal_count=108 78 57
is_linear=0
shrinkage=0.05


Tree=107
num_leaves=4
num_cat=0
split_feature=3 3 31
split_gain=0.953428 1.69724 0.818804
threshold=0.7186941496865108 -1.8767239372117588 0.94702534887786372
decision_type=2 2 2
left_child=1 -1 -3
right_child=-2 2 -4
leaf_value=0.01178332529908396 0.015155715813264997 0 -0.032883625973592338
leaf_weight=6.1472287476062784 7.4658988639712325 4.9975867941975594 4.3165746256709099
leaf_count=27 36 25 20
internal_value=0.00071553 -0.00523565 -0.0189452
internal_weight=22.9273 15.4614 9.31416
internal_count=108 72 45
is_linear=0
shrinkage=0.05


Tree=108
num_leaves=4
num_cat=0
split_feature=13 56 13
split_gain=0.863548 1.68749 1.75932
threshold=-12.974424577700072 2.643398349972061 10.216220489242135
decision_type=2 2 2
left_child=-1 2 -2
right_child=1 -3 -4
leaf_value=-0.012598203283942733 0.015330076867643677 0.030053364461349593 -0.019994452936609106
leaf_weight=6.3529138118028667 5.6614070683717745 4.7585241198539725 6.1328655332326889
leaf_count=30 26 21 31
internal_value=0.000624606 0.00755237 -0.00121131
internal_weight=22.9057 16.5528 11.7943
internal_count=108 78 57
is_linear=0
shrinkage=0.05


Tree=109
num_leaves=4
num_cat=0
split_feature=3 32 25
split_gain=0.882877 2.05208 0.842197
threshold=0.7186941496865108 -0.55504026551992613 86.500000000000014
decision_type=2 2 2
left_child=1 -1 -3
right_child=-2 2 -4
leaf_value=0.013077291399441885 0.014534023247328581 0 -0.032667805847870088
leaf_weight=6.4528636932373056 7.4432066529989234 3.9662885889410973 4.9900813549757004
leaf_count=29 36 20 23
internal_value=0.000569234 -0.00512737 -0.0207505
internal_weight=22.8524 15.4092 8.95637
internal_count=108 72 43
is_linear=0
shrinkage=0.05


Tree=110
num_leaves=4
num_cat=0
split_feature=17 8 11
split_gain=2.66938 3.74709 1.53184
threshold=4059.6942631513762 1.0000000180025095e-35 22.185414186512066
decision_type=2 2 2
left_child=-1 -2 -3
right_child=1 2 -4
leaf_value=0.03055553623706473 -0.043093253445962841 0.025277240225634684 -0.0074590836799411607
leaf_weight=4.3115459531545666 4.8577275425195721 4.5668495148420316 7.570594884455204
leaf_count=20 24 21 37
internal_value=0 -0.00976055 0.00394185
internal_weight=21.3067 16.9952 12.1374
internal_count=102 82 58
is_linear=0
shrinkage=0.05


Tree=111
num_leaves=4
num_cat=0
split_feature=17 8 11
split_gain=2.46199 3.46473 1.41353
threshold=4059.6942631513762 1.0000000180025095e-35 22.185414186512066
decision_type=2 2 2
left_child=-1 -2 -3
right_child=1 2 -4
leaf_value=0.029407090977256828 -0.041552565067775604 0.024304196494462069 -0.0071312606791226049
leaf_weight=4.2953975200653103 4.8238955438137081 4.5526060909032804 7.5687015876173973
leaf_count=20 24 21 37
internal_value=0 -0.00937029 0.00372265
internal_weight=21.2406 16.9452 12.1213
internal_count=102 82 58
is_linear=0
shrinkage=0.05


Tree=112
num_leaves=4
num_cat=0
split_feature=34 26 29
split_gain=1.51737 1.69579 0.886142
threshold=0.054809032659334601 4120.3038939372245 0.020028545203678718
decision_type=2 2 2
left_child=-1 -2 -3
right_child=1 2 -4
leaf_value=-0.024717691270159384 0.032024249534594477 -0.013426038673549976 0.010223990350123459
leaf_weight=4.0503253191709545 3.807280600070956 7.3412222042679769 5.9738326594233513
leaf_count=19 18 36 29
internal_value=0 0.00624977 -0.00109599
internal_weight=21.1727 17.1223 13.3151
internal_count=102 83 65
is_linear=0
shrinkage=0.05


Tree=113
num_leaves=4
num_cat=0
split_feature=17 7 11
split_gain=2.15046 2.47868 1.13245
threshold=4059.6942631513762 -0.50899728080185003 23.955136489773864
decision_type=2 2 2
left_child=-1 -2 -3
right_child=1 2 -4
leaf_value=0.027629269155951736 -0.032156937141831522 0.022984091940447579 -0.0061268943367448854
leaf_weight=4.2583880722522762 6.1208951920270982 4.1908307000994629 6.5710995718836784
leaf_count=20 30 20 32
internal_value=0 -0.0087272 0.00407409
internal_weight=21.1412 16.8828 10.7619
internal_count=102 82 52
is_linear=0
shrinkage=0.05


Tree=114
num_leaves=4
num_cat=0
split_feature=17 7 11
split_gain=1.98133 2.28037 1.04685
threshold=4059.6942631513762 -0.50899728080185003 23.955136489773864
decision_type=2 2 2
left_child=-1 -2 -3
right_child=1 2 -4
leaf_value=0.026599665030865912 -0.030901646060914324 0.022099323990321919 -0.0058615435060083267
leaf_weight=4.2412079572677639 6.0924177616834703 4.1809736043214745 6.5704308971762657
leaf_count=20 30 20 32
internal_value=0 -0.00835279 0.00383968
internal_weight=21.085 16.8438 10.7514
internal_count=102 82 52
is_linear=0
shrinkage=0.05


Tree=115
num_leaves=4
num_cat=0
split_feature=24 25 13
split_gain=2.35638 1.90547 0.524867
threshold=0.54502492963549642 77.000000000000014 14.146420082412225
decision_type=2 2 2
left_child=1 2 -1
right_child=-2 -3 -4
leaf_value=0.024709819583660406 0.035504167101807059 -0.018742678585050025 0
leaf_weight=4.2418718487024325 5.0838905200362197 7.1849786564707747 4.339872419834137
leaf_count=20 23 35 21
internal_value=0.00902076 0 0.0140386
internal_weight=20.8506 15.7667 8.58174
internal_count=99 76 41
is_linear=0
shrinkage=0.05


Tree=116
num_leaves=4
num_cat=0
split_feature=45 25 13
split_gain=2.17083 2.21603 0.482929
threshold=0.13348283740568695 77.000000000000014 14.146420082412225
decision_type=2 2 2
left_child=-1 2 -2
right_child=1 -3 -4
leaf_value=0.031480908301502859 0.023764753750154521 -0.023135813486797482 0
leaf_weight=6.1334324479103115 4.2301030009984952 6.0991981178522101 4.339872419834137
leaf_count=28 20 30 21
internal_value=0.00869629 -0.00063597 0.013509
internal_weight=20.8026 14.6692 8.56998
internal_count=99 71 41
is_linear=0
shrinkage=0.05


Tree=117
num_leaves=4
num_cat=0
split_feature=23 58 5
split_gain=2.03631 1.76998 0.520019
threshold=21.415040834855699 0.78500000000000014 47.035630102774128
decision_type=2 2 2
left_child=1 2 -1
right_child=-2 -3 -4
leaf_value=0.020725473999515798 0.028827198237377973 -0.023534258048194198 0
leaf_weight=4.4140650182962435 6.9217999354004851 5.1932685747742644 4.2177226394414902
leaf_count=20 32 26 21
internal_value=0.00836886 -0.00144128 0.0103186
internal_weight=20.7469 13.8251 8.63179
internal_count=99 67 41
is_linear=0
shrinkage=0.05


Tree=118
num_leaves=4
num_cat=0
split_feature=24 29 10
split_gain=1.89398 1.60391 1.74011
threshold=0.54502492963549642 0.017807370091400997 23.19029075007154
decision_type=2 2 2
left_child=1 2 -1
right_child=-2 -3 -4
leaf_value=-0.006272136484013111 0.031920641299468686 -0.017644137674020458 0.031730933386996986
leaf_weight=4.0917989164590853 5.0093131065368643 6.9574615582823744 4.643802747130394
leaf_count=20 23 34 22
internal_value=0.00799752 0 0.0125464
internal_weight=20.7024 15.6931 8.7356
internal_count=99 76 42
is_linear=0
shrinkage=0.05


Tree=119
num_leaves=4
num_cat=0
split_feature=24 25 13
split_gain=1.78136 1.89945 0.457816
threshold=0.52441308619425941 77.000000000000014 14.146420082412225
decision_type=2 2 2
left_child=1 2 -1
right_child=-2 -3 -4
leaf_value=0.022308712895765206 0.028462903623553949 -0.021671308435100199 0
leaf_weight=4.207448288798334 6.0540543124079695 6.0438117310404769 4.3368311524391174
leaf_count=20 28 30 21
internal_value=0.00765417 -0.000649618 0.0123134
internal_weight=20.6421 14.5881 8.54428
internal_count=99 71 41
is_linear=0
shrinkage=0.05


Tree=120
num_leaves=4
num_cat=0
split_feature=25 55 10
split_gain=2.2392 1.5419 1.26707
threshold=97.500000000000014 1.6300145929773964 20.693210683530669
decision_type=2 2 2
left_child=1 2 -1
right_child=-2 -3 -4
leaf_value=-0.013515643763894795 0.029903027157852216 -0.028874689604258437 0.014806740336198658
leaf_weight=6.3675416633486801 3.9924426302313796 4.9832715541124335 7.3097442239522934
leaf_count=31 20 22 36
internal_value=0 -0.00759398 0
internal_weight=22.653 18.6606 13.6773
internal_count=109 89 67
is_linear=0
shrinkage=0.05


Tree=121
num_leaves=5
num_cat=0
split_feature=11 13 3 14
split_gain=1.24324 1.19948 1.20686 1.1776
threshold=22.185414186512066 10.216220489242135 -0.32451301377347508 -0.22964418917012117
decision_type=2 2 2 2
left_child=1 2 -1 -2
right_child=3 -3 -4 -5
leaf_value=0 -0.030473642477427038 -0.0076932641619265347 0.036153524885681201 0
leaf_weight=4.7475726604461661 4.1088787391781807 4.1496894657611838 4.3698946684598949 5.2397533729672414
leaf_count=21 20 21 21 26
internal_value=0 0.00957417 0.0198878 -0.0131896
internal_weight=22.6158 13.2672 9.11747 9.34863
internal_count=109 63 42 46
is_linear=0
shrinkage=0.05


Tree=122
num_leaves=4
num_cat=0
split_feature=11 9 14
split_gain=1.13332 1.18938 1.09569
threshold=22.185414186512066 -3.3567085091624684 -0.22964418917012117
decision_type=2 2 2
left_child=1 -1 -2
right_child=2 -3 -4
leaf_value=0.024998069457474414 -0.029311262020380653 -0.0012562864471242598 0
leaf_weight=5.6447835117578506 4.0981617569923401 7.5951004102826136 5.2397533729672414
leaf_count=25 20 38 26
internal_value=0 0.00915098 -0.0125985
internal_weight=22.5778 13.2399 9.33792
internal_count=109 63 46
is_linear=0
shrinkage=0.05


Tree=123
num_leaves=4
num_cat=0
split_feature=25 55 10
split_gain=2.0709 1.41675 1.13018
threshold=97.500000000000014 1.6300145929773964 20.693210683530669
decision_type=2 2 2
left_child=1 2 -1
right_child=-2 -3 -4
leaf_value=-0.01282378898050078 0.028859463312300035 -0.027836644941996638 0.013938377361329305
leaf_weight=6.3604332581162506 3.9547540917992583 4.9266870766878119 7.3129808157682419
leaf_count=31 20 22 36
internal_value=0 -0.0073213 0
internal_weight=22.5549 18.6001 13.6734
internal_count=109 89 67
is_linear=0
shrinkage=0.05


Tree=124
num_leaves=5
num_cat=0
split_feature=58 55 58 16
split_gain=1.19847 2.26913 1.46199 0.626744
threshold=0.95500000000000007 1.5889766279256943 0.48500000000000004 4163.5878435776485
decision_type=2 2 2 2
left_child=1 2 -1 -4
right_child=-2 -3 3 -5
leaf_value=-0.016013396467543069 0.018508146573964834 -0.033054125354582971 0.028523437493525112 0
leaf_weight=4.0724736750125947 5.4387270733714095 4.7692557275295249 4.0162796527147275 4.2186449766159058
leaf_count=20 27 22 19 21
internal_value=0 -0.00661326 0.00346815 0.0165004
internal_weight=22.5154 17.0767 12.3074 8.23492
internal_count=109 82 60 40
is_linear=0
shrinkage=0.05


Tree=125
num_leaves=4
num_cat=0
split_feature=55 25 33
split_gain=1.27251 1.31656 0.772602
threshold=1.5373285366847782 48.500000000000007 0.0012821679691129675
decision_type=2 2 2
left_child=1 -1 -3
right_child=-2 2 -4
leaf_value=-0.0069780492585475602 -0.014830409327638598 0 0.032792373803578294
leaf_weight=5.0993385538458851 8.083662733435629 3.7823047786951047 4.6812760233879089
leaf_count=25 39 20 21
internal_value=0 0.0090145 0.021011
internal_weight=21.6466 13.5629 8.46358
internal_count=105 66 41
is_linear=0
shrinkage=0.05


Tree=126
num_leaves=4
num_cat=0
split_feature=55 10 29
split_gain=1.17039 1.78592 0.887706
threshold=1.7600611918322902 20.693210683530669 0.017270520992210794
decision_type=2 2 2
left_child=1 -1 -3
right_child=-2 2 -4
leaf_value=-0.010752446196030181 -0.017947704355021004 0.033681912769010315 0
leaf_weight=6.2025776803493526 5.6330170109868041 4.8535507768392545 4.9126467183232307
leaf_count=30 27 23 25
internal_value=0 0.00682036 0.0202651
internal_weight=21.6018 15.9688 9.7662
internal_count=105 78 48
is_linear=0
shrinkage=0.05


Tree=127
num_leaves=4
num_cat=0
split_feature=55 25 33
split_gain=1.07935 1.24532 0.72154
threshold=1.5373285366847782 48.500000000000007 0.0012821679691129675
decision_type=2 2 2
left_child=1 -1 -3
right_child=-2 2 -4
leaf_value=-0.0071790417558255928 -0.013672872908418855 0 0.031531255079905708
leaf_weight=5.0819457992911365 8.0584186241030675 3.7899482473731023 4.6412062048912048
leaf_count=25 39 20 21
internal_value=0 0.00832117 0.0200854
internal_weight=21.5715 13.5131 8.43115
internal_count=105 66 41
is_linear=0
shrinkage=0.05


Tree=128
num_leaves=4
num_cat=0
split_feature=55 10 23
split_gain=1.0063 1.67345 0.563593
threshold=1.7600611918322902 20.693210683530669 14.570811676941128
decision_type=2 2 2
left_child=1 -1 -3
right_child=-2 2 -4
leaf_value=-0.010620437170332122 -0.016681631325818052 0.033397763516721787 0.0032095864446468601
leaf_weight=6.1911084130406406 5.6039255186915389 3.8309066295623762 5.9003908857703209
leaf_count=30 27 19 29
internal_value=0 0.00632984 0.0194281
internal_weight=21.5263 15.9224 9.7313
internal_count=105 78 48
is_linear=0
shrinkage=0.05


Tree=129
num_leaves=4
num_cat=0
split_feature=31 3 31
split_gain=0.947093 1.33663 0.714093
threshold=0.48431421505101496 -1.8767239372117588 1.230820008660209
decision_type=2 2 2
left_child=-1 -2 -3
right_child=1 2 -4
leaf_value=-0.016057471414191237 0.024937367780398543 0.0084561068369358571 -0.01449077176090135
leaf_weight=5.6625528186559704 5.3104972317814836 4.6032204627990687 5.913261279463768
leaf_count=29 24 23 29
internal_value=0 0.00621443 -0.00241368
internal_weight=21.4895 15.827 10.5165
internal_count=105 76 52
is_linear=0
shrinkage=0.05


Tree=130
num_leaves=4
num_cat=0
split_feature=0 0 14
split_gain=1.53141 2.13902 2.0721
threshold=57.007026538592555 46.259696731751966 0.29711555573791526
decision_type=2 2 2
left_child=1 2 -1
right_child=-2 -3 -4
leaf_value=0.02031898513602317 0.011715625589846141 -0.041076615369070583 -0.020020901927615041
leaf_weight=4.9910555854439753 7.6721643656492224 3.9369076192378989 5.7528008967638016
leaf_count=23 38 21 28
internal_value=-0.0038392 -0.0137912 0
internal_weight=22.3529 14.6808 10.7439
internal_count=110 72 51
is_linear=0
shrinkage=0.05


Tree=131
num_leaves=4
num_cat=0
split_feature=0 17 14
split_gain=1.41371 2.02828 1.42023
threshold=57.007026538592555 4072.216344019289 -0.22964418917012117
decision_type=2 2 2
left_child=1 -1 -3
right_child=-2 2 -4
leaf_value=0.010827460166091174 0.011212736429468085 -0.0003839407651913321 -0.041342772738663464
leaf_weight=4.1296763494610813 7.6605969965457907 5.1746083348989487 5.3057430833578092
leaf_count=20 38 24 28
internal_value=-0.0036706 -0.0132944 -0.0250922
internal_weight=22.2706 14.61 10.4804
internal_count=110 72 52
is_linear=0
shrinkage=0.05


Tree=132
num_leaves=4
num_cat=0
split_feature=0 0 14
split_gain=1.30113 2.03902 1.80324
threshold=57.007026538592555 46.259696731751966 0.29711555573791526
decision_type=2 2 2
left_child=1 2 -1
right_child=-2 -3 -4
leaf_value=0.019502917473718233 0.010731191084667607 -0.039587334162851096 -0.018252726089253157
leaf_weight=4.9774471670389193 7.649304322898387 3.8728837743401519 5.7069397605955601
leaf_count=23 38 21 28
internal_value=-0.00348735 -0.0127752 0
internal_weight=22.2066 14.5573 10.6844
internal_count=110 72 51
is_linear=0
shrinkage=0.05


Tree=133
num_leaves=4
num_cat=0
split_feature=6 5 34
split_gain=1.23531 1.54884 1.22256
threshold=63.187627580765671 47.035630102774128 0.054809032659334601
decision_type=2 2 2
left_child=1 2 -1
right_child=-2 -3 -4
leaf_value=-0.018960460547055635 0.010517299183085933 -0.03500124674207624 0.012633430526474499
leaf_weight=4.3903689607977885 7.6131433025002471 4.1134136207401744 6.0084797404706478
leaf_count=21 39 21 29
internal_value=-0.0033319 -0.0124185 0
internal_weight=22.1254 14.5123 10.3988
internal_count=110 71 50
is_linear=0
shrinkage=0.05


Tree=134
num_leaves=4
num_cat=0
split_feature=0 0 14
split_gain=1.17827 1.88279 1.60582
threshold=57.007026538592555 46.259696731751966 0.29711555573791526
decision_type=2 2 2
left_child=1 2 -1
right_child=-2 -3 -4
leaf_value=0.01855420119943094 0.010270418066664351 -0.038106865512040927 -0.017145891085653165
leaf_weight=4.954060412943365 7.6339111775159827 3.8040557838976374 5.6834385357797146
leaf_count=23 38 21 28
internal_value=-0.00318582 -0.0121224 0
internal_weight=22.0755 14.4416 10.6375
internal_count=110 72 51
is_linear=0
shrinkage=0.05


Tree=135
num_leaves=4
num_cat=0
split_feature=12 30 33
split_gain=1.34049 1.27016 1.28244
threshold=17.489407303211845 0.56478108175744834 -0.0092178020982158475
decision_type=2 2 2
left_child=-1 2 -2
right_child=1 -3 -4
leaf_value=-0.019880219400488033 0.015997535723724324 0.027696341759866006 -0.015197818903222022
leaf_weight=5.9318112023174789 4.3407538458704948 3.9325705692172042 7.0076161548495275
leaf_count=30 20 20 36
internal_value=-0.000560541 0.00616394 -0.000911813
internal_weight=21.2128 15.2809 11.3484
internal_count=106 76 56
is_linear=0
shrinkage=0.05


Tree=136
num_leaves=4
num_cat=0
split_feature=12 6 31
split_gain=1.23573 1.62673 0.776267
threshold=17.489407303211845 34.131170966129808 0.97159540829050151
decision_type=2 2 2
left_child=-1 -2 -3
right_child=1 2 -4
leaf_value=-0.019077447940397993 -0.010239324905708988 0 0.033356580233361896
leaf_weight=5.9148671627044704 6.2859282046556464 4.7078952789306623 4.2315178364515305
leaf_count=30 30 25 21
internal_value=-0.000457783 0.0059649 0.0197583
internal_weight=21.1402 15.2253 8.93941
internal_count=106 76 46
is_linear=0
shrinkage=0.05


Tree=137
num_leaves=5
num_cat=0
split_feature=56 24 31 11
split_gain=1.08833 1.22641 0.975112 0.930933
threshold=2.3603026938968252 0.2896674720318389 0.62592866275268466 19.468025435751084
decision_type=2 2 2 2
left_child=1 -1 -2 -3
right_child=2 3 -4 -5
leaf_value=0.0055442321154330291 -0.0009251810231562217 0 0.026931043823364233 -0.034787875930428674
leaf_weight=4.7933950349688557 4.0268347635865194 3.6245938614010793 4.1235854923725128 4.5004769377410412
leaf_count=24 19 18 21 24
internal_value=-0.00037641 -0.0101764 0.0118391 -0.0217817
internal_weight=21.0689 12.9185 8.15042 8.12507
internal_count=106 66 40 42
is_linear=0
shrinkage=0.05


Tree=138
num_leaves=4
num_cat=0
split_feature=12 6 31
split_gain=1.10018 1.52266 0.723354
threshold=17.489407303211845 34.131170966129808 0.97159540829050151
decision_type=2 2 2
left_child=-1 -2 -3
right_child=1 2 -4
leaf_value=-0.018043652206466844 -0.0099407037242336422 0 0.032360734200310805
leaf_weight=5.8587870039045837 6.2607590705156317 4.6983068659901601 4.1730286702513695
leaf_count=30 30 25 21
internal_value=-0.00032694 0.00567613 0.0191205
internal_weight=20.9909 15.1321 8.87134
internal_count=106 76 46
is_linear=0
shrinkage=0.05


Tree=139
num_leaves=4
num_cat=0
split_feature=12 6 10
split_gain=1.01255 1.41925 0.199338
threshold=17.489407303211845 34.131170966129808 20.357911302786381
decision_type=2 2 2
left_child=-1 -2 -3
right_child=1 2 -4
leaf_value=-0.017315679191679676 -0.0095263042970062176 0.00050853135648165659 0.025012081016760886
leaf_weight=5.8423114567995098 6.2502254322171202 3.6444245949387533 5.1836464554071426
leaf_count=30 30 20 26
internal_value=-0.000251791 0.00547072 0.0185212
internal_weight=20.9206 15.0783 8.82807
internal_count=106 76 46
is_linear=0
shrinkage=0.05


Tree=140
num_leaves=4
num_cat=0
split_feature=45 11 20
split_gain=1.17687 1.18201 1.49716
threshold=0.2416569181783402 24.947998885113673 -0.0030058708753442267
decision_type=2 2 2
left_child=1 2 -1
right_child=-2 -3 -4
leaf_value=-0.013144444949813367 0.023717674445378947 -0.022481916639103955 0.020376470725213376
leaf_weight=4.3208600431680679 4.3594212532043448 4.5043876804411402 6.4709698557853716
leaf_count=20 21 23 34
internal_value=0.00293654 -0.00254396 0.00485864
internal_weight=19.6556 15.2962 10.7918
internal_count=98 77 54
is_linear=0
shrinkage=0.05


Tree=141
num_leaves=4
num_cat=0
split_feature=24 56 15
split_gain=1.09061 1.58293 0.717282
threshold=0.2896674720318389 2.3802336039606198 4153.4697298091896
decision_type=2 2 2
left_child=-1 2 -2
right_child=1 -3 -4
leaf_value=0.022827982928999652 0 0.011861252506919481 -0.029422749903678398
leaf_weight=4.3422743678092983 3.6489653438329679 7.1927961409091941 4.4256760627031326
leaf_count=21 18 35 24
internal_value=0.00275601 -0.00246829 -0.0178883
internal_weight=19.6097 15.2674 8.07464
internal_count=98 77 42
is_linear=0
shrinkage=0.05


Tree=142
num_leaves=3
num_cat=0
split_feature=55 31
split_gain=1.04363 1.33893
threshold=1.5244104819466513 1.3127236679871641
decision_type=2 2
left_child=1 -1
right_child=-2 -3
leaf_value=0.025017750983270318 -0.0094856706819442874 -0.004202052592292436
leaf_weight=7.3536633923649806 7.5673390030860892 4.6276538074016571
leaf_count=37 38 23
internal_value=0.00263157 0.0123518
internal_weight=19.5487 11.9813
internal_count=98 60
is_linear=0
shrinkage=0.05


Tree=143
num_leaves=3
num_cat=0
split_feature=55 31
split_gain=0.948019 1.23738
threshold=1.5244104819466513 1.3127236679871641
decision_type=2 2
left_child=1 -1
right_child=-2 -3
leaf_value=0.023955738863142367 -0.0090745063571216356 -0.0040276533534764807
leaf_weight=7.3403595983982104 7.5601987764239302 4.6298748105764389
leaf_count=37 38 23
internal_value=0.00240836 0.0117287
internal_weight=19.5304 11.9702
internal_count=98 60
is_linear=0
shrinkage=0.05


Tree=144
num_leaves=4
num_cat=0
split_feature=45 17 26
split_gain=0.982122 0.938301 1.14254
threshold=0.2416569181783402 4160.8030734786344 5147.9189324151494
decision_type=2 2 2
left_child=1 -1 -3
right_child=-2 2 -4
leaf_value=0.01142738615297933 0.021392549543904942 -0.02465621491060669 0.0038808187728904143
leaf_weight=4.9893319606781033 4.3218337297439566 6.3454262092709524 3.8552436977624893
leaf_count=25 21 34 18
internal_value=0.00219492 -0.00270696 -0.0122553
internal_weight=19.5118 15.19 10.2007
internal_count=98 77 52
is_linear=0
shrinkage=0.05


Tree=145
num_leaves=4
num_cat=0
split_feature=31 10 10
split_gain=1.09352 1.43185 0.625469
threshold=0.48431421505101496 20.693210683530669 39.085368004958696
decision_type=2 2 2
left_child=-1 -2 -3
right_child=1 2 -4
leaf_value=-0.015170404109056585 -0.0084181576263773882 0.027025413979488672 0
leaf_weight=5.6852397322654751 5.7418903335928944 7.0501374900341016 4.1268568485975266
leaf_count=30 28 34 21
internal_value=0.000892929 0.00823124 0.0188264
internal_weight=22.6041 16.9189 11.177
internal_count=113 83 55
is_linear=0
shrinkage=0.05


Tree=146
num_leaves=4
num_cat=0
split_feature=31 10 3
split_gain=1.00135 1.32479 1.19115
threshold=0.48431421505101496 20.693210683530669 -1.4643111397056525
decision_type=2 2 2
left_child=-1 -2 -3
right_child=1 2 -4
leaf_value=-0.014578697658335547 -0.008050401620216632 0.035514352286055623 0
leaf_weight=5.6613937877118614 5.7494632601738003 4.5136571824550664 6.6300877630710549
leaf_count=30 28 21 34
internal_value=0.000776673 0.00784704 0.0180953
internal_weight=22.5546 16.8932 11.1437
internal_count=113 83 55
is_linear=0
shrinkage=0.05


Tree=147
num_leaves=5
num_cat=0
split_feature=28 56 29 21
split_gain=0.912645 1.15987 1.54533 0.800256
threshold=5047.5514999890665 2.3131555344982222 0.01029994448798782 -0.00044633150449139967
decision_type=2 2 2 2
left_child=1 2 -1 -4
right_child=-2 -3 3 -5
leaf_value=0.021677000009425615 -0.016779489460889238 0.023081485848938696 0 -0.025683735292133632
leaf_weight=3.4977071136236253 4.1410572528839102 6.019438460469245 4.1545230299234417 4.694816049188371
leaf_count=18 20 29 21 25
internal_value=0.000712138 0.00660961 -0.000675367 -0.0133523
internal_weight=22.5075 18.3665 12.347 8.84934
internal_count=113 93 64 46
is_linear=0
shrinkage=0.05


Tree=148
num_leaves=4
num_cat=0
split_feature=10 29 32
split_gain=0.92437 1.49148 1.01607
threshold=20.693210683530669 0.038580338609864824 -1.1243866093598818
decision_type=2 2 2
left_child=-1 2 -2
right_child=1 -3 -4
leaf_value=-0.011551825610815388 0 -0.0117005092603703 0.028754967005184148
leaf_weight=7.4519022703170803 3.6690552234649658 4.1530282348394385 7.1717208065092546
leaf_count=37 19 20 37
internal_value=0.000661826 0.00863784 0.0188708
internal_weight=22.4457 14.9938 10.8408
internal_count=113 76 56
is_linear=0
shrinkage=0.05


Tree=149
num_leaves=4
num_cat=0
split_feature=25 33 31
split_gain=0.890559 1.34473 1.85786
threshold=97.500000000000014 -0.0051743680735626676 1.230820008660209
decision_type=2 2 2
left_child=1 -1 -3
right_child=-2 2 -4
leaf_value=0.014484787268018199 0.018998226883146674 0.00064044850756413434 -0.033139610689073576
leaf_weight=5.0334143638610902 4.5124654099345198 7.5228480100631696 5.3556548953056335
leaf_count=24 24 39 26
internal_value=0.000510336 -0.0035836 -0.0129816
internal_weight=22.4244 17.9119 12.8785
internal_count=113 89 65
is_linear=0
shrinkage=0.05


end of trees

feature_importances:
feature_31=50
feature_13=34
feature_10=27
feature_6=26
feature_24=25
feature_55=25
feature_56=22
feature_12=18
feature_33=17
feature_0=16
feature_29=16
feature_32=14
feature_3=13
feature_14=13
feature_5=11
feature_11=11
feature_17=11
feature_25=11
feature_23=9
feature_45=9
feature_8=8
feature_26=8
feature_21=7
feature_34=7
feature_58=6
feature_9=5
feature_20=5
feature_1=4
feature_7=4
feature_15=3
feature_28=3
feature_22=2
feature_30=2
feature_16=1

parameters:
[boosting: gbdt]
[objective: binary]
[metric: binary_logloss]
[tree_learner: serial]
[device_type: cpu]
[data_sample_strategy: bagging]
[data: ]
[valid: ]
[num_iterations: 150]
[learning_rate: 0.05]
[num_leaves: 15]
[num_threads: 0]
[seed: 42]
[deterministic: 0]
[force_col_wise: 0]
[force_row_wise: 0]
[histogram_pool_size: -1]
[max_depth: 4]
[min_data_in_leaf: 20]
[min_sum_hessian_in_leaf: 0.001]
[bagging_fraction: 0.8]
[pos_bagging_fraction: 1]
[neg_bagging_fraction: 1]
[bagging_freq: 5]
[bagging_seed: 400]
[bagging_by_query: 0]
[feature_fraction: 0.8]
[feature_fraction_bynode: 1]
[feature_fraction_seed: 30056]
[extra_trees: 0]
[extra_seed: 12879]
[early_stopping_round: 0]
[early_stopping_min_delta: 0]
[first_metric_only: 0]
[max_delta_step: 0]
[lambda_l1: 0.5]
[lambda_l2: 1]
[linear_lambda: 0]
[min_gain_to_split: 0]
[drop_rate: 0.1]
[max_drop: 50]
[skip_drop: 0.5]
[xgboost_dart_mode: 0]
[uniform_drop: 0]
[drop_seed: 17869]
[top_rate: 0.2]
[other_rate: 0.1]
[min_data_per_group: 100]
[max_cat_threshold: 32]
[cat_l2: 10]
[cat_smooth: 10]
[max_cat_to_onehot: 4]
[top_k: 20]
[monotone_constraints: ]
[monotone_constraints_method: basic]
[monotone_penalty: 0]
[feature_contri: ]
[forcedsplits_filename: ]
[refit_decay_rate: 0.9]
[cegb_tradeoff: 1]
[cegb_penalty_split: 0]
[cegb_penalty_feature_lazy: ]
[cegb_penalty_feature_coupled: ]
[path_smooth: 0]
[interaction_constraints: ]
[verbosity: -1]
[saved_feature_importance_type: 0]
[use_quantized_grad: 0]
[num_grad_quant_bins: 4]
[quant_train_renew_leaf: 0]
[stochastic_rounding: 1]
[linear_tree: 0]
[max_bin: 255]
[max_bin_by_feature: ]
[min_data_in_bin: 3]
[bin_construct_sample_cnt: 200000]
[data_random_seed: 175]
[is_enable_sparse: 1]
[enable_bundle: 1]
[use_missing: 1]
[zero_as_missing: 0]
[feature_pre_filter: 1]
[pre_partition: 0]
[two_round: 0]
[header: 0]
[label_column: ]
[weight_column: ]
[group_column: ]
[ignore_column: ]
[categorical_feature: ]
[forcedbins_filename: ]
[precise_float_parser: 0]
[parser_config_file: ]
[objective_seed: 16083]
[num_class: 1]
[is_unbalance: 1]
[scale_pos_weight: 1]
[sigmoid: 1]
[boost_from_average: 1]
[reg_sqrt: 0]
[alpha: 0.9]
[fair_c: 1]
[poisson_max_delta_step: 0.7]
[tweedie_variance_power: 1.5]
[lambdarank_truncation_level: 30]
[lambdarank_norm: 1]
[label_gain: ]
[lambdarank_position_bias_regularization: 0]
[eval_at: ]
[multi_error_top_k: 1]
[auc_mu_weights: ]
[num_machines: 1]
[local_listen_port: 12400]
[time_out: 120]
[machine_list_filename: ]
[machines: ]
[gpu_platform_id: -1]
[gpu_device_id: -1]
[gpu_use_dp: 0]
[num_gpu: 1]

end of parameters

pandas_categorical:null
