tree
version=v4
num_class=1
num_tree_per_iteration=1
label_index=0
max_feature_idx=58
objective=binary sigmoid:1
feature_names=feature_0 feature_1 feature_2 feature_3 feature_4 feature_5 feature_6 feature_7 feature_8 feature_9 feature_10 feature_11 feature_12 feature_13 feature_14 feature_15 feature_16 feature_17 feature_18 feature_19 feature_20 feature_21 feature_22 feature_23 feature_24 feature_25 feature_26 feature_27 feature_28 feature_29 feature_30 feature_31 feature_32 feature_33 feature_34 feature_35 feature_36 feature_37 feature_38 feature_39 feature_40 feature_41 feature_42 feature_43 feature_44 feature_45 feature_46 feature_47 feature_48 feature_49 feature_50 feature_51 feature_52 feature_53 feature_54 feature_55 feature_56 feature_57 feature_58
feature_infos=[4.5833647525442274:94.01993257982349] [10.800245743196868:85.466496950211578] [15.869333746567477:78.234438755939593] [-9.3181084348100924:8.99378880156085] [-0.29354584617961021:0.46232027230708694] [2.2955608804192402:97.384796418829254] [2.6626506171175301:97.125236737718595] [-21.390515345052791:13.293708985918784] [-20.156513695481593:12.899595027307303] [-7.5775301611561003:5.5634156450543824] [8.8532085296206535:68.479704631011174] [4.5079657793333592:45.115060176058591] [4.3271426142707474:65.043622404705587] [-28.488082457891217:99.172508339926566] [-2.2151204111309157:3.0351444504086924] [817.05958509769835:1159.2952128317174] [826.63365430855129:1149.2654556725445] [839.94145891551364:1139.2739221552558] none none [-0.038232377821557154:0.028740875962980368] [-0.054368258068652774:0.036120903789557124] [-0.079182927692674154:0.04246103961927291] [2.6265634374310958:20.971811089228982] [0.30978739856003296:2.2847598964188891] [12:99] [833.79482847861493:1175.6772313034885] [821.2725000000006:1149.4149999999995] [785.95482357788467:1127.7056980887523] [0.0072825636078153949:0.14975286774703769] [-0.39283515691621579:1.3588843807949285] [0.077852623692520204:9.9184232857038825] [-5.9496996324308302:3.1084444095413986] [-0.07850116203288128:0.092211249132011369] [-2.8136894290740497:2.6314287917341255] none none none none none none none none none none [0.030637792666843168:0.22596141846110265] none none none none none none none none none [0.50497761832997468:2.5460297100429701] [1.1874491231742612:5] [0:2] [0.12:0.98999999999999999]
tree_sizes=777 860 1382 759 852 1185 1074 1080 1080 1183 882 876 859 978 969 1172 860 666 1083 1347 1186 979 767 1079 1075 1061 979 1053 1089 671 1178 1283 1179 1058 1178 855 962 1289 989 989 1167 1195 1188 1192 1169 1195 1290 1084 1284 1164 662 758 769 775 881 1259 757 783 756 1274 1083 1087 1080 754 1085 783 770 942 756 680 957 959 757 761 752 1343 673 859 774 672 1136 1180 1375 1188 1183 959 945 918 862 974 1079 954 960 973 1040 774 681 763 858 755 773 1147 982 988 958 1057 1039 977 856 876 1401 1188 1283 1172 1071 1386 1057 982 871 1165 761 761 1088 983 1084 952 1187 1191 966 841 1386 1239 783 1075 1371 670 1081 775 888 991 1188 1186 754 1351 1090 947 1137 828 1249 1147

Tree=0
num_leaves=6
num_cat=0
split_feature=10 22 10 3 33
split_gain=10.5208 6.01837 5.5593 7.53224 6.44319
threshold=16.497595490493406 -0.0014633147340254026 18.329501600448449 -2.3191487740545322 0.012629344865538393
decision_type=2 2 2 2 2
left_child=1 -1 -2 -4 -5
right_child=2 -3 3 4 -6
leaf_value=-0.043866682105581666 -0.00018098989065411936 -0.10694118185523019 -0.080888658091835791 -0.02455245693908625 -0.060172885645243743
leaf_weight=5.1096493005752555 8.0039967298507673 8.5407339334487897 9.6074852943420392 41.533829212188721 16.522319912910461
leaf_count=20 31 34 38 162 65
internal_value=-0.0443421 -0.0834121 -0.0371961 -0.0425112 -0.0352175
internal_weight=89.318 13.6504 75.6676 67.6636 58.0561
internal_count=350 54 296 265 227
is_linear=0
shrinkage=1


Tree=1
num_leaves=7
num_cat=0
split_feature=10 10 24 16 45 21
split_gain=9.56399 5.08689 7.07355 10.2065 9.67674 4.06818
threshold=16.497595490493406 18.329501600448449 1.1401218635752168 892.50076927989028 0.051176364223268024 -0.0016965401566529173
decision_type=2 2 2 2 2 2
left_child=5 -2 3 -3 -4 -1
right_child=1 2 4 -5 -6 -7
leaf_value=0 0.041725530308920157 0.011666395570650058 -0.005338476345581886 -0.033374466308108947 0.060537954090792823 -0.058643953326202009
leaf_weight=5.607009455561637 8.0078476965427381 25.853540256619453 10.447583869099619 22.025743067264557 9.3324001729488355 8.0230985730886442
leaf_count=22 31 101 41 87 36 32
internal_value=-0.000469436 0.00632682 0.00122637 -0.00880103 0.0259572 -0.037761
internal_weight=89.2972 75.6671 67.6593 47.8793 19.78 13.6301
internal_count=350 296 265 188 77 54
is_linear=0
shrinkage=0.05


Tree=2
num_leaves=12
num_cat=0
split_feature=24 16 26 45 20 15 25 32 24 20 17
split_gain=7.92002 12.0723 6.94116 5.81545 6.29695 5.15369 2.95105 4.77671 2.49928 1.92931 0.536276
threshold=1.0442132547038334 892.50076927989028 977.28079289864468 0.051176364223268024 -0.0035702993409399949 993.74378011355975 73.500000000000014 0.06995476421264675 1.1401218635752168 -0.0031102837870402573 869.30926059861508
decision_type=2 2 2 2 2 2 2 2 2 2 2
left_child=1 6 9 4 -2 -4 7 -1 -5 -3 -8
right_child=3 2 5 8 -6 -7 10 -9 -10 -11 -12
leaf_value=0.040553383665982996 0.027562387692000475 -0.023668560139819168 0.028667695260683787 0.0079092147206621163 -0.043004317701144296 -0.026166483855710073 -0.018599148738794619 -0.0057147635949165746 0.055174924099899492 -0.071553338132903932 0
leaf_weight=12.634668737649923 5.4042897820472717 7.0879235416650763 5.3956283330917385 6.1379935443401328 5.0422213375568408 11.133543178439139 5.0772410929203016 7.641357794404029 9.8450370132923108 8.735385596752165 5.109626829624176
leaf_count=49 21 28 21 24 20 44 20 30 38 35 20
internal_value=-0.000436833 -0.0103569 -0.0313972 0.0217468 -0.00509536 -0.00622643 0.0114816 0.0224924 0.04003 -0.0542717 -0.00825105
internal_weight=89.2449 62.8154 32.3525 26.4295 10.4465 16.5292 30.4629 20.276 15.983 15.8233 10.1869
internal_count=350 247 128 103 41 65 119 79 62 63 40
is_linear=0
shrinkage=0.05


Tree=3
num_leaves=6
num_cat=0
split_feature=10 22 10 3 33
split_gain=8.3048 4.95677 4.63174 6.44444 5.68168
threshold=16.497595490493406 -0.0014633147340254026 18.329501600448449 -2.3191487740545322 0.012629344865538393
decision_type=2 2 2 2 2
left_child=1 -1 -2 -4 -5
right_child=2 -3 3 4 -6
leaf_value=0 0.039668837935630696 -0.056799642187077448 -0.034522404713182457 0.017819576905268319 -0.015629567356220592
leaf_weight=5.1080374568700782 8.0011217892169935 8.4587722420692426 9.5800636410713178 41.51434314250946 16.50080044567585
leaf_count=20 31 34 38 162 65
internal_value=-0.000420848 -0.0352732 0.00588635 0.00100311 0.00777864
internal_weight=89.1631 13.5668 75.5963 67.5952 58.0151
internal_count=350 54 296 265 227
is_linear=0
shrinkage=0.05


Tree=4
num_leaves=7
num_cat=0
split_feature=10 4 45 27 9 22
split_gain=7.56205 5.24539 5.78386 11.6078 6.98579 4.59179
threshold=16.497595490493406 0.028458049950035192 0.067036590241400643 892.81099999999981 2.1452428562307335 -0.0014633147340254026
decision_type=2 2 2 2 2 2
left_child=5 2 4 -4 -2 -1
right_child=1 -3 3 -5 -6 -7
leaf_value=0 0.047292858901764087 -0.035659390701080283 0.022185953213429734 -0.026442416570190249 -0.010034004716901926 -0.054575294008704124
leaf_weight=5.1080374568700782 15.99872747063637 5.8136892169713965 25.659126415848732 21.736467033624649 6.3512744307517996 8.4054421931505185
leaf_count=20 62 23 100 86 25 34
internal_value=-0.000415582 0.00558305 0.00982968 0 0.0301994 -0.0337526
internal_weight=89.0728 75.5593 69.7456 47.3956 22.35 13.5135
internal_count=350 296 273 186 87 54
is_linear=0
shrinkage=0.05


Tree=5
num_leaves=10
num_cat=0
split_feature=24 16 9 12 25 17 20 25 30
split_gain=5.82265 8.62998 8.71742 8.60424 7.10068 5.02293 4.70737 9.90595 1.49032
threshold=1.1129098998300526 892.87364834650327 0.62782257114100348 20.929018365333516 22.500000000000004 1117.7415457178147 -0.0035702993409399949 74.500000000000014 0.91899083871778753
decision_type=2 2 2 2 2 2 2 2 2
left_child=1 2 3 -1 -3 -6 -2 -8 -4
right_child=6 4 8 -5 5 -7 7 -9 -10
leaf_value=-0.04725181500797411 0.050267568257915285 0.016428615290441286 0.06736076704047636 0.017267616277076996 -0.042408617912282065 0.0067133510306027185 0.049434071972818204 -0.032576062816221149 0.017793847145708318
leaf_weight=6.5355887860059765 10.074975758790972 8.9210654497146589 5.9783424884080869 15.124681085348127 21.77963870763779 5.3477289974689475 5.6825304329395276 7.0713908821344376 5.3921644240617752
leaf_count=26 39 35 23 59 87 21 22 28 21
internal_value=0.00478802 -0.00220146 0.0156086 -0.00232281 -0.0191762 -0.0319418 0.0261918 0.00308352 0.0492145
internal_weight=91.9081 69.0792 33.0308 21.6603 36.0484 27.1274 22.8289 12.7539 11.3705
internal_count=361 272 129 85 143 108 89 50 44
is_linear=0
shrinkage=0.05


Tree=6
num_leaves=9
num_cat=0
split_feature=10 16 15 24 25 10 32 56
split_gain=6.69135 5.54806 4.63719 9.57562 4.48056 4.40424 3.97704 4.99061
threshold=16.497595490493406 928.30550391958707 887.34403158651014 1.1034395010079077 19.500000000000004 44.878362594578299 0.19498446997436716 3.560626839103167
decision_type=2 2 2 2 2 2 2 2
left_child=1 -1 6 4 -4 -5 7 -2
right_child=2 -3 3 5 -6 -7 -8 -9
leaf_value=-0.05546410623895745 0.058386522303843169 0.0017861331602230001 0.016650229772829796 0.043115068590177365 -0.028075887110156423 -0.0057650998228978368 -0.0048105798235816948 0.010160701856952295
leaf_weight=6.6624677181243879 11.13253670930863 7.550787627696991 5.8952349722385433 12.861147478222849 22.167794689536095 5.3398323506116858 6.8761358559131613 13.296781256794928
leaf_count=27 43 30 23 50 88 21 27 52
internal_value=0.00465021 -0.0252884 0.0107062 9.00085e-06 -0.0175704 0.0279191 0.0252513 0.0345523
internal_weight=91.7827 14.2133 77.5695 46.264 28.063 18.201 31.3055 24.4293
internal_count=361 57 304 182 111 71 122 95
is_linear=0
shrinkage=0.05


Tree=7
num_leaves=9
num_cat=0
split_feature=10 16 17 24 26 7 25 10
split_gain=6.11153 5.13756 4.95686 11.1394 5.49723 4.47538 5.51288 4.21735
threshold=16.497595490493406 928.30550391958707 893.72550810192342 1.1034395010079077 977.28079289864468 1.9275837349719043 71.500000000000014 44.878362594578299
decision_type=2 2 2 2 2 2 2 2
left_child=1 -1 5 4 -4 6 -2 -5
right_child=2 -3 3 7 -6 -7 -8 -9
leaf_value=-0.053362359040344004 0.055615628149384748 0.0017070063129596383 -0.049522728390945972 0.042122758460729132 -0.00087042489927763073 -0.0052543008653617969 0.00719723453438024 -0.0055225231858902248
leaf_weight=6.6191054135560972 13.423948168754579 7.552084356546402 9.9907580912113207 13.083531081676485 14.709344610571859 8.1324353218078596 12.779312506318091 5.339596524834632
leaf_count=27 52 30 40 51 58 32 50 21
internal_value=0.00444424 -0.0241889 0.0102429 -0.000560692 -0.0226834 0.0241508 0.0340536 0.0274532
internal_weight=91.6301 14.1712 77.4589 43.1232 24.7001 34.3357 26.2033 18.4231
internal_count=361 57 304 170 98 134 102 72
is_linear=0
shrinkage=0.05


Tree=8
num_leaves=9
num_cat=0
split_feature=10 21 17 24 58 7 58 10
split_gain=5.56378 5.09584 4.5359 10.1527 5.28693 4.11201 5.01683 3.88099
threshold=16.497595490493406 -0.0014010176808362958 893.72550810192342 1.1034395010079077 0.22500000000000003 1.9275837349719043 0.71500000000000008 44.878362594578299
decision_type=2 2 2 2 2 2 2 2
left_child=1 -1 5 4 -4 6 -2 -5
right_child=2 -3 3 7 -6 -7 -8 -9
leaf_value=0.0066313702156790251 0.053214402853484111 -0.048406131132652901 0.014081380058980865 0.0403054797863725 -0.03501094713370051 -0.0050207147894534565 0.0068637969649085334 -0.0052902148422597998
leaf_weight=6.3653080463409424 13.374527007341387 7.7564688026905042 6.1432958245277431 13.03604416549206 18.514579355716705 8.1317927092313749 12.778707653284071 5.3392877727746955
leaf_count=25 52 32 24 51 74 32 50 21
internal_value=0.00419937 -0.0231471 0.00974505 -0.000577817 -0.0217335 0.0230596 0.0325746 0.0261773
internal_weight=91.44 14.1218 77.3182 43.0332 24.6579 34.285 26.1532 18.3753
internal_count=361 57 304 170 98 134 102 72
is_linear=0
shrinkage=0.05


Tree=9
num_leaves=10
num_cat=0
split_feature=10 16 17 24 58 11 29 58 45
split_gain=5.07803 4.77003 4.123 9.19698 4.84738 4.41163 5.19875 4.76361 3.61845
threshold=16.497595490493406 928.30550391958707 893.72550810192342 1.1034395010079077 0.22500000000000003 23.003886780417123 0.032725072003214777 0.71500000000000008 0.049764566953681255
decision_type=2 2 2 2 2 2 2 2 2
left_child=1 -1 5 4 -4 7 -7 -2 -5
right_child=2 -3 3 8 -6 6 -8 -9 -10
leaf_value=-0.05057098542757546 0.056318307465697381 0.0026140548222409622 0.013473777215145375 -0.0013136863658855494 -0.033463104001325461 -0.037683833942102146 0.026597048752537652 0.0087012465966432376 0.040738571693985766
leaf_weight=6.528595417737959 11.267785370349886 7.5232609361410141 6.1443766802549389 6.6186331957578686 18.450315043330193 5.0388532280921918 5.3831292539834976 12.527472168207167 11.700432494282721
leaf_count=27 44 30 24 26 74 20 21 49 46
internal_value=0.00401535 -0.0221533 0.0093253 -0.000505928 -0.020692 0.0220293 -0.0028712 0.0336196 0.0249696
internal_weight=91.1829 14.0519 77.131 42.9138 24.5947 34.2172 10.422 23.7953 18.3191
internal_count=361 57 304 170 98 134 41 93 72
is_linear=0
shrinkage=0.05


Tree=10
num_leaves=7
num_cat=0
split_feature=28 23 25 25 8 9
split_gain=9.62011 5.26072 4.27727 4.02159 2.85892 1.58095
threshold=826.05196362686831 11.031410525623135 72.500000000000014 31.500000000000004 -9.9535827771504533 -0.64818332175371729
decision_type=2 2 2 2 2 2
left_child=-1 2 3 -2 -3 -4
right_child=1 4 5 -5 -6 -7
leaf_value=0.045699239663845655 -0.020494019527725692 -0.0037838720120959971 -0.0068356710183484024 0.0069457278133108549 0.034849155506597826 -0.050824112599324379
leaf_weight=9.5005819946527463 22.021512508392334 6.359361037611964 5.0618661195039749 29.229361593723297 9.9001310616731626 7.6646034568548185
leaf_count=37 88 25 20 117 39 31
internal_value=0.000421392 -0.00512862 -0.0118294 -0.00453272 0.0189469 -0.0369219
internal_weight=89.7374 80.2368 63.9773 51.2509 16.2595 12.7265
internal_count=357 320 256 205 64 51
is_linear=0
shrinkage=0.05


Tree=11
num_leaves=7
num_cat=0
split_feature=28 0 23 25 25 6
split_gain=8.79872 4.97348 6.48202 4.15552 6.16077 3.51645
threshold=826.05196362686831 33.559981086253714 9.0526673411875347 72.500000000000014 31.500000000000004 58.581913662844961
decision_type=2 2 2 2 2 2
left_child=-1 2 -2 4 -3 -5
right_child=1 3 -4 5 -6 -7
leaf_value=0.043753308774323638 -0.0099387081616234343 -0.02425881141972314 0.047170113953431306 -0.053101489463012144 0.011910346489118415 -0.0047205049197533953
leaf_weight=9.4721404761075956 8.7655449658632296 19.220151409506798 8.4111383259296399 8.6671610474586505 26.540922671556473 8.5550641119480115
leaf_count=37 35 77 33 35 106 34
internal_value=0.000376446 -0.00491711 0.0177077 -0.0116584 -0.00294037 -0.0320183
internal_weight=89.6321 80.16 17.1767 62.9833 45.7611 17.2222
internal_count=357 320 68 252 183 69
is_linear=0
shrinkage=0.05


Tree=12
num_leaves=7
num_cat=0
split_feature=28 23 9 29 58 31
split_gain=8.0524 4.64544 3.81654 6.5564 4.14225 2.82332
threshold=826.05196362686831 11.031410525623135 -1.5793695955088531 0.035372299604336764 0.56500000000000006 0.83169162274512065
decision_type=2 2 2 2 2 2
left_child=-1 2 4 -4 -2 -3
right_child=1 5 3 -5 -6 -7
leaf_value=0.041923108153887167 0.038601728389625049 0 -0.0046387691598706237 -0.044241510392547485 -0.013885394468125532 0.038225356080328121
leaf_weight=9.4359374642372114 6.3502220660448057 8.5908535420894641 36.667357698082924 14.868286967277525 6.0118374824523926 7.6131618171930304
leaf_count=37 25 34 147 60 24 30
internal_value=0.000336561 -0.00471057 -0.0110235 -0.0171649 0.0120767 0.0179239
internal_weight=89.5377 80.1017 63.8977 51.5356 12.3621 16.204
internal_count=357 320 256 207 49 64
is_linear=0
shrinkage=0.05


Tree=13
num_leaves=8
num_cat=0
split_feature=27 23 55 25 31 25 27
split_gain=6.98827 5.90331 4.79157 3.20199 2.36005 1.64555 0.965685
threshold=838.59250000000009 11.031410525623135 1.328669599143639 31.500000000000004 1.5620273686583963 92.500000000000014 940.6887500000006
decision_type=2 2 2 2 2 2 2
left_child=-1 2 3 -2 6 -4 -3
right_child=1 4 5 -5 -6 -7 -8
leaf_value=0.044866658009892195 -0.018229815759174286 0.021050438303173651 -0.055342307104238632 0.0058869614864664657 0.047342824598135803 -0.0090698449387307256 -0.0038458676849832786
leaf_weight=7.112281620502471 21.972326710820198 5.0562616437673586 6.389573857188223 31.465266481041908 5.0723136067390433 5.2645983099937439 7.0714560002088547
leaf_count=28 88 20 26 126 20 21 28
internal_value=0.000325894 -0.00371596 -0.0108703 -0.00372279 0.0210948 -0.0387837 0.00544232
internal_weight=89.4041 82.2918 65.0918 53.4376 17.2 11.6542 12.1277
internal_count=357 329 261 214 68 47 48
is_linear=0
shrinkage=0.05


Tree=14
num_leaves=8
num_cat=0
split_feature=16 23 0 25 22 26 11
split_gain=6.41773 5.42991 4.69488 4.12848 3.71366 3.32494 1.42628
threshold=839.10406960578337 11.031410525623135 34.376587349774219 72.500000000000014 -0.020122692931913648 905.99060865977242 19.372688489125185
decision_type=2 2 2 2 2 2 2
left_child=-1 3 -3 5 -4 -2 -5
right_child=1 2 4 6 -6 -7 -8
leaf_value=0.043123541506715768 0.011261827831563457 0.05506881158754523 -0.028052577768045789 -0.011608353453769137 0.024127794432479525 -0.013857160399351923 -0.051580145300745478
leaf_weight=7.071241930127143 20.915552720427513 5.3295168578624752 5.022131711244584 7.3111611157655698 6.8073313087224934 30.514329209923744 6.295316755771637
leaf_count=28 83 21 20 29 27 123 26
internal_value=0.000314563 -0.00354186 0.0202653 -0.0104134 0 -0.00314496 -0.0340789
internal_weight=89.2666 82.1953 17.159 65.0364 11.8295 51.4299 13.6065
internal_count=357 329 68 261 47 206 55
is_linear=0
shrinkage=0.05


Tree=15
num_leaves=10
num_cat=0
split_feature=11 11 4 24 3 1 20 15 56
split_gain=4.15391 5.1141 5.08395 4.51714 3.93375 5.72499 2.65728 2.01197 1.91249
threshold=18.940228601671155 21.596589799249163 0.034668060349319851 0.81645708968042452 -3.1242532160523098 34.315448627293918 0.005685371654392357 905.54950376433158 3.0188529014229308
decision_type=2 2 2 2 2 2 2 2 2
left_child=2 7 4 8 -1 -6 -5 -2 -3
right_child=1 3 -4 6 5 -7 -8 -9 -10
leaf_value=-0.0095352858477849994 -0.0030823731966650482 0 -0.027125657117735943 0.039854880083788326 0.061688900702040389 0.013206003408949516 -0.00012830320664118081 -0.050484885441429955 -0.037494694912827593
leaf_weight=8.4761688411235792 4.9472519159316999 8.0212181806564349 5.7823142558336249 8.0039743483066541 7.8593195825815192 29.674116462469101 5.4763148427009574 7.1219867020845413 5.1305473595857611
leaf_count=34 20 32 23 32 31 118 22 29 21
internal_value=0.00299352 -0.00890109 0.0123555 0.00271367 0.0183206 0.0253443 0.0229983 -0.0346898 -0.016467
internal_weight=90.4932 38.7013 51.7919 26.6321 46.0096 37.5334 13.4803 12.0692 13.1518
internal_count=362 156 206 107 183 149 54 49 53
is_linear=0
shrinkage=0.05


Tree=16
num_leaves=7
num_cat=0
split_feature=13 4 34 3 30 30
split_gain=3.46357 3.30024 4.30387 6.88006 2.51824 1.59828
threshold=-19.17933491883219 0.034668060349319851 1.0035579276827951 -3.1242532160523098 0.82128434721851107 0.66878424342507847
decision_type=2 2 2 2 2 2
left_child=5 2 3 -2 -4 -1
right_child=1 -3 4 -5 -6 -7
leaf_value=-0.039307521393310257 -0.015496037298832234 -0.025981882509148346 0.0074370030959230978 0.024993867046848802 -0.028931713111963062 0
leaf_weight=5.3539718091487867 11.917357340455053 5.7791167646646491 6.9852955341339102 46.526271849870682 8.8468257486820203 4.9649423658847809
leaf_count=22 48 23 28 185 36 20
internal_value=0.00278377 0.0066136 0.00979331 0.0161951 -0.0119117 -0.0226789
internal_weight=90.3738 80.0549 74.2758 58.4436 15.8321 10.3189
internal_count=362 320 297 233 64 42
is_linear=0
shrinkage=0.05


Tree=17
num_leaves=5
num_cat=0
split_feature=11 17 13 5
split_gain=3.72351 3.56359 3.05615 3.38911
threshold=8.777827471355037 844.86102553139358 -17.842143579794239 42.161290322580506
decision_type=2 2 2 2
left_child=-1 -2 -3 -4
right_child=1 2 3 -5
leaf_value=0.035122328169377381 0.031119998980776623 -0.029954716834671099 -0.013241164109694906 0.0091953913702107794
leaf_weight=7.0257913619279853 7.0200092941522589 8.7948279082775098 27.656282871961594 39.784215211868286
leaf_count=28 28 36 111 159
internal_value=0.00255968 -0.000275761 -0.00385597 0
internal_weight=90.2811 83.2553 76.2353 67.4405
internal_count=362 334 306 270
is_linear=0
shrinkage=0.05


Tree=18
num_leaves=9
num_cat=0
split_feature=11 3 4 34 1 3 1 26
split_gain=3.6647 4.94405 4.34573 4.26913 3.94028 3.26194 5.19833 0.852313
threshold=18.940228601671155 2.3833971135467373 0.034668060349319851 0.80173381506711083 59.273129176566322 -3.1242532160523098 34.315448627293918 903.88580744127182
decision_type=2 2 2 2 2 2 2 2
left_child=2 3 5 7 -5 -1 -7 -2
right_child=1 -3 -4 4 -6 6 -8 -9
leaf_value=-0.0083538744614869622 -0.011785062129400788 0.026230976446152729 -0.025129892591009159 0.018350532945719582 -0.024579651551642732 0.058099868826666339 0.011731680333821314 -0.050686218597543381
leaf_weight=8.4697699546813947 4.9854917824268359 6.7597556710243216 5.7735147178173056 10.141941726207735 9.1253852695226652 7.7571093291044226 29.626575082540512 7.5576795339584351
leaf_count=34 20 27 23 41 37 31 118 31
internal_value=0.00245176 -0.00872291 0.0112824 -0.0174857 -0.000958088 0.0168393 0.0232674 -0.0390821
internal_weight=90.1972 38.5703 51.627 31.8105 19.2673 45.8535 37.3837 12.5432
internal_count=362 156 206 129 78 183 149 51
is_linear=0
shrinkage=0.05


Tree=19
num_leaves=12
num_cat=0
split_feature=11 11 45 31 0 5 23 20 28 56 6
split_gain=3.33895 4.56982 4.09564 3.50287 5.73314 5.00529 3.25642 2.3744 2.04824 1.66397 0.0562822
threshold=18.940228601671155 21.596589799249163 0.085736310472197777 1.600028652812304 33.559981086253714 45.463670917444993 9.1645830293771215 0.0053849916104767104 900.46172083609315 3.0188529014229308 19.4092079054758
decision_type=2 2 2 2 2 2 2 2 2 2 2
left_child=3 8 7 4 10 -6 -5 -3 -2 -4 -1
right_child=1 2 9 6 5 -7 -8 -9 -10 -11 -12
leaf_value=0.024958532654870969 -0.0042895624967017668 0.03893913716304636 0 -0.033300613321830513 -0.021430030238200951 0.020671697265551538 0.01358469078747762 0 -0.051013090363535477 -0.035422934097958513 0.059898569953031625
leaf_weight=6.5480093955993635 5.6613931506872159 7.4994068443775195 8.0016455948352796 6.6683874577283841 10.141286358237268 17.437520727515221 5.4502948224544525 5.9531022310256958 6.3008346110582352 5.0809182971715918 5.2892067730426788
leaf_count=26 23 30 32 27 41 69 22 24 26 21 21
internal_value=0.00230272 -0.00835806 0.0025746 0.0107499 0.0181235 0.00410713 -0.0108804 0.0219311 -0.0328657 -0.015698 0.045968
internal_weight=90.032 38.4973 26.5351 51.5347 39.416 27.5788 12.1187 13.4525 11.9622 13.0826 11.8372
internal_count=362 156 107 206 157 110 49 54 49 53 47
is_linear=0
shrinkage=0.05


Tree=20
num_leaves=10
num_cat=0
split_feature=9 8 34 14 10 31 5 10 55
split_gain=3.98632 9.32401 5.1876 5.13642 3.80917 2.41105 2.40796 2.03721 0.551524
threshold=-1.1148136284392109 2.2463142819815167 0.88710369926848243 0.28362491259647155 19.928895150747483 1.2309778627892582 76.969104530123957 32.537487549162414 1.0184561348222905
decision_type=2 2 2 2 2 2 2 2 2
left_child=3 2 4 -1 -2 7 -3 -5 -4
right_child=1 6 8 5 -6 -7 -8 -9 -10
leaf_value=0.049910158815161469 -0.028629737225915882 -0.055342096864964767 0.047804486142079557 0.036516859866710619 0.0058021344984333445 -0.020639033342550409 -0.0071802938260402604 -0.0023551762982859862 0.012283280450041976
leaf_weight=7.6175725311040905 9.857121139764784 8.5000399053096753 5.3099629282951337 5.022398307919504 28.041617259383202 6.1837123632431021 5.868015080690383 4.9837166517972946 5.4369263499975204
leaf_count=30 40 35 21 20 112 25 24 20 22
internal_value=0.00143448 -0.00486909 0.00530516 0.0186503 -0.00301637 0.000439882 -0.0390464 0.0164296 0.0345377
internal_weight=86.8211 63.0137 48.6456 23.8074 37.8987 16.1898 14.3681 10.0061 10.7469
internal_count=349 254 195 95 152 65 59 40 43
is_linear=0
shrinkage=0.05


Tree=21
num_leaves=8
num_cat=0
split_feature=0 0 3 34 55 31 29
split_gain=5.06907 5.15949 3.80189 5.67637 3.91566 5.05329 2.98005
threshold=33.833374467154222 27.111203262548866 0.49539645122755688 0.35349644094460569 1.3494450829787852 0.41455993514726935 0.042602719180773359
decision_type=2 2 2 2 2 2 2
left_child=1 -1 3 -2 5 -4 -5
right_child=2 -3 4 6 -6 -7 -8
leaf_value=-0.0023329645319322225 -0.050991585227982784 0.046783679684079212 -0.020202511710609366 0.0056250826248266245 -0.017002458796630922 0.031479611233971132 -0.028582456242530946
leaf_weight=8.43659855425358 7.8970860242843619 10.041034668684004 4.9387708008289364 20.100291416049007 9.756492003798483 17.738496854901314 7.79292407631874
leaf_count=34 32 40 20 81 39 71 32
internal_value=0.00137092 0.0241059 -0.00468469 -0.0159365 0.00708911 0.0187903 -0.00372518
internal_weight=86.7017 18.4776 68.2241 35.7903 32.4338 22.6773 27.8932
internal_count=349 74 275 145 130 91 113
is_linear=0
shrinkage=0.05


Tree=22
num_leaves=6
num_cat=0
split_feature=0 0 10 10 0
split_gain=4.62808 4.75023 3.58774 5.33042 6.03776
threshold=33.833374467154222 27.111203262548866 46.121034429314754 35.871428230852942 42.606304650536039
decision_type=2 2 2 2 2
left_child=1 -1 3 4 -2
right_child=2 -3 -4 -5 -6
leaf_value=-0.0022286031614893011 -0.03634277022587306 0.04484760884756378 -0.036597632971881247 0.039567804753082789 0.0025337223682632411
leaf_weight=8.436905503273012 11.595665335655211 9.995105177164076 6.756079986691474 6.3447086662054053 43.470295995473862
leaf_count=34 47 40 27 25 176
internal_value=0.00124142 0.023007 -0.00453001 -7.16542e-05 -0.0057091
internal_weight=86.5988 18.432 68.1667 61.4107 55.066
internal_count=349 74 275 248 223
is_linear=0
shrinkage=0.05


Tree=23
num_leaves=9
num_cat=0
split_feature=0 0 3 34 55 8 17 28
split_gain=4.20542 4.37849 3.31111 4.89294 3.48702 4.91561 2.95844 0.0891265
threshold=33.833374467154222 27.111203262548866 0.49539645122755688 0.35349644094460569 1.3494450829787852 1.1292821873328485 935.02851946267958 896.96176829863418
decision_type=2 2 2 2 2 2 2 2
left_child=1 -1 3 -2 5 -4 -5 -3
right_child=2 7 4 6 -6 -7 -8 -9
leaf_value=-0.0021289177296195476 -0.047443994701624567 0.019336709640626643 0.033728243657951233 -0.019265788688652814 -0.016023916126146204 -0.012261325922391847 0.01184661358439318 0.055189190189008357
leaf_weight=8.4371790736913699 7.8757154345512381 4.9496769011020643 15.227598100900652 14.353726327419283 9.7451385110616666 7.4087903797626486 13.509209275245665 4.9921558499336243
leaf_count=34 32 20 61 59 39 30 54 20
internal_value=0.0011736 0.0219649 -0.00431089 -0.0148349 0.00665177 0.0177364 -0.00342712 0.0430229
internal_weight=86.4992 18.379 68.1202 35.7387 32.3815 22.6364 27.8629 9.94183
internal_count=349 74 275 145 130 91 113 40
is_linear=0
shrinkage=0.05


Tree=24
num_leaves=9
num_cat=0
split_feature=33 21 32 10 34 27 28 24
split_gain=3.35879 4.69017 3.26045 5.29143 4.37726 6.14895 5.56578 2.22578
threshold=0.020715335300890224 0.0109348051760113 0.31337367876616057 26.703409539645211 0.44823688253274352 993.75999999999965 940.66900214874966 0.86958576101166929
decision_type=2 2 2 2 2 2 2 2
left_child=2 -2 4 7 5 -1 -6 -4
right_child=1 -3 3 -5 6 -7 -8 -9
leaf_value=-0.011627519174719124 -0.050017969656754514 0.0078307121195742152 -0.049026237021173757 0.0200216620654079 0.044352615838765735 0.035829110715886965 -0.0054650835128518156 -0.00010068961433587764
leaf_weight=26.649938970804214 6.0842816829681379 5.2426737546920776 6.7458975613117236 6.4462106227874747 15.30922392010689 8.0627859085798246 6.9805626124143592 4.8408809453248978
leaf_count=108 25 21 28 26 61 32 28 20
internal_value=0.00110164 -0.0227515 0.00528304 -0.0121502 0.0113435 0 0.0281129 -0.0322037
internal_weight=86.3625 11.327 75.0355 18.033 57.0025 34.7127 22.2898 11.5868
internal_count=349 46 303 74 229 140 89 48
is_linear=0
shrinkage=0.05


Tree=25
num_leaves=9
num_cat=0
split_feature=0 3 31 0 5 33 14 29
split_gain=4.1972 3.67192 3.34177 3.30314 6.71214 2.80372 2.35736 0.508285
threshold=60.849235578734344 2.3833971135467373 1.9047808665605226 30.408676248016111 25.662616265465356 0.013814982177794125 0.36961229451768396 0.039298962846155645
decision_type=2 2 2 2 2 2 2 2
left_child=2 5 3 -1 -5 -2 -4 -7
right_child=1 -3 6 4 -6 7 -8 -9
leaf_value=0.041886370977396128 0 0.015757773791799771 0.005525720278964778 -0.025486385041943133 0.018488832397285011 -0.056462567901270959 -0.034097259244297864 -0.016610447985182544
leaf_weight=8.8982644081115705 6.1602053642273011 5.4491222351789466 6.1043221056461316 9.9001585692167264 37.458505868911743 5.0687080025672895 5.6833560168743134 4.9971114695072174
leaf_count=36 25 22 25 40 151 21 23 20
internal_value=0.00322659 -0.0150608 0.00954777 0.0148078 0.00844207 -0.0271758 -0.0127957 -0.0422264
internal_weight=89.7198 21.6751 68.0446 56.2569 47.3587 16.226 11.7877 10.0658
internal_count=363 88 275 227 191 66 48 41
is_linear=0
shrinkage=0.05


Tree=26
num_leaves=8
num_cat=0
split_feature=0 31 8 58 12 8 14
split_gain=3.83942 3.03872 3.57747 4.06266 2.54793 5.96437 2.17388
threshold=60.849235578734344 1.9047808665605226 -9.31667320932306 0.31500000000000006 20.481423996542489 2.2463142819815167 0.36961229451768396
decision_type=2 2 2 2 2 2 2
left_child=1 2 -1 -4 5 -2 -3
right_child=4 6 3 -5 -6 -7 -8
leaf_value=-0.012338311170608377 0.020695614136703358 0.0052873127742565406 -0.0019111338404701754 0.028756938061278655 -0.042295629879876347 -0.036475038399721181 -0.032680682797031763
leaf_weight=8.8688455969095212 9.6160081475973183 6.1056469082832319 13.322359532117842 33.996519312262535 5.1507895290851584 6.8666478693485251 5.6767269372940063
leaf_count=36 39 25 54 137 21 28 23
internal_value=0.00302684 0.00908547 0.0141159 0.0197443 -0.0144646 -0.00241562 -0.0121754
internal_weight=89.6035 67.9701 56.1877 47.3189 21.6334 16.4827 11.7824
internal_count=363 275 227 191 88 67 48
is_linear=0
shrinkage=0.05


Tree=27
num_leaves=9
num_cat=0
split_feature=0 3 11 2 2 33 6 29
split_gain=3.4958 3.34074 2.80482 3.31813 4.23824 2.4923 2.32751 0.545431
threshold=60.849235578734344 2.3833971135467373 25.084642907589675 50.286475882531334 46.34591002722803 0.013814982177794125 49.365929028540684 0.039298962846155645
decision_type=2 2 2 2 2 2 2 2
left_child=2 5 3 4 -1 -2 -5 -7
right_child=1 -3 -4 6 -6 7 -8 -9
leaf_value=0.0016153194204136237 0 0.01542679634420565 0.041884730064455873 0.0021024475744185959 0.035025840833481009 -0.053842783620516026 -0.038998094380993949 -0.014766591771325025
leaf_weight=40.248597204685211 6.1629006266593995 5.4328703284263602 5.0096239596605292 4.91780938208103 12.258855074644087 5.0263526141643506 5.4877504259347916 4.9827738404273987
leaf_count=163 25 22 20 20 49 21 23 20
internal_value=0.00279736 -0.013888 0.00859189 0.00493584 0.0103917 -0.0255169 -0.0189003 -0.0397689
internal_weight=89.5275 21.6049 67.9226 62.913 52.5075 16.172 10.4056 10.0091
internal_count=363 88 275 255 212 66 43 41
is_linear=0
shrinkage=0.05


Tree=28
num_leaves=9
num_cat=0
split_feature=20 25 25 33 3 31 3 22
split_gain=3.07921 5.30555 4.79506 4.83974 4.3379 3.86109 3.12347 0.95099
threshold=0.0016324510392951397 72.500000000000014 54.500000000000007 0.017528367446678017 0.65842670812206494 1.9047808665605226 -0.60095357569292596 -0.017962152240442578
decision_type=2 2 2 2 2 2 2 2
left_child=4 2 3 -2 5 6 -1 -6
right_child=1 -3 -4 -5 7 -7 -8 -9
leaf_value=0.021944771091378983 0.0046150543499906011 -0.040643075546424601 0.033043906010672169 -0.048308206564639661 0.011362594993222466 -0.024062099332008455 -0.0065185592974900319 0.053229022407026705
leaf_weight=22.214243620634075 12.091378360986715 8.5460125505924207 7.906940057873725 5.0943070352077475 5.0033532381057739 9.2389048337936384 14.032381892204286 5.3032175898551923
leaf_count=90 49 35 32 21 20 38 57 21
internal_value=0.00266672 -0.00873726 0.00231224 -0.0114919 0.0100155 0.00247544 0.0103752 0.0379185
internal_weight=89.4307 33.6386 25.0926 17.1857 55.7921 45.4855 36.2466 10.3066
internal_count=363 137 102 70 226 185 147 41
is_linear=0
shrinkage=0.05


Tree=29
num_leaves=5
num_cat=0
split_feature=9 16 4 8
split_gain=3.26165 3.10303 2.5546 3.70127
threshold=2.8149512441495519 839.10406960578337 0.0037819435996034657 2.4340468839317109
decision_type=2 2 2 2
left_child=1 -1 3 -3
right_child=-2 2 -4 -5
leaf_value=0.040706856335802746 -0.029424766460491816 0.012000888828273817 -0.023925022778524589 -0.014354585936383953
leaf_weight=4.9283474385738364 6.1334434747695914 55.530135840177536 6.9153481572866431 15.799074813723562
leaf_count=20 25 225 28 65
internal_value=0.00253933 0.00551505 0.00249725 0.00569988
internal_weight=89.3063 83.1729 78.2446 71.3292
internal_count=363 338 318 290
is_linear=0
shrinkage=0.05


Tree=30
num_leaves=10
num_cat=0
split_feature=33 27 27 33 17 14 25 30 55
split_gain=6.62176 3.38681 6.86536 3.45417 3.02865 2.54395 2.39261 2.73278 2.30842
threshold=0.012629344865538393 892.81099999999981 906.23524999999984 -0.015059499261571553 870.86359327937646 0.34895905613223316 53.500000000000007 0.82128434721851107 0.9009952649054741
decision_type=2 2 2 2 2 2 2 2 2
left_child=1 3 -3 -1 -5 -4 8 -8 -2
right_child=6 2 5 4 -6 -7 7 -9 -10
leaf_value=-0.0060664727252701363 -0.0033376248462195683 -0.045843902784425898 0.018404945569345629 0.016567750753757694 0.064866815874526307 -0.010293253774192636 0.015253636602767996 -0.028350775499542253 -0.05374451569670019
leaf_weight=5.6811641901731518 5.044810429215433 5.7107229530811301 23.594270721077919 13.575143963098528 5.295934945344924 9.273426488041876 6.9908174127340299 5.2773028016090393 6.680211529135704
leaf_count=23 21 24 95 55 21 38 28 22 28
internal_value=0.000959844 0.00972401 0 0.023847 0.0339627 0.0095049 -0.0205665 -0.00234226 -0.0359877
internal_weight=87.1238 63.1307 38.5784 24.5522 18.8711 32.8677 23.9931 12.2681 11.725
internal_count=355 256 157 99 76 133 99 50 49
is_linear=0
shrinkage=0.05


Tree=31
num_leaves=11
num_cat=0
split_feature=33 29 10 2 30 33 11 24 25 8
split_gain=6.07653 3.19722 4.3836 4.54913 4.15065 3.26814 2.38284 2.34852 1.83172 1.13898
threshold=0.012629344865538393 0.044162246222016081 23.472238794273419 46.34591002722803 0.21962322309616716 -0.0095802352727532777 24.934710457499651 1.0760972580118564 53.500000000000007 -1.670621117016645
decision_type=2 2 2 2 2 2 2 2 2 2
left_child=1 2 3 -1 -3 -4 9 -6 -8 -2
right_child=6 4 5 -5 7 -7 8 -9 -10 -11
leaf_value=-0.022525724669755377 -0.0060254759446050276 0.019644964261474031 0.0058436868355001125 0.018450885206843695 -0.047625557842548925 0.056219478005450629 -0.01986376839327228 -0.0011768831104794558 0.017990425041484206 -0.044574939444042457
leaf_weight=9.2435647696256655 4.9786237180232993 7.554248899221423 6.9773979783058158 18.111235365271568 5.0628782510757429 8.8707761168479902 5.5813156068325025 7.1885353922843933 5.1253795623779297 8.2340153604745883
leaf_count=38 20 31 28 73 21 36 23 29 21 35
internal_value=0.000852112 0.00926572 0.0169315 0.00341655 -0.0062645 0.0371878 -0.0197903 -0.0244038 0 -0.0332542
internal_weight=86.928 63.0086 43.203 27.3548 19.8057 15.8482 23.9193 12.2514 10.7067 13.2126
internal_count=355 256 175 111 81 64 99 50 44 55
is_linear=0
shrinkage=0.05


Tree=32
num_leaves=10
num_cat=0
split_feature=33 27 27 33 0 17 34 32 3
split_gain=5.57362 3.05294 6.14445 3.06567 3.05595 2.7973 2.15597 2.98334 2.77092
threshold=0.012629344865538393 892.81099999999981 906.23524999999984 -0.015059499261571553 34.215725906033981 870.86359327937646 1.0381273775509878 -0.19360280188037196 1.4831484284547249
decision_type=2 2 2 2 2 2 2 2 2
left_child=1 3 -3 -1 -4 -5 7 -2 -8
right_child=6 2 4 5 -6 -7 8 -9 -10
leaf_value=-0.005685693726473897 -0.025519819101869012 -0.043997214938861794 0.031023676833907266 0.015157422860650983 -0.0004468889003174174 0.061718697736048628 -0.057104667829959613 0.018270692459098896 -0.0018226378958067007
leaf_weight=5.6762195080518749 6.8498513698577881 5.644006371498107 9.5301958918571454 13.500440105795862 23.302146822214127 5.2319587171077719 5.4922472238540632 6.3747618198394793 5.1141971945762634
leaf_count=23 28 24 39 55 94 21 24 26 21
internal_value=0.000769524 0.00884349 0 0.022294 0.00859607 0.0318977 -0.0190272 -0.00285314 -0.0350565
internal_weight=86.716 62.885 38.4763 24.4086 32.8323 18.7324 23.8311 13.2246 10.6064
internal_count=355 256 157 99 133 76 99 54 45
is_linear=0
shrinkage=0.05


Tree=33
num_leaves=9
num_cat=0
split_feature=33 27 25 2 23 11 25 8
split_gain=5.12727 2.93172 3.58697 4.47232 3.41951 2.18877 1.65913 1.08672
threshold=0.012629344865538393 840.01800000000162 57.5 45.491492140542455 12.159571442066143 24.934710457499651 53.500000000000007 -1.670621117016645
decision_type=2 2 2 2 2 2 2 2
left_child=1 -1 3 -3 -4 7 -7 -2
right_child=5 2 4 -5 -6 6 -8 -9
leaf_value=0.041323390604685595 -0.0049666325057247367 -0.012729910450013655 -0.018940556111127837 0.028588664861742531 0.016741782484559931 -0.018479599046708872 0.017688158615901468 -0.04235728125077047
leaf_weight=5.3179570436477652 4.9806708842515937 7.6416098475456264 20.273717492818836 21.21648745238781 8.2666035592555982 5.5446358770132047 5.1138832718133926 8.1133763939142245
leaf_count=22 20 31 83 86 34 23 21 35
internal_value=0.000684758 0.00845019 0.00432094 0.0167503 -0.00754212 -0.0183222 0 -0.0312701
internal_weight=86.4689 62.7164 57.3984 28.8581 28.5403 23.7526 10.6585 13.094
internal_count=355 256 234 117 117 99 44 55
is_linear=0
shrinkage=0.05


Tree=34
num_leaves=10
num_cat=0
split_feature=33 27 27 33 17 14 34 24 3
split_gain=4.71307 2.73993 5.60122 2.73131 2.75961 2.21422 2.08646 2.78641 2.55032
threshold=0.012629344865538393 892.81099999999981 906.23524999999984 -0.015059499261571553 870.86359327937646 0.34895905613223316 1.0381273775509878 0.81954571284126276 1.4831484284547249
decision_type=2 2 2 2 2 2 2 2 2
left_child=1 3 -3 -1 -5 -4 7 -2 -8
right_child=6 2 5 4 -6 -7 8 -9 -10
leaf_value=-0.0053409001497259278 -0.029655678847574016 -0.042467117341049021 0.016297497840645016 0.013530897527529052 0.0595493595029623 -0.010504096332935853 -0.054880889832561577 0.013778622789486659 -0.0014705774050045872
leaf_weight=5.666114583611491 4.9898152798414257 5.5928794443607321 23.537639647722244 13.394836112856867 5.178347796201705 9.2524388432502729 5.3715716898441297 8.1949451565742475 5.1024252772331238
leaf_count=23 21 24 95 55 21 38 24 33 21
internal_value=0.000627028 0.00808393 0 0.0208836 0.0300254 0.00790793 -0.0176242 -0.00182861 -0.0334366
internal_weight=86.281 62.6223 38.383 24.2393 18.5732 32.7901 23.6588 13.1848 10.474
internal_count=355 256 157 99 76 133 99 54 45
is_linear=0
shrinkage=0.05


Tree=35
num_leaves=7
num_cat=0
split_feature=30 16 8 10 10 10
split_gain=4.30798 5.065 3.73248 4.06947 2.89719 2.08931
threshold=0.18274602624436601 834.95265659905044 -9.31667320932306 17.513431709610298 22.880740251117214 32.537487549162414
decision_type=2 2 2 2 2 2
left_child=4 -2 -3 -4 -1 -6
right_child=1 2 3 -5 5 -7
leaf_value=0 0.034622651245892609 -0.040278655064420715 -0.027529421885709723 0.0020906025112134999 0.056292720431915237 0.0073172683282293708
leaf_weight=9.3193356394767779 5.5195717662572852 8.6354552805423719 14.42001163959503 41.448171854019165 5.2256409823894483 6.0151200294494629
leaf_count=38 23 35 61 170 21 25
internal_value=-0.000462399 -0.00666177 -0.0110508 -0.0054646 0.0188214 0.0348663
internal_weight=90.5833 70.0232 64.5036 55.8682 20.5601 11.2408
internal_count=373 289 266 231 84 46
is_linear=0
shrinkage=0.05


Tree=36
num_leaves=8
num_cat=0
split_feature=9 16 27 10 32 17 12
split_gain=4.79204 5.63781 5.24998 4.57692 4.08218 2.58117 2.37144
threshold=-0.60418860700421695 834.95265659905044 851.24649999999974 17.513431709610298 -2.0470368971501491 986.56456623367774 27.717379915604592
decision_type=2 2 2 2 2 2 2
left_child=4 -2 -3 -4 -1 6 -6
right_child=1 2 3 -5 5 -7 -8
leaf_value=-0.016672891929679409 0.033401099784397821 -0.053811846664184419 -0.037055243795685831 0.00031983331690616304 0 0.052144130026641512 0.031732219082811479
leaf_weight=7.058813899755477 5.4731275290250769 6.8190429210662833 9.277144789695738 34.147278308868408 13.79862360656262 5.465120628476142 8.3805069327354413
leaf_count=29 23 28 40 140 57 22 34
internal_value=-0.000392232 -0.00968197 -0.0154232 -0.00775656 0.0136759 0.0226096 0.0123178
internal_weight=90.4197 55.7166 50.2435 43.4244 34.7031 27.6443 22.1791
internal_count=373 231 208 180 142 113 91
is_linear=0
shrinkage=0.05


Tree=37
num_leaves=11
num_cat=0
split_feature=9 8 5 14 10 0 10 14 33 10
split_gain=4.37526 3.88732 4.49539 3.82138 3.4581 2.98496 2.94085 2.59602 2.58828 1.71956
threshold=-0.60418860700421695 2.2463142819815167 55.960122635660973 0.22512461981548157 29.604662430465378 37.711908632914621 16.922257220260537 -0.58893618667269243 -0.02307641919797894 25.941699322197064
decision_type=2 2 2 2 2 2 2 2 2 2
left_child=3 2 4 7 -2 8 -4 -1 -5 -3
right_child=1 9 6 5 -6 -7 -8 -9 -10 -11
leaf_value=0.0015754322909679868 -0.045599873239153252 -0.053918391968398476 -0.022895024550180942 0.033254318357685046 0.0011767334535364973 -0.028774909555291647 0.014775802971918254 0.050729002833769493 -0.0039687308931307301 -0.0066833735463655911
leaf_weight=5.6084463000297546 7.7292290627956373 5.3293388038873655 5.0119126290082958 6.5252757370471945 5.3201161175966263 5.5804090946912757 26.948559388518333 7.6019664257764799 9.3312343955039996 5.2473005503416061
leaf_count=23 32 24 21 27 22 23 110 31 38 22
internal_value=-0.000346804 -0.00924808 -0.00196252 0.0130915 -0.0260236 0 0.00759454 0.0331996 0.0109303 -0.0352452
internal_weight=90.2338 55.5865 45.0098 34.6473 13.0493 21.4369 31.9605 13.2104 15.8565 10.5766
internal_count=373 231 185 142 54 88 131 54 65 46
is_linear=0
shrinkage=0.05


Tree=38
num_leaves=8
num_cat=0
split_feature=9 16 27 10 32 20 26
split_gain=4.03576 5.01762 4.75238 3.95759 3.76766 4.29673 2.6279
threshold=-0.60418860700421695 834.95265659905044 851.24649999999974 16.922257220260537 -2.0470368971501491 -0.0020268788998527494 974.69907860490514
decision_type=2 2 2 2 2 2 2
left_child=4 -2 -3 -4 -1 6 -6
right_child=1 2 3 -5 5 -7 -8
leaf_value=-0.01654449911817139 0.031855555814669236 -0.050949846031161455 -0.035890457907235253 1.2148638796490694e-05 0.015180888710746283 -0.0086788756417591883 0.057408398218388473
leaf_weight=7.0517141968011847 5.4108863621950141 6.7943038940429679 8.3820195347070676 34.840142846107483 13.410621196031572 7.1438236236572292 6.9462955296039572
leaf_count=29 23 28 37 143 55 30 28
internal_value=-0.000364108 -0.00893513 -0.0143759 -0.00703922 0.0125465 0.0212019 0.0327739
internal_weight=89.9798 55.4274 50.0165 43.2222 34.5525 27.5007 20.3569
internal_count=373 231 208 180 142 113 83
is_linear=0
shrinkage=0.05


Tree=39
num_leaves=8
num_cat=0
split_feature=9 16 27 10 32 20 13
split_gain=3.67255 4.62702 4.35151 3.65603 3.45987 3.96768 2.56102
threshold=-0.60418860700421695 834.95265659905044 851.24649999999974 16.922257220260537 -2.0470368971501491 -0.0020268788998527494 13.888258442147164
decision_type=2 2 2 2 2 2 2
left_child=4 -2 -3 -4 -1 6 -6
right_child=1 2 3 -5 5 -7 -8
leaf_value=-0.015807387293586109 0.03074629391538471 -0.048822395237144545 -0.034590049468095456 1.155825026078812e-05 0.048057941879232909 -0.0083015252287356907 0.0082305666476686617
leaf_weight=7.0579779893159857 5.3631018847227088 6.7797697633504859 8.3019388467073423 34.84013943374157 10.587210506200792 7.1406601071357754 9.6987188011407834
leaf_count=29 23 28 37 143 43 30 40
internal_value=-0.000336753 -0.00853737 -0.0137695 -0.00671333 0.0119759 0.0203097 0.0314722
internal_weight=89.7695 55.2849 49.9218 43.1421 34.4846 27.4266 20.2859
internal_count=373 231 208 180 142 113 83
is_linear=0
shrinkage=0.05


Tree=40
num_leaves=10
num_cat=0
split_feature=33 2 27 8 5 32 9 32 24
split_gain=2.99899 3.56056 4.96397 4.70295 4.66161 4.32888 3.76796 1.79617 1.08426
threshold=-0.018138603586411287 46.34591002722803 840.01800000000162 1.9789347230098933 66.247910538881285 -1.7281158061107507 -1.1148136284392109 -1.4172863589420204 0.94960718153934442
decision_type=2 2 2 2 2 2 2 2 2
left_child=7 2 -2 4 -3 -4 -5 8 -1
right_child=1 3 5 6 -6 -7 -8 -9 -10
leaf_value=-0.012024028669048593 0.017027781098228806 0.039188942598849474 0 0.014344916916460127 -0.00025439290811209603 -0.050315700491523153 -0.031390297025389098 0.036218722942335198 0.01755011823140034
leaf_weight=5.2396720051765424 5.0307099521160152 10.213709250092508 7.5446400046348616 4.947585970163348 18.8824402987957 12.360991865396496 13.62477685511112 5.8493225276470175 4.8745144009590149
leaf_count=21 21 42 31 20 79 51 60 24 20
internal_value=-0.00227756 -0.00686291 -0.0218142 0.000732239 0.0136029 -0.0331714 -0.0178189 0.0162788 0.000276442
internal_weight=88.5684 72.6049 24.9363 47.6685 29.0961 19.9056 18.5724 15.9635 10.1142
internal_count=369 304 103 201 121 82 80 65 41
is_linear=0
shrinkage=0.05


Tree=41
num_leaves=10
num_cat=0
split_feature=0 3 14 58 29 20 31 29 29
split_gain=3.69084 4.33289 4.10328 4.67219 3.69172 3.5178 3.15185 2.38079 1.01694
threshold=33.166501471236344 1.1868455590697875 0.4759291964145535 0.72500000000000009 0.037209597249433242 -0.0041424079070772361 1.600028652812304 0.058664911124377078 0.052585487569040391
decision_type=2 2 2 2 2 2 2 2 2
left_child=6 4 3 -3 5 -2 8 -6 -1
right_child=1 2 -4 -5 7 -7 -8 -9 -10
leaf_value=0.045224753646845049 -0.03781879533795772 0.037110382742394206 -0.01983635221658266 -0.012595725418477775 -0.047581697225454044 0.0031895386017943639 -0.0077818466976485121 -0.00066712441841693506 0.0061982359918762884
leaf_weight=6.5280794054269808 5.4469241499900845 12.947764039039617 7.5782607793807975 5.6019736081361762 11.215070381760599 23.264844581484795 6.0536522418260565 4.9376329332590094 4.7890170216560364
leaf_count=27 23 54 31 23 48 98 25 20 20
internal_value=-0.00213578 -0.00746338 0.00789918 0.020944 -0.0169324 -0.00475977 0.0174978 -0.0355731 0.0325838
internal_weight=88.3632 70.9925 26.128 18.5497 44.8645 28.7118 17.3707 16.1527 11.3171
internal_count=369 297 108 77 189 121 72 68 47
is_linear=0
shrinkage=0.05


Tree=42
num_leaves=10
num_cat=0
split_feature=0 3 10 13 29 20 31 29 6
split_gain=3.40212 3.93749 4.23725 4.20451 3.38351 3.23858 2.93126 2.15762 1.01525
threshold=33.166501471236344 1.1868455590697875 33.900403505510532 8.3600422719516114 0.037209597249433242 -0.0041424079070772361 1.600028652812304 0.058664911124377078 19.4092079054758
decision_type=2 2 2 2 2 2 2 2 2
left_child=6 4 3 -3 5 -2 8 -6 -1
right_child=1 2 -4 -5 7 -7 -8 -9 -10
leaf_value=0.0072538004075893298 -0.036333641471125548 0.036219893224396428 -0.019581422349181449 -0.012093896711368936 -0.045623061862211829 0.003036336087799324 -0.0074468625124443997 -0.00063939380997240711 0.045570338860097433
leaf_weight=5.3641395717859286 5.427459359169009 12.891105622053152 8.0883346498012525 5.1047780662775031 11.156139090657236 23.267160251736641 6.0546242892742148 4.9375619590282431 5.8902644366025925
leaf_count=22 23 54 33 21 48 98 25 20 25
internal_value=-0.00206639 -0.00719197 0.0074339 0.0212838 -0.0162322 -0.00454122 0.0168016 -0.0341293 0.03143
internal_weight=88.1816 70.8725 26.0842 17.9959 44.7883 28.6946 17.309 16.0937 11.2544
internal_count=369 297 108 75 189 121 72 68 47
is_linear=0
shrinkage=0.05


Tree=43
num_leaves=10
num_cat=0
split_feature=0 3 10 13 29 5 29 0 15
split_gain=3.14043 3.57885 3.85788 3.86431 3.13537 2.93839 2.73883 2.51755 1.28009
threshold=33.166501471236344 1.1868455590697875 33.900403505510532 8.3600422719516114 0.042602719180773359 12.633999040873126 0.058664911124377078 39.532111555633897 902.15063641211191
decision_type=2 2 2 2 2 2 2 2 2
left_child=5 4 3 -3 7 -1 -6 -2 -7
right_child=1 2 -4 -5 6 8 -8 -9 -10
leaf_value=-0.0086668245096010628 -0.031416656204390117 0.034647254167236539 -0.018715364486981155 -0.011592187087084073 -0.052864439558411518 0.0056198953274446094 -0.00061281602765016294 0.00070925585000974358 0.045932239662853008
leaf_weight=5.8484529107809093 6.4923997819423702 12.848885670304304 8.085828021168707 5.1027581989765158 7.8177181333303434 5.476600915193556 4.9374929964542389 25.455254003405571 5.9132317900657654
leaf_count=24 27 54 33 21 34 23 20 108 25
internal_value=-0.00199806 -0.00693289 0.00699167 0.0202664 -0.0155659 0.0161519 -0.0359705 -0.00581597 0.0305846
internal_weight=87.9786 70.7403 26.0375 17.9516 44.7029 17.2383 12.7552 31.9477 11.3898
internal_count=369 297 108 75 189 72 54 135 48
is_linear=0
shrinkage=0.05


Tree=44
num_leaves=10
num_cat=0
split_feature=0 3 10 7 29 3 5 20 10
split_gain=2.90008 3.26078 4.08186 3.94575 3.1144 3.35323 2.73587 2.25832 1.21752
threshold=33.166501471236344 0.6818731577329431 33.125980503794018 -0.46537175565902084 0.037209597249433242 -0.58147283871751787 12.633999040873126 -0.0041424079070772361 23.02583647484062
decision_type=2 2 2 2 2 2 2 2 2
left_child=6 4 3 -3 7 -6 -1 -2 -8
right_child=1 2 -4 -5 5 -7 8 -9 -10
leaf_value=-0.0082924599613622141 -0.031438831516928938 0.039726531849454898 -0.020671205283461409 0 -0.0033688842378322087 -0.056933395553313719 0.0044115912472177162 0.0022732389888916876 0.043892653227532046
leaf_weight=5.8519118875265148 5.1376860588789013 9.3764657378196752 9.2789527624845487 12.741319671273232 6.464195042848587 7.0861616581678373 5.2268041819334012 20.51330703496933 6.0950785577297211
leaf_count=24 22 39 38 54 28 30 22 86 26
internal_value=-0.00193744 -0.006691 0.00464592 0.0167832 -0.0162824 -0.0350863 0.0155208 -0.00446726 0.0295322
internal_weight=87.7719 70.5981 31.3967 22.1178 39.2013 13.5504 17.1738 25.651 11.3219
internal_count=369 297 131 93 166 58 72 108 48
is_linear=0
shrinkage=0.05


Tree=45
num_leaves=10
num_cat=0
split_feature=24 34 31 34 10 31 31 12 58
split_gain=4.10232 4.24203 3.78513 3.69113 3.15592 2.05493 1.1933 1.08705 3.38523
threshold=1.1401218635752168 0.22264008728840126 0.42072850387425459 -0.052059024865328103 32.111376832477411 0.98287779086572102 0.29282637556174917 35.464985958214733 0.74500000000000011
decision_type=2 2 2 2 2 2 2 2 2
left_child=1 3 6 -1 -4 -5 -3 8 -2
right_child=7 2 4 5 -6 -7 -8 -9 -10
leaf_value=0.0008564839383890891 0.035539631340152866 -9.3104845027614927e-06 0.018530165134707708 -0.0077064105345214344 -0.018093925641488758 -0.058417437201613992 -0.037185109856244666 0.040133182984469475 -0.0097065880092625928
leaf_weight=7.9936187863349941 6.3445253372192401 5.9007511585950834 32.705804094672203 5.073141083121298 5.6229284405708304 6.086729496717453 4.5048861354589462 6.0701382160186759 7.4336409568786621
leaf_count=33 27 25 136 21 24 25 20 26 31
internal_value=0.00264598 -0.00294845 0.00452354 -0.0224819 0.0121982 -0.0399503 -0.0201448 0.0222036 0.0104316
internal_weight=87.7362 67.8879 48.7344 19.1535 38.3287 11.1599 10.4056 19.8483 13.7782
internal_count=368 284 205 79 160 46 45 84 58
is_linear=0
shrinkage=0.05


Tree=46
num_leaves=11
num_cat=0
split_feature=23 34 31 31 24 10 30 6 6 8
split_gain=4.02311 4.30549 4.2332 3.04028 3.39466 2.94261 2.4877 2.15667 1.71954 0.484678
threshold=9.832998154491511 0.43722061743838631 0.44456549539996149 1.035018560393655 0.84186438399801666 16.922257220260537 0.57778775151097483 58.581913662844961 28.264327364582268 -2.6297100783763541
decision_type=2 2 2 2 2 2 2 2 2 2
left_child=1 3 -3 4 -1 -4 7 8 -2 -5
right_child=6 2 5 9 -6 -7 -8 -9 -10 -11
leaf_value=0.018500007503413879 0.027443568448643253 -0.021888373235357958 -0.0067945347201611318 -0.017734929877743562 -0.029752775548632055 0.026723779077867889 -0.0012834139261435531 0.052554309069070215 -0.0035797837025723514 -0.055007511149485856
leaf_weight=6.9565785974264163 7.7478211522102409 8.6478181183338148 7.7423779964447048 6.0880451798439026 5.5542700290679932 18.743490278720856 9.3640689402818662 5.6785235404968253 6.2585873007774353 4.7767583131790143
leaf_count=29 33 38 33 25 23 78 39 23 27 20
internal_value=0.00245639 -0.00477634 0.00572998 -0.0211802 -0.00168834 0.0161254 0.0175304 0.0273181 0.0126004 -0.0394841
internal_weight=87.5583 58.5093 35.1337 23.3757 12.5108 26.4859 29.049 19.6849 14.0064 10.8648
internal_count=368 246 149 97 52 111 122 83 60 45
is_linear=0
shrinkage=0.05


Tree=47
num_leaves=9
num_cat=0
split_feature=23 22 27 26 29 12 32 7
split_gain=3.71004 3.83949 2.44048 4.69946 2.93826 2.3086 3.36604 2.46767
threshold=9.832998154491511 -0.018818231544939105 892.81099999999981 977.28079289864468 0.024137679963861961 35.464985958214733 -0.92305034043709489 1.1515165360206654
decision_type=2 2 2 2 2 2 2 2
left_child=1 -1 4 -4 -3 6 -2 -8
right_child=5 2 3 -5 -6 -7 7 -9
leaf_value=-0.031906113080561918 -0.013259253522172285 -0.0045154860901869256 -0.029330501323877451 0.013058132990148073 0.027390839443486095 0.041720554105410611 0.038836186427434888 -0.00067634119248580551
leaf_weight=9.667414724826811 9.4745882302522695 11.816527068614961 13.279610916972162 10.309158653020857 13.329937249422072 6.498234122991561 8.21770331263542 4.780086651444436
leaf_count=40 39 49 59 42 56 28 35 20
internal_value=0.00227609 -0.00466092 0.000773788 -0.0100107 0.0118424 0.0167837 0.00703746 0.0235088
internal_weight=87.3733 58.4026 48.7352 23.5888 25.1465 28.9706 22.4724 12.9978
internal_count=368 246 206 101 105 122 94 55
is_linear=0
shrinkage=0.05


Tree=48
num_leaves=11
num_cat=0
split_feature=23 34 31 31 24 10 30 6 9 8
split_gain=3.39481 3.78485 3.81158 2.82203 2.98065 2.59247 2.20391 2.053 1.78509 0.446626
threshold=9.832998154491511 0.43722061743838631 0.44456549539996149 1.035018560393655 0.84186438399801666 16.922257220260537 0.57778775151097483 58.581913662844961 -1.9479785289496594 -2.6297100783763541
decision_type=2 2 2 2 2 2 2 2 2 2
left_child=1 3 -3 4 -1 -4 7 8 -2 -5
right_child=6 2 5 9 -6 -7 -8 -9 -10 -11
leaf_value=0.017743862011254424 0.029921109127863228 -0.020885311619858071 -0.00614510227287959 -0.01655434824390898 -0.027544243810242616 0.025231058692371036 -0.001474756596007473 0.04991512567415618 -0.0021530707351666302 -0.052548920339099137
leaf_weight=6.9300651252269763 5.9661714583635357 8.580213710665701 7.7134137451648739 6.0668785274028778 5.5522095263004303 18.701223626732826 9.3517476916313154 5.6326275616884223 7.9005071818828609 4.7291125655174238
leaf_count=29 26 38 33 25 23 78 39 23 34 20
internal_value=0.00216416 -0.00446003 0.00537444 -0.0198866 -0.00109519 0.015267 0.0160823 0.0253833 0.0110497 -0.0375591
internal_weight=87.1242 58.2731 34.9949 23.2783 12.4823 26.4146 28.8511 19.4993 13.8667 10.796
internal_count=368 246 149 97 52 111 122 83 60 45
is_linear=0
shrinkage=0.05


Tree=49
num_leaves=10
num_cat=0
split_feature=23 34 31 3 30 31 13 13 1
split_gain=3.13625 3.47046 3.47165 2.68574 2.04626 2.03917 1.79009 1.11421 2.04107
threshold=9.832998154491511 0.43722061743838631 0.44456549539996149 0.37740180811929319 0.57778775151097483 1.0603238535316477 3.669624089435719 -4.8592758116004093 37.967145389993227
decision_type=2 2 2 2 2 2 2 2 2
left_child=1 3 -3 5 7 -1 -4 -2 -9
right_child=4 2 6 -5 -6 -7 -8 8 -10
leaf_value=-0.0075427738717775347 0.045315093869455647 -0.020028684355204305 0.024317421493027711 0.0013538221670617253 -0.0014080724203941574 -0.049236006367895838 0 0.02945924070132401 -0.0041415867264235065
leaf_weight=7.7973306775093096 4.9977553337812468 8.5435498356819135 16.315993607044224 8.0988833010196668 9.3522482365369779 7.3246811032295227 10.070993199944494 7.7641435414552689 6.6488526910543442
leaf_count=33 21 38 69 33 39 31 42 34 28
internal_value=0.00200182 -0.00435712 0.00504256 -0.0191534 0.0154124 -0.0310898 0.0145079 0.0244134 0.0130738
internal_weight=86.9144 58.1514 34.9305 23.2209 28.763 15.122 26.387 19.4108 14.413
internal_count=368 246 149 97 122 64 111 83 62
is_linear=0
shrinkage=0.05


Tree=50
num_leaves=5
num_cat=0
split_feature=3 9 16 33
split_gain=2.81931 3.7074 2.61767 2.8232
threshold=-4.0025826550279895 -2.0350098509214996 834.95265659905044 -0.018138603586411287
decision_type=2 2 2 2
left_child=-1 -2 -3 -4
right_child=1 2 3 -5
leaf_value=-0.027111197382822656 0.032971262842754326 0.032445990854535166 0.020970247673448007 -0.0073498134773351282
leaf_weight=7.0117653161287299 8.6454086601734144 4.7068432569503775 9.1275417804718 57.140549153089523
leaf_count=30 37 21 38 242
internal_value=0.000810568 0.00388538 0 -0.0028237
internal_weight=86.6321 79.6203 70.9749 66.2681
internal_count=368 338 301 280
is_linear=0
shrinkage=0.05


Tree=51
num_leaves=6
num_cat=0
split_feature=3 33 16 2 3
split_gain=2.59106 2.67153 3.52933 3.63726 3.36376
threshold=-4.0025826550279895 -0.018138603586411287 834.95265659905044 46.34591002722803 0.18485173964567211
decision_type=2 2 2 2 2
left_child=-1 4 -3 -4 -2
right_child=1 2 3 -5 -6
leaf_value=-0.025968022485432275 0 0.038315216978649091 -0.020962887454268494 0.0041699352775836415 0.04645870525077013
leaf_weight=6.9987709969282141 6.4017652571201307 4.4165652990341178 19.967923358082771 42.161715537309647 6.5185935199260712
leaf_count=30 28 20 83 180 27
internal_value=0.000802237 0.00376405 -3.00503e-05 -0.00371563 0.0236998
internal_weight=86.4653 79.4666 66.5462 62.1296 12.9204
internal_count=368 338 283 263 55
is_linear=0
shrinkage=0.05


Tree=52
num_leaves=6
num_cat=0
split_feature=3 9 13 13 17
split_gain=2.37851 3.44305 2.26708 2.60289 2.32464
threshold=-4.0025826550279895 -2.0350098509214996 6.3460577826457945 22.776540414142911 884.28990123451024
decision_type=2 2 2 2 2
left_child=-1 -2 4 -4 -3
right_child=1 2 3 -5 -6
leaf_value=-0.024877638092397236 0.031757272020616796 0.021180736022754342 -0.023270212271105567 0.0092993349999569343 -0.0011881610905048238
leaf_weight=6.9844458550214759 8.5834260731935483 15.975141629576681 16.731442868709568 7.3802242875099173 30.702587023377419
leaf_count=30 37 68 71 31 131
internal_value=0.000777309 0.00362732 0 -0.0123323 0.00622677
internal_weight=86.3573 79.3728 70.7894 24.1117 46.6777
internal_count=368 338 301 102 199
is_linear=0
shrinkage=0.05


Tree=53
num_leaves=6
num_cat=0
split_feature=3 33 32 11 21
split_gain=2.18012 2.41748 3.89889 3.31212 2.4517
threshold=-4.0025826550279895 0.018207721826539517 1.0115029450641317 21.596589799249163 0.0109348051760113
decision_type=2 2 2 2 2
left_child=-1 2 3 -2 -3
right_child=1 4 -4 -5 -6
leaf_value=-0.023836797152941597 0.0054179803891566862 -0.035306295371219119 -0.026754560967031039 0.035899227544904287 0.0029231057363599666
leaf_weight=6.9690131247043601 48.845631182193756 6.3208382874727231 6.0160465091466895 11.019282788038252 7.0557272434234619
leaf_count=30 207 28 27 46 30
internal_value=0.000733202 0.00347519 0.00768282 0.011937 -0.0146018
internal_weight=86.2265 79.2575 65.881 59.8649 13.3766
internal_count=368 338 280 253 58
is_linear=0
shrinkage=0.05


Tree=54
num_leaves=7
num_cat=0
split_feature=31 3 33 32 56 21
split_gain=2.16042 4.02873 2.38592 3.32992 3.16149 3.15945
threshold=1.9047808665605226 -1.2671648951080179 0.019970792717897961 1.0115029450641317 4.7734661312746294 0.0109348051760113
decision_type=2 2 2 2 2 2
left_child=2 -2 3 4 -1 -4
right_child=1 -3 5 -5 -6 -7
leaf_value=0.022346748682956889 -0.044879429104602186 0.0039414916991329938 -0.040445712940123661 -0.023461747501963122 -0.00091746103635190603 0.0075698895976956202
leaf_weight=33.278164759278297 5.8880597352981559 8.5131867378950101 5.3233556896448118 5.7778672873973838 21.870317652821541 5.4427078515291214
leaf_count=139 26 36 24 26 94 23
internal_value=0.000658879 -0.016014 0.0045262 0.00865548 0.0128236 -0.0154667
internal_weight=86.0937 14.4012 71.6924 60.9263 55.1485 10.7661
internal_count=368 62 306 259 233 47
is_linear=0
shrinkage=0.05


Tree=55
num_leaves=11
num_cat=0
split_feature=11 5 20 56 45 3 32 58 33 56
split_gain=3.68873 4.27774 4.568 3.87039 4.48801 3.1623 2.59081 2.51979 2.09791 1.79331
threshold=18.940228601671155 62.902932930235544 -0.0031876666699294284 3.5091802855977714 0.067036590241400643 -0.24655870541973354 0.92423907900775937 0.74500000000000011 0.018207721826539517 2.9763768414775256
decision_type=2 2 2 2 2 2 2 2 2 2
left_child=1 2 5 8 -5 -1 -6 -4 9 -2
right_child=3 -3 7 4 6 -7 -8 -9 -10 -11
leaf_value=0 0 0.034890886800482517 -0.0024722669990392162 0.0083802964061224661 -0.055040700423580072 0.041274230457044203 -0.0028543376555349525 -0.04958441201528771 -0.023235792897748547 0.034079429987726714
leaf_weight=19.406958401203156 8.8867918848991412 9.4595532119274122 8.1247351169586199 4.6517851054668453 10.405039697885512 5.5357763171195975 4.4826716631650916 4.8776615411043158 4.6237450242042533 4.7914055734872809
leaf_count=84 38 39 34 20 45 23 21 20 21 20
internal_value=-0.0023759 0.00651473 -0.000631654 -0.014038 -0.0290186 0.0111553 -0.0420697 -0.0242101 0.00133517 0.0123614
internal_weight=85.2461 47.4047 37.9451 37.8414 19.5395 24.9427 14.8877 13.0024 18.3019 13.6782
internal_count=365 200 161 165 86 107 66 54 79 58
is_linear=0
shrinkage=0.05


Tree=56
num_leaves=6
num_cat=0
split_feature=13 34 5 6 30
split_gain=4.27499 2.60559 5.1201 2.72168 0.941505
threshold=-21.573682247601553 1.1211392813326719 76.67346409278133 73.925987960716398 0.85072317765868644
decision_type=2 2 2 2 2
left_child=-1 2 3 -2 -3
right_child=1 4 -4 -5 -6
leaf_value=-0.039299492469985632 0.0025324640214586468 0 0.038358448730216092 -0.033296992677831504 -0.034923763566846615
leaf_weight=6.1760570406913748 55.512455821037292 4.6941508501768094 8.6932207792997342 4.8199315667152396 5.1022122949361801
leaf_count=27 236 21 37 21 23
internal_value=-0.00227058 0.000773594 0.00458613 -0.000418547 -0.0217107
internal_weight=84.998 78.822 69.0256 60.3324 9.79636
internal_count=365 338 294 257 44
is_linear=0
shrinkage=0.05


Tree=57
num_leaves=6
num_cat=0
split_feature=13 23 13 34 33
split_gain=3.91924 2.50415 2.13094 3.15684 2.27469
threshold=-21.573682247601553 14.439042868815713 -4.635450050752401 -0.095996170122572902 0.0053946798517104213
decision_type=2 2 2 2 2
left_child=-1 2 4 -4 -2
right_child=1 -3 3 -5 -6
leaf_value=-0.037718723930138087 0.025033844784230649 0.029595485857136034 0.016049937715492991 -0.014181915356223576 -0.0039255160730192534
leaf_weight=6.1555746495723715 11.700926885008814 5.9464902281761161 9.3392053395509702 40.292803749442101 11.460554301738737
leaf_count=27 50 25 40 172 51
internal_value=-0.00221132 0.000689193 -0.00170243 -0.00779482 0.0101003
internal_weight=84.8956 78.74 72.7935 49.632 23.1615
internal_count=365 338 313 212 101
is_linear=0
shrinkage=0.05


Tree=58
num_leaves=6
num_cat=0
split_feature=13 34 5 6 30
split_gain=3.60863 2.30548 4.69944 2.46621 0.868866
threshold=-21.573682247601553 1.1211392813326719 76.67346409278133 73.925987960716398 0.85072317765868644
decision_type=2 2 2 2 2
left_child=-1 2 3 -2 -3
right_child=1 4 -4 -5 -6
leaf_value=-0.03621571262520925 0.0023032756760075052 0 0.036727214278815146 -0.031858968443267771 -0.033236153349832272
leaf_weight=6.1325752288103095 55.462724730372429 4.6861115396022779 8.6539452075958234 4.7933426946401587 5.0525844693183899
leaf_count=27 236 21 37 21 23
internal_value=-0.00208009 0.000689002 0.00429183 -0.000481923 -0.0205019
internal_weight=84.7813 78.6487 68.91 60.2561 9.7387
internal_count=365 338 294 257 44
is_linear=0
shrinkage=0.05


Tree=59
num_leaves=11
num_cat=0
split_feature=11 5 20 3 11 5 55 1 10 16
split_gain=3.02512 3.8281 4.11953 2.87962 2.82327 2.50011 2.21676 5.52272 2.14666 1.03094
threshold=18.940228601671155 62.902932930235544 -0.0031876666699294284 -0.24655870541973354 21.74577190665698 45.463670917444993 1.0729230643363834 59.273129176566322 28.962660247145994 885.5100878635036
decision_type=2 2 2 2 2 2 2 2 2 2
left_child=1 2 3 -1 9 -4 7 -6 -8 -2
right_child=4 -3 5 -5 6 -7 8 -9 -10 -11
leaf_value=0 -0.0013733040202301016 0.032977618137435369 -0.038691833931055908 0.039328828521678426 0.041841873613046081 0.0011051101224057913 -0.038178590339948998 -0.017289827207035292 0.00052784007292201469 -0.039049595588238735
leaf_weight=19.375212281942368 4.0411664545536032 9.3744242936372739 8.1741140335798281 5.4827667921781531 6.5918406248092669 4.8008498549461356 5.2779105901718122 6.6928764134645462 5.5093143582344055 9.3483694046735746
leaf_count=84 18 39 34 23 27 20 24 30 24 42
internal_value=-0.00202665 0.00599493 -0.000724228 0.0104582 -0.0126781 -0.0231523 -0.00106085 0.0111762 -0.0179216 -0.0303014
internal_weight=84.6688 47.2074 37.8329 24.858 37.4615 12.975 24.0719 13.2847 10.7872 13.3895
internal_count=365 200 161 107 165 54 105 57 48 60
is_linear=0
shrinkage=0.05


Tree=60
num_leaves=9
num_cat=0
split_feature=22 1 11 31 10 12 24 3
split_gain=3.70214 4.27341 3.96964 4.89862 4.3648 3.72448 3.36561 2.65586
threshold=-0.019775293708369602 37.967145389993227 17.942517812684461 1.140425816431667 16.187335528900014 26.61073135470982 0.84787912862067749 -1.5501981275648722
decision_type=2 2 2 2 2 2 2 2
left_child=1 7 3 5 -4 -2 -6 -1
right_child=2 -3 4 -5 6 -7 -8 -9
leaf_value=-0.029552638193789955 0.0087809926509130817 -0.053438190678019151 -0.034395547621255192 -0.0093604605711611593 0.017853045546220022 0.064299354831421462 -0.012659870319254468 0.014212906030112927
leaf_weight=4.5687575638294229 7.7464564293622988 5.4801456332206717 8.2525099664926511 6.7010399401187888 19.182555943727493 6.5028667896986008 14.69837039709091 7.8608715832233438
leaf_count=20 33 23 39 28 81 27 64 34
internal_value=-0.000663925 -0.0203556 0.00476692 0.0221931 -0.00363209 0.038312 0.00391563 -0.00101512
internal_weight=80.9936 17.9098 63.0838 20.9504 42.1334 14.2493 33.8809 12.4296
internal_count=349 77 272 88 184 60 145 54
is_linear=0
shrinkage=0.05


Tree=61
num_leaves=9
num_cat=0
split_feature=22 1 11 10 29 24 11 3
split_gain=3.40169 3.91276 3.65774 4.01609 3.84851 3.0601 2.55719 2.44095
threshold=-0.019775293708369602 37.967145389993227 17.942517812684461 16.187335528900014 0.025260920362625925 0.84787912862067749 14.756363674308616 -1.5501981275648722
decision_type=2 2 2 2 2 2 2 2
left_child=1 7 4 -4 -2 -5 -6 -1
right_child=2 -3 3 5 6 -7 -8 -9
leaf_value=-0.02835667771554258 -0.0027746488180892905 -0.051216862621094289 -0.033177360928432743 0.01701097979079488 0.0046009528747986824 -0.012075905423884014 0.055722309427725082 0.013614579444665651
leaf_weight=4.5656262040138254 8.1646946668624896 5.4753999859094611 8.1666746288537961 19.175195470452309 5.3946078270673734 14.687337026000021 7.2933171391487122 7.840497002005578
leaf_count=20 34 23 39 81 23 64 31 34
internal_value=-0.000652645 -0.0195489 0.00455138 -0.00349449 0.0213299 0.00369339 0.0377372 -0.000929651
internal_weight=80.7633 17.8815 62.8818 42.0292 20.8526 33.8625 12.6879 12.4061
internal_count=349 77 272 184 88 145 54 54
is_linear=0
shrinkage=0.05


Tree=62
num_leaves=9
num_cat=0
split_feature=22 1 11 31 10 12 31 3
split_gain=3.12572 3.58755 3.36594 4.58039 3.69578 3.54711 2.94591 2.24387
threshold=-0.019775293708369602 37.967145389993227 17.942517812684461 1.140425816431667 16.187335528900014 26.61073135470982 0.44456549539996149 -1.5501981275648722
decision_type=2 2 2 2 2 2 2 2
left_child=1 7 3 5 -4 -2 -6 -1
right_child=2 -3 4 -5 6 -7 -8 -9
leaf_value=-0.027215477937256673 0.0074927813522024283 -0.04913503061674715 -0.032005342028540634 -0.00992986110427364 -0.020521502130905471 0.061731654465613489 0.012235537378062806 0.013041200935225431
leaf_weight=4.5612583607435235 7.6928283423185366 5.4646445363759986 8.0812691897153837 6.67459912598133 7.9209993034601203 6.4009795784950256 25.920961946249008 7.820444494485856
leaf_count=20 33 23 39 28 35 27 110 34
internal_value=-0.000643775 -0.0187816 0.00434078 0.0204792 -0.00336249 0.0362406 0.00348201 -0.000846164
internal_weight=80.538 17.8463 62.6916 20.7684 41.9232 14.0938 33.842 12.3817
internal_count=349 77 272 88 184 60 145 54
is_linear=0
shrinkage=0.05


Tree=63
num_leaves=6
num_cat=0
split_feature=8 3 9 10 24
split_gain=2.97454 2.63096 4.1411 1.79624 1.42289
threshold=-9.31667320932306 -4.0025826550279895 -1.9479785289496594 16.187335528900014 1.6213438323141427
decision_type=2 2 2 2 2
left_child=4 -2 -3 -4 -1
right_child=1 2 3 -5 -6
leaf_value=-0.04192795264695548 -0.025570094801024512 0.040557947793998961 -0.017664982439954204 0.0053258352139065081 0
leaf_weight=4.9734288156032544 6.1126764863729468 6.7451876401901236 9.0778895467519742 48.742308527231216 4.6171500235795975
leaf_count=21 27 29 43 209 20
internal_value=-0.000640214 0.00270865 0.00611638 0.00105225 -0.0256058
internal_weight=80.2686 70.6781 64.5654 57.8202 9.59058
internal_count=349 308 281 252 41
is_linear=0
shrinkage=0.05


Tree=64
num_leaves=9
num_cat=0
split_feature=22 1 9 8 34 3 5 3
split_gain=2.77053 3.29281 3.21442 3.82801 5.119 2.04437 1.1002 0.838165
threshold=-0.019775293708369602 37.967145389993227 -1.1531786880763135 2.2463142819815167 0.94319423040001671 -1.5501981275648722 76.969104530123957 -1.3696146962853233
decision_type=2 2 2 2 2 2 2 2
left_child=1 5 7 4 -4 -1 -5 -2
right_child=2 -3 3 6 -6 -7 -8 -9
leaf_value=-0.02584367183312308 0.043614974566169806 -0.046897347165938658 -0.0032695734929393283 -0.037081451010032671 0.037214100126323667 0.012696955496280485 -0.0015762964340795286 0.0082915791111433084
leaf_weight=4.5369738340377816 4.5726197808980942 5.4358967244625083 29.938782423734665 6.8384035229682905 9.1382758319377881 7.7836905419826516 5.3473229259252548 6.534567862749098
leaf_count=20 20 23 129 32 39 34 25 27
internal_value=-0.000645996 -0.0177749 0.00403959 -0.000947796 0.00626618 -0.000493189 -0.0246983 0.0272997
internal_weight=80.1265 17.7566 62.37 51.2628 39.0771 12.3207 12.1857 11.1072
internal_count=349 77 272 225 168 54 57 47
is_linear=0
shrinkage=0.05


Tree=65
num_leaves=6
num_cat=0
split_feature=4 5 31 45 21
split_gain=4.38501 2.76863 2.80617 3.36713 2.67064
threshold=1.0000000180025095e-35 85.192045012027634 0.71476590551197894 0.079282137227574753 0.0011321453141141019
decision_type=2 2 2 2 2
left_child=1 2 3 -1 -4
right_child=-2 -3 4 -5 -6
leaf_value=0.0002618490191719368 -0.035923089777445696 -0.022626806909491502 0.0058378835592888187 0.03414693962858556 -0.02232474108510132
leaf_weight=16.848909348249439 7.0602106451988211 8.07777441293001 25.262308984994888 14.505007423460482 11.040839627385138
leaf_count=73 30 36 110 62 49
internal_value=-0.000612432 0.00277878 0.00646153 0.0172814 -0.00242586
internal_weight=82.7951 75.7348 67.6571 31.3539 36.3031
internal_count=360 330 294 135 159
is_linear=0
shrinkage=0.05


Tree=66
num_leaves=6
num_cat=0
split_feature=4 20 23 2 11
split_gain=4.01144 2.424 2.48931 3.12882 1.24662
threshold=1.0000000180025095e-35 0.0092707862031973908 10.477128943627052 45.704246152315562 13.991313375836169
decision_type=2 2 2 2 2
left_child=1 2 3 -1 -4
right_child=-2 -3 4 -5 -6
leaf_value=-0.015407289359829372 -0.034398175091369394 -0.024768588317174017 0.003493064833930316 0.0093039660506027966 0.035146777950214092
leaf_weight=19.118894830346107 7.0491431355476371 6.0298764109611502 8.0227528959512728 34.189540959894657 8.3183313906192762
leaf_count=83 30 26 36 149 36
internal_value=-0.000591733 0.00263866 0.00568229 0 0.0221455
internal_weight=82.7285 75.6794 69.6495 53.3084 16.3411
internal_count=360 330 304 232 72
is_linear=0
shrinkage=0.05


Tree=67
num_leaves=8
num_cat=0
split_feature=8 23 24 23 30 2 3
split_gain=2.37377 2.18232 2.0803 2.51432 2.53457 2.29849 0.523877
threshold=-9.31667320932306 14.439042868815713 1.1552584962737138 9.243168712579573 0.57778775151097483 45.704246152315562 -0.056588819666070468
decision_type=2 2 2 2 2 2 2
left_child=1 -1 3 5 -5 -2 -4
right_child=2 -3 6 4 -6 -7 -8
leaf_value=-0.040870485142233584 -0.0093150565218614572 0 0.035330247388194388 0 -0.040210563408705741 0.012675897707133239 0.0032581806633166671
leaf_weight=5.5532928258180601 16.525279074907303 5.4693117737770081 4.5350637435913086 8.028580039739607 6.1611120849847785 31.873453259468079 4.5225541740655881
leaf_count=24 72 24 20 34 27 139 20
internal_value=-0.000563133 -0.0213707 0.00254404 -0.000451877 -0.0185774 0.00462464 0.0237182
internal_weight=82.6686 11.0226 71.646 62.5884 14.1897 48.3987 9.05762
internal_count=360 48 312 272 61 211 40
is_linear=0
shrinkage=0.05


Tree=68
num_leaves=6
num_cat=0
split_feature=4 5 34 2 23
split_gain=3.53167 2.44568 2.1243 5.08295 2.77431
threshold=1.0000000180025095e-35 85.192045012027634 0.41583377421223183 49.956003298154293 10.724923361449241
decision_type=2 2 2 2 2
left_child=1 2 4 -4 -1
right_child=-2 -3 3 -5 -6
leaf_value=-0.013534254115539652 -0.03233025948583531 -0.02139644064038581 0.038300396372944058 0 0.017889279745468334
leaf_weight=21.308438211679462 7.0203185379505149 8.060206823050974 12.726143077015875 24.566942602396011 8.9010177254676801
leaf_count=92 30 36 55 107 40
internal_value=-0.000534067 0.00247718 0.00596352 0.0139274 -0.00319794
internal_weight=82.5831 75.5627 67.5025 37.2931 30.2095
internal_count=360 330 294 162 132
is_linear=0
shrinkage=0.05


Tree=69
num_leaves=5
num_cat=0
split_feature=4 14 14 13
split_gain=3.23501 2.12628 3.01176 1.92018
threshold=1.0000000180025095e-35 -1.0815618061353414 -0.89805929943469442 -13.92386295780488
decision_type=2 2 2 2
left_child=1 -1 -3 -4
right_child=-2 2 3 -5
leaf_value=-0.020490704743478264 -0.030985079066189736 0.041341648712928496 -0.024068062352610844 0.0050914680636390264
leaf_weight=7.6217093914747229 7.0027030706405631 4.4929916709661475 5.0899076461791983 58.236243836581707
leaf_count=34 30 19 24 253
internal_value=-0.00050948 0.00236067 0.00555247 0.00202137
internal_weight=82.4436 75.4409 67.8191 63.3262
internal_count=360 330 296 277
is_linear=0
shrinkage=0.05


Tree=70
num_leaves=8
num_cat=0
split_feature=8 24 9 20 27 25 3
split_gain=2.87373 4.45275 3.25659 3.51027 3.18376 1.84389 1.05649
threshold=-9.31667320932306 1.1401218635752168 -0.64238977016695076 -0.0020268788998527494 892.81099999999981 89.500000000000014 -0.46772095849365158
decision_type=2 2 2 2 2 2 2
left_child=5 2 3 -2 -4 -1 -3
right_child=1 6 4 -5 -6 -7 -8
leaf_value=-0.04231692219087306 0.023328781381444688 0.048641388516358651 0.0010709759630349927 -0.018408796664956446 -0.026469012587642143 0 0.0096337146598109331
leaf_weight=5.4528035670518857 16.556603610515598 4.452193483710289 19.139358133077621 5.5694863200187674 18.408093146979809 5.0735787153244019 6.5869310647249204
leaf_count=23 70 21 83 24 84 23 29
internal_value=-0.00119354 0.00222814 -0.00294208 0.0114 -0.0121187 -0.0245473 0.030176
internal_weight=81.239 70.7127 59.6735 22.1261 37.5475 10.5264 11.0391
internal_count=357 311 261 94 167 46 50
is_linear=0
shrinkage=0.05


Tree=71
num_leaves=8
num_cat=0
split_feature=8 24 9 20 27 1 58
split_gain=2.65308 4.14324 2.93915 3.21558 2.92334 1.74216 1.09801
threshold=-9.31667320932306 1.1401218635752168 -0.64238977016695076 -0.0020268788998527494 892.81099999999981 34.415958305800409 0.67500000000000016
decision_type=2 2 2 2 2 2 2
left_child=5 2 3 -2 -4 -1 -3
right_child=1 6 4 -5 -6 -7 -8
leaf_value=0 0.022260770346923617 0.047978538306245627 0.0010201944564847919 -0.01767172788243376 -0.025364464721134572 -0.040574227536669859 0.0087599386926937705
leaf_weight=4.9805469363927823 16.532003507018093 4.3799736201763135 19.137267276644707 5.5538083463907233 18.295687191188335 5.5324009507894516 6.5647752434015274
leaf_count=23 70 20 83 24 84 23 30
internal_value=-0.00111556 0.00216849 -0.0027995 0.0108057 -0.0115495 -0.023575 0.0292505
internal_weight=80.9765 70.4635 59.5188 22.0858 37.433 10.5129 10.9447
internal_count=357 311 261 94 167 46 50
is_linear=0
shrinkage=0.05


Tree=72
num_leaves=6
num_cat=0
split_feature=8 29 24 25 25
split_gain=2.45102 4.94887 2.8345 2.94775 1.67956
threshold=-9.31667320932306 0.062892094176817806 1.1874408951568343 79.500000000000014 89.500000000000014
decision_type=2 2 2 2 2
left_child=4 2 3 -2 -1
right_child=1 -3 -4 -5 -6
leaf_value=-0.039651409966514513 -0.00095024550541584574 0.041458378552019289 0.024269134968823408 -0.033371988089962577 0
leaf_weight=5.4222190380096418 48.75840450823307 6.2430524528026572 7.6206332743167868 7.5961538553237906 5.0585699826478958
leaf_count=23 215 27 35 34 23
internal_value=-0.00103892 0.00211108 -0.00192286 -0.00626199 -0.0226662
internal_weight=80.699 70.2182 63.9752 56.3546 10.4808
internal_count=357 311 284 249 46
is_linear=0
shrinkage=0.05


Tree=73
num_leaves=6
num_cat=0
split_feature=8 29 45 56 30
split_gain=2.25526 4.5603 2.60876 2.81739 1.61286
threshold=-9.31667320932306 0.062892094176817806 0.059241810513479792 4.9884465350651199 0.23724150890605397
decision_type=2 2 2 2 2
left_child=4 2 -2 -4 -1
right_child=1 -3 3 -5 -6
leaf_value=0 0.023369213882685574 0.039912312803971423 -0.0017924225386754897 -0.039775073761440231 -0.036401785091334585
leaf_weight=4.3208686113357526 7.5585067719221106 6.200468271970748 51.665497578680515 4.6516035199165335 6.1412694603204727
leaf_count=20 35 27 228 21 26
internal_value=-0.000996991 0.00201476 -0.00183715 -0.00600505 -0.0217668
internal_weight=80.5382 70.0761 63.8756 56.3171 10.4621
internal_count=357 311 284 249 46
is_linear=0
shrinkage=0.05


Tree=74
num_leaves=6
num_cat=0
split_feature=25 8 8 3 25
split_gain=2.69962 2.63081 3.54324 2.16157 1.53444
threshold=12.500000000000002 -9.31667320932306 -6.8366019354326699 2.3833971135467373 89.500000000000014
decision_type=2 2 2 2 2
left_child=-1 4 -3 -4 -2
right_child=1 2 3 -5 -6
leaf_value=-0.038657874361815163 -0.037167033694596105 0.041104077275317626 -0.001995275050876984 0.027141281411316522 0
leaf_weight=3.5204395353794089 5.3769477754831296 5.2025383561849585 55.120761528611183 6.1002782732248297 5.0470456629991531
leaf_count=16 23 23 245 27 23
internal_value=-0.000951446 0.000929166 0.00497873 0.000895747 -0.020864
internal_weight=80.368 76.8476 66.4236 61.221 10.424
internal_count=357 341 295 272 46
is_linear=0
shrinkage=0.05


Tree=75
num_leaves=12
num_cat=0
split_feature=26 32 0 17 23 29 56 56 55 27 58
split_gain=2.78861 3.63003 4.34378 3.26225 3.33064 2.75019 3.17088 2.29913 2.26533 2.09716 1.69961
threshold=977.28079289864468 -0.065291205609378511 35.426010470698067 883.7675491217002 10.008060162764535 0.036524876746680389 3.5091802855977714 4.7734661312746294 1.3335902336764416 892.81099999999981 0.74500000000000011
decision_type=2 2 2 2 2 2 2 2 2 2 2
left_child=3 2 -2 5 9 6 -1 -4 -7 -5 -6
right_child=1 -3 7 4 10 8 -8 -9 -10 -11 -12
leaf_value=0.0036029702553784584 0.026901170418351689 0.035489605411803057 0 -0.0039045316232541333 0.017631731703499891 0.044170070693445383 -0.039942576078309533 -0.043680833972596908 0 -0.044468399804660497 -0.017983884392733043
leaf_weight=10.840803205966951 6.0782181322574678 8.2247117459774 5.27266877889633 6.3356465697288575 6.0866559445857984 4.6197889447212201 4.9521428495645514 5.0722447484731674 7.1414485573768616 12.472563475370405 5.3259485810995102
leaf_count=47 27 35 22 27 28 20 21 22 31 60 24
internal_value=-0.00319 0.0101543 -0.00240744 -0.00938418 -0.0205491 0.00227657 -0.0101282 -0.0226848 0.020381 -0.0329533 0
internal_weight=82.4228 24.6478 16.4231 57.775 30.2208 27.5542 15.7929 10.3449 11.7612 18.8082 11.4126
internal_count=364 106 71 258 139 119 68 44 51 87 52
is_linear=0
shrinkage=0.05


Tree=76
num_leaves=5
num_cat=0
split_feature=8 8 14 2
split_gain=3.01623 2.60649 2.3214 2.92035
threshold=6.3626696923042445 3.4621318972425654 -1.0815618061353414 46.34591002722803
decision_type=2 2 2 2
left_child=1 2 -1 -4
right_child=-2 -3 3 -5
leaf_value=-0.027015758355633232 0.029934513307267686 -0.035616555586178773 -0.0092369590484836818 0.011906004271327859
leaf_weight=7.6457653641700736 5.2035308480262747 5.8974837586283675 33.863988593220711 29.549961671233177
leaf_count=35 22 28 149 130
internal_value=-0.00302843 -0.00593333 -0.00266281 0.000259117
internal_weight=82.1607 76.9572 71.0597 63.414
internal_count=364 342 314 279
is_linear=0
shrinkage=0.05


Tree=77
num_leaves=7
num_cat=0
split_feature=8 8 56 23 23 22
split_gain=2.76919 2.43912 2.56119 3.40032 2.84156 1.15078
threshold=6.3626696923042445 2.4340468839317109 4.7191251720558975 9.760102630179146 14.439042868815713 0.0077496597539294049
decision_type=2 2 2 2 2 2
left_child=1 2 3 -1 -4 -3
right_child=-2 5 4 -5 -6 -7
leaf_value=0 0.028631821427335502 -0.00066172132467155493 -0.022364839921466456 0.041542753912690432 0.011521295435481619 -0.03935011790254548
leaf_weight=33.364835739135742 5.2134970724582663 4.5345885157585126 21.029128387570385 4.856845334172248 6.8019054681062689 6.3266283944249153
leaf_count=145 22 21 95 21 30 30
internal_value=-0.00289677 -0.0056948 -0.00151729 0.00640083 -0.0131036 -0.0267229
internal_weight=82.1274 76.9139 66.0527 38.2217 27.831 10.8612
internal_count=364 342 291 166 125 51
is_linear=0
shrinkage=0.05


Tree=78
num_leaves=6
num_cat=0
split_feature=8 8 26 10 17
split_gain=2.53493 2.28263 2.2008 3.96521 2.49098
threshold=6.3626696923042445 3.4621318972425654 977.28079289864468 28.284885189833222 883.7675491217002
decision_type=2 2 2 2 2
left_child=1 2 4 -4 -1
right_child=-2 -3 3 -5 -6
leaf_value=0.0026995674482072226 0.027395250919217629 -0.033396060521103714 0.029571362470766128 -0.012585829858825599 -0.018361666829137372
leaf_weight=24.170969545841217 5.2213100194931021 5.8081302121281615 11.500296860933306 8.2987270355224592 27.037271589040756
leaf_count=105 22 28 48 37 124
internal_value=-0.00272376 -0.00541803 -0.00235034 0.0109437 -0.00808034
internal_weight=82.0367 76.8154 71.0073 19.799 51.2082
internal_count=364 342 314 85 229
is_linear=0
shrinkage=0.05


Tree=79
num_leaves=5
num_cat=0
split_feature=8 5 28 8
split_gain=2.32414 2.25341 3.28086 2.74071
threshold=6.3626696923042445 86.228375882456334 1082.2922928072126 2.4340468839317109
decision_type=2 2 2 2
left_child=1 2 3 -1
right_child=-2 -3 -4 -5
leaf_value=-0.0008294116966872005 0.026220147811447065 -0.030091313355796678 0.031422846041314519 -0.030646947613977224
leaf_weight=55.577932000160217 5.2272029519081107 7.2601080536842337 5.5350901186466208 8.366136781871317
leaf_count=246 22 33 23 40
internal_value=-0.00257813 -0.0051734 -0.00182492 -0.00552737
internal_weight=81.9665 76.7393 69.4792 63.9441
internal_count=364 342 309 286
is_linear=0
shrinkage=0.05


Tree=80
num_leaves=10
num_cat=0
split_feature=30 34 6 11 25 30 30 10 32
split_gain=2.5026 3.57176 4.23633 3.75062 3.71024 2.81158 2.6261 2.30513 1.66576
threshold=0.51716804367396418 0.33637134880929842 43.857268797807301 13.494550773071824 56.500000000000007 0.65208677746623789 0.74859619614753503 36.496781160565412 -1.0498251001042498
decision_type=2 2 2 2 2 2 2 2 2
left_child=1 3 -3 7 -5 -2 -7 -1 -8
right_child=5 2 -4 4 -6 6 8 -9 -10
leaf_value=0.030627163182848385 -0.031895628754834045 0 0.047482848333708826 0.0020830873198314464 -0.046808075822393644 0.028186559054621779 -0.032487467092655979 -0.0026919013069208785 0
leaf_weight=8.5420204848051124 8.1555808186531085 8.5722294747829455 9.5522117018699628 6.493959113955496 6.0187606960535049 5.4844035059213665 4.2849279642105165 8.4250864386558515 13.61077237874269
leaf_count=38 38 37 41 28 27 23 19 38 60
internal_value=0.00198047 0.00939 0.0262724 -0.000690637 -0.0213076 -0.00838092 0 0.013462 -0.00864901
internal_weight=79.14 47.6043 18.1244 29.4798 12.5127 31.5357 23.3801 16.9671 17.8957
internal_count=349 209 78 131 55 140 102 76 79
is_linear=0
shrinkage=0.05


Tree=81
num_leaves=10
num_cat=0
split_feature=0 15 31 13 8 32 56 45 3
split_gain=2.71277 4.28071 2.83312 2.36542 3.56536 2.23052 1.64133 3.03484 1.47063
threshold=46.81731813898903 979.21090484615945 0.35149537784818102 26.304310533489097 -0.075836943594519299 -1.7548717444229591 4.0816295423513482 0.093632886975121621 1.3524575278485342
decision_type=2 2 2 2 2 2 2 2 2
left_child=1 3 -2 4 -1 -3 7 -4 -8
right_child=2 5 6 -5 -6 -7 8 -9 -10
leaf_value=-0.021848549306246433 -0.031122890724366664 0.0048393016994733645 0.028579083269195213 0.025947540563778401 0.015075272047353514 0.05931029762413103 -0.027206806111791344 -0.009777432389556329 0.0023483872575410431
leaf_weight=14.347318142652513 8.3840494081377965 4.6268218904733658 9.4869967401027733 6.5206605195999137 9.7953650355339068 5.0225109457969648 6.9606641978025419 8.1198254823684675 5.7464919686317444
leaf_count=64 39 20 40 30 43 21 32 35 25
internal_value=0.00187146 0.0110619 -0.00711016 0.000712782 -0.00586944 0.0384462 0 0.00997163 -0.0128211
internal_weight=79.0107 40.3127 38.698 30.6633 24.1427 9.64933 30.314 17.6068 12.7072
internal_count=349 178 171 137 107 41 132 75 57
is_linear=0
shrinkage=0.05


Tree=82
num_leaves=12
num_cat=0
split_feature=0 15 25 25 9 13 8 32 16 14 9
split_gain=2.51571 3.95434 2.66495 2.66639 4.27493 2.16659 3.25134 2.04403 1.74036 2.42667 1.63471
threshold=46.81731813898903 979.21090484615945 57.5 31.500000000000004 1.3892274512403204 26.304310533489097 -0.075836943594519299 -1.7548717444229591 922.87499669251758 -0.44727254076313294 0.23840722968020447
decision_type=2 2 2 2 2 2 2 2 2 2 2
left_child=1 5 3 10 -5 6 -1 -3 9 -4 -2
right_child=2 7 8 4 -6 -7 -8 -9 -10 -11 -12
leaf_value=-0.02084797736033173 -0.03126541214579142 0.0046406468080352316 0.016854427041035513 0.042343774354585861 -0.011951976600692721 0.024959479944421818 0.014395498308858196 0.057176474742525213 -0.0444869813290742 -0.026205518920487881 0.0024009374885098902
leaf_weight=14.332476973533632 5.1615270301699656 4.6264574378728867 4.405747339129447 7.2525072544813138 4.8491922318935394 6.4804774671792975 9.7923162430524844 4.987646818161009 5.1223887950181952 6.3022627830505362 5.5354067385196686
leaf_count=64 23 20 20 32 22 30 43 21 23 27 24
internal_value=0.00182655 0.010696 -0.00681405 0.00325991 0.0194275 0.000709327 -0.00554394 0.0370698 -0.0221394 -0.00642712 -0.0129907
internal_weight=78.8484 40.2194 38.629 22.7986 12.1017 30.6053 24.1248 9.6141 15.8304 10.708 10.6969
internal_count=349 178 171 101 54 137 107 41 70 47 47
is_linear=0
shrinkage=0.05


Tree=83
num_leaves=10
num_cat=0
split_feature=20 10 33 34 31 10 10 10 9
split_gain=2.40757 3.49025 1.79598 2.20913 3.02345 1.68925 1.9793 1.87099 0.956663
threshold=-0.0031876666699294284 43.727355649421028 0.0028580802104438809 -0.052059024865328103 1.600028652812304 17.513431709610298 14.865394343614719 20.160914885698606 -1.7156039239309397
decision_type=2 2 2 2 2 2 2 2 2
left_child=2 5 3 8 -5 6 -2 -7 -1
right_child=1 -3 -4 4 -6 7 -8 -9 -10
leaf_value=0.039024069438871503 0.00069395433008334422 -0.042148209945199938 0.034521700347881532 0.00678844559146086 -0.036448802066525142 0.026626034534568244 -0.039537303004656771 -0.00035663530612730537 0.0009514903393770726
leaf_weight=4.2972566187381744 4.4908079728484136 4.609698385000228 6.4980678856372824 12.276477560400965 4.5497493743896475 6.8541367352008811 4.2933834940195084 26.175172135233879 4.5944468080997485
leaf_count=20 21 20 28 55 21 30 20 114 20
internal_value=0.00177366 -0.00511314 0.0123054 0.00467433 -0.00488915 0 -0.0184456 0.00512596 0.0239639
internal_weight=78.6392 46.4232 32.216 25.7179 16.8262 41.8135 8.78419 33.0293 8.8917
internal_count=349 205 144 116 76 185 41 144 40
is_linear=0
shrinkage=0.05


Tree=84
num_leaves=10
num_cat=0
split_feature=20 10 24 25 9 11 31 56 2
split_gain=2.23336 3.22883 1.72033 2.27865 2.47156 2.0383 1.59532 1.97977 1.35299
threshold=-0.0031876666699294284 43.727355649421028 1.1874408951568343 56.500000000000007 -1.1531786880763135 13.373644553042809 0.42300900426096649 3.2571750221519222 49.886915081549674
decision_type=2 2 2 2 2 2 2 2 2
left_child=2 6 3 4 -1 -5 8 -8 -2
right_child=1 -3 -4 5 -6 -7 7 -9 -10
leaf_value=0.035965649541505641 0.00067927082700958694 -0.040661428761931989 0.03166794967809182 0.0037692789546215789 -0.0023287956657831017 -0.034327817565646998 0.020573414870999809 -0.0035813488614280485 -0.030177566401777257
leaf_weight=7.2793121486902228 4.1307759135961515 4.5767448395490637 7.5761826187372199 6.6789700388908368 6.0924905091524151 4.497695654630661 12.358577042818071 19.244984872639179 6.0320035666227341
leaf_count=31 18 20 35 30 27 21 53 85 29
internal_value=0.00169766 -0.00492479 0.0118662 0.00377612 0.0178303 -0.0110687 0 0.00543889 -0.0164586
internal_weight=78.4677 46.3431 32.1247 24.5485 13.3718 11.1767 41.7663 31.6036 10.1628
internal_count=349 205 144 109 58 51 185 138 47
is_linear=0
shrinkage=0.05


Tree=85
num_leaves=8
num_cat=0
split_feature=13 0 5 23 11 28 58
split_gain=1.85051 2.68384 3.2806 2.2938 2.24759 2.14805 0.231723
threshold=12.951890837743241 33.833374467154222 29.938184290018096 9.9277424137321528 29.505717065046589 845.95832333874591 0.45500000000000007
decision_type=2 2 2 2 2 2 2
left_child=1 -1 -3 5 -4 -2 -7
right_child=3 2 4 -5 -6 6 -8
leaf_value=0.029816874451921896 0 -0.030698213041983547 -0.00077987922336324406 0.00676769771292957 0.03212258311011728 -0.015324755251436712 -0.047965958475723935
leaf_weight=6.4203426986932746 4.7203064560890224 7.5851058810949317 41.420528277754784 6.3409909456968299 4.7498468011617652 5.4193026721477491 5.5279247909784317
leaf_count=29 20 34 187 30 20 24 25
internal_value=-0.00283554 0.00137834 -0.00204419 -0.0150028 0.00268425 -0.0251912 -0.036535
internal_weight=82.1843 60.1758 53.7555 22.0085 46.1704 15.6675 10.9472
internal_count=369 270 241 99 207 69 49
is_linear=0
shrinkage=0.05


Tree=86
num_leaves=8
num_cat=0
split_feature=34 5 30 0 29 31 11
split_gain=1.81896 4.0108 2.36613 2.95739 1.71056 1.5871 0.977524
threshold=-0.052059024865328103 27.290305881953376 0.53259007345706333 51.382314500876213 0.039298962846155645 0.64393137994031535 11.570208491612084
decision_type=2 2 2 2 2 2 2
left_child=6 4 5 -4 -2 -3 -1
right_child=1 2 3 -5 -6 -7 -8
leaf_value=0 -0.0051864734502169258 0 -0.042176207295428807 -0.00075010930188894884 -0.043517756465988419 0.024349529493349401 0.029959244937253895
leaf_weight=4.6700483784079534 7.3903104811906797 9.985074996948244 4.2956130877137175 30.98048510402441 7.6974299848079681 12.220858097076414 4.799286812543869
leaf_count=22 32 43 21 140 35 55 21
internal_value=-0.00270482 -0.0057039 4.06018e-05 -0.00750736 -0.0277857 0.0129153 0.0162406
internal_weight=82.0391 72.5698 57.482 35.2761 15.0877 22.2059 9.46934
internal_count=369 326 259 161 67 98 43
is_linear=0
shrinkage=0.05


Tree=87
num_leaves=8
num_cat=0
split_feature=34 5 30 15 13 29 11
split_gain=1.68157 3.67422 2.15926 3.0463 2.1251 1.55127 0.903226
threshold=-0.052059024865328103 27.290305881953376 0.53259007345706333 992.85279553081102 -4.5238546261494532 0.039298962846155645 11.570208491612084
decision_type=2 2 2 2 2 2 2
left_child=6 5 4 -4 -3 -2 -1
right_child=1 2 3 -5 -6 -7 -8
leaf_value=0 -0.0049571458500740594 0.031523162836334051 0 -0.038552617912112681 0 -0.041731964864357846 0.028783055348555516
leaf_weight=4.6700483784079534 7.3918133676052076 7.8700861483812359 29.836471728980541 5.4000083059072486 14.303036570549009 7.6689897924661636 4.7868165373802185
leaf_count=22 32 35 136 25 63 35 21
internal_value=-0.00262675 -0.00552165 0 -0.00723464 0.0122924 -0.026672 0.0155734
internal_weight=81.9273 72.4704 57.4096 35.2365 22.1731 15.0608 9.45686
internal_count=369 326 259 161 98 67 43
is_linear=0
shrinkage=0.05


Tree=88
num_leaves=7
num_cat=0
split_feature=13 0 11 33 23 13
split_gain=1.56146 2.38108 2.88544 3.14899 2.12957 2.05856
threshold=12.951890837743241 33.833374467154222 29.505717065046589 0.018207721826539517 9.9277424137321528 26.304310533489097
decision_type=2 2 2 2 2 2
left_child=1 -1 3 -3 5 -2
right_child=4 2 -4 -5 -6 -7
leaf_value=0.028200994679458403 -0.038660558640398454 -0.00059415848194393226 0.031037471938443296 -0.038256824966464598 0.0070789786574541186 0
leaf_weight=6.3769147396087638 8.6519652754068392 43.150261364877224 4.7408503890037528 5.6498761773109427 6.3531247749924651 6.8713663667440406
leaf_count=29 38 194 20 27 30 31
internal_value=-0.00252363 0.0013228 -0.00187848 -0.00613724 -0.0137489 -0.0236985
internal_weight=81.7944 59.9179 53.541 48.8001 21.8765 15.5233
internal_count=369 270 241 221 99 69
is_linear=0
shrinkage=0.05


Tree=89
num_leaves=8
num_cat=0
split_feature=30 5 30 14 14 31 20
split_gain=1.40237 3.80104 3.51207 1.80763 2.94529 1.43647 1.50849
threshold=0.17693058777561335 25.662616265465356 0.087030408934764616 -1.0815618061353414 -0.068314217798550278 0.98287779086572102 -0.016208654652284441
decision_type=2 2 2 2 2 2 2
left_child=2 -2 5 -3 -5 -1 -7
right_child=1 3 -4 4 -6 6 -8
leaf_value=0.015378853389379788 -0.037076085466468095 -0.021732589626741995 0.040952012133497376 0.014472376996838392 -0.0097258393057738542 0 -0.034563431370196809
leaf_weight=4.3834880739450481 7.6610153019428244 8.0266188085079175 5.0478132292628279 24.932776920497414 22.598816446959976 4.745232418179512 4.2424729317426664
leaf_count=20 34 37 22 113 101 22 20
internal_value=-0.0024055 -0.00617413 0.00889392 -0.000890784 0.00248891 -0.00347633 -0.0157945
internal_weight=81.6382 63.2192 18.419 55.5582 47.5316 13.3712 8.98771
internal_count=369 285 84 251 214 62 42
is_linear=0
shrinkage=0.05


Tree=90
num_leaves=9
num_cat=0
split_feature=24 25 20 56 16 9 26 11
split_gain=2.68424 4.00315 3.98979 2.48354 2.77811 3.2878 3.01509 1.11682
threshold=1.1401218635752168 67.500000000000014 -0.0031876666699294284 4.8167598159573242 892.50076927989028 0.52039294576065276 941.6988405126616 19.027368854563381
decision_type=2 2 2 2 2 2 2 2
left_child=3 -2 -3 4 5 -1 -6 -5
right_child=1 2 -4 7 6 -7 -8 -9
leaf_value=-0.0020853643534100687 0.052163776897307695 0.023374255426759166 -0.024492770295343146 -0.0053197823567924293 -0.042372131856847073 0.034209730773140545 -0.0026894391120593723 -0.046605765394084786
leaf_weight=16.373572170734409 4.1224655508995083 8.2914510667324066 7.1648322641849491 5.1145237386226636 5.7387901023030308 8.0149434953927976 22.960419267416 4.3403879106044769
leaf_count=72 20 39 32 22 28 35 103 21
internal_value=-0.00150167 0.0138205 0 -0.00683367 -0.00190077 0.00973545 -0.0126258 -0.0293088
internal_weight=82.1214 19.5787 15.4563 62.5426 53.0877 24.3885 28.6992 9.45491
internal_count=372 91 71 281 238 107 131 43
is_linear=0
shrinkage=0.05


Tree=91
num_leaves=8
num_cat=0
split_feature=24 25 20 56 28 34 10
split_gain=2.49812 3.77644 3.65662 2.30937 3.53806 3.5709 0.225147
threshold=1.1401218635752168 67.500000000000014 -0.0031876666699294284 4.8167598159573242 835.11707434410766 1.0129334329348068 28.555048422268658
decision_type=2 2 2 2 2 2 2
left_child=3 -2 -3 4 -1 -6 -5
right_child=1 2 -4 6 5 -7 -8
leaf_value=0.029643199297056097 0.051003613170807309 0.022464744504537563 -0.023428131702039931 -0.0078614816966928978 0 -0.033908033793921641 -0.037745004850547846
leaf_weight=6.4284336864948264 4.0305146276950863 8.2376628890633583 7.1614262610673878 4.3629948943853361 37.587822005152702 8.9401637613773328 5.0365005433559418
leaf_count=29 20 39 32 20 166 43 23
internal_value=-0.00147035 0.0133575 0 -0.0066231 -0.001846 -0.00725481 -0.0283676
internal_weight=81.7855 19.4296 15.3991 62.3559 52.9564 46.528 9.3995
internal_count=372 91 71 281 238 209 43
is_linear=0
shrinkage=0.05


Tree=92
num_leaves=8
num_cat=0
split_feature=28 33 5 25 45 23 32
split_gain=2.35871 1.93121 2.98629 2.93852 2.69198 1.46787 1.01593
threshold=812.61898578035778 -0.018138603586411287 17.426116228028004 71.500000000000014 0.061396992211700592 12.159571442066143 -1.3284787882482922
decision_type=2 2 2 2 2 2 2
left_child=-1 2 -2 4 -3 -5 -4
right_child=1 3 6 5 -6 -7 -8
leaf_value=0.027834684414482953 -0.014859522890264832 0.037992727054303232 0.0023734098800060766 -0.034066848406768525 -0.004815622956896486 0 0.04161958330778881
leaf_weight=5.1849045455455771 5.2016839608550063 2.9955324977636328 4.481379121541976 12.084060534834864 41.167481802403927 5.323893040418624 5.0716053843498221
leaf_count=24 24 15 20 56 186 24 23
internal_value=-0.00140532 -0.00404922 0.011016 -0.0081773 -0.000581483 -0.0250109 0.0275474
internal_weight=81.5105 76.3256 14.7547 61.571 44.163 17.408 9.55298
internal_count=372 348 67 281 201 80 43
is_linear=0
shrinkage=0.05


Tree=93
num_leaves=8
num_cat=0
split_feature=28 33 2 21 32 5 32
split_gain=2.16557 1.77077 2.99285 5.12614 3.20197 2.7777 0.929996
threshold=812.61898578035778 -0.018138603586411287 46.34591002722803 -0.0016965401566529173 -1.7281158061107507 17.426116228028004 -1.3284787882482922
decision_type=2 2 2 2 2 2 2
left_child=-1 5 4 -4 -3 -2 -7
right_child=1 2 3 -5 -6 6 -8
leaf_value=0.026780890307421298 -0.014233249446963954 0.001749853475142866 0.034441563406253824 -0.0085666539729479154 -0.036823300891815326 0.0022769945423810464 0.040245650707211325
leaf_weight=5.1594821363687506 5.202998921275138 6.6261425763368633 7.63888095319271 33.988648474216461 13.203185915946959 4.4799583554267874 5.0180184692144385
leaf_count=24 24 30 34 158 59 20 23
internal_value=-0.00128185 -0.00382948 -0.00779518 0 -0.0232683 0.0105973 0.026641
internal_weight=81.3173 76.1578 61.4569 41.6275 19.8293 14.701 9.49798
internal_count=372 348 281 192 89 67 43
is_linear=0
shrinkage=0.05


Tree=94
num_leaves=9
num_cat=0
split_feature=24 58 20 31 11 56 23 6
split_gain=2.04847 3.46527 3.26768 3.22696 2.67219 2.96661 1.93951 1.01937
threshold=1.1401218635752168 0.67500000000000016 -0.0031876666699294284 1.4748293748004022 17.942517812684461 4.668321479348255 7.8239007031029741 36.465605676659465
decision_type=2 2 2 2 2 2 2 2
left_child=3 -2 -3 4 6 -6 -1 -5
right_child=1 2 -4 7 5 -7 -8 -9
leaf_value=0.031087304410037122 0.049106748829824146 0.021113375890319738 -0.022421316068140237 -0.0042611690769160286 0 -0.038100473237558996 0 -0.037290079156714326
leaf_weight=8.3457616716623324 3.8685412108898189 8.1303165033459663 7.1540129333734486 6.1226909905672064 22.142669625580314 5.8294013887643805 11.467444598674772 8.0887791812419874
leaf_count=37 20 39 32 27 102 28 50 37
internal_value=-0.00114625 0.0123569 0 -0.00584459 2.21761e-05 -0.00928432 0.0141769 -0.0259194
internal_weight=81.1496 19.1529 15.2843 61.9967 47.7853 27.9721 19.8132 14.2115
internal_count=372 91 71 281 217 130 87 64
is_linear=0
shrinkage=0.05


Tree=95
num_leaves=6
num_cat=0
split_feature=33 33 33 12 16
split_gain=1.96144 2.54016 2.40137 2.5478 1.83767
threshold=-0.032418662490012483 -0.024020667027385516 -0.0055810919335744355 30.442457945055633 892.21831759844122
decision_type=2 2 2 2 2
left_child=-1 -2 4 -4 -3
right_child=1 2 3 -5 -6
leaf_value=-0.026398295262236443 0.034621846273284511 0.0019844936923520489 0.00084147048229999376 0.03329530932118132 -0.026470279598528559
leaf_weight=5.1195939779281607 4.8446152210235587 7.4397287815809277 44.716232798993587 6.3677853047847739 11.464767023921011
leaf_count=24 22 33 207 27 54
internal_value=0.000449507 0.00293982 0 0.00592853 -0.014479
internal_weight=79.9527 74.8331 69.9885 51.084 18.9045
internal_count=367 343 321 234 87
is_linear=0
shrinkage=0.05


Tree=96
num_leaves=5
num_cat=0
split_feature=29 29 33 1
split_gain=1.93185 3.78323 1.96578 2.20781
threshold=0.013609502301119363 0.016696914019849848 -0.032418662490012483 53.528216955046723
decision_type=2 2 2 2
left_child=-1 -2 -3 -4
right_child=1 2 3 -5
leaf_value=0.034687285228867305 -0.046407353103208579 -0.025276146140546608 0.01004435519184816 -0.0089365952295673672
leaf_weight=2.9664800614118567 3.3616750389337531 5.1238180100917807 48.293184131383896 20.121652379631996
leaf_count=13 15 24 221 94
internal_value=0.000454435 -0.000973522 0.00136273 0.00405335
internal_weight=79.8668 76.9003 73.5387 68.4148
internal_count=367 354 339 315
is_linear=0
shrinkage=0.05


Tree=97
num_leaves=6
num_cat=0
split_feature=29 29 33 1 7
split_gain=1.80535 3.50297 1.8572 3.36266 1.54057
threshold=0.013609502301119363 0.016696914019849848 -0.0055810919335744355 53.528216955046723 -3.4291792656062507
decision_type=2 2 2 2 2
left_child=-1 -2 4 -4 -3
right_child=1 2 3 -5 -6
leaf_value=0.033588220515313232 -0.044790588447355895 0 0.019307707064251424 -0.0071062632542326287 -0.023704900609819914
leaf_weight=2.943676531314849 3.3453743755817404 18.730235658586029 26.258751913905144 19.10787396132946 9.392050087451933
leaf_count=13 15 86 119 90 44
internal_value=0.000379085 -0.000987217 0.00124572 0.00772996 -0.00826239
internal_weight=79.778 76.8343 73.4889 45.3666 28.1223
internal_count=367 354 339 209 130
is_linear=0
shrinkage=0.05


Tree=98
num_leaves=7
num_cat=0
split_feature=3 20 32 2 25 45
