tree
version=v4
num_class=1
num_tree_per_iteration=1
label_index=0
max_feature_idx=58
objective=binary sigmoid:1
feature_names=feature_0 feature_1 feature_2 feature_3 feature_4 feature_5 feature_6 feature_7 feature_8 feature_9 feature_10 feature_11 feature_12 feature_13 feature_14 feature_15 feature_16 feature_17 feature_18 feature_19 feature_20 feature_21 feature_22 feature_23 feature_24 feature_25 feature_26 feature_27 feature_28 feature_29 feature_30 feature_31 feature_32 feature_33 feature_34 feature_35 feature_36 feature_37 feature_38 feature_39 feature_40 feature_41 feature_42 feature_43 feature_44 feature_45 feature_46 feature_47 feature_48 feature_49 feature_50 feature_51 feature_52 feature_53 feature_54 feature_55 feature_56 feature_57 feature_58
feature_infos=[7.4836808491226066:94.914144292719314] [17.24851242081273:89.958341323408774] [24.238468580853365:86.893826533489957] [-8.6296758142424004:8.4427730056800261] [-0.48363122140792003:0.22973423613340302] [1.4712778837729275:98.70408780168934] [3.9816525028433412:98.063286863110989] [-0.24292493498237633:0.77180429269228856] [-0.19685847263119582:0.6280628367999237] [-0.13774136318555874:0.27647388945807461] [7.6354369002705429:62.907887675731409] [5.1694356183110086:60.526950471311693] [2.3212889526322322:60.640595399540167] [-28.614346229411723:111.40568186661872] [-2.8468572834866821:3.1158336526421211] [4.9317030058778251:9.0106523168916635] [4.9736092925931965:8.5932951487479254] [5.058107458707533:8.2254159671738662] [-1:1] [-1:1] [-0.058682246798675501:0.22239663763353434] [-0.076558463001345181:0.31458163284538698] [-0.10577030095822525:0.41628864630682616] [0.035831602342778934:0.49766426345703491] [0.57309473862065052:5.6874579602719217] [12:99] [5.1047369656452224:10.500259230239298] [4.9764499999999998:8.9479800000000065] [4.7181166986608201:8.1990364594479956] [0.011536930186814748:0.60546010491715829] [-0.38440687264729156:1.4131663089109687] [0.025283929786295491:10.666690305198074] [-5.5528562595678048:8.0186802798066932] [-0.13584533777795393:0.17850724152765157] [-1.8770459081836421:2.9689101756154925] none none none none none none none none none none [0.012307783281909875:0.1221438538564829] none none none none none none none none none [0.6483898807983165:3] [2.0128605752602371:5] [0:2] [0.12:0.98999999999999999]
tree_sizes=1506 1186 1301 1596 1307 1175 1293 1254 1256 1677 1188 1679 1720 1589 1602 676 780 790 965 786 1376 1510 1087 777 1476 1196 1399 1360 1302 1383 776 780 1049 984 755 1493 1389 1519 785 788 865 864 1283 1283 859 1372 1373 1199 1155 1080 1199 997 1201 1265 1257 1092 996 1065 1100 1091 1087 1084 1189 1290 1183 1585 1612 1170 1177 947 1097 1294 1300 749 1097 1606 853 1454 870 1401 1394 1284 1405 986 1090 1279 1289 1468 1175 1469 1405 1082 1095 781 1397 957 867 988 988 994 1262 756 1092 753 1091 792 983 788 771 774 1400 1252 1152 1175 881 1261 1405 1488 1304 1091 1083 969 1090 1406 787 1086 1077 678 1077 883 1357 1345 957 749 1293 1081 991 1369 1198 1383 1352 1368 1068 1387 1080 1290 856 876 1094 1073

Tree=0
num_leaves=13
num_cat=0
split_feature=28 25 0 3 12 32 5 10 0 9 29 32
split_gain=9.31343 8.17917 7.81083 14.3341 11.2235 9.48008 6.65119 5.61258 6.18513 5.07046 4.74801 4.47998
threshold=5.6411352089191071 88.500000000000014 49.525448298986845 1.3622795687790148 23.631510447211642 -0.82837522405329123 43.494554223493729 16.612708046588562 65.799860505761714 0.010173390218750616 0.078689051593160822 0.75025919566127819
decision_type=2 2 2 2 2 2 2 2 2 2 2 2
left_child=1 7 4 11 6 -6 -2 -1 -9 -5 -3 -4
right_child=2 10 3 9 5 -7 -8 8 -10 -11 -12 -13
leaf_value=-0.031336712271662161 0.021057069530656555 -0.071004059137350611 -0.078354227785420838 -0.039245874605938008 -0.019401818949982906 -0.06745149467389315 -0.024349371634346438 0.021130069990784549 -0.022980019257669519 0.0041464880234475983 -0.018028493333590391 -0.033818145871328989
leaf_weight=8.3284938633441907 18.548794239759449 5.5220300555229178 22.093801319599152 11.09518998861313 27.309051811695099 14.577704846858976 11.873500794172285 30.740436643362045 9.0954424738883954 13.441484600305555 9.6124226450920087 10.345284670591353
leaf_count=33 73 22 88 44 108 58 47 121 36 53 38 41
internal_value=-0.0227197 -0.00728109 -0.0305291 -0.0442523 -0.0199074 -0.0362003 0.00304407 0.00287415 0.0106807 -0.0163425 -0.0376179 -0.0656627
internal_weight=192.584 63.2988 129.285 56.9758 72.3091 41.8868 30.4223 48.1644 39.8359 24.5367 15.1345 32.4391
internal_count=762 250 512 226 286 166 120 190 157 97 60 129
is_linear=0
shrinkage=1


Tree=1
num_leaves=10
num_cat=0
split_feature=28 33 25 7 14 20 23 29 33
split_gain=8.39689 8.20827 7.37654 6.62695 7.07428 7.21927 5.61147 5.42703 4.46487
threshold=5.6411352089191071 -0.04630834861171277 88.500000000000014 -0.15937387726252703 -0.31312208637648137 -0.0027369942326877649 0.072376210148011599 0.078689051593160822 0.023591468497362076
decision_type=2 2 2 2 2 2 2 2 2
left_child=1 -1 8 -2 5 -5 -6 -4 -3
right_child=3 2 7 4 6 -7 -8 -9 -10
leaf_value=0.063582185577341896 0.041551417968617083 0.0075576189511968386 -0.059296691114646305 0.025880113677130952 0.00038005988820425627 -0.011372872115579174 -0.029050852544200007 0 0.046549267975539044
leaf_weight=6.6293363124132147 5.3404252082109442 32.893069490790367 5.005052685737609 20.790027186274529 20.971444398164749 30.516763523221016 51.618351548910141 9.1015331447124463 9.6634143739938718
leaf_count=26 21 130 20 82 83 121 205 36 38
internal_value=-0.000265305 0.0143869 0.00719485 -0.00768838 -0.0103267 0.00345065 -0.0203188 -0.022351 0.017851
internal_weight=192.529 63.2924 56.6631 129.237 123.897 51.3068 72.5898 14.1066 42.5565
internal_count=762 250 224 512 491 203 288 56 168
is_linear=0
shrinkage=0.05


Tree=2
num_leaves=11
num_cat=0
split_feature=16 34 15 24 33 12 33 32 31 10
split_gain=7.81247 9.10275 7.76848 11.0007 7.2227 6.18467 4.88022 4.75193 4.6458 1.87333
threshold=5.8775741188032589 0.21655063925798892 7.4364573504318772 1.6076566565723243 -0.04630834861171277 23.631510447211642 -0.024658025073198957 -0.6562446402704486 1.5571869812323802 19.114605724864788
decision_type=2 2 2 2 2 2 2 2 2 2
left_child=4 5 3 -3 -1 9 -6 -7 -8 -2
right_child=1 2 -4 -5 6 7 8 -9 -10 -11
leaf_value=0.06013213120996979 0.0095844573094637439 -0.026724089820882299 -0.053767111598430367 0.014455696315939121 -0.028365891641761939 0.0069450875647391235 0.020192218928424904 -0.041869081011126644 -0.01141403800982739 0.058863249389989949
leaf_weight=6.3661450296640387 5.3151640295982343 40.273668974637985 12.287354707717894 25.049449875950813 7.2937089055776587 27.307972475886341 43.820460498332977 5.0134678632020977 13.868385002017019 5.8618534356355667
leaf_count=25 21 160 49 99 29 108 173 20 55 23
internal_value=-0.000199526 -0.00803872 -0.0183291 -0.0105761 0.0126885 0.00975902 0.00682086 -0.000905634 0.0121031 0.0401936
internal_weight=192.458 121.109 77.6105 65.3231 71.3487 43.4985 64.9826 32.3214 57.6888 11.177
internal_count=762 480 308 259 282 172 257 128 228 44
is_linear=0
shrinkage=0.05


Tree=3
num_leaves=14
num_cat=0
split_feature=22 33 17 1 9 3 33 27 0 8 12 2 12
split_gain=7.45075 8.05324 6.92273 11.7016 5.77449 11.3557 5.6787 7.03288 5.56859 4.78997 4.20039 3.22894 2.69521
threshold=-0.0038174332073827367 0.024159316244512893 5.8842321719179758 47.773137162250983 -0.026754344022467472 1.1025499849632949 -0.010744302250918035 6.1937625000000107 34.084326191165943 -0.0068112544202852312 14.830575559255299 64.194770192651134 18.099367635186695
decision_type=2 2 2 2 2 2 2 2 2 2 2 2 2
left_child=2 4 3 8 -2 -6 9 -8 -1 -4 11 -3 -12
right_child=1 10 6 -5 5 -7 7 -9 -10 -11 12 -13 -14
leaf_value=0.032842694906429486 0.015992210110457358 -0.024275244526750447 0.014923410061084399 0.072026262055323698 -0.046599599829840341 0.0015612353244665409 -0.054084617509594403 0.0050974888514989901 -0.009595055405998875 -0.027824344924589885 0.048151837300572667 0.012112843219477164 0
leaf_weight=12.163320749998094 7.0852589905261985 10.558104023337366 39.969895005226135 9.1805571913719159 30.853730052709579 18.189854249358177 8.7728308290243167 8.5945739299058896 16.641663029789925 6.538928508758544 7.1199543178081495 11.136492639780043 5.5539747625589371
leaf_count=48 28 42 158 36 123 72 35 34 66 26 28 44 22
internal_value=-0.00017479 -0.010679 0.00892758 0.025556 -0.0223199 -0.0285633 -0.000817045 -0.0247532 0.00798679 0.00792789 0.0077189 -0.00478389 0.0297335
internal_weight=192.359 90.4974 101.862 37.9855 56.1288 49.0436 63.8762 17.3674 28.805 46.5088 34.3685 21.6946 12.6739
internal_count=762 359 403 150 223 195 253 69 114 184 136 86 50
is_linear=0
shrinkage=0.05


Tree=4
num_leaves=11
num_cat=0
split_feature=16 34 15 24 33 34 33 33 32 33
split_gain=6.51456 7.79066 7.13636 9.45356 6.54861 6.10147 8.07443 4.56099 4.43712 3.32253
threshold=5.8775741188032589 0.21655063925798892 7.4364573504318772 1.6076566565723243 -0.04630834861171277 0.010031085003910095 -0.074470547836938614 -0.024658025073198957 -1.5905358352540324 -0.01047828052434162
decision_type=2 2 2 2 2 2 2 2 2 2
left_child=4 5 3 -3 -1 6 -2 -6 -9 -7
right_child=1 2 -4 -5 7 9 -8 8 -10 -11
leaf_value=0.056884196254316878 0.030455564176482753 -0.02442986166381185 -0.050835993987868103 0.013739792384200273 -0.027972725500021237 0.036043215050203463 -0.032656937360443554 -0.010548708841065603 0.019542967668638205 -0.0042192839636951904
leaf_weight=6.3396225422620764 6.5968927145004299 40.191951513290405 12.248279213905333 25.047532796859741 7.2896534651517859 18.264287084341053 13.323580473661421 15.12805227935314 42.525570645928383 5.2856033593416205
leaf_count=25 26 160 49 99 29 72 53 60 168 21
internal_value=-0.000126127 -0.00730157 -0.0168423 -0.0094117 0.0116364 0.00913933 -0.0101048 0.00604466 0.0111756 0.0261845
internal_weight=192.241 120.958 77.4878 65.2395 71.2829 43.4704 19.9205 64.9433 57.6536 23.5499
internal_count=762 480 308 259 282 172 79 257 228 93
is_linear=0
shrinkage=0.05


Tree=5
num_leaves=10
num_cat=0
split_feature=16 33 55 25 15 8 7 22 45
split_gain=6.28247 5.53374 4.68695 6.3462 3.74023 8.26787 5.97184 4.19796 1.13149
threshold=5.5752453686542891 -0.033672907732314371 1.4048951966521848 40.500000000000007 8.5649919814684061 0.13232497834396484 -0.0029498329283175191 0.077236045437139425 0.036892002189503767
decision_type=2 2 2 2 2 2 2 2 2
left_child=1 -1 3 -3 5 6 -2 -7 -4
right_child=4 2 8 -5 -6 7 -8 -9 -10
leaf_value=0.062012598748699424 0.0031389970653682518 -0.018997283945086957 0 0.037170603533685433 -0.04278737037759988 0.064272061821831303 -0.017489707894404221 0.0010503029284681369 -0.028461494868500609
leaf_weight=5.3286951631307593 78.201475635170937 5.540528371930125 6.0536936968564969 17.510855630040169 4.9920193552970877 5.6025412380695325 60.074950397014618 5.8120830953121185 5.77890245616436
leaf_count=21 310 22 24 69 20 22 239 23 23
internal_value=0.000648215 0.0181115 0.00916739 0.0224023 -0.00381826 -0.00207747 -0.00570498 0.0367723 -0.0144043
internal_weight=194.896 40.2127 34.884 23.0514 154.683 149.691 138.276 11.4146 11.8326
internal_count=773 159 138 91 614 594 549 45 47
is_linear=0
shrinkage=0.05


Tree=6
num_leaves=11
num_cat=0
split_feature=17 34 15 12 28 30 0 27 5 0
split_gain=6.95023 4.87109 8.01401 9.98937 6.46356 5.18349 4.38023 2.80573 2.74757 5.14348
threshold=5.88837473435074 0.23961759878465974 7.4364573504318772 13.071658716928694 5.8637302648734169 0.41582262857499569 74.305030490697916 7.5361525000000045 13.959416756787355 42.814317547534039
decision_type=2 2 2 2 2 2 2 2 2 2
left_child=6 4 3 -3 -2 -6 8 -4 -1 -10
right_child=1 2 7 -5 5 -7 -8 -9 9 -11
leaf_value=0.046934190689363796 -0.029433150478198895 0.038939379555717302 -0.014302825458288863 -0.015839227355371716 0.0045108487811678765 0.05105297600449428 -0.019269454435461675 -0.070732115960851397 -0.0088663376626421948 0.021874872069736789
leaf_weight=6.5803653150796881 9.5397648960351926 8.8778857290744764 5.7488415986299497 48.258201017975807 33.077107518911362 6.8572542667388907 8.0594094693660718 6.9439264982938766 17.626942276954651 43.222625434398651
leaf_count=26 38 35 23 192 131 27 32 28 70 171
internal_value=0.000633646 -0.00672765 -0.0152338 -0.00637424 0.00484673 0.0141654 0.0125301 -0.0499109 0.0169223 0.0125662
internal_weight=194.792 119.303 69.8289 57.1361 49.4741 39.9344 75.4893 12.6928 67.4299 60.8496
internal_count=773 474 278 227 196 158 299 51 267 241
is_linear=0
shrinkage=0.05


Tree=7
num_leaves=11
num_cat=0
split_feature=17 3 13 6 27 0 55 3 10 0
split_gain=6.29457 5.22314 5.84439 7.31929 4.17449 3.99999 3.12741 2.26409 4.92079 4.32849
threshold=5.88837473435074 1.9942488335882305 -22.094440366752753 34.304459369681204 6.2101750000000022 74.305030490697916 1.1664187274765483 -1.5058458486100919 27.418191834751649 33.10975861115849
decision_type=2 2 2 2 2 2 2 2 2 2
left_child=5 2 -2 -4 -3 7 -6 8 -1 -9
right_child=1 4 3 -5 6 -7 -8 9 -10 -11
leaf_value=-0.019676409935285893 0.025529202959382338 -0.0085942708588348012 0.0019011369534404695 -0.026634528172320527 0.053647700547571425 -0.018411317654667934 0 0.060706582914545199 0.035941694694380376 0.014581739196535349
leaf_weight=10.552488192915915 8.3357575833797437 8.8157561868429202 34.79789112508297 54.857577949762344 6.8525708913803083 8.0598896294832212 5.5397072732448578 5.5760085433721533 5.0607429146766654 46.208725169301033
leaf_count=42 33 35 138 219 27 32 22 22 20 183
internal_value=0.000590472 -0.00641252 -0.0114288 -0.0153844 0.0151103 0.0119191 0.0332228 0.0161279 0 0.0210779
internal_weight=194.657 119.199 97.9912 89.6555 21.208 75.4579 12.3923 67.398 15.6132 51.7847
internal_count=773 474 390 357 84 299 49 267 62 205
is_linear=0
shrinkage=0.05


Tree=8
num_leaves=11
num_cat=0
split_feature=17 3 13 6 27 0 24 3 31 0
split_gain=5.68539 4.74869 5.32339 6.64731 3.84315 3.66357 2.86033 2.05443 4.60406 4.00733
threshold=5.88837473435074 1.9942488335882305 -22.094440366752753 34.304459369681204 6.2101750000000022 74.305030490697916 2.3349513620224478 -1.5058458486100919 0.57193264783258491 33.10975861115849
decision_type=2 2 2 2 2 2 2 2 2 2
left_child=5 2 -2 -4 -3 7 -6 8 -1 -9
right_child=1 4 3 -5 6 -7 -8 9 -10 -11
leaf_value=0.0348855546160265 0.024375159686278954 -0.0082089971965942973 0.0018086841860348033 -0.025364285145015382 0.049795636261057499 -0.017594212156816787 0 0.058381036498913165 -0.018951202410744557 0.013871955152275085
leaf_weight=5.0459430962800971 8.3410874009132367 8.8149838149547595 34.798876821994781 54.776721507310867 7.3628502786159498 8.0589548200368863 5.0292181968688965 5.5487168580293647 10.561287418007849 46.195908546447754
leaf_count=20 33 35 138 219 29 32 20 22 42 183
internal_value=0.000604129 -0.00604646 -0.0108404 -0.0146285 0.0144537 0.0113786 0.0318506 0.0154178 0 0.0201351
internal_weight=194.535 119.124 97.9167 89.5756 21.2071 75.4108 12.3921 67.3519 15.6072 51.7446
internal_count=773 474 390 357 84 299 49 267 62 205
is_linear=0
shrinkage=0.05


Tree=9
num_leaves=15
num_cat=0
split_feature=17 34 15 12 0 32 2 2 55 5 6 15 33 27
split_gain=5.13972 4.15627 7.54699 9.22666 5.94553 4.42071 3.54226 5.45951 4.8042 5.50571 4.04392 4.00655 3.47584 2.56099
threshold=5.88837473435074 0.23961759878465974 7.4364573504318772 13.071658716928694 31.456528819639257 -0.99078267161258238 49.417945757451371 47.463063681152384 1.2564718803428696 72.916975632722 36.904504890465596 5.8190881933991587 -0.031886143273668545 7.5361525000000045
decision_type=2 2 2 2 2 2 2 2 2 2 2 2 2 2
left_child=6 4 3 -3 5 -2 7 10 9 -8 -1 -10 -6 -4
right_child=1 2 13 -5 12 -7 8 -9 11 -11 -12 -13 -14 -15
leaf_value=0.025935012352212281 0 0.038511754824644834 -0.013166771860954319 -0.014186662984268815 0.035419019203662645 -0.04806227327160327 -0.040188152448365065 0.063127650204389804 -0.0018831059308208921 0.0090086228468391621 -0.0085021363895732473 0.041714920733909699 0.00063241106891388495 -0.067364035861766786
leaf_weight=18.867507547140125 12.628281459212305 8.8747304081916791 5.7276305109262449 48.12778340280056 14.691591784358026 5.9932579547166815 10.538615301251413 5.8420117050409308 9.5750179588794726 9.3534979075193387 12.815914362668989 8.3541939407587034 16.119393274188042 6.8659612089395523
leaf_count=75 50 35 23 192 58 24 42 23 38 37 51 33 64 28
internal_value=0.000612312 -0.00570647 -0.0136003 -0.00502851 0.0049609 -0.016126 0.0108658 0.0215369 0 -0.0165347 0.0114064 0.0182414 0.0185976 -0.0473358
internal_weight=194.375 119.029 69.5961 57.0025 49.4325 18.6215 75.3468 37.5254 37.8213 19.8921 31.6834 17.9292 30.811 12.5936
internal_count=773 474 278 227 196 74 299 149 150 79 126 71 122 51
is_linear=0
shrinkage=0.05


Tree=10
num_leaves=10
num_cat=0
split_feature=15 5 32 6 15 8 15 32 29
split_gain=5.37792 6.85689 6.16578 6.55194 4.84174 4.73431 3.67502 6.50604 4.70761
threshold=5.5828969961480492 13.959416756787355 -1.5905358352540324 75.98615716050746 5.6684877617845677 -0.047377975409993438 7.4364573504318772 -1.0392787367282961 0.12804176154545358
decision_type=2 2 2 2 2 2 2 2 2
left_child=1 -1 5 -4 -2 -3 8 -8 -6
right_child=4 2 3 -5 6 -7 7 -9 -10
leaf_value=0.064039010129840965 -0.044095164623215631 0.0060027399520605111 0.042104588981088542 -0.0086272720174780156 -0.002600029110895451 -0.045900904654850389 0.01560849021443233 -0.041323957331034417 0.028500843726105531
leaf_weight=5.2641522884368888 6.5103408694267264 8.0744873583316785 14.649561092257501 9.0624334216117841 109.35989798605442 6.7540407478809348 6.2754273712635067 13.350696235895155 12.628674507141112
leaf_count=21 26 32 58 36 435 27 25 54 50
internal_value=-6.3949e-05 0.0149942 0.0062129 0.0221393 -0.0047554 -0.017465 -0.00247506 -0.0220337 0.000621926
internal_weight=191.93 43.8047 38.5405 23.712 148.125 14.8285 141.615 19.6261 121.989
internal_count=764 174 153 94 590 59 564 79 485
is_linear=0
shrinkage=0.05


Tree=11
num_leaves=15
num_cat=0
split_feature=12 17 34 7 14 31 10 13 11 13 14 2 16 15
split_gain=5.38523 7.52697 7.12601 5.74825 4.44902 6.06515 4.52783 4.16416 4.98824 4.95804 3.95343 3.6114 2.98402 1.49552
threshold=20.495150404762178 5.88837473435074 0.62547800402649112 -0.011316857159258563 -0.60791214881132583 0.80132734112308057 24.149564978630302 -4.6556609070318347 27.154992593949867 -17.64872314999478 -0.99470032355387927 43.837940782875414 5.653740995339648 5.9038472582109884
decision_type=2 2 2 2 2 2 2 2 2 2 2 2 2 2
left_child=2 3 10 11 6 -6 -3 9 -9 -4 -1 -2 -5 -12
right_child=1 4 7 12 5 -7 -8 8 -10 -11 13 -13 -14 -15
leaf_value=0 0.020751662658454493 0.04919943083410358 -0.016260053370292456 -0.019496307068094267 -0.02452918628575191 0.0088492410960065212 -0.0048989405756459208 -0.037840401941181989 0.00058892155334753539 0.034892994290142434 -0.010568477454455598 0.064813423592531796 0.023731226835633595 -0.050817929302763645
leaf_weight=6.5180372744798687 18.038051187992099 6.3417383134365064 5.5207984000444439 8.5268717408180219 29.562624916434288 22.400091767311096 6.2864468693733215 9.9705589562654477 31.400375783443451 13.64626260101795 5.5283441245555904 8.34221403300762 5.8164585679769507 13.86289209127426
leaf_count=26 72 25 22 34 118 89 25 40 125 54 22 33 23 56
internal_value=-5.03974e-05 0.00737911 -0.00936817 0.0240055 -0.0029286 -0.00977297 0.0220509 0 -0.00875716 0.0188438 -0.0307773 0.0374566 0 -0.0416501
internal_weight=191.762 105.314 86.4473 40.7236 64.5909 51.9627 12.6282 60.538 41.3709 19.1671 25.9093 26.3803 14.3433 19.3912
internal_count=764 419 345 162 257 207 50 241 165 76 104 105 57 78
is_linear=0
shrinkage=0.05


Tree=12
num_leaves=15
num_cat=0
split_feature=7 17 31 31 3 0 2 7 22 23 14 3 1 3
split_gain=4.6931 8.85004 6.56552 5.35459 8.3251 7.02136 9.28133 5.00061 4.63871 4.30286 3.60494 2.68809 3.38343 1.93781
threshold=-0.016471065243096824 5.9031728010999203 0.64850400708399913 0.67279507647257153 -1.0749871272272074 51.049211870480072 52.597771965813116 0.14357483610126034 -0.018298182096264961 0.080276003087130385 -0.49567710880409993 0.94702644061228491 43.295843760405305 -1.7275016225354982
decision_type=2 2 2 2 2 2 2 2 2 2 2 2 2 2
left_child=1 11 10 5 -5 9 -7 -6 -4 -2 -3 13 -13 -1
right_child=3 2 8 4 7 6 -8 -9 -10 -11 -12 12 -14 -15
leaf_value=0.0086547900624298849 0.00077154241924368107 0.0083762453614886351 -0.0019022027156790891 -0.043966995916607729 -0.010850596611437197 -0.049389261951530372 0.0079821971156654251 0.037908690794040058 0.037746541127721474 0.046681279244281386 -0.02992077800182007 -0.017581752913569962 0.03386106311737485 0.054602796439553208
leaf_weight=5.0195738077163723 11.039453104138376 6.7885040193796184 15.881910488009455 18.612408757209778 35.137459233403206 9.4271241575479525 19.559376910328865 5.0578791350126258 11.104950129985808 10.860156580805777 20.787496849894524 5.0008811056613904 5.2817626595497131 12.007237002253534
leaf_count=20 44 27 63 75 140 38 78 20 44 43 83 20 21 48
internal_value=-2.6124e-05 0.00884104 -0.00246303 -0.00689025 -0.0171343 0.0045688 -0.0108675 -0.00333695 0.0142855 0.0256745 -0.019655 0.0315983 0.00728563 0.0436755
internal_weight=191.566 81.8723 54.5629 109.694 58.8077 50.8861 28.9865 40.1953 26.9869 21.8996 27.576 27.3095 10.2826 17.0268
internal_count=764 326 217 438 235 203 116 160 107 87 110 109 41 68
is_linear=0
shrinkage=0.05


Tree=13
num_leaves=14
num_cat=0
split_feature=12 34 23 24 14 32 32 31 13 11 14 32 14
split_gain=4.85124 6.57294 5.16633 6.17996 4.65685 4.55749 3.49591 4.10646 3.37758 4.03848 3.95763 3.10072 2.12754
threshold=20.495150404762178 0.60573572101698203 0.072043878972801581 1.3968376094743675 -0.60791214881132583 -1.1791785724658095 0.75025919566127819 0.43128889176981833 -4.6556609070318347 24.571987911838246 -0.62676547203301081 -0.52831904275621044 -0.7732455340701494
decision_type=2 2 2 2 2 2 2 2 2 2 2 2 2
left_child=1 5 6 11 -5 -1 7 -2 10 -10 -3 -4 -7
right_child=2 8 3 4 -6 12 -8 -9 9 -11 -12 -13 -14
leaf_value=0.0013998593415814021 0.0021073981341042966 -0.0036276223431748432 -0.0072906867748558576 0.033061038757657916 0 -0.014733775347740567 -0.0075490813939401678 0.045741416272702923 -0.046416957846668667 -0.0011476833852497258 0.037664217357407319 -0.05587301021794621 -0.058001873912380535
leaf_weight=6.7665098160505321 9.7282282710075396 10.041264414787294 11.032701417803766 12.618090257048605 44.15435679256916 7.4718161374330565 5.7417414486408225 16.589870646595955 4.9506985247135153 36.864610373973846 9.868555083870886 5.1885075718164435 10.326763853430744
leaf_count=27 39 40 44 50 176 30 23 66 20 147 39 21 42
internal_value=0 -0.00883594 0.00707796 -8.89307e-06 0.00749214 -0.0301553 0.0234817 0.0311952 0 -0.00805016 0.016466 -0.026624 -0.0429179
internal_weight=191.344 86.2902 105.053 72.9937 56.7724 24.5651 32.0598 26.3181 61.7251 41.8153 19.9098 16.2212 17.7986
internal_count=764 345 419 291 226 99 128 105 246 167 79 65 72
is_linear=0
shrinkage=0.05


Tree=14
num_leaves=14
num_cat=0
split_feature=12 34 23 23 22 9 21 45 7 12 7 30 30
split_gain=4.42115 5.99323 4.71687 5.79665 3.48456 3.42978 3.28696 4.63276 4.62051 2.74908 2.53473 3.14477 2.22364
threshold=20.495150404762178 0.60573572101698203 0.072043878972801581 0.075266134648434804 -0.012968321949036464 -0.029770249913519647 0.039660061406632391 0.041591761471490983 0.14645927708506482 15.854803003158009 -0.016471065243096824 0.3307153637376366 0.44652300701749587
decision_type=2 2 2 2 2 2 2 2 2 2 2 2 2
left_child=1 4 10 -4 -1 -5 7 -3 -8 -6 12 -12 -2
right_child=2 6 3 5 9 -7 8 -9 -10 -11 11 -13 -14
leaf_value=0.0010612749717734615 0.041216714749536927 0.026746777495404436 -0.042999270666910352 0.02778520072696998 -0.00075283717123139421 -0.00076317293949830988 -0.052825291850501645 -0.0044732182599746149 0.0051839324687983782 -0.049850294921974722 -0.021210357005627747 0.027201297062090121 0
leaf_weight=5.7868253290653255 15.752537429332735 16.318307146430016 6.2040872871875754 11.58208444714546 4.8781782537698772 55.154687732458115 5.4784518629312497 34.385328441858292 5.5115251988172531 13.820877015590666 5.7564397752284986 5.5268327295780182 4.9712504297494879
leaf_count=23 63 65 25 46 20 220 22 137 22 56 23 22 20
internal_value=-1.59755e-05 -0.0084836 0.00671581 -4.09854e-05 -0.0288806 0.00415934 0 0.00541398 -0.0236423 -0.0389994 0.022406 0.000751576 0.0324679
internal_weight=191.127 86.1795 104.948 72.9409 24.4859 66.7368 61.6936 50.7036 10.99 18.6991 32.0071 11.2833 20.7238
internal_count=764 345 419 291 99 266 246 202 44 76 128 45 83
is_linear=0
shrinkage=0.05


Tree=15
num_leaves=5
num_cat=0
split_feature=22 14 16 15
split_gain=7.81079 7.57263 4.39876 4.09149
threshold=-0.068745068812979801 -1.6833730761292847 5.120807255534749 5.1841266238723342
decision_type=2 2 2 2
left_child=-1 -2 -3 -4
right_child=1 2 3 -5
leaf_value=0.050246267749954346 0.048346445343800927 0.032571354662946264 -0.044651164889961958 -0.0028536044023031734
leaf_weight=6.853804185986518 6.553048461675643 7.2848205864429465 5.2101677656173697 169.61674630641937
leaf_count=27 26 29 21 679
internal_value=0.00135087 -0.000549143 -0.00269953 -0.0044883
internal_weight=195.519 188.665 182.112 174.827
internal_count=782 755 729 700
is_linear=0
shrinkage=0.05


Tree=16
num_leaves=6
num_cat=0
split_feature=14 7 16 5 15
split_gain=6.35078 6.43577 5.27164 5.82582 4.85204
threshold=-1.6833730761292847 -0.15937387726252703 5.9038673121372982 83.706983346042179 5.8190881933991587
decision_type=2 2 2 2 2
left_child=-1 -2 4 -4 -3
right_child=1 2 3 -5 -6
leaf_value=0.046337295173746663 0.050120585748675985 0.00081723647874585616 -0.0047515946379029367 -0.041438878713657673 0.032229228825323301
leaf_weight=6.5390174984931937 5.0744978487491599 60.06465607881546 97.034662276506424 11.67110140621662 15.091991722583769
leaf_count=26 20 240 389 47 60
internal_value=0.00130517 -0.000357503 -0.00214949 -0.0092602 0.00779363
internal_weight=195.476 188.937 183.862 108.706 75.1566
internal_count=782 756 736 436 300
is_linear=0
shrinkage=0.05


Tree=17
num_leaves=6
num_cat=0
split_feature=22 14 20 20 9
split_gain=6.94883 6.37835 4.42851 9.68628 7.28364
threshold=-0.068745068812979801 -1.6833730761292847 -0.011522115215938137 -0.0079646413297292142 -0.024386708471107483
decision_type=2 2 2 2 2
left_child=-1 -2 4 -4 -3
right_child=1 2 3 -5 -6
leaf_value=0.047457527703121755 0.044450765072339082 0.0065869408796455824 0.041096611275338576 -0.0027928675273564186 -0.038569223058359137
leaf_weight=6.8312497884035102 6.5186545550823203 14.282124936580656 12.805727094411848 136.03455553948879 18.889604821801186
leaf_count=27 26 57 51 545 76
internal_value=0.0012683 -0.000514982 -0.00249609 0.00106546 -0.0187718
internal_weight=195.362 188.531 182.012 148.84 33.1717
internal_count=782 755 729 596 133
is_linear=0
shrinkage=0.05


Tree=18
num_leaves=8
num_cat=0
split_feature=7 27 15 21 8 16 58
split_gain=5.21583 4.57233 6.96911 5.60739 8.89833 5.10756 4.02504
threshold=-0.15937387726252703 5.5388249999999841 5.4351607052348063 0.031372666811090612 0.1170080908046502 5.120807255534749 0.94500000000000006
decision_type=2 2 2 2 2 2 2
left_child=-1 2 5 4 -3 -2 -5
right_child=1 3 -4 6 -6 -7 -8
leaf_value=0.04699044462125735 0.034044357526865562 -0.0042315833974802871 0.051144545629059693 -0.054605496286614943 0.045790367136711037 -0.011427512542196795 0
leaf_weight=5.040728732943534 7.7506700754165676 131.50339886546135 9.0645076781511289 7.8827333301305753 8.5119695663452131 19.515509977936745 5.9853712320327759
leaf_count=20 31 527 36 32 34 78 24
internal_value=0.00123704 -8.41025e-05 0.015489 -0.00399846 -0.000710154 0.00136098 -0.0332358
internal_weight=195.255 190.214 36.3307 153.883 140.015 27.2662 13.8681
internal_count=782 762 145 617 561 109 56
is_linear=0
shrinkage=0.05


Tree=19
num_leaves=6
num_cat=0
split_feature=22 14 20 20 9
split_gain=6.22204 5.7924 4.028 8.73613 6.49301
threshold=-0.068745068812979801 -1.6833730761292847 -0.011522115215938137 -0.0079646413297292142 -0.024386708471107483
decision_type=2 2 2 2 2
left_child=-1 -2 4 -4 -3
right_child=1 2 3 -5 -6
leaf_value=0.045011746766043588 0.042491046447578985 0.005955367622767908 0.039071077046555186 -0.002634624432543916 -0.036639401106706486
leaf_weight=6.7960871160030356 6.4765412509441367 14.273718714714049 12.786710634827612 135.92485110461712 18.836799189448357
leaf_count=27 26 57 51 545 76
internal_value=0.00120182 -0.000476737 -0.00236805 0.0010214 -0.0179079
internal_weight=195.095 188.299 181.822 148.712 33.1105
internal_count=782 755 729 596 133
is_linear=0
shrinkage=0.05


Tree=20
num_leaves=12
num_cat=0
split_feature=16 0 31 11 3 24 5 15 16 11 31
split_gain=5.69897 6.48755 5.23912 5.42043 4.50042 6.27174 4.93955 4.42997 5.24883 4.40807 2.5282
threshold=5.545306026476589 50.061058810944367 1.0869238240968417 28.024297418461195 -0.37538146350401397 1.3223124573685494 37.936818458881213 5.413191456473478 5.120807255534749 23.420303415251357 0.36156665026986501
decision_type=2 2 2 2 2 2 2 2 2 2 2
left_child=7 4 3 -3 5 -2 -6 8 -1 -4 -10
right_child=1 2 9 -5 6 -7 -8 -9 10 -11 -12
leaf_value=0.038042810409700499 0.02143515129717885 -0.035835707065894264 0.039831112862739486 0 0.033550377283201538 -0.01377322569053082 -0.0053072883128392877 0.048058113060419183 0.017084869910294273 -0.0070317997062144533 -0.017938672764829158
leaf_weight=8.6759083718061465 17.263151496648788 30.827774941921234 5.5084476768970516 16.217020303010941 22.126324564218521 39.120510056614876 10.720763772726057 8.7617358565330488 6.2920753806829479 19.434798255562782 14.237478733062742
leaf_count=35 69 125 22 65 88 157 43 35 25 78 57
internal_value=0.00105337 -0.00294419 -0.0141144 -0.023847 0.00584696 -0.00237202 0.0203471 0.0183096 0.00726169 0.00349013 -0.00574819
internal_weight=199.186 161.219 71.988 47.0448 89.2307 56.3837 32.8471 37.9672 29.2055 24.9432 20.5296
internal_count=799 647 290 190 357 226 131 152 117 100 82
is_linear=0
shrinkage=0.05


Tree=21
num_leaves=13
num_cat=0
split_feature=27 0 31 4 22 6 33 31 15 15 29 25
split_gain=5.25401 6.3903 5.24429 5.20341 4.39707 7.35523 4.34462 3.97372 3.47897 3.33139 2.26636 0.342674
threshold=5.5388249999999841 50.061058810944367 1.0869238240968417 -0.036162670622334893 -0.029023483884338837 34.472090219956506 -0.076614882366020834 1.5312030079679206 5.413191456473478 5.1368792920249762 0.097797836915388389 62.500000000000007
decision_type=2 2 2 2 2 2 2 2 2 2 2 2
left_child=8 4 3 -3 6 -6 -2 -4 9 -1 -11 -10
right_child=1 2 7 -5 5 -7 -8 -9 11 10 -12 -13
leaf_value=0.031569041766928388 0.021860276075976109 0.016524303779673677 0.030558977478790574 -0.030393831923659353 0.033459750983691305 -0.0010278118084623984 -0.019899244206042204 -0.0096767458316754859 0.01706677459011436 0.0052676741611208319 -0.030062307825748653 0.055187062451882533
leaf_weight=8.6113878190517443 6.9925935119390514 5.509203076362609 8.2743882834911364 40.461154192686081 25.616830483078957 33.571171015501022 23.250889331102371 16.171091228723526 4.9053399860858899 15.555682033300402 4.9994369298219672 5.0355666875839233
leaf_count=35 28 22 33 164 102 135 93 65 20 62 20 20
internal_value=0.00103025 -0.00287939 -0.0141474 -0.0240067 0.0057746 0.0137911 -0.00905322 0.00362562 0.0173072 0.00697049 -0.00316152 0.0419408
internal_weight=198.955 159.847 70.4158 45.9704 89.4315 59.188 30.2435 24.4455 39.1074 29.1665 20.5551 9.94091
internal_count=799 642 284 186 358 237 121 98 157 117 82 40
is_linear=0
shrinkage=0.05


Tree=22
num_leaves=9
num_cat=0
split_feature=34 27 5 5 22 55 55 14
split_gain=4.91204 8.51104 6.57383 5.9183 5.37909 4.84243 8.13844 4.12303
threshold=0.23961759878465974 7.5072799999999926 55.88734005670495 39.682475993341924 -0.022324452864448893 0.95057876421641063 0.73667558217431439 1.5902694894826832
decision_type=2 2 2 2 2 2 2 2
left_child=2 5 3 4 -1 6 -2 -7
right_child=1 -3 -4 -5 -6 7 -8 -9
leaf_value=0.0008387575522276078 0.030531467664995551 -0.051223629309433451 0.050384665702438859 -0.03004330715258199 0.037045109665567816 0.0081675885776875054 -0.031447805376081106 -0.026166876486467334
leaf_weight=35.846270069479942 5.4912711977958706 8.0892202556133253 8.7314149439334852 8.7184048891067487 14.310020387172697 85.20599077641964 23.803649142384529 8.5096608996391279
leaf_count=144 22 34 35 35 57 342 96 34
internal_value=0.00102275 -0.00448266 0.0119728 0.00511223 0.0121797 -0.000819086 -0.0183804 0.00454262
internal_weight=198.706 131.1 67.6061 58.8747 50.1563 123.011 29.2949 93.7157
internal_count=799 528 271 236 201 494 118 376
is_linear=0
shrinkage=0.05


Tree=23
num_leaves=6
num_cat=0
split_feature=16 9 9 7 8
split_gain=4.76659 4.17183 4.06733 3.37759 5.24542
threshold=5.120807255534749 0.036989392410689832 0.049213100880376441 0.16315613952483335 0.1170080908046502
decision_type=2 2 2 2 2
left_child=-1 3 -3 4 -2
right_child=1 2 -4 -5 -6
leaf_value=0.035403029288515749 0.0006872069315591279 -0.048681588690529881 0.0007305659614613544 -0.033407762124399935 0.041241233256299671
leaf_weight=8.5955184400081617 163.06112520396709 7.5837281793355924 6.1787169724702835 5.6192688494920722 7.4787825345993033
leaf_count=35 655 31 25 23 30
internal_value=0.000969189 -0.000635552 -0.0262575 0.00136196 0.00284143
internal_weight=198.517 189.922 13.7624 176.159 170.54
internal_count=799 764 56 708 685
is_linear=0
shrinkage=0.05


Tree=24
num_leaves=13
num_cat=0
split_feature=27 34 34 27 8 55 15 7 22 24 2 25
split_gain=4.54744 5.14637 6.94302 6.01329 5.63439 4.00993 3.26142 3.26821 3.49854 2.70231 1.08934 0.335702
threshold=5.5388249999999841 0.23961759878465974 0.17521890281735317 7.5072799999999926 -0.015892726989591016 0.91022675273539222 5.413191456473478 -0.015623175363686402 -0.021158210663432406 1.6841230833161476 46.139777184239414 62.500000000000007
decision_type=2 2 2 2 2 2 2 2 2 2 2 2
left_child=6 2 5 4 -3 -2 7 8 -1 -9 -4 -8
right_child=1 3 10 -5 -6 -7 11 9 -10 -11 -12 -13
leaf_value=0.0011441857597468048 0.023832050361609843 -0.031200779653123831 0.015528940821098406 -0.049000972552586321 0 -0.0084086112192085071 0.01579371344635945 -0.028357422628266633 0.051869325957088902 0.012145967451503993 0.060752010649591993 0.052897672046681804
leaf_weight=10.140867710113524 12.240085795521734 16.348540276288986 5.281817674636839 7.9837728887796393 77.868198826909065 34.427525848150253 4.8743021637201291 8.0036164522171003 5.1474949866533288 5.7726448625326165 5.3031780123710632 4.99484583735466
leaf_count=41 49 66 21 34 313 138 20 32 21 23 21 20
internal_value=0.0009267 -0.0027028 0.00898025 -0.00951348 -0.00542533 0 0.0161128 0.00610534 0.0218938 -0.0100201 0.0436324 0.0400115
internal_weight=198.387 159.453 57.2526 102.201 94.2167 46.6676 38.9338 29.0646 15.2884 13.7763 10.585 9.86915
internal_count=799 642 229 413 379 187 157 117 62 55 42 40
is_linear=0
shrinkage=0.05


Tree=25
num_leaves=10
num_cat=0
split_feature=34 31 1 31 27 23 8 13 13
split_gain=5.51388 6.60828 6.06604 6.04109 4.54568 6.01992 3.24381 1.16714 0.0472738
threshold=0.21655063925798892 3.6188006412417244 44.725143789287849 0.26463158005452864 7.3993300000000071 0.13781586628422646 -0.072647311805259254 6.7947852446908277 -12.521212972476404
decision_type=2 2 2 2 2 2 2 2 2
left_child=2 4 3 -1 5 -2 -5 -6 -4
right_child=1 -3 8 6 7 -7 -8 -9 -10
leaf_value=-0.029224965494502392 -0.0067262561304865052 0.040104771757831822 0.060902873280927951 0.03070111755615787 -0.04613412503156477 0.040136449501723931 0.0025673185038739745 -0.0071552413632447222 0.023288010266006277
leaf_weight=8.6577824354171735 97.923701956868172 6.7702285498380652 4.9522389322519302 16.932272315025326 7.9148580878972989 6.2795010060071936 29.654488146305088 5.190769836306572 5.2778411507606489
leaf_count=35 394 27 20 68 33 25 119 22 21
internal_value=0.00190778 -0.00413471 0.0136247 0.00616935 -0.00721661 -0.00330991 0.0137484 -0.0340698 0.0475248
internal_weight=189.554 124.079 65.4746 55.2445 117.309 104.203 46.5868 13.1056 10.2301
internal_count=764 501 263 222 474 419 187 55 41
is_linear=0
shrinkage=0.05


Tree=26
num_leaves=12
num_cat=0
split_feature=32 31 10 11 32 10 11 10 31 55 7
split_gain=5.2031 4.917 5.27751 4.89345 4.49731 7.36977 5.085 4.21235 3.45752 2.67684 1.84903
threshold=-0.95473087817239888 3.6188006412417244 19.883239314601166 14.87000419204867 -1.5905358352540324 35.0693444224326 16.213681183990921 18.376985456236209 0.28628069000546258 0.95625557930338623 -0.025854242674715696
decision_type=2 2 2 2 2 2 2 2 2 2 2
left_child=4 2 7 -4 6 9 8 -2 -1 -6 -8
right_child=1 -3 3 -5 5 -7 10 -9 -10 -11 -12
leaf_value=-0.01637601307585982 -0.010757272018433899 0.033582747909470266 -0.026761923931683192 0.0094160543407039096 0.018032294667843132 -0.013494501874755545 -0.00026432599425836356 -0.04841461698714343 0.024800470241813477 0.057997541487445597 -0.038291773409283282
leaf_weight=5.2333652228117016 42.554059132933617 6.7909440100193015 10.283733710646628 50.286745652556419 11.947296485304838 7.2549685239791861 7.7037167698144913 9.2700732350349409 19.643073439598083 11.488436684012411 6.9320144653320295
leaf_count=21 172 27 42 203 48 29 31 38 79 46 28
internal_value=0.00184917 -0.00435293 -0.00714143 0.00253278 0.012643 0.0267072 0.000712101 -0.0187555 0.0148738 0.0402185 -0.0211715
internal_weight=189.388 119.186 112.395 60.5705 70.2029 30.6907 39.5122 51.8241 24.8764 23.4357 14.6357
internal_count=764 482 455 245 282 123 159 210 100 94 59
is_linear=0
shrinkage=0.05


Tree=27
num_leaves=12
num_cat=0
split_feature=34 30 30 55 55 8 3 13 27 2 11
split_gain=5.04249 6.08448 7.08657 5.99859 6.1709 5.13301 4.53518 4.75122 4.34973 3.6442 2.82705
threshold=0.23961759878465974 0.34515387724516239 0.27267647627721753 0.95057876421641063 1.0155223880275612 -0.070297937834635962 2.4119198649069604 -13.686220347809281 7.3993300000000071 44.385323480214787 15.644035153726199
decision_type=2 2 2 2 2 2 2 2 2 2 2
left_child=1 2 5 6 -5 -1 7 -2 -6 -4 -3
right_child=3 10 9 4 8 -7 -8 -9 -10 -11 -12
leaf_value=0.03568508727111399 -0.0051098050207860034 0.0028022244577419054 -0.055606846675363135 0.040089594389128375 0.0012352731419104355 0 0.012847946557376692 -0.053277000131755785 -0.035767229237766512 0 0.054632937453452046
leaf_weight=15.229498326778407 10.569301158189777 5.0339561849832526 5.4184605628252012 8.4970016330480558 75.405013591051102 28.554752871394161 5.2709038555622092 12.679400250315666 7.7582281976938239 5.0029067546129227 9.8286270499229413
leaf_count=61 43 20 22 34 303 115 21 52 33 20 40
internal_value=0.00173553 0.0124974 0.00393373 -0.0042952 0.00174675 0.0132265 -0.0239619 -0.033524 -0.00230358 -0.0306595 0.0399373
internal_weight=189.248 69.0682 54.2056 120.18 91.6602 43.7843 28.5196 23.2487 83.1632 10.4214 14.8626
internal_count=764 278 218 486 370 176 116 95 336 42 60
is_linear=0
shrinkage=0.05


Tree=28
num_leaves=11
num_cat=0
split_feature=34 55 55 1 31 3 14 27 30 7
split_gain=4.62212 5.91302 5.50333 5.35589 5.20248 4.22225 4.97875 3.95116 2.69744 0.652647
threshold=0.21655063925798892 0.95057876421641063 1.0155223880275612 44.725143789287849 0.26463158005452864 2.4119198649069604 -0.34193791565549475 7.3993300000000071 0.007244666164191795 -0.018097355425261249
decision_type=2 2 2 2 2 2 2 2 2 2
left_child=3 5 -3 4 -1 6 -2 -4 -6 -5
right_child=1 2 7 9 8 -7 -8 -9 -10 -11
leaf_value=-0.027375520509586984 -0.0074027518922119007 0.038242998828313772 0.0016681932250658565 0.018082847562171957 -0.0065726617710971137 0.012302408002758981 -0.055568624589242901 -0.032809880784726041 0.019457031266346073 0.060428053204889955
leaf_weight=8.6594461500644666 12.746742665767673 8.5098428130149824 77.899842128157616 5.2165171504020691 11.465748891234396 5.2736749947071067 11.160565838217735 8.1966945677995664 34.954984471201897 4.9069473445415479
leaf_count=35 52 34 313 21 46 21 46 35 141 20
internal_value=0.0016622 -0.00386069 0.00202458 0.0124248 0.00540675 -0.0232043 -0.0322198 -0.00166622 0.0124976 0.0444428
internal_weight=188.991 123.787 94.6064 65.2036 55.0802 29.181 23.9073 86.0965 46.4207 10.1235
internal_count=764 501 382 263 222 119 98 348 187 41
is_linear=0
shrinkage=0.05


Tree=29
num_leaves=12
num_cat=0
split_feature=32 32 10 11 11 6 10 3 30 55 7
split_gain=4.40505 4.00885 6.84513 4.42537 3.70332 6.28757 4.4575 4.33402 2.52602 2.34436 1.63432
threshold=-0.95473087817239888 -1.5905358352540324 35.0693444224326 16.213681183990921 14.87000419204867 17.837784596908634 19.801756489497127 -0.67753985606290701 0.27267647627721753 0.95625557930338623 -0.025854242674715696
decision_type=2 2 2 2 2 2 2 2 2 2 2
left_child=1 3 9 8 7 -6 -7 -2 -1 -3 -5
right_child=4 2 -4 10 5 6 -8 -9 -10 -11 -12
leaf_value=0.024214902413312381 -0.058783541252397237 0.016898794763417591 -0.013796628838812481 -0.00026274915246301314 0.040308749220120746 -0.015168669818819253 0.0057150351057256837 0 -0.0072491664691776564 0.05469015866503301 -0.036303403688886293
leaf_weight=17.05928730964661 5.3884871453046799 11.891985282301908 7.2478646934032431 7.6888483315706253 7.5060589313507071 48.707596391439438 49.617599710822105 7.5884154438972455 7.7079183757305136 11.43775290250778 6.905707582831381
leaf_count=69 22 48 29 31 30 198 201 31 31 46 28
internal_value=0.00158614 0.0115476 0.0248369 0.000245075 -0.0041167 -0.000672539 -0.00442704 -0.0283586 0.0135513 0.0379405 -0.0201536
internal_weight=188.748 69.9394 30.5776 39.3618 118.808 105.831 98.3252 12.9769 24.7672 23.3297 14.5946
internal_count=764 282 123 159 482 429 399 53 100 94 59
is_linear=0
shrinkage=0.05


Tree=30
num_leaves=6
num_cat=0
split_feature=55 5 17 25 17
split_gain=4.77934 4.73642 4.35003 4.5759 4.45649
threshold=0.72958716308271743 6.159292421918205 5.88837473435074 17.500000000000004 5.8361834080362174
decision_type=2 2 2 2 2
left_child=-1 -2 4 -4 -3
right_child=1 2 3 -5 -6
leaf_value=0.038701867221063446 0.037858141311360616 7.5476404574815768e-05 -0.033376108261019548 -0.0042160177554073286 0.031555089128561413
leaf_weight=6.9713003039360038 6.5329095572233191 56.862338408827782 15.606615990400313 90.897309944033623 13.541209265589712
leaf_count=28 26 230 64 369 54
internal_value=0.00073244 -0.00077698 -0.00254901 -0.00899228 0.00683742
internal_weight=190.412 183.44 176.907 106.504 70.4035
internal_count=771 743 717 433 284
is_linear=0
shrinkage=0.05


Tree=31
num_leaves=6
num_cat=0
split_feature=55 5 17 32 17
split_gain=4.37291 4.34171 3.96643 4.2286 4.05036
threshold=0.72958716308271743 6.159292421918205 5.88837473435074 -0.97125351063502763 5.8361834080362174
decision_type=2 2 2 2 2
left_child=-1 -2 4 -4 -3
right_child=1 2 3 -5 -6
leaf_value=0.037071840955820896 0.036320721759604047 7.1768397582888305e-05 0.0049435613261831109 -0.015618631671501352 0.03011678133423842
leaf_weight=6.9582222402095786 6.5118277966976157 56.862062722444534 35.328538119792938 71.102212443947792 13.526622369885443
leaf_count=28 26 230 142 291 54
internal_value=0.000721227 -0.000716443 -0.00241761 -0.00857804 0.00653672
internal_weight=190.289 183.331 176.819 106.431 70.3887
internal_count=771 743 717 433 284
is_linear=0
shrinkage=0.05


Tree=32
num_leaves=9
num_cat=0
split_feature=5 17 13 31 28 20 30 12
split_gain=3.61958 3.05496 4.2519 4.88281 2.71127 5.37886 3.67692 1.03049
threshold=6.159292421918205 5.88837473435074 22.581506510341296 1.2650427117059702 5.8804231844303185 -0.0043103040266549023 0.10394158971677452 23.535387179343328
decision_type=2 2 2 2 2 2 2 2
left_child=-1 2 3 -2 5 -3 -6 -4
right_child=1 4 7 -5 6 -7 -8 -9
leaf_value=0.034862620193011902 0.022002540249177655 -0.049317378137474832 -0.030287106327838421 -0.0079677397665041342 0.025904579946588398 0 -0.0053865767988871436 0
leaf_weight=6.4874134063720694 42.89648574590683 8.8030324876308459 6.4722963720560056 17.581027820706367 9.5330112278461439 13.881326794624327 79.047321513295174 5.415814533829689
leaf_count=26 173 36 26 71 38 56 323 22
internal_value=0.000729759 -0.000522996 0.00726459 0.0128955 -0.00583026 -0.0209507 -0.00148836 -0.0182195
internal_weight=190.118 183.63 72.3656 60.4775 111.265 22.6844 88.5803 11.8881
internal_count=771 745 292 244 453 92 361 48
is_linear=0
shrinkage=0.05


Tree=33
num_leaves=8
num_cat=0
split_feature=55 15 13 13 25 13 45
split_gain=4.00724 3.41961 5.59044 4.2909 3.80127 3.3063 2.99147
threshold=0.72958716308271743 6.192928986199842 28.427552047697123 22.0851722806438 44.500000000000007 14.651419826160721 0.047043088316313063
decision_type=2 2 2 2 2 2 2
left_child=-1 3 4 5 -3 -2 -5
right_child=1 2 -4 6 -6 -7 -8
leaf_value=0.035523310342478111 0.005823429010404068 -0.030018617498206307 0.027773812167619979 0.0019467687002369949 -0.0034745318025164343 0.040936195857302869 -0.032980298085135841
leaf_weight=6.9362226724624625 89.109369248151779 24.601746141910553 7.3493576198816291 10.191311731934549 34.440337926149368 6.7337126880884162 10.577573850750921
leaf_count=28 360 101 30 41 141 27 43
internal_value=0.000672653 -0.000698274 -0.00979018 0.00430474 -0.0152671 0.00894575 -0.015391
internal_weight=189.94 183.003 66.3914 116.612 59.0421 95.8431 20.7689
internal_count=771 743 272 471 242 387 84
is_linear=0
shrinkage=0.05


Tree=34
num_leaves=6
num_cat=0
split_feature=55 5 17 25 17
split_gain=3.67128 3.6873 3.0881 3.98908 3.76688
threshold=0.72958716308271743 6.159292421918205 5.88837473435074 17.500000000000004 5.8361834080362174
decision_type=2 2 2 2 2
left_child=-1 -2 4 -4 -3
right_child=1 2 3 -5 -6
leaf_value=0.034061491436415937 0.033587462024533353 0 -0.030529949991911633 -0.0032212809979805441 0.028415457931530747
leaf_weight=6.9156458526849738 6.4613533169031134 56.783579409122467 15.457220017910002 90.701364532113075 13.486914470791815
leaf_count=28 26 230 64 369 54
internal_value=0.00065779 -0.000647714 -0.00222464 -0.00767866 0.00565617
internal_weight=189.806 182.89 176.429 106.159 70.2705
internal_count=771 743 717 433 284
is_linear=0
shrinkage=0.05


Tree=35
num_leaves=13
num_cat=0
split_feature=1 33 29 21 21 34 33 33 1 7 21 21
split_gain=4.92816 6.19812 9.21649 9.2051 5.75776 3.9814 3.65533 3.82775 3.29057 3.15652 1.47864 3.98176
threshold=51.856456421991155 0.034106210543338067 0.12954551391550242 0.03013621388512943 -0.0014345589716825487 0.99570899668994117 0.013129793808745105 0.0065658456180119869 58.784852004838513 0.019701502361292537 0.00038857444208460654 0.0031093975397962778
decision_type=2 2 2 2 2 2 2 2 2 2 2 2
left_child=4 5 3 -3 6 8 7 -1 -2 -7 -6 -12
right_child=1 2 -4 -5 10 9 -8 -9 -10 -11 11 -13
leaf_value=0 -0.019858938704079263 0.015041292466672499 0.046711857774987306 -0.051866152766784503 0.049715509075355983 -0.027235102756475539 -0.031036994647766648 0.034888376402703959 -0.061414774160866575 0.018664356008410047 -0.0071014684427105623 0.042479207402389328
leaf_weight=81.253254726529121 24.616614326834682 11.191651493310934 8.904611796140669 7.5834960937499991 6.4811715185642269 5.201025813817977 7.4173551946878424 7.7108737528324118 7.1825935989618293 8.4491418749093992 7.3129185587167722 6.1101621985435486
leaf_count=330 101 45 36 31 26 21 30 31 30 34 30 25
internal_value=-0.000626647 -0.0108315 0.00700313 -0.0119754 0.00561538 -0.0221483 0.000191751 0.00338938 -0.0315938 0 0.0294165 0.0151147
internal_weight=189.415 73.1291 27.6798 18.7751 116.286 45.4494 96.3815 88.9641 31.7992 13.6502 19.9043 13.4231
internal_count=770 298 112 76 472 186 391 361 131 55 81 55
is_linear=0
shrinkage=0.05


Tree=36
num_leaves=12
num_cat=0
split_feature=1 33 29 33 1 2 5 3 34 1 7
split_gain=4.50771 5.67172 8.41977 6.42007 4.61444 5.23645 4.05223 4.31408 3.64017 3.03585 2.89183
threshold=51.856456421991155 0.034106210543338067 0.12954551391550242 0.0439189952633387 49.819712228966175 50.524586382476777 6.159292421918205 -0.37538146350401397 0.99570899668994117 58.784852004838513 0.019701502361292537
decision_type=2 2 2 2 2 2 2 2 2 2 2
left_child=4 8 3 -3 6 -6 -1 -8 9 -2 -10
right_child=1 2 -4 -5 5 -7 7 -9 10 -11 -12
leaf_value=0.037670802479744588 -0.018937197637525015 0.026574945321960777 0.044694680451622275 -0.031531472843792992 0.054234703792279806 -0.0040357921349820037 -0.011675485125732084 0.0091885160689023481 -0.026128053359325221 -0.059034299874338218 0.01781785466046262
leaf_weight=6.2024225145578376 24.573829710483555 5.9458852410316529 8.8867337554693204 12.80172824859619 8.4230756759643537 5.0502099990844718 48.538594126701355 48.0411466807127 5.1928981393575659 7.1399907022714606 8.4553610831499082
leaf_count=25 101 24 36 52 34 21 197 195 21 30 34
internal_value=-0.000587104 -0.0103638 0.00668016 -0.0114243 0.0053745 0.031896 0.00138318 -0.00105321 -0.0212063 -0.0302574 0
internal_weight=189.252 72.9964 27.6343 18.7476 116.255 13.4733 102.782 96.5797 45.3621 31.7138 13.6483
internal_count=770 298 112 76 472 55 417 392 186 131 55
is_linear=0
shrinkage=0.05


Tree=37
num_leaves=13
num_cat=0
split_feature=1 21 33 29 21 6 14 10 12 45 20 21
split_gain=4.11985 5.5017 5.04053 7.67618 8.18574 4.84304 5.25725 3.47689 2.99206 3.27259 2.0682 1.65223
threshold=51.626771039988014 -0.0014345589716825487 0.034106210543338067 0.12954551391550242 0.03013621388512943 34.472090219956506 0.20366023923959295 40.946067331269923 21.936935603864388 0.032578443972160843 0.0013108587904776192 0.0021836080222167879
decision_type=2 2 2 2 2 2 2 2 2 2 2 2
left_child=1 5 8 4 -4 7 -7 -1 9 -2 -3 -12
right_child=2 10 3 -5 -6 6 -8 -9 -10 -11 11 -13
leaf_value=0.014753521102431971 -0.050988695961101352 0.04851766412237915 0.014498544774927314 0.042798661519749336 -0.048683646183009056 -0.00089888224212148003 -0.042345285447877141 -0.019109982824357941 -0.054352554221430122 -0.0074430051672536787 -0.0061907242689774851 0.028690073535797334
leaf_weight=49.509338647127151 4.4287192672491065 7.9264229238033321 11.192737773060804 8.8613320887088758 7.5268230438232413 29.277920946478844 10.06507460772991 7.4475624263286582 5.0915794074535361 37.46305838227272 5.1314835399389249 5.0784264653921127
leaf_count=201 20 32 45 36 31 119 41 30 21 152 21 21
internal_value=-0.000541872 0.00526273 -0.00973298 0.00642779 -0.0108187 0.000133482 -0.0129086 0.00964092 -0.0196772 -0.0137109 0.0297613 0.00994051
internal_weight=189 114.436 74.5642 27.5809 18.7196 96.2999 39.343 56.9569 46.9834 41.8918 18.1363 10.2099
internal_count=770 465 305 112 76 391 160 231 193 172 74 42
is_linear=0
shrinkage=0.05


Tree=38
num_leaves=6
num_cat=0
split_feature=5 10 13 22 13
split_gain=3.98724 3.93374 3.12682 5.17612 4.68511
threshold=6.159292421918205 10.246438792948117 -13.352974259488631 -0.0094511864359411325 -9.3868423918805384
decision_type=2 2 2 2 2
left_child=-1 -2 3 -3 -4
right_child=1 2 4 -5 -6
leaf_value=0.035874811811281042 0.037624555311612927 0.030777640719103917 -0.035061667802711485 -0.0041757357647714509 -0.0039758757917138935
leaf_weight=6.158231943845748 4.9297288209199897 14.922352954745291 12.987169951200483 28.317931100726128 121.3915591686964
leaf_count=25 20 61 53 116 495
internal_value=-0.000550823 -0.00210459 -0.00355169 0.00774472 -0.00740166
internal_weight=188.707 182.549 177.619 43.2403 134.379
internal_count=770 745 725 177 548
is_linear=0
shrinkage=0.05


Tree=39
num_leaves=6
num_cat=0
split_feature=22 10 13 22 13
split_gain=3.68375 3.6402 3.0283 4.25529 4.14766
threshold=-0.064952377157567007 10.246438792948117 -13.352974259488631 -0.0094511864359411325 -9.3868423918805384
decision_type=2 2 2 2 2
left_child=-1 -2 3 -3 -4
right_child=1 2 4 -5 -6
leaf_value=0.031796721635225324 0.036093071874645909 0.027982735972421142 -0.032467671496544122 -0.0033088166977329617 -0.0039711069912974507
leaf_weight=7.3497079461812964 4.9245131909847251 15.368640482425688 13.942176565527914 28.548653125762939 118.45634992420673
leaf_count=30 20 63 57 117 483
internal_value=-0.000500639 -0.00211484 -0.00352052 0.00746412 -0.00738023
internal_weight=188.59 181.24 176.316 43.9173 132.399
internal_count=770 740 720 180 540
is_linear=0
shrinkage=0.05


Tree=40
num_leaves=7
num_cat=0
split_feature=33 27 5 13 7 45
split_gain=4.28688 5.23154 4.83384 3.87391 4.05495 3.98752
threshold=-0.078076513074055373 7.4417224999999947 35.332518022030712 -13.686220347809281 0.13546053805542127 0.044408246892653748
decision_type=2 2 2 2 2 2
left_child=-1 3 -3 5 -5 -2
right_child=1 2 -4 4 -6 -7
leaf_value=0.032720577236665375 0.037359742054092371 0 -0.049748117942876854 -0.0057342290223586067 0.024651782475937023 0.0026339047210856277
leaf_weight=8.6799890100955945 12.387015849351881 8.0827391892671603 9.2103267908096296 118.43476890027523 10.912052929401396 26.801071330904961
leaf_count=36 50 33 41 481 44 110
internal_value=0.000167632 -0.0013861 -0.0268467 0.00122186 -0.00280953 0.014889
internal_weight=194.508 185.828 17.2931 168.535 129.347 39.1881
internal_count=795 759 74 685 525 160
is_linear=0
shrinkage=0.05


Tree=41
num_leaves=7
num_cat=0
split_feature=33 27 5 15 26 55
split_gain=3.92795 4.79989 4.50936 3.69371 4.4499 3.9298
threshold=-0.078076513074055373 7.4417224999999947 35.332518022030712 6.7604214010578811 6.4439058880219493 0.84814173151361449
decision_type=2 2 2 2 2 2
left_child=-1 3 -3 4 -2 -5
right_child=1 2 -4 5 -6 -7
leaf_value=0.031435116190105798 0.0028418288714544986 0 -0.048123945940177451 -0.00069821550533683983 -0.019129671388263669 0.048146132679131565
leaf_weight=8.6254828125238401 128.07953968644142 8.0827391892671603 9.0821433216333372 6.226638048887251 26.904642820358276 7.2674874365329742
leaf_count=36 521 33 41 26 109 29
internal_value=0.000180459 -0.00129841 -0.0257837 0.00118609 -0.000910251 0.0253897
internal_weight=194.269 185.643 17.1649 168.478 154.984 13.4941
internal_count=795 759 74 685 630 55
is_linear=0
shrinkage=0.05


Tree=42
num_leaves=11
num_cat=0
split_feature=13 12 20 13 14 55 10 12 10 33
split_gain=3.78445 6.02924 6.0343 5.76924 5.12605 4.37473 4.1717 3.235 6.20957 1.04544
threshold=-13.686220347809281 29.052489763386269 -0.013315097017686814 -15.599886911639748 -0.66440820592033545 0.95057876421641063 18.634783157536813 31.361942271435151 23.566456271498755 -0.026145580828473704
decision_type=2 2 2 2 2 2 2 2 2 2
left_child=3 2 9 4 6 -4 -1 -3 -9 -2
right_child=1 7 5 -5 -6 -7 -8 8 -10 -11
leaf_value=0.036272366747143243 -0.016991328085616847 0.036449888471012847 -0.024007731223781633 0.049178629684514003 -0.028675003787981952 0.00047031911530665276 0 -0.040214085880890475 0.016956328691571192 -0.058301085278648392
leaf_weight=11.28006771206856 6.4753464758396149 10.293026328086851 22.072620883584023 7.8649393469095221 8.2003700733184797 78.481353461742401 19.567161232233047 5.1715715229511288 18.834838539361954 5.8054473847150785
leaf_count=46 27 42 91 32 34 320 81 21 77 24
internal_value=0.000172688 -0.00364905 -0.00935848 0.0125068 0.00345254 -0.00484018 0.0134105 0.0141581 0.00252503 -0.0413214
internal_weight=194.047 147.134 112.835 46.9125 39.0476 100.554 30.8472 34.2994 24.0064 12.2808
internal_count=795 602 462 193 161 411 127 140 98 51
is_linear=0
shrinkage=0.05


Tree=43
num_leaves=11
num_cat=0
split_feature=13 12 31 13 20 14 10 12 22 34
split_gain=3.44849 5.4887 5.67664 5.27977 5.08088 4.67668 3.80737 2.96928 6.15237 0.209969
threshold=-13.686220347809281 29.052489763386269 0.19968465530184823 -15.599886911639748 -0.013315097017686814 -0.66440820592033545 18.634783157536813 31.361942271435151 -0.042065031307322927 0.037776191696252619
decision_type=2 2 2 2 2 2 2 2 2 2
left_child=3 2 -2 5 -4 6 -1 9 -9 -3
right_child=1 7 4 -5 -6 -7 -8 8 -10 -11
leaf_value=0.034616270508004969 0.025126312704574133 0.04690475330658718 -0.042426574645584518 0.047027320011763768 -0.0080024499799878895 -0.027446348142732419 0 0.019496132212246591 -0.032806588254821079 0.014592939475284639
leaf_weight=11.276639610528948 9.7024405002593976 4.8478429317474347 11.977587461471556 7.8593468517065039 91.054518073797226 8.1842655092477781 19.567161232233047 16.870934292674065 7.1029344201087978 5.4144710451364517
leaf_count=46 39 20 50 32 373 34 81 69 29 22
internal_value=0.000145369 -0.00349976 -0.00895369 0.0119277 -0.012614 0.00323664 0.0127695 0.0134941 0.00230579 0.034886
internal_weight=193.858 146.971 112.735 46.8874 103.032 39.0281 30.8438 34.2362 23.9739 10.2623
internal_count=795 602 462 193 423 161 127 140 98 42
is_linear=0
shrinkage=0.05


Tree=44
num_leaves=7
num_cat=0
split_feature=33 27 5 15 17 55
split_gain=3.35874 4.20881 4.21862 3.30378 4.6574 3.63899
threshold=-0.078076513074055373 7.4417224999999947 35.332518022030712 6.7604214010578811 6.4101947279345817 0.84814173151361449
decision_type=2 2 2 2 2 2
left_child=-1 3 -3 4 -2 -5
right_child=1 2 -4 5 -6 -7
leaf_value=0.029254182649901796 0.0016349147690040056 0 -0.046211817083690765 -0.00088158541546000998 -0.028954962179797192 0.046018347554976836
leaf_weight=8.5079004764556867 142.13113138079643 8.0767989754676837 8.8910123109817487 6.2352520823478681 12.568913981318472 7.2387227714061737
leaf_count=36 579 33 41 26 51 29
internal_value=0.000159761 -0.0011929 -0.0242613 0.00111645 -0.00085986 0.0240262
internal_weight=193.65 185.142 16.9678 168.174 154.7 13.474
internal_count=795 759 74 685 630 55
is_linear=0
shrinkage=0.05


Tree=45
num_leaves=12
num_cat=0
split_feature=15 22 22 0 5 32 17 3 33 27 26
split_gain=4.01551 4.63078 4.62553 4.27808 6.05854 5.12457 3.5179 3.5579 3.37882 3.07095 2.96317
threshold=5.5828969961480492 -0.049072807263842576 -0.064952377157567007 49.747717114880636 53.139344333701359 0.55894409165122727 5.45686720574703 1.533763541909092 -0.0054726929193676744 5.5434774999999998 5.437647314869734
decision_type=2 2 2 2 2 2 2 2 2 2 2
left_child=6 2 -2 5 -5 -3 8 9 -1 -8 -10
right_child=1 3 -4 4 -6 -7 7 -9 10 -11 -12
leaf_value=0.025759316195120938 0.0041518559882376812 0.018512998905150832 -0.04758212157100794 -0.03657448564487116 0.0006683424191380352 -0.014835648061507329 0.065222290967840421 0 0.0051238355985724843 0.0067773529071812229 -0.036508421393153197
leaf_weight=9.488693445920946 6.0059959441423407 53.617571115493774 8.8125807642936689 12.200556039810179 56.180466309189796 12.960469871759413 7.7013155072927493 4.8501714318990699 9.1951510906219465 4.777585580945015 5.6591836661100379
leaf_count=39 25 218 36 51 232 53 32 20 37 20 23
internal_value=0.00333598 -0.000354035 -0.0260969 0.00245982 -0.00604758 0.0115277 0.016882 0.0336125 0.00312921 0.0468641 -0.0104626
internal_weight=191.45 149.778 14.8186 134.959 68.381 66.578 41.6721 17.3291 24.343 12.4789 14.8543
internal_count=786 615 61 554 283 271 171 72 99 52 60
is_linear=0
shrinkage=0.05


Tree=46
num_leaves=12
num_cat=0
split_feature=15 22 33 34 8 17 17 16 3 28 55
split_gain=3.70316 4.20551 5.87226 4.26996 6.22046 3.48877 3.24944 4.45496 3.32854 3.95407 2.8198
threshold=5.5828969961480492 -0.049817637595210074 -0.072193465717274224 0.23961759878465974 -0.015892726989591016 6.0800316040217393 5.45686720574703 5.120807255534749 1.533763541909092 5.391930934196707 1.3102905615556197
decision_type=2 2 2 2 2 2 2 2 2 2 2
left_child=6 2 -2 5 -5 -3 7 -1 9 -8 -9
right_child=1 3 -4 4 -6 -7 8 10 -10 -11 -12
leaf_value=0.03345351471298455 0.0076085439651809991 -0.0015759060319867624 -0.051451358227853738 -0.030096762608420397 0.0024499172434715413 0.027305519059553474 0.068405703119910621 0.0061982713354171272 0 0.0059491973622306507 -0.031447972557556672
leaf_weight=7.469109624624255 6.2321099340915671 14.900401949882506 8.1002000272274 16.750830054283142 79.192353129386902 24.553311958909035 6.9204452335834521 9.2096293866634387 4.8501714318990699 5.4409670382738113 7.634375885128974
leaf_count=31 26 61 33 70 326 99 29 37 20 23 31
internal_value=0.00317976 -0.000353487 -0.0253185 0.00227213 -0.0032264 0.0160106 0.0162165 0.00296565 0.0323713 0.0452888 -0.0102696
internal_weight=191.254 149.729 14.3323 135.397 95.9432 39.4537 41.5247 24.3131 17.2116 12.3614 16.844
internal_count=786 615 59 556 396 160 171 99 72 52 68
is_linear=0
shrinkage=0.05


Tree=47
num_leaves=10
num_cat=0
split_feature=15 22 22 34 8 26 0 0 34
split_gain=3.42285 3.81518 4.23877 3.96579 5.67077 4.29112 3.01838 6.84733 3.76703
threshold=5.5828969961480492 -0.049072807263842576 -0.064952377157567007 0.23961759878465974 -0.015892726989591016 6.1957503802101455 33.10975861115849 42.018159363730753 0.85036914928567497
decision_type=2 2 2 2 2 2 2 2 2
left_child=6 2 -2 5 -5 -3 -1 -8 -9
right_child=1 3 -4 4 -6 -7 7 8 -10
leaf_value=0.03880539493660836 0.0049887350597293007 -0.0048069135857250591 -0.044387510504785878 -0.028785843188560169 0.0023285447521411468 0.027879152446070796 -0.030496285281310726 0.035411355350832723 -0.0026398807772256374
leaf_weight=9.9487782418727857 6.0186825543642035 14.13859026134014 8.8065434247255308 16.685213640332222 79.205906942486763 24.779050752520561 7.7865785062313106 14.688248842954637 8.9440351426601392
leaf_count=42 25 58 36 70 326 100 32 61 36
internal_value=0.00304445 -0.000342992 -0.0237136 0.00219873 -0.00306861 0.0155552 0.0156064 0.00651883 0.0204728
internal_weight=191.002 149.634 14.8252 134.809 95.8911 38.9176 41.3676 31.4189 23.6323
internal_count=786 615 61 554 396 158 171 129 97
is_linear=0
shrinkage=0.05


Tree=48
num_leaves=10
num_cat=0
split_feature=5 8 31 55 27 17 27 21 15
split_gain=3.24255 3.93178 3.65364 4.23029 2.78091 4.10915 3.17611 1.31331 0.924499
threshold=84.946263672251249 0.0021322638118519083 0.19968465530184823 1.0155223880275612 5.5626974999999979 5.45686720574703 5.6385300000000056 0.03502879381107149 6.0098522079921866
decision_type=2 2 2 2 2 2 2 2 2
left_child=2 -2 3 -1 5 -4 -6 -3 -5
right_child=1 7 4 8 6 -7 -8 -9 -10
leaf_value=-0.0043350183469841232 -0.044045486132006983 0.01690032889426208 0 0.059116150837758979 -0.032074132688042795 0.036350072453204353 0.0011397586366555718 -0.013823496651136269 0.015398527763527157
leaf_weight=5.5533125251531628 6.6944556087255505 5.9670554846525174 18.792351201176647 5.891911178827284 6.6233731210231772 12.757873252034186 117.73826877772808 5.76829694211483 4.9570394903421402
leaf_count=23 28 24 77 24 27 54 485 24 20
internal_value=0.00288992 -0.0161979 0.00515738 0.0270507 0.0025371 0.0155846 -0.000671498 0 0.0442362
internal_weight=190.744 18.4298 172.314 16.4023 155.912 31.5502 124.362 11.7354 10.849
internal_count=786 76 710 67 643 131 512 48 44
is_linear=0
shrinkage=0.05


Tree=49
num_leaves=9
num_cat=0
split_feature=5 8 31 13 13 13 13 13
split_gain=2.9732 3.61988 3.36242 4.73036 3.47524 6.32812 5.66337 2.93614
threshold=84.946263672251249 0.0021322638118519083 0.19968465530184823 -6.3938959489402203 -13.686220347809281 -20.570690898900931 -10.507833499682222 13.431104680010096
decision_type=2 2 2 2 2 2 2 2
left_child=2 -2 3 -1 5 -4 -6 -3
right_child=1 7 4 -5 6 -7 -8 -9
leaf_value=-0.00050274562873418329 -0.042328469062619056 0.027987526213553993 -0.0095069669884668157 0.049017534312567716 -0.035241878743201616 0.03385141903938297 0.0018845848117421582 -0.018522008348912284
leaf_weight=7.560531452298167 6.6591678112745312 4.9681689441204053 12.242447748780249 8.7942072153091413 10.228326335549353 19.973438128829002 113.36858947575092 6.7696102559566498
leaf_count=31 28 20 51 36 42 83 467 28
internal_value=0.00275951 -0.0155218 0.00493568 0.0259747 0.00241635 0.0168319 -0.00124538 0
internal_weight=190.564 18.3969 172.168 16.3547 155.813 32.2159 123.597 11.7378
internal_count=786 76 710 67 643 134 509 48
is_linear=0
shrinkage=0.05


Tree=50
num_leaves=10
num_cat=0
split_feature=13 13 14 5 1 1 16 22 13
split_gain=3.76677 5.33383 3.97355 3.93923 3.65935 4.04509 2.77306 2.31828 1.75384
threshold=-13.686220347809281 -10.507833499682222 -0.70483393326829724 6.159292421918205 44.375737829693655 50.749597828642301 5.6329694972077631 -0.0076689236707225116 -16.951800904993416
decision_type=2 2 2 2 2 2 2 2 2
left_child=2 7 4 -3 -1 -6 -5 -2 -4
right_child=1 3 8 6 5 -7 -8 -9 -10
leaf_value=-0.01045912757161368 -0.058881713354055912 0.039643839527072622 -0.027487037931461941 0.010746667914116293 0.050916328994966856 0.0094811639464977716 -0.0064758639554601347 -0.0067243352148407117 0.0057403080883981321
leaf_weight=5.4771344214677802 4.9070907086133957 4.8207566887140265 5.9636837989091873 28.807507619261742 11.992412686347963 15.22233611345291 99.337068662047386 5.7663810253143293 6.5288434624671918
leaf_count=23 20 20 25 119 50 63 409 24 27
internal_value=0.000434059 -0.00340157 0.0129783 -0.000363383 0.0221889 0.0297835 -0.00235734 -0.035835 -0.00913047
internal_weight=188.823 143.639 45.1844 132.965 32.6919 27.2147 128.145 10.6735 12.4925
internal_count=780 592 188 548 136 113 528 44 52
is_linear=0
shrinkage=0.05


Tree=51
num_leaves=8
num_cat=0
split_feature=14 33 8 20 1 22 10
split_gain=2.99899 3.04358 8.36355 7.51312 3.95013 3.64896 2.78522
threshold=-1.7177110511417317 0.024159316244512893 0.029242119524303802 0.0056544649190313932 66.011889516374325 -0.0032293004162695232 31.004394789555864
decision_type=2 2 2 2 2 2 2
left_child=-1 2 5 -3 -5 -2 -4
right_child=1 3 6 4 -6 -7 -8
leaf_value=0.033243391460664087 0.0054763345086990415 0.048371244499875912 -0.050980700793641365 -0.024575557711949626 0.013093095850805323 -0.013106666281609079 -0.0031499427033945941
leaf_weight=5.7401664853095999 94.748822405934334 9.2898595333099347 10.607312947511675 10.446797639131548 16.441299319267273 35.409637451171875 5.9108164161443701
leaf_count=25 390 38 44 43 67 147 26
internal_value=0.000408632 -0.000661346 -0.00400452 0.0119636 -0.00100225 0.000168831 -0.036449
internal_weight=188.595 182.855 146.677 36.178 26.8881 130.158 16.5181
internal_count=780 755 607 148 110 537 70
is_linear=0
shrinkage=0.05


Tree=52
num_leaves=10
num_cat=0
split_feature=13 13 14 5 1 1 16 22 13
split_gain=3.40222 4.83319 3.64804 3.60806 3.29548 3.63214 2.58264 2.22783 1.61473
threshold=-13.686220347809281 -10.507833499682222 -0.70483393326829724 6.159292421918205 44.375737829693655 50.749597828642301 5.6329694972077631 -0.0076689236707225116 -16.951800904993416
decision_type=2 2 2 2 2 2 2 2 2
left_child=2 7 4 -3 -1 -6 -5 -2 -4
right_child=1 3 8 6 5 -7 -8 -9 -10
leaf_value=-0.0096242815836630555 -0.056711859467662398 0.038080231687926486 -0.026480901250799067 0.010382453444805846 0.048660907444722908 0.0091109542072725872 -0.0062474091460079616 -0.0057308192878775263 0.0053452493917022859
leaf_weight=5.4743129312992087 4.8900429457426071 4.7754842489957801 5.9390022456645966 28.75296413898468 11.861680909991266 15.199247911572455 99.208012208342552 5.7418723255395872 6.5218198895454389
leaf_count=23 20 20 25 119 50 63 409 24 27
internal_value=0.000384045 -0.00325467 0.0123401 -0.000352932 0.0212058 0.0284542 -0.00226527 -0.034188 -0.00880667
internal_weight=188.364 143.368 44.9961 132.736 32.5352 27.0609 127.961 10.6319 12.4608
internal_count=780 592 188 548 136 113 528 44 52
is_linear=0
shrinkage=0.05


Tree=53
num_leaves=11
num_cat=0
split_feature=13 13 55 22 7 12 5 13 4 22
split_gain=3.09353 4.48523 3.56055 4.52788 6.49931 3.39502 3.33375 3.10897 2.50247 2.03758
threshold=-13.686220347809281 -10.507833499682222 0.86623796333047787 0.0061672573786276169 -0.0092790410823599939 19.802615887401078 6.159292421918205 -18.280875602553959 -0.073685482460056781 -0.0076689236707225116
decision_type=2 2 2 2 2 2 2 2 2 2
left_child=2 9 5 4 -4 -1 -3 -5 -8 -2
right_child=1 6 3 7 -6 -7 8 -9 -10 -11
leaf_value=0 -0.05458916284294784 0.036775707154608921 0.011353555358851632 0 -0.040078421779518869 0.056107887187150401 0.025956603930167466 0.048794117797161647 -0.0039922603147240802 -0.0054902229618564195
leaf_weight=4.7384312301874143 4.8656690269708633 4.7341682016849509 13.351241454482077 4.8128501027822495 9.291098967194559 6.4782575666904449 6.2623375356197348 6.2148133963346464 121.62964516878128 5.7377516180276853
leaf_count=20 20 20 56 20 38 28 26 26 502 24
internal_value=0.000361151 -0.00310186 0.0117829 0.00250422 -0.00949624 0.0351042 -0.000300733 0.0279634 -0.00214182 -0.032938
internal_weight=188.116 143.23 44.8867 33.67 22.6423 11.2167 132.626 11.0277 127.892 10.6034
internal_count=780 592 188 140 94 48 548 46 528 44
is_linear=0
shrinkage=0.05


Tree=54
num_leaves=11
num_cat=0
split_feature=13 13 55 55 12 5 11 16 22 7
split_gain=2.84366 4.16822 3.29126 4.18698 3.15896 3.0801 2.47617 2.36413 1.86692 1.66116
threshold=-13.686220347809281 -10.507833499682222 0.86623796333047787 1.0701584721887081 19.802615887401078 6.159292421918205 19.51910616163838 5.6329694972077631 -0.0076689236707225116 -0.0086997925600695841
decision_type=2 2 2 2 2 2 2 2 2 2
left_child=2 8 4 9 -1 -3 -5 -7 -2 -4
right_child=1 5 3 6 -6 7 -8 -9 -10 -11
leaf_value=0 -0.052603118921100145 0.035527642455636714 0 -0.0081981603906381203 0.054312160611983087 0.010081421339247091 0.025419062039137342 -0.005837507937965127 -0.005259677423470146 -0.037005490449399096
leaf_weight=4.7384312301874143 4.8354165405035019 4.6916713267564765 5.3945794254541397 6.0298907756805447 6.3930579125881195 28.730479091405869 16.363076135516167 99.151875540614128 5.7337278574705106 5.8039429485797864
leaf_count=20 20 20 23 25 28 119 68 409 24 24
internal_value=0.000362416 -0.002949 0.0113406 0.00239149 0.0338624 -0.00024481 0.0153346 -0.00201666 -0.031755 -0.0205759
internal_weight=187.866 143.143 44.723 33.5915 11.1315 132.574 22.393 127.882 10.5691 11.1985
internal_count=780 592 188 140 48 548 93 528 44 47
is_linear=0
shrinkage=0.05


Tree=55
num_leaves=9
num_cat=0
split_feature=15 33 22 13 32 14 32 21
split_gain=3.56919 3.23991 4.94897 5.33514 3.32048 2.16638 5.07432 2.65174
threshold=7.908562053114105 -0.033672907732314371 -0.029416093836690659 0.53698983449069482 -0.796010198258293 0.66387178780665013 -1.0392787367282961 -0.012561059550527286
decision_type=2 2 2 2 2 2 2 2
left_child=1 5 3 -3 -4 7 -7 -1
right_child=-2 2 4 -5 -6 6 -8 -9
leaf_value=0.041428881071690134 -0.034884754171913876 -0.058122932250366549 0.014046625959962804 -0.0017517670284439739 -0.003668072855778793 0.021481148115276218 -0.035456709020578167 0.00090981417044571711
leaf_weight=10.318066880106924 6.2963361591100684 6.8013114631176022 35.103359863162041 11.354269966483114 95.693085908889771 9.4217550158500654 5.2654469758272162 8.3981992602348345
leaf_count=43 29 28 145 47 395 39 22 35
internal_value=-0.000516684 0.000717409 -0.00231823 -0.0261061 0.000967045 0.0146545 0 0.0254838
internal_weight=188.652 182.355 148.952 18.1556 130.796 33.4035 14.6872 18.7163
internal_count=783 754 615 75 540 139 61 78
is_linear=0
shrinkage=0.05


Tree=56
num_leaves=8
num_cat=0
split_feature=15 33 22 28 32 14 8
split_gain=3.28375 2.96963 4.54767 4.57772 3.00584 2.02167 3.16871
threshold=7.908562053114105 -0.033672907732314371 -0.029416093836690659 5.6411352089191071 -0.796010198258293 1.2367671872670714 -0.080855392828917558
decision_type=2 2 2 2 2 2 2
left_child=1 5 3 -3 -4 6 -1
right_child=-2 2 4 -5 -6 -7 -8
leaf_value=0.041810040091011393 -0.03356442328575205 -0.0033238936710643131 0.013366284040928829 -0.056629082085759341 -0.0034870502041486973 -0.0038723345031046238 0.0036649912959652205
leaf_weight=10.088704258203505 6.2571606040000907 11.874358803033831 35.096672028303146 6.2673689574003211 95.679993271827698 8.8666884750127775 14.357910126447679
leaf_count=42 29 49 145 26 395 37 60
internal_value=-0.000505944 0.000669707 -0.00222779 -0.0250415 0.000913291 0.0140382 0.0214137
internal_weight=188.489 182.232 148.918 18.1417 130.777 33.3133 24.4466
internal_count=783 754 615 75 540 139 102
is_linear=0
shrinkage=0.05


Tree=57
num_leaves=9
num_cat=0
split_feature=15 33 31 56 26 24 24 17
split_gain=3.0212 2.71638 3.44112 5.61182 5.46972 2.6982 4.20187 2.21213
threshold=7.908562053114105 -0.033672907732314371 0.89331595010299225 4.5978563852652243 5.3947649772287756 1.4956805125396053 1.1866100493063432 6.2052414692808453
decision_type=2 2 2 2 2 2 2 2
left_child=1 5 4 -4 -3 6 -1 -7
right_child=-2 2 3 -5 -6 7 -8 -9
leaf_value=0.024888256695573076 -0.032299700287489713 0.029156583632323842 0.039197191168840309 0 -0.012780651064972101 0.051083432513355724 -0.032386305963290764 0.011477121183107208
leaf_weight=4.6441579759120923 6.21724048256874 7.3560000211000434 9.8993548750877363 52.134106531739235 79.474581092596054 5.009505137801173 5.9842902421951294 17.602597579360008
leaf_count=20 29 30 40 215 330 21 25 73
internal_value=-0.000498811 0.000620841 -0.00214254 0.0065647 -0.00865171 0.0134276 -0.00522186 0.0231022
internal_weight=188.322 182.105 148.864 62.0335 86.8306 33.2406 10.6284 22.6121
internal_count=783 754 615 255 360 139 45 94
is_linear=0
shrinkage=0.05


Tree=58
num_leaves=9
num_cat=0
split_feature=29 45 22 29 16 31 34 20
split_gain=3.31381 3.22726 6.05788 4.80865 4.17059 5.37742 4.13512 2.8478
threshold=0.024335769412487791 0.049135073780710276 -0.0032293004162695232 0.046356667722125551 7.5061500537302006 0.54918041515521865 0.45414790559409707 0.018024047266855203
decision_type=2 2 2 2 2 2 2 2
left_child=-1 4 6 -4 7 -6 -3 -2
right_child=1 2 3 -5 5 -7 -8 -9
leaf_value=0.026741155285460547 0.0032966599664694604 -0.0046898311564307939 -0.006471884202295654 -0.045856100973691971 0.012083427027502702 -0.045054911366009719 0.034803378949908044 0.028638581827875334
leaf_weight=9.46670915186405 79.404002666473389 30.963224992156029 19.120637476444244 15.078666135668753 5.7861227095127097 8.3459950685501081 7.2137282490730277 12.724617898464201
leaf_count=39 329 129 78 62 26 38 30 52
internal_value=-0.000436973 -0.00215727 -0.0103107 -0.0253563 0.00320746 -0.0207561 0.00283236 0.00733521
internal_weight=188.104 178.637 72.3763 34.1993 106.261 14.1321 38.177 92.1286
internal_count=783 744 299 140 445 64 159 381
is_linear=0
shrinkage=0.05


Tree=59
num_leaves=9
num_cat=0
split_feature=15 33 22 28 24 24 23 22
split_gain=2.67778 2.49123 4.1722 4.15318 3.02662 2.47326 4.49595 2.22282
threshold=7.908562053114105 -0.033672907732314371 -0.029416093836690659 5.6411352089191071 1.6841230833161476 1.4956805125396053 0.068592031428217917 -0.049072807263842576
decision_type=2 2 2 2 2 2 2 2
left_child=1 5 3 -3 -4 6 -1 -7
right_child=-2 2 4 -5 -6 7 -8 -9
leaf_value=0.02543426877564943 -0.03049730437142098 -0.0031374610971159136 -0.0035969560655395257 -0.054123339982894758 0.013040205148904156 0.005162810617923592 -0.033779423839203696 0.039346237337618051
leaf_weight=4.8190087229013425 6.149822622537612 11.882080361247064 93.435647711157799 6.2208768278360358 37.091177105903625 12.671299934387205 5.7917348444461823 9.8560119718313235
leaf_count=21 29 49 385 26 155 53 24 41
internal_value=-0.000401987 0.000640746 -0.0019996 -0.023883 0.00100387 0.0129271 -0.00485918 0.0222178
internal_weight=187.918 181.768 148.63 18.103 130.527 33.1381 10.6107 22.5273
internal_count=783 754 615 75 540 139 45 94
is_linear=0
shrinkage=0.05


Tree=60
num_leaves=9
num_cat=0
split_feature=13 22 12 22 14 11 28 17
split_gain=4.26314 2.49891 5.50331 3.57469 3.56527 2.97456 2.97112 1.04348
threshold=44.821497901423768 0.016629232003947465 19.518924579065693 0.089336416979200792 0.23924470072801871 20.714459188970384 6.0397710402454647 5.9866892245997061
decision_type=2 2 2 2 2 2 2 2
left_child=1 2 6 4 -3 -4 -1 -2
right_child=7 3 5 -5 -6 -7 -8 -9
leaf_value=-0.028472633757038363 -0.043381998009659611 0.035871595734532177 0.0012101437839453196 -0.016281160112908373 0.002865683245715284 0.021538998663745812 0.00070295420887253981 -0.0053386367494678974
leaf_weight=20.299294173717499 4.8785433620214445 18.153796300292015 82.69180403649807 6.3704045563936225 17.763516992330551 23.238796800374985 11.969967663288115 5.6322618722915649
leaf_count=84 20 75 343 28 73 98 51 24
internal_value=0.00185651 0.00383981 0.000366587 0.0143424 0.0207449 0.00606336 -0.017203 -0.027403
internal_weight=190.998 180.488 138.2 42.2877 35.9173 105.931 32.2693 10.5108
internal_count=796 752 576 176 148 441 135 44
is_linear=0
shrinkage=0.05


Tree=61
num_leaves=9
num_cat=0
split_feature=13 33 1 3 1 20 31 5
split_gain=3.94028 3.27969 4.84714 4.69657 4.57347 3.35357 3.82584 1.00199
threshold=44.821497901423768 0.024159316244512893 51.43842910934594 0.80445576878389302 49.317619110360077 0.0056544649190313932 0.54918041515521865 78.490971615056068
decision_type=2 2 2 2 2 2 2 2
left_child=1 2 4 -4 -1 -3 -7 -2
right_child=7 5 3 -5 -6 6 -8 -9
leaf_value=0.0016864189314524103 -0.039421698785616355 0.043471548557539264 -0.032065195817791312 0.00059382216238151311 0.032306807110334984 -0.02621341866137359 0.017770939184564082 -0.00217502581776394
leaf_weight=94.019652292132378 5.7433005869388563 8.537705183029173 18.396719470620155 22.042174711823463 13.45226341485977 5.3476644158363369 18.600128039717674 4.7570531815290451
leaf_count=391 24 35 79 92 57 22 76 20
internal_value=0.00175645 0.00366827 0.000294624 -0.0140756 0.00601215 0.0178148 0.00628988 -0.0263778
internal_weight=190.897 180.396 147.911 40.4389 107.472 32.4855 23.9478 10.5004
internal_count=796 752 619 171 448 133 98 44
is_linear=0
shrinkage=0.05


Tree=62
num_leaves=10
num_cat=0
split_feature=13 33 1 1 17 0 27 17 33
split_gain=3.63749 2.97446 4.39892 4.22656 3.60353 3.34495 4.28095 0.988083 0.558998
threshold=44.821497901423768 0.024159316244512893 51.43842910934594 49.711080405971977 6.2503738611638529 74.305030490697916 6.3597050000000062 5.9866892245997061 0.064493040562900103
decision_type=2 2 2 2 2 2 2 2 2
left_child=1 2 3 -1 -4 6 -3 -2 -7
right_child=7 5 4 -5 -6 8 -8 -9 -10
leaf_value=0.0020742659594715448 -0.04078889864860967 0.011813949816764103 -0.0013340562426967684 0.034817739633447468 -0.033272652247893421 0.0031791283759936189 0.063728976900337422 -0.0041467116485898771 -0.016390145104588281
leaf_weight=97.115569025278091 4.859408035874365 17.069502055644993 26.541100770235062 10.316085919737814 13.809920936822889 5.1025843620300275 5.3903647214174262 5.6366143673658371 4.8961147218942642
leaf_count=404 20 70 109 44 62 21 22 24 20
internal_value=0.00166884 0.00351188 0.00028909 0.00574111 -0.0134097 0.0169908 0.0275246 -0.0253582 -0.00474941
internal_weight=190.737 180.241 147.783 107.432 40.351 32.4586 22.4599 10.496 9.9987
internal_count=796 752 619 448 171 133 92 44 41
is_linear=0
shrinkage=0.05


Tree=63
num_leaves=11
num_cat=0
split_feature=33 2 7 10 7 12 10 10 12 25
split_gain=2.42054 4.62934 3.97796 6.24387 5.356 5.10765 4.39198 3.13512 2.75263 0.321359
threshold=0.024159316244512893 72.347228611433678 0.03183965747593432 30.579599605437469 0.019701502361292537 19.757548280268452 43.294851978972623 35.169960779576741 14.0986917004484 72.500000000000014
decision_type=2 2 2 2 2 2 2 2 2 2
left_child=2 7 4 9 5 -1 -5 8 -2 -4
right_child=1 -3 3 6 -6 -7 -8 -9 -10 -11
leaf_value=-0.019481415477186164 -0.012854071827674242 -0.026550650092491947 -0.061202034632418335 0.038636806522441759 0.041608050165215328 0.0046596940281522147 -0.022262242874503867 0.043971230128942371 0.021290129552670522 -0.021125302902332579
leaf_weight=26.889445945620537 7.8295863121748033 4.8954692035913459 5.1257283091545123 4.5841730386018735 7.0194678455591193 100.36350026726723 4.9728447496891022 9.3969343006610853 14.319849252700804 5.1641149967908859
leaf_count=113 33 20 22 19 29 418 23 38 59 22
internal_value=0.00158505 0.0130416 -0.00102933 -0.0214584 0.0019418 -0.00035869 0.00547368 0.0205808 0.0081067 -0.046956
internal_weight=190.561 36.4418 154.119 19.8469 134.272 127.253 9.55702 31.5464 22.1494 10.2898
internal_count=796 150 646 86 560 531 42 130 92 44
is_linear=0
shrinkage=0.05


Tree=64
num_leaves=10
num_cat=0
split_feature=13 33 7 7 5 0 27 5 3
split_gain=3.29422 2.46928 3.68648 3.9628 3.64412 2.87972 3.8958 0.941251 0.703167
threshold=44.821497901423768 0.024159316244512893 0.03183965747593432 0.019701502361292537 40.429323186507652 74.305030490697916 6.3597050000000062 78.490971615056068 2.7172837428658316
decision_type=2 2 2 2 2 2 2 2 2
left_child=1 2 3 -1 -4 6 -3 -2 -7
right_child=7 5 4 -5 -6 8 -8 -9 -10
leaf_value=0.0010821920533106806 -0.036806893424257754 0.010348755181998466 0.0065917200455953388 0.038179701105223937 -0.035535967349179763 -0.017629335133768447 0.059857312572653046 -0.0010343704413109227 0.0048833378046759385
leaf_weight=122.11035425961018 5.7131727933883649 17.001252174377445 6.601545304059985 6.7947267591953269 11.994764000177382 4.896741181612013 5.3813887834548941 4.7428359538316727 5.0955887287855148
leaf_count=510 24 70 28 28 53 20 22 20 21
internal_value=0.00149059 0.00325211 0.000297338 0.00350894 -0.019732 0.0155528 0.025372 -0.0242695 -0.00447483
internal_weight=190.332 179.876 147.501 128.905 18.5963 32.375 22.3826 10.456 9.99233
internal_count=796 752 619 538 81 133 92 44 41
is_linear=0
shrinkage=0.05


Tree=65
num_leaves=14
num_cat=0
split_feature=32 0 28 30 30 3 31 3 16 32 15 24 13
split_gain=3.61592 4.75817 6.23532 4.36613 5.3025 3.81844 3.96502 3.25133 3.19265 4.07857 2.73728 2.70431 2.3292
threshold=0.076039352924634609 50.640214142122353 5.4328488546979008 0.0406376769925932 0.09452551051772913 1.0925000707976003 0.19553513401871928 0.37657110388966231 5.8055115268221806 1.5620788123948162 5.8804180819043053 1.7179287184215399 -9.8356717933792357
decision_type=2 2 2 2 2 2 2 2 2 2 2 2 2
left_child=1 3 12 10 -5 6 -2 -4 -7 -10 -1 -8 -3
right_child=5 2 7 4 -6 8 11 -9 9 -11 -12 -13 -14
leaf_value=0.0012218350757199428 0.035873807036294635 0.03159275182741364 -0.056140067142961061 0.04895817748823536 0.0030112517183889563 0 -0.014749730756516671 -0.016470500675166779 0.058350945095275664 0.00042448549006994849 -0.040466155852815044 0.01256394344885422 -0.0059043859304735678
leaf_weight=5.2702921628952009 6.0322505235671988 5.55348977446556 8.5354304164648074 6.2870739102363578 59.605707436800003 6.7454957813024548 24.572049215435982 20.93196028470993 9.1912138164043409 5.6215652078390113 7.3526853322982788 12.308257550001143 8.5225158184766752
leaf_count=22 25 24 37 26 248 28 103 88 37 23 30 54 35
internal_value=0.000751846 -0.00415906 -0.0173029 0.00294182 0.0084353 0.0103528 0.000963209 -0.0302471 0.0270636 0.0393655 -0.0224136 -0.00488319 0.00834559
internal_weight=186.53 122.059 43.5434 78.5158 65.8928 64.4708 42.9126 29.4674 21.5583 14.8128 12.623 36.8803 14.076
internal_count=780 510 184 326 274 270 182 125 88 60 52 157 59
is_linear=0
shrinkage=0.05


Tree=66
num_leaves=14
num_cat=0
split_feature=32 0 28 30 30 3 3 33 3 21 15 13 13
split_gain=3.31671 4.36445 5.72537 3.97376 4.88674 3.46611 3.70415 3.85487 3.03646 2.64869 2.51891 2.46615 2.15403
threshold=0.076039352924634609 50.640214142122353 5.4328488546979008 0.0406376769925932 0.09452551051772913 1.0925000707976003 0.5264797419840811 -0.0075792364863446638 0.37657110388966231 0.033497673463111992 5.8804180819043053 -12.954877688233855 -9.8356717933792357
decision_type=2 2 2 2 2 2 2 2 2 2 2 2 2
left_child=1 3 12 10 -5 6 7 -2 -4 11 -1 -7 -3
right_child=5 2 8 4 -6 9 -8 -9 -10 -11 -12 -13 -14
leaf_value=0.0011706364026717363 -0.014138952466226089 0.030423496853904497 -0.054263731298592945 0.047101796093430383 0.00286364952193507 0.0011331763414762453 -0.030263305853893304 0.019168826434814074 -0.015712256723333883 -0.0017457747334442813 -0.038666655639522166 0.047468279424261989 -0.0056380619575710248
leaf_weight=5.2695087045431119 11.385282829403875 5.5179257541894904 8.4263948202133196 6.2485043555498114 59.595887169241905 5.2938745766878172 6.5827669203281394 24.899911686778069 20.894229099154472 4.9113603234291068 7.3565406054258347 11.360793858766556 8.5259835422039014
leaf_count=22 50 24 37 26 248 22 28 104 88 20 30 46 35
internal_value=0.000740474 -0.00396277 -0.0165882 0.00282071 0.00807761 0.00994031 0.000954601 0.00794836 -0.0290403 0.02586 -0.02134 0.0350546 0.0079494
internal_weight=186.269 121.835 43.3645 78.4704 65.8444 64.434 42.868 36.2852 29.3206 21.566 12.626 16.6547 14.0439
internal_count=780 510 184 326 274 270 182 154 125 88 52 68 59
is_linear=0
shrinkage=0.05


Tree=67
num_leaves=10
num_cat=0
split_feature=9 25 32 32 3 10 3 31 17
split_gain=3.16737 3.48278 3.47553 3.96251 3.91631 3.91514 3.64684 3.51908 3.12883
threshold=0.036989392410689832 92.500000000000014 0.076039352924634609 -0.52831904275621044 1.0925000707976003 40.946067331269923 0.35853612504316396 0.58500715331535935 5.8069015501985506
decision_type=2 2 2 2 2 2 2 2 2
left_child=2 -2 3 5 7 -1 -5 -4 -6
right_child=1 -3 4 6 8 -7 -8 -9 -10
leaf_value=0.0064747892917875185 -0.04292868933743603 0.003413635560085994 0.017161387516112906 -0.037903300306982836 0 -0.02243019031193565 0.00032525191455276726 -0.011484784689010099 0.043388199169129719
leaf_weight=79.942362561821938 7.3519486486911756 5.8641183227300644 20.919992566108704 12.354977741837503 5.254284709692004 12.524538755416868 9.3183027356863004 19.311691135168076 13.148140758275984
leaf_count=335 33 25 88 52 22 51 39 82 53
internal_value=0.000694348 -0.0218138 0.00267556 -0.00223306 0.0125274 0.00209408 -0.0210751 0.0028595 0.0311382
internal_weight=185.99 13.2161 172.774 114.14 58.6341 92.4669 21.6733 40.2317 18.4024
internal_count=780 58 722 477 245 386 91 170 75
is_linear=0
shrinkage=0.05


Tree=68
num_leaves=10
num_cat=0
split_feature=30 21 2 15 34 22 26 34 11
split_gain=2.4767 3.57275 4.04344 3.80743 3.80394 3.33698 3.23243 2.63795 1.23663
threshold=0.0406376769925932 -0.012840087216931027 45.912243367065294 7.4364573504318772 0.18867770738556547 -0.020836085604499736 5.7352373226933588 0.095386719499848463 12.666245620541025
decision_type=2 2 2 2 2 2 2 2 2
left_child=7 5 4 -4 -3 6 -2 8 -1
right_child=1 2 3 -5 -6 -7 -8 -9 -10
leaf_value=-0.0052373592397126773 0.037389933047492135 0 0.0058546349165055659 -0.0238725387096686 -0.042547269106274627 0.043554947279188877 -0.0016567757876727787 0.0083779872118946979 -0.045611446665308586
leaf_weight=5.2435867637395841 5.5863514244556454 11.693799123167993 102.47530533373356 10.842626020312307 9.4822958260774595 8.0077857673168165 21.751435831189156 4.9042766541242591 5.8413604944944382
leaf_count=22 24 49 426 51 40 33 91 20 24
internal_value=0.000645262 0.00258038 -0.000996878 0.00260761 -0.0206604 0.016533 0.0064779 -0.0173803 -0.0305954
internal_weight=185.829 169.84 134.494 113.318 21.1761 35.3456 27.3378 15.9892 11.0849
internal_count=780 714 566 477 89 148 115 66 46
is_linear=0
shrinkage=0.05


Tree=69
num_leaves=8
num_cat=0
split_feature=9 25 30 24 3 33 17
split_gain=2.80758 3.19097 2.83173 3.58645 3.51743 2.49826 1.81994
threshold=0.036989392410689832 92.500000000000014 0.0406376769925932 1.449610925023767 -0.37538146350401397 0.024159316244512893 5.9294567069220987
decision_type=2 2 2 2 2 2 2
left_child=2 -2 6 5 -5 -4 -1
right_child=1 -3 3 4 -6 -7 -8
leaf_value=0 -0.041085747484944549 0.0032735227345458751 -0.0063062476607649333 0 0.021591109932180514 0.016197037915131135 -0.030394676458066563
leaf_weight=6.9610680341720572 7.2565632164478284 5.8548359125852585 69.701858803629875 29.710009321570396 43.581573471426964 13.620679929852484 9.0179844945669156
leaf_count=29 33 25 292 126 182 56 37
internal_value=0.000590696 -0.0206774 0.0024602 0.0046615 0.0127036 -0.00218271 -0.0166467
internal_weight=185.705 13.1114 172.593 156.614 73.2916 83.3225 15.9791
internal_count=780 58 722 656 308 348 66
is_linear=0
shrinkage=0.05


Tree=70
num_leaves=9
num_cat=0
split_feature=22 22 34 1 27 22 11 26
split_gain=3.15191 4.15368 4.65125 5.00233 4.43434 2.77922 3.37057 2.70184
threshold=-0.070134372419665802 -0.029416093836690659 0.24498586424450347 44.725143789287849 7.5361525000000045 -0.039717752978646041 13.007938833336157 6.0637843054598832
decision_type=2 2 2 2 2 2 2 2
left_child=-1 5 3 -3 -4 6 -2 -7
right_child=1 2 4 -5 -6 7 -8 -9
leaf_value=0.036342943223490562 -0.019907637091669265 0.0029251879600021044 0.00043064564605390873 0.045132593603388706 -0.040062522570150416 -0.060939959841861305 0.015983972489760821 -0.0052968851203504226
leaf_weight=4.8587425053119651 15.41807481646538 20.55255222320557 113.23832339048386 11.085189849138258 6.1248384267091742 5.0014536678791028 9.3445724099874479 5.5009724348783493
leaf_count=21 64 85 473 47 31 21 39 23
internal_value=0.000122324 -0.000878016 0.0026134 0.0194095 -0.00175504 -0.016177 -0.00529828 -0.0369629
internal_weight=191.125 186.266 151.001 31.6377 119.363 35.2651 24.7626 10.5024
internal_count=804 783 636 132 504 147 103 44
is_linear=0
shrinkage=0.05


Tree=71
num_leaves=11
num_cat=0
split_feature=14 55 30 55 55 25 32 30 17 12
split_gain=3.09203 3.57785 3.82463 3.46588 2.57297 3.86797 3.56097 2.43863 4.91 3.15124
threshold=-0.7732455340701494 0.92078079986949812 0.15901033402483847 0.72958716308271743 1.4004885311469895 97.500000000000014 0.98335185742406994 0.70580079394816997 6.0152502624688511 21.479225798903993
decision_type=2 2 2 2 2 2 2 2 2 2
left_child=7 2 -2 -4 6 -6 -3 8 -1 -10
right_child=1 4 3 -5 5 -7 -8 -9 9 -11
leaf_value=0.046117352031546224 0.013130086303678285 0.011282985053764356 0.0060102055437492932 -0.033918055441793472 -0.02324991876011584 0.010227206136225636 -0.012644737877930308 -0.0080491749993248148 0.019185108941212364 -0.020544792848441625
leaf_weight=10.31226620078087 6.7470718622207633 67.497313812375069 5.4373879283666637 22.280272290110588 21.085399433970451 12.188771754503248 18.361190721392632 8.4022664874792081 11.521366998553278 7.0471506118774405
leaf_count=44 28 281 23 96 90 50 77 36 50 29
internal_value=0.00011014 -0.00290933 -0.016896 -0.0252782 0.00103583 -0.0103168 0.00579145 0.0129537 0.0199656 0.00254985
internal_weight=190.88 153.597 34.4647 27.7177 119.133 33.2742 85.8585 37.2831 28.8808 18.5685
internal_count=804 645 147 119 498 140 358 159 123 79
is_linear=0
shrinkage=0.05


Tree=72
num_leaves=11
num_cat=0
split_feature=14 55 30 55 14 5 56 30 17 12
split_gain=2.80042 3.21831 3.49698 3.18818 2.42946 4.37512 2.71703 2.23917 4.53763 2.87485
threshold=-0.7732455340701494 0.92078079986949812 0.15901033402483847 0.72958716308271743 -0.5404144575245079 50.709266280532738 4.086202138991843 0.70580079394816997 6.0152502624688511 21.479225798903993
decision_type=2 2 2 2 2 2 2 2 2 2
left_child=7 2 -2 -4 5 -3 -6 8 -1 -10
right_child=1 4 3 -5 6 -7 -8 -9 9 -11
leaf_value=0.044384574220697873 0.01256485409693686 -0.046099658831878415 0.0057596979232081569 -0.032433116865016508 0.033176734200746731 0.0080701967466263597 0.0012125798750926122 -0.0076865876771384928 0.018305367537084099 -0.019613533931222931
leaf_weight=10.220502302050592 6.7431456744670859 6.1783879548311216 5.4337709546089199 22.183616161346436 6.3230351209640494 5.9284347146749496 100.67359010875225 8.4057619422674161 11.519424393773081 7.0598084181547156
leaf_count=44 28 26 23 96 26 25 421 36 50 29
internal_value=0.000106829 -0.00276009 -0.0160509 -0.0241063 0.000967785 -0.0190746 0.00362272 0.0123493 0.0190978 0.00235409
internal_weight=190.669 153.464 34.3605 27.6174 119.103 12.1068 106.997 37.2055 28.7997 18.5792
internal_count=804 645 147 119 498 51 447 159 123 79
is_linear=0
shrinkage=0.05


Tree=73
num_leaves=6
num_cat=0
split_feature=16 26 24 16 20
split_gain=2.3343 2.50325 2.19262 3.4296 3.05059
threshold=5.120807255534749 5.336542205401158 1.6608158076231487 6.2000835551515907 0.011425027198063471
decision_type=2 2 2 2 2
left_child=-1 -2 4 -4 -3
right_child=1 2 3 -5 -6
leaf_value=0.025383056932062206 -0.036150893727713934 -0.00094085475440341807 0.02399019438131389 0 -0.026655709024579328
leaf_weight=7.8011869788169852 3.9170306324958792 100.6652499884367 19.931663304567337 45.670393563807011 12.434002861380575
leaf_count=34 16 420 83 200 51
internal_value=0.000119282 -0.000956158 0 0.00722098 -0.00419587
internal_weight=190.42 182.618 178.701 65.6021 113.099
internal_count=804 770 754 283 471
is_linear=0
shrinkage=0.05


Tree=74
num_leaves=9
num_cat=0
split_feature=22 22 34 1 27 22 29 26
split_gain=2.8607 3.79796 4.139 4.55886 4.1337 2.48167 4.32613 2.44165
threshold=-0.070134372419665802 -0.029416093836690659 0.24498586424450347 44.725143789287849 7.5361525000000045 -0.039717752978646041 0.099991089287937027 6.0637843054598832
decision_type=2 2 2 2 2 2 2 2
left_child=-1 5 3 -3 -4 6 -2 -7
right_child=1 2 4 -5 -6 7 -8 -9
leaf_value=0.034802436577729738 0.013418357020521913 0.0026185665055183972 0.00046901901295672699 0.043121550751907968 -0.038896078710191934 -0.058015518450579652 -0.026388618543504796 -0.0048468955939222243
leaf_weight=4.7937756031751624 12.768485948443415 20.493351951241497 112.84156070649624 10.949027121067045 6.0234031602740279 4.9936418533325178 11.940557986497877 5.494219958782196
leaf_count=21 53 85 473 47 31 21 50 23
internal_value=9.12547e-05 -0.000853496 0.00248999 0.0183877 -0.00162507 -0.0154967 -0.00512399 -0.0351851
internal_weight=190.298 185.504 150.307 31.4424 118.865 35.1969 24.709 10.4879
internal_count=804 783 636 132 504 147 103 44
is_linear=0
shrinkage=0.05


Tree=75
num_leaves=14
num_cat=0
split_feature=3 26 17 5 3 9 27 26 26 22 3 29 10
split_gain=3.01812 5.01668 4.15817 4.00654 3.69042 3.24684 5.43013 3.16476 6.4612 3.05669 2.64108 2.27459 2.36473
threshold=-1.3086834281961235 6.652275783573125 6.0551353409653332 15.167716285339187 1.9942488335882305 -0.0086285008427108203 7.3993300000000071 6.4455455067341596 6.1845407068970415 -0.042065031307322927 0.85001180424614808 0.08112141054869694 24.846061761358769
decision_type=2 2 2 2 2 2 2 2 2 2 2 2 2
left_child=7 2 3 -2 -4 10 -7 8 9 -1 -3 -9 -13
right_child=1 5 4 -5 -6 6 -8 11 -10 -11 -12 12 -14
leaf_value=0.013521229539756359 0.03801662601249902 0.053368524951715894 -0.029629884858681413 -0.00032148487178897334 0.0090527569948852717 0.023100522670272697 -0.02793516224791209 -0.051091652416555368 0.030503717480412508 -0.026855885650942015 0.0006000122814724541 0.013159456341434157 -0.029087771214699971
leaf_weight=4.706502333283427 6.4165782183408728 8.4200534969568235 20.708060428500179 69.83539804816246 6.8591291308403006 14.080829963088037 6.7528189718723288 6.4207638949155834 9.4263022243976575 17.172669216990474 4.5205337703227988 4.4354194104671461 6.131845511496067
leaf_count=20 28 35 88 290 28 59 31 27 39 72 20 19 28
internal_value=-0.00111265 0.00252513 -0.00274644 0.00303139 -0.01915 0.0190614 0.00489148 -0.0118252 -0.00132619 -0.0168662 0.0380936 -0.0286336 -0.00958933
internal_weight=185.887 137.593 103.819 76.252 27.5672 33.7742 20.8336 48.2935 31.3055 21.8792 12.9406 16.988 10.5673
internal_count=784 579 434 318 116 145 90 205 131 92 55 74 47
is_linear=0
shrinkage=0.05


Tree=76
num_leaves=7
num_cat=0
split_feature=20 9 9 9 12 34
split_gain=3.61376 4.58639 2.78 4.5443 3.64929 1.86835
threshold=-0.03990961773608704 -0.029770249913519647 -0.018003892329005979 -0.012202907874258999 26.803339710995065 0.25878856800433059
decision_type=2 2 2 2 2 2
left_child=-1 5 4 -4 -3 -2
right_child=1 2 3 -5 -6 -7
leaf_value=-0.041413168675398675 0.038910183902278905 0.0031694036203040316 0.02535634406952016 -0.0028706919346118409 -0.037806690944252437 0
leaf_weight=4.3840834945440283 9.1130075603723508 7.9315508902072933 14.948621556162832 133.28995549678802 10.76020263135433 5.103284314274787
leaf_count=19 39 33 62 564 45 22
internal_value=-0.00103474 2.72368e-05 -0.00221766 0 -0.0198716 0.0264436
internal_weight=185.531 181.147 166.93 148.239 18.6918 14.2163
internal_count=784 765 704 626 78 61
is_linear=0
shrinkage=0.05


Tree=77
num_leaves=13
num_cat=0
split_feature=3 23 32 29 3 32 23 23 29 9 25 28
split_gain=2.68934 4.51379 3.55266 4.49217 3.67769 3.41271 3.79921 3.21898 3.02634 2.7284 2.50674 2.4091
threshold=-1.3086834281961235 0.13781586628422646 -1.5905358352540324 0.043334850326727382 -0.67753985606290701 0.45270519053362995 0.1015514592832915 0.085777820207724495 0.075825129780877715 0.036989392410689832 30.500000000000004 5.6816937833628609
decision_type=2 2 2 2 2 2 2 2 2 2 2 2
left_child=5 2 3 -2 -4 7 -7 11 -9 10 -3 -1
right_child=1 9 4 -5 -6 6 -8 8 -10 -11 -12 -13
leaf_value=-0.0052176580163049418 0.016167807259885453 0 0.029126566879160709 -0.032933540691904066 -0.00096995516952377413 -0.051486291213293803 0 -0.042435396011178468 0 -0.0027817613357798993 0.04306714848653611 0.030664133680283142
leaf_weight=6.7201709002256385 4.9701261967420605 5.4409656375646653 10.394661247730253 15.865534484386442 81.838035583496094 8.0515620112419111 5.5069096162915221 5.9417444169521358 13.2959938198328 6.3928970247507086 12.399758353829382 8.6061884462833387
leaf_count=29 21 23 43 67 343 34 25 25 57 29 53 35
internal_value=-0.000977884 0.00244987 -0.00159886 -0.019872 0.00242981 -0.0111176 -0.0315551 -0.00173573 -0.0156151 0.0216458 0.0314089 0.0140438
internal_weight=185.425 137.302 113.068 20.8357 92.2327 48.1226 13.5585 34.5641 19.2377 24.2336 17.8407 15.3264
internal_count=784 579 474 88 386 205 59 146 82 105 76 64
is_linear=0
shrinkage=0.05


Tree=78
num_leaves=7
num_cat=0
split_feature=20 9 9 9 15 34
split_gain=3.33819 4.10453 2.46828 4.09021 3.00762 1.77494
threshold=-0.03990961773608704 -0.029770249913519647 -0.018003892329005979 -0.012202907874258999 6.1733966850506716 0.25878856800433059
decision_type=2 2 2 2 2 2
left_child=-1 5 4 -4 -3 -2
right_child=1 2 3 -5 -6 -7
leaf_value=-0.039739540665556926 0.037408463399966382 -0.036211034605200275 0.024137072961447195 -0.0026682426152267328 0.00049341060888710567 0
leaf_weight=4.3883431106805793 9.0079730153083784 9.9682836085557955 14.911782547831534 133.18706084042788 8.6921664327383024 5.09981645643711
leaf_count=19 39 42 62 564 36 22
internal_value=-0.000941219 7.6007e-05 -0.00203488 6.84259e-06 -0.0186868 0.0251654
internal_weight=185.255 180.867 166.759 148.099 18.6605 14.1078
internal_count=784 765 704 626 78 61
is_linear=0
shrinkage=0.05


Tree=79
num_leaves=12
num_cat=0
split_feature=32 29 29 16 14 34 33 29 21 23 21
split_gain=2.4627 3.44433 3.8716 3.64602 3.77449 3.41328 3.38673 2.30507 2.15194 1.43878 0.952149
threshold=-2.1277140243830712 0.081424998894856271 0.092360594050479014 5.545306026476589 0.1006041888013222 0.074744289518498416 -0.0013125668236288256 0.082005658872649448 0.033497673463111992 0.090003991357268762 -0.0029872645899723907
decision_type=2 2 2 2 2 2 2 2 2 2 2
left_child=5 3 10 6 -5 9 -2 -7 -4 -1 -3
right_child=1 2 8 4 -6 7 -8 -9 -10 -11 -12
leaf_value=0.022145298235288942 0.038538568054344566 0.053719519394255483 0.010549963532864528 -0.00046159369563134219 -0.022052069115888057 -0.0035884363237402568 0 -0.056903031983387579 -0.014467435139115756 -0.01277866009350144 0.015161975826755592
leaf_weight=4.5305963307619113 7.6366605609655407 4.8703101873397827 28.917380914092064 60.669414073228836 31.420314624905586 4.8247934877872449 14.269878804683684 5.2724742144346237 10.58119500428438 4.7576657682657242 7.3833974152803403
leaf_count=20 33 20 126 254 132 20 60 22 46 20 31
internal_value=-0.000890451 0.000978599 0.0116684 -0.00371626 -0.00825441 -0.0173615 0.0137972 -0.0362994 0.00303905 0.00232318 0.0352701
internal_weight=185.134 165.749 51.7523 113.996 92.0897 19.3855 21.9065 10.0973 39.4986 9.28826 12.2537
internal_count=784 702 223 479 386 82 93 42 172 40 51
is_linear=0
shrinkage=0.05


Tree=80
num_leaves=12
num_cat=0
split_feature=32 11 20 28 33 33 34 45 20 34 32
split_gain=2.80844 4.37512 3.68985 5.51862 3.66801 5.60329 3.44743 3.37636 2.81548 0.472077 0.202609
threshold=-2.1277140243830712 10.295619048525845 0.0047466269054312529 5.2697066365036944 0.016288567673276001 0.0036933411945891228 0.022012639122272443 0.051060606835063062 0.021155235095111701 0.23434367619217478 -1.461333782763274
decision_type=2 2 2 2 2 2 2 2 2 2 2
left_child=1 -1 3 10 5 -4 -3 -5 -6 -8 -2
right_child=2 6 4 7 8 -7 9 -9 -10 -11 -12
leaf_value=0.020521145966628546 0.017946070916754792 0.0022585080890708729 0 0.01445989702870281 -0.0047663418058023037 -0.047663017813082201 -0.058702613770790404 -0.003824151600181742 0.025323574863746263 -0.017793452900878689 0.054957367058278028
leaf_weight=4.7517343312501934 4.6856713145971298 4.4561130404472342 14.009739190340044 50.672618143260479 21.519902095198635 9.7153217792510969 5.1446489691734296 45.56974983215332 10.303503185510634 4.8131806701421738 5.5607893019914609
leaf_count=20 20 20 61 218 90 41 21 191 43 20 23
internal_value=0.00203794 -0.0153126 0.00432483 0.0098307 -0.00577526 -0.0204444 -0.0293125 0.0055952 0.00468896 -0.0446387 0.0433558
internal_weight=181.203 19.1657 162.037 106.489 55.5485 23.7251 14.4139 96.2424 31.8234 9.95783 10.2465
internal_count=768 81 687 452 235 102 61 409 133 41 43
is_linear=0
shrinkage=0.05


Tree=81
num_leaves=11
num_cat=0
split_feature=32 8 6 31 17 30 1 25 8 30
split_gain=2.56276 3.76315 2.98102 3.26334 2.97255 4.26993 2.59811 2.58861 2.245 2.08865
threshold=-2.1277140243830712 -0.031965724346667813 24.942802898443997 1.0075774437709284 5.6011347320553488 0.76925223177605095 68.649800739967091 21.500000000000004 -0.044928136122928487 0.23076369376994191
